{"metadata": {"algorithm": "reinforce_self_play", "num_players": 3, "input_size": 30, "hidden_size": 256, "num_layers": 3, "output_size": 10, "abstract_actions": ["L", "M", "H", "D", "LL", "LH", "HH", "K0", "K1", "K2"], "episodes": 440064, "win_rate_vs_random": 0.53, "exported_at": "2026-03-05T16:55:58Z"}, "weights": {"w1": [[0.11147696524858475, 0.12725332379341125, -0.11557959020137787, 0.15424709022045135, 0.1442939192056656, 0.03255898505449295, -0.12607501447200775, -0.16439716517925262, 0.12123985588550568, -0.014023866504430771, -0.13055402040481567, 0.1703895777463913, 0.06288876384496689, 0.06769081205129623, 0.1134638637304306, -0.09570573270320892, -0.12327316403388977, -0.004968212451785803, 0.056483034044504166, 0.16370564699172974, 0.06827700138092041, -0.03558550029993057, 0.0009581322083249688, 0.20733320713043213, -0.06612160801887512, 0.010375597514212132, -0.1647881269454956, -0.032551418989896774, 0.0419408343732357, 0.14443626999855042], [0.027604956179857254, 2.7646983653539792e-05, -0.13795629143714905, -0.1506756842136383, -0.07216327637434006, -0.10313034802675247, -0.00856836698949337, 0.08409761637449265, 0.1713934689760208, -0.03259986639022827, 0.03793487325310707, 0.17458997666835785, 0.02699076384305954, 0.22685636579990387, 0.05168013647198677, 0.19724029302597046, -0.10418029874563217, 0.15404686331748962, -6.139978358987719e-05, -0.15631072223186493, 0.19750037789344788, -0.0717872753739357, 0.21183666586875916, -0.10034337639808655, -0.09882066398859024, -0.12725003063678741, -0.044411610811948776, 0.1412990242242813, -0.13950997591018677, -0.11590121686458588], [-0.06458478420972824, -0.07264073938131332, 0.03657548129558563, -0.08718621730804443, 0.018071884289383888, -0.08324498683214188, -0.07043443620204926, -0.06384308636188507, -0.014259835705161095, -0.1341157853603363, -0.013049781322479248, 0.047633424401283264, 0.004584228154271841, 0.09236065298318863, 0.21477024257183075, 0.0753740668296814, 0.16573189198970795, -0.1401052325963974, -0.17175836861133575, 0.02079463005065918, 0.0019211532780900598, 0.04410230740904808, -0.16164813935756683, 0.1695014238357544, -0.1516566425561905, 0.10546709597110748, 0.11847037076950073, -0.11975767463445663, -0.02562745288014412, 0.14399603009223938], [-0.18705055117607117, 0.12631326913833618, -0.15784315764904022, -0.1034269705414772, 0.09730877727270126, -0.15687179565429688, 0.019017979502677917, 0.1273495852947235, 0.08109671622514725, -0.06765203177928925, -0.10296185314655304, 0.13767938315868378, 0.0994105339050293, 0.16632309556007385, 0.105709008872509, 0.062267035245895386, -0.06354925036430359, 0.11311656981706619, -0.07398375868797302, 0.1680937260389328, 0.12791401147842407, -0.09152720123529434, -0.11625567823648453, -0.028407253324985504, -0.15358930826187134, 0.019804194569587708, 0.22749051451683044, 0.01258705835789442, 0.07731688767671585, -0.13527074456214905], [-0.12785004079341888, 0.11105498671531677, 0.08529502898454666, 0.1018209233880043, 0.08911053836345673, 0.1621885746717453, -0.14458595216274261, 0.13669173419475555, 0.19212648272514343, 0.054903820157051086, -0.11313214898109436, -0.11234480887651443, 0.06735832989215851, 0.06691829860210419, 0.1316870003938675, 0.19638456404209137, 0.20060470700263977, -0.11014661192893982, -0.07065659016370773, -0.15652108192443848, 0.11985041201114655, 0.10863285511732101, 0.03618089482188225, 0.0990930125117302, -0.004663596861064434, -0.05062314495444298, -0.05024966225028038, 0.15648514032363892, -0.13985884189605713, 0.0409911572933197], [0.16582335531711578, -0.14944089949131012, 0.06730388849973679, 0.08960751444101334, -0.15533490478992462, 0.1481778472661972, -0.053752586245536804, 0.0039012848865240812, 0.004308155272156, 0.14897757768630981, 0.15232691168785095, -0.08356404304504395, -0.10890810191631317, 0.10962270200252533, -0.18997390568256378, 0.005921553820371628, 0.17425240576267242, 0.13633815944194794, 0.14700335264205933, -0.12170657515525818, -0.048737309873104095, -0.025120919570326805, -0.09398185461759567, 0.09825242310762405, -0.07196342945098877, 0.06815681606531143, 0.06734032928943634, 0.18793761730194092, 0.07395683228969574, -0.1813143491744995], [0.06999409943819046, 0.1801338791847229, -0.030820515006780624, -0.03962577506899834, 0.14892418682575226, -0.028617551550269127, 0.08416835218667984, 0.13570266962051392, 0.09759742021560669, -0.020274071022868156, -0.09176082909107208, -0.11441897600889206, 0.029844440519809723, 0.0880647823214531, 0.15748146176338196, 0.12904399633407593, 0.12913921475410461, -0.05465272068977356, -0.14700935781002045, -0.1203598901629448, -0.14898601174354553, 0.16750474274158478, 0.09992341697216034, 0.022436918690800667, 0.10936596244573593, 0.027722390368580818, 0.11715394258499146, 0.018879396840929985, -0.0457439087331295, -0.07508707046508789], [-0.16495048999786377, -0.1363881677389145, -0.04940870776772499, -0.1595975160598755, 0.13971081376075745, -0.025287862867116928, -0.12966246902942657, -0.06791471689939499, 0.2028495967388153, 0.04983169212937355, -0.057467442005872726, -0.09577418118715286, 0.1359342783689499, -0.14521457254886627, 0.05886638164520264, 0.19835183024406433, 0.1634702980518341, -0.04255862161517143, 0.1680195927619934, -0.1526799499988556, 0.17807000875473022, 0.15442483127117157, 0.03543803095817566, -0.026658618822693825, 0.218621164560318, 1.7977541574509814e-05, 0.058820247650146484, -0.1326810121536255, 0.14441154897212982, 0.013159427791833878], [-0.08754941076040268, -0.018417106941342354, -0.03657433018088341, -0.04868617653846741, 0.09323517978191376, -0.10657419264316559, -0.04986416921019554, -0.008226006291806698, -0.026160698384046555, 0.07635859400033951, 0.08074157685041428, 0.13783332705497742, 0.05950362980365753, -0.03585047647356987, -0.07141271233558655, -0.119364894926548, -0.12921398878097534, -0.10556760430335999, 0.029860757291316986, -0.13029783964157104, 0.0963800773024559, 0.027005460113286972, -0.16342350840568542, 0.28306707739830017, -0.23065929114818573, 0.039355769753456116, 0.16084924340248108, 0.09540247917175293, 0.057692985981702805, -0.06864774972200394], [-0.10656724870204926, -0.03352132812142372, -0.1242498978972435, 0.14445538818836212, -0.08918055891990662, -0.03578108176589012, 0.20431800186634064, 0.03696146979928017, -0.01230204664170742, -0.07607083022594452, 0.04889395833015442, 0.1858326494693756, 0.1529095470905304, -0.13470537960529327, -0.15418440103530884, 0.06281706690788269, 0.013431664556264877, -0.0065196193754673, 0.10087786614894867, -0.01848958432674408, 0.1326720118522644, -0.09802278876304626, -0.015991905704140663, -0.11712457984685898, 0.043952904641628265, -0.016690101474523544, 0.21003951132297516, 0.12405993789434433, 0.05075385421514511, -0.11391409486532211], [-0.004370629787445068, 0.146281436085701, 0.18936556577682495, -0.11917925626039505, 0.08292747288942337, -0.12418656796216965, 0.01675877533853054, -0.10970526188611984, -0.034305933862924576, -0.04481892287731171, 0.11899230629205704, 0.09055567532777786, -0.05262395739555359, -0.12861938774585724, 0.20408950746059418, 0.22587792575359344, -0.04029115289449692, -0.1163402870297432, 0.10170084983110428, -0.18192952871322632, 0.0858665481209755, -0.1299523562192917, 0.00784399826079607, 0.002308276016265154, -0.01482365746051073, 0.07722116261720657, -0.0655490979552269, -0.12052108347415924, 0.09870410710573196, -0.09879374504089355], [0.11857111006975174, -0.1635439395904541, -0.17147000133991241, 0.11449233442544937, 0.12224128842353821, 0.06939002871513367, -0.12820343673229218, 0.07213355600833893, -0.07564049959182739, -0.058539215475320816, 0.18704348802566528, 0.15553313493728638, -0.026446277275681496, 0.19010905921459198, -0.16251987218856812, -2.643960942805279e-05, 0.11291112005710602, -0.0736585259437561, 0.09914769977331161, -0.02556626684963703, 0.12276692688465118, -0.045733075588941574, -0.008317711763083935, -0.018440252169966698, -0.17249923944473267, 0.1124432161450386, -0.16693492233753204, -0.13812056183815002, 0.13715212047100067, -0.1660318523645401], [0.11346416175365448, -0.15586374700069427, -0.1323225200176239, -0.12805546820163727, -0.13630452752113342, 0.17936623096466064, -0.04870275780558586, -0.1374429613351822, 0.1850641369819641, 0.07315109670162201, 0.13253992795944214, 0.11153119057416916, 0.15042534470558167, 0.12905551493167877, 0.022251587361097336, 0.13198459148406982, 0.14256346225738525, 0.05526815354824066, -0.17847183346748352, -0.08259595185518265, 0.09697922319173813, 0.11016307026147842, 0.04776645451784134, -0.09322445839643478, -0.12066618353128433, -0.11753810197114944, -0.12657900154590607, 0.03188091889023781, -0.09237217903137207, -0.07067165523767471], [0.06128145754337311, 0.015263466164469719, -0.05842532962560654, 0.09288995712995529, 0.06336236000061035, 0.03280913829803467, 0.03320137411355972, -0.12896060943603516, 0.031422290951013565, 0.06371144950389862, -0.06268864870071411, -0.04700228199362755, -0.03154619783163071, -0.10988117009401321, -0.14331448078155518, 0.18188466131687164, 0.15522612631320953, -0.02840282954275608, 0.030139394104480743, 0.024404659867286682, 0.21471679210662842, -0.12420807033777237, 0.1503513604402542, -0.13152480125427246, -0.09738174825906754, 0.0009604126098565757, -0.16713066399097443, 0.0793771967291832, -0.0931251049041748, 0.11359663307666779], [0.18658503890037537, -0.17364011704921722, -0.065152607858181, 0.059504199773073196, 0.00795514602214098, 0.020174583420157433, 0.16901493072509766, 0.0654146671295166, 0.08965194970369339, -0.08368504047393799, -0.08096449077129364, 0.18180349469184875, -0.10379993915557861, 0.05379532277584076, -0.03157975897192955, -0.02634386532008648, 0.0063989791087806225, 0.12501421570777893, 0.023222940042614937, 0.08011497557163239, 0.006444611120969057, -0.15089371800422668, -0.01338330190628767, 0.06576279550790787, -0.09822360426187515, 0.12154637277126312, 0.20791716873645782, -0.06112537160515785, -0.0053205229341983795, 0.05999055504798889], [0.15002793073654175, 0.17436537146568298, -0.1214827448129654, -0.16397365927696228, -0.037989456206560135, 0.1689085066318512, 0.022471558302640915, 0.15435345470905304, 0.006254056002944708, 0.09177206456661224, 0.000807795615401119, 0.06523935496807098, -0.10641857981681824, -0.029525095596909523, 0.14311301708221436, -0.03972763568162918, 0.16616687178611755, -0.08550068736076355, -0.04703415185213089, -0.053767696022987366, 0.06141342967748642, 0.1325405091047287, -0.16036200523376465, -0.14793403446674347, 0.137228861451149, 0.13529060781002045, -0.0019892631098628044, -0.02129513956606388, 0.15603932738304138, -0.12890133261680603], [-0.03617199882864952, -0.15623964369297028, 0.09435775130987167, -0.17018358409404755, -0.0694383829832077, 0.06009994074702263, 0.14139440655708313, -0.05927377939224243, 0.1374572068452835, -0.10444072633981705, -0.11439377069473267, 0.17717531323432922, 0.19671981036663055, -0.16725003719329834, -0.13570408523082733, 0.16867727041244507, -0.03537648543715477, -0.09209928661584854, 0.11446183919906616, -0.035934437066316605, 0.16305361688137054, 0.14520427584648132, -0.05458434671163559, 0.0655800849199295, -0.04554779827594757, -0.16723895072937012, 0.06504792720079422, 0.15844330191612244, 0.0008626837516203523, 0.08266238868236542], [-0.0035766037181019783, -0.011972451582551003, -0.014834154397249222, 0.037319205701351166, -0.019347146153450012, -0.009989972226321697, 0.16031135618686676, 0.2081979513168335, -0.058955807238817215, 0.1161140650510788, 0.06561210751533508, -0.15762808918952942, -0.16200661659240723, -0.03429216146469116, -0.08604633063077927, -0.09703993052244186, 0.1160498857498169, 0.029621457681059837, 0.05809576064348221, 0.06424234807491302, 0.15128441154956818, 0.16434134542942047, -0.13437515497207642, -0.09187445789575577, 0.04946785420179367, 0.020513685420155525, 0.06652504205703735, -0.12818191945552826, 0.005118199624121189, 0.09566748887300491], [-0.1913503110408783, 0.1339912861585617, 0.04072803258895874, 0.07042868435382843, -0.016280697658658028, -0.069527767598629, -0.10407357662916183, 0.18907523155212402, -0.1195802316069603, 0.12002822011709213, -0.013885166496038437, -0.14375482499599457, 0.12979954481124878, 0.04033689573407173, 0.06014449894428253, -0.034711744636297226, 0.013692246749997139, -0.17327390611171722, 0.08247292041778564, 0.13059097528457642, 0.00022887895465828478, -0.05714968591928482, -0.10531317442655563, -0.11072967201471329, 0.21237169206142426, 0.102049820125103, 0.10782283544540405, -0.02894962765276432, 0.0016109785065054893, -0.12805643677711487], [-0.0539817214012146, -0.04771694913506508, -0.14139732718467712, 0.030241357162594795, 0.15900331735610962, 0.08148195594549179, -0.15271973609924316, 0.16236896812915802, -0.17126789689064026, -0.07145798951387405, 0.13527247309684753, 0.11827399581670761, 0.0759643167257309, -0.05517636612057686, -0.1679256707429886, -0.18551602959632874, 0.003253117436543107, -0.14862729609012604, 0.014786533080041409, 0.2042049914598465, 0.15275797247886658, 0.12047862261533737, -0.0975533276796341, 0.005854945629835129, -0.10343160480260849, -0.07746931165456772, -0.15901236236095428, 0.1478147655725479, -0.06370791047811508, 0.06759060174226761], [-0.01940462365746498, -0.054445188492536545, -0.024669302627444267, -0.11248202621936798, 0.05415691062808037, 0.055797938257455826, -0.0731511265039444, 0.04064894840121269, -0.1273108571767807, 0.05150088295340538, 0.09603740274906158, 0.05168271064758301, 0.15832869708538055, 0.07103458791971207, 0.03396530821919441, -0.0059367292560637, 0.17072859406471252, -0.13148066401481628, 0.1928468495607376, 0.11656049638986588, 0.046391021460294724, -0.03097272664308548, 0.18086329102516174, 0.21709725260734558, -0.17832551896572113, -0.026202315464615822, 0.20070010423660278, -0.13584475219249725, 0.1933061182498932, 0.17349155247211456], [-0.09540723264217377, 0.020396649837493896, 0.1528335064649582, -0.07524017989635468, -0.14383025467395782, 0.07377883791923523, 0.11007857322692871, 0.10753194242715836, -0.13742157816886902, 0.11798213422298431, 0.0833309143781662, 0.15275773406028748, 0.15232571959495544, -0.1687530130147934, -0.031283989548683167, -0.03173165023326874, -0.0072024245746433735, -0.16466201841831207, -0.07809042930603027, 0.05063506215810776, 0.138770192861557, 0.08312012255191803, 0.029830580577254295, 0.06282969564199448, -0.011287431232631207, -0.04517976567149162, 0.1652209758758545, 0.13382047414779663, 0.03258099779486656, 0.17538078129291534], [0.0917665958404541, 0.23236548900604248, -0.13179871439933777, -0.13274000585079193, 0.18372975289821625, 0.11413082480430603, -0.16470234096050262, 0.020538225769996643, -0.14859992265701294, 0.16174985468387604, 0.17347510159015656, 0.0900590568780899, 0.01910647749900818, -0.030618486925959587, 0.10754889994859695, 0.18392367660999298, 0.023619279265403748, 0.09118591248989105, 0.07843013852834702, 0.0764365866780281, 0.029995368793606758, 0.13610069453716278, -0.17407675087451935, -0.0032218543346971273, -0.03557706996798515, -0.040962718427181244, -0.06188300997018814, 0.03236515820026398, -0.16172491014003754, -0.1477501094341278], [0.09373600035905838, -0.15195180475711823, -0.07157928496599197, -0.03128170222043991, 0.0342613123357296, 0.1455439329147339, -0.1503566950559616, -0.03247340768575668, 0.09915432333946228, 0.024411046877503395, -0.08326758444309235, -0.03631385415792465, -0.031742967665195465, -0.044856246560811996, -0.08111672848463058, -0.045256856828927994, 0.003587514627724886, 0.09075896441936493, 0.03650211915373802, -0.0968397930264473, -0.041696224361658096, 0.1300518959760666, -0.02837582863867283, 0.18495117127895355, 0.19525174796581268, 0.18879812955856323, 0.22823341190814972, -0.09687495976686478, 0.09570717811584473, -0.09789319336414337], [0.04796581715345383, 0.09134482592344284, 0.16310054063796997, 0.08601046353578568, 0.07420660555362701, -0.037577398121356964, -0.049087706953287125, -0.07679054886102676, 0.019138818606734276, 0.15783411264419556, 0.17658928036689758, 0.09743212908506393, -0.12031203508377075, 0.03935570269823074, 0.25140830874443054, 0.04691794514656067, -0.12333662062883377, 0.10084424912929535, 0.08794506639242172, 0.10751300305128098, 0.12407252192497253, 0.02208039164543152, 0.10713831335306168, -0.008365734480321407, 0.18760648369789124, -0.06095727160573006, -0.18760327994823456, -0.10601687431335449, -0.08304562419652939, -0.08199043571949005], [-0.16244511306285858, 0.026836683973670006, -0.009652047418057919, -0.07804224640130997, 0.12280870229005814, -0.06698128581047058, 0.05107299983501434, 0.06239047646522522, -0.11575840413570404, -0.1345735788345337, -0.029335297644138336, -0.04292471706867218, 0.1252351552248001, -0.12638269364833832, -0.09768464416265488, 0.17297422885894775, 0.039902716875076294, -0.01211775653064251, 0.14571994543075562, 0.07683737576007843, 0.015168286859989166, 0.1738576889038086, -0.018027765676379204, 0.15792948007583618, -0.13930127024650574, 0.05442264303565025, 0.22708964347839355, 0.12166786938905716, 0.002780666807666421, 0.040591951459646225], [0.08606479316949844, -0.02550346404314041, -0.002183594275265932, 0.008786899968981743, -0.09433341771364212, 0.13190986216068268, -0.026545744389295578, 0.17121589183807373, 0.10524307191371918, 0.15278470516204834, 0.028193103149533272, 0.01606529951095581, -0.13130834698677063, -0.043736085295677185, -0.01752328872680664, 0.1456478387117386, 0.10650818794965744, -0.08230908960103989, 0.0716044157743454, 0.01481776125729084, -0.07670202851295471, -0.0782453641295433, 0.038816168904304504, -0.1028621569275856, -0.0816623717546463, -0.007612778339534998, 0.1448000967502594, 0.12633942067623138, -0.05959051847457886, -0.12261609733104706], [-0.0887497290968895, -0.0627792477607727, -0.0160769522190094, -0.09658849984407425, -0.052403323352336884, 0.016373585909605026, -0.005099323578178883, -0.021949097514152527, 0.016024097800254822, 0.0002865249989554286, -0.017563212662935257, -0.014450198039412498, -0.06817564368247986, -0.1955825537443161, 0.20151908695697784, -0.0768391415476799, 0.09317225962877274, -0.06734070926904678, 0.024634607136249542, -0.20888130366802216, -0.16122740507125854, 0.18164950609207153, 0.012833874672651291, -0.06030870974063873, -0.13741904497146606, 0.010084590874612331, 0.051676660776138306, 0.14545094966888428, -0.04594611003994942, -0.054926905781030655], [0.08956588059663773, -0.056839101016521454, 0.0691598653793335, 0.09643792361021042, 0.001142246532253921, 0.14158496260643005, -0.05625798553228378, -0.0006246223929338157, 0.1106579378247261, -0.13591375946998596, -0.07282370328903198, 0.11774449050426483, -0.0479801744222641, -0.13391703367233276, -0.19014786183834076, 0.15003639459609985, 0.17494475841522217, 0.11883591115474701, 0.21250277757644653, -0.15157940983772278, 0.017220810055732727, 0.03550509735941887, -0.038308367133140564, -0.0652216300368309, 0.14872917532920837, -0.07281996309757233, 0.019647402688860893, 0.18930739164352417, 0.04642485827207565, 0.17280234396457672], [-0.09034552425146103, 0.008006268180906773, 0.1770613044500351, 0.16042913496494293, -0.0695996880531311, 0.11602014303207397, -0.006648644804954529, -0.004086760338395834, 0.1168796718120575, 0.0023358084727078676, 0.05447600781917572, 0.13563181459903717, 0.01890970580279827, -0.03458361700177193, -0.04048803448677063, -0.04389279708266258, -0.16111648082733154, -0.011419135145843029, -0.0959382951259613, 0.16631773114204407, -0.07958799600601196, 0.03489527851343155, 0.15855388343334198, -0.025929344817996025, 0.1465291976928711, 0.030874526128172874, 0.17028234899044037, -0.11540498584508896, 0.19154313206672668, 0.052785079926252365], [0.263461709022522, -0.10654641687870026, -0.07272364944219589, 0.05484401807188988, -0.15572161972522736, 0.05416179448366165, 0.11989791691303253, 0.16986370086669922, 0.18377801775932312, -0.005649619270116091, 0.0544276088476181, -0.051216159015893936, -0.08822803944349289, 0.10442633926868439, -0.026844767853617668, -0.03166431561112404, -0.13686078786849976, 0.039874620735645294, -0.16184473037719727, 0.1161445900797844, -0.08782312273979187, -0.08715010434389114, 0.19296574592590332, -0.20753084123134613, -0.19671285152435303, -0.0990215614438057, 0.0349075049161911, 0.03094928152859211, 0.10387326776981354, 0.16998057067394257], [-0.036362700164318085, -0.07860590517520905, -0.10004644840955734, 0.16225583851337433, 0.14020025730133057, 0.1344464123249054, -0.13318568468093872, 0.030008452013134956, 0.09132364392280579, -0.005547186825424433, -0.1440601795911789, -0.13479559123516083, 0.20669877529144287, -0.07531799376010895, -0.07334215193986893, -0.03179195895791054, -0.11241919547319412, 0.09182428568601608, 0.0032897801138460636, -0.12484476715326309, -0.0910666361451149, -0.1258724480867386, 0.010140285827219486, 0.09589806944131851, 0.00036727197584696114, -0.09171941131353378, 0.022738784551620483, 0.0745442658662796, -0.0582318939268589, -0.0627872571349144], [0.10171158611774445, 0.18017977476119995, -0.08169025927782059, 0.03995254263281822, 0.06145413592457771, 0.16146183013916016, -0.08133234083652496, 0.07820011675357819, 0.15765097737312317, 0.005294913426041603, -0.057141367346048355, -0.0727875605225563, 0.11382771283388138, 0.139889195561409, 0.019777163863182068, -0.12496589124202728, -0.03668328374624252, 0.11591466516256332, -0.06841482222080231, -0.08184236288070679, 0.11574285477399826, -0.13396498560905457, 0.11948371678590775, 0.09207192808389664, -0.10459273308515549, 0.07257775217294693, -0.10767912864685059, 0.1879504770040512, -0.13521529734134674, -0.17873357236385345], [0.09557706117630005, 0.06629834324121475, 0.07950403541326523, -0.06480003893375397, 0.09213796257972717, -0.07357846200466156, 0.03364561125636101, -0.09489813446998596, -0.14428630471229553, 0.050910718739032745, -0.11138005554676056, 0.007843400351703167, 0.09521222114562988, -0.03512483090162277, -0.09460733830928802, 0.1811692714691162, -0.1135275810956955, 0.12962818145751953, 0.07246436178684235, -0.12422158569097519, 0.13448460400104523, -0.10199755430221558, -0.02772820182144642, 0.08858772367238998, -0.11085779964923859, 0.1528255194425583, 0.20159004628658295, -0.13523048162460327, 0.12145841866731644, 0.06396317481994629], [0.16006974875926971, 0.13385486602783203, 0.11002670973539352, -0.10399717092514038, 0.13552848994731903, 0.0223312359303236, -0.0689743384718895, -0.011343486607074738, 0.01717420481145382, -0.09828802943229675, -0.08019678294658661, -0.12418632954359055, -0.13223077356815338, 0.08700114488601685, -0.15895012021064758, -0.14054079353809357, 0.1120217964053154, -0.08766016364097595, 0.052326980978250504, 0.1624518632888794, 0.0957656130194664, -0.04405339062213898, 0.02449672669172287, -0.05910082161426544, 0.053280752152204514, -0.046732235699892044, -0.0024687049444764853, -0.025173578411340714, -0.031311821192502975, -0.04350365698337555], [-0.013162958435714245, 0.006436537019908428, 0.013484258204698563, -0.048508420586586, -0.11897185444831848, 0.051097769290208817, 0.12211714684963226, 0.15788151323795319, -0.02365913987159729, -0.012277933768928051, 0.09479206055402756, -0.04917186498641968, -0.15096315741539001, -0.11093536764383316, -0.02199738472700119, 0.011788968928158283, 0.16276030242443085, 0.06718598306179047, 0.18079553544521332, 0.06419876217842102, -0.03552062436938286, 0.16776879131793976, -0.03699406981468201, -0.033985912799835205, -0.003321305150166154, 0.17639926075935364, -0.02541668526828289, 0.19949916005134583, 0.18928058445453644, -0.08640075474977493], [-0.22013206779956818, -0.00631731515750289, 0.13481877744197845, 0.07165514677762985, 0.11336547136306763, 0.026552895084023476, -0.1526956856250763, 0.17330098152160645, -0.023957332596182823, -0.10247941315174103, 0.06854168325662613, 0.08741222321987152, 0.07867669314146042, -0.06290409713983536, 0.03936637192964554, 0.1857529729604721, -0.14917197823524475, -0.1394115835428238, -0.14451968669891357, 0.08625805377960205, -0.03389834985136986, -0.13418103754520416, -0.15550529956817627, 0.22588592767715454, 0.1290607750415802, 0.0274501983076334, 0.07996497303247452, 0.03561530262231827, 0.19249500334262848, -0.020876741036772728], [-0.11533134430646896, 0.03659144416451454, -0.0932818055152893, -0.08613371104001999, 0.06037672981619835, 0.10834413021802902, 0.1821259707212448, 0.06351509690284729, 0.10632988810539246, -0.09866899996995926, 0.14368300139904022, 0.055600497871637344, -0.020529989153146744, -0.03456110879778862, 0.2184634506702423, 0.08008024096488953, 0.060428082942962646, -0.13741526007652283, -0.06315356492996216, 0.07821982353925705, -0.011620841920375824, -0.026554076001048088, -0.09182726591825485, 0.01290640514343977, 0.012783789075911045, -0.11753638088703156, -0.09197845309972763, 0.1951185166835785, 0.04152138903737068, -0.05446654185652733], [-0.16305799782276154, -0.14057615399360657, 0.17106953263282776, -0.04308423399925232, -0.06857559829950333, -0.03118695504963398, 0.028443364426493645, 0.08000402897596359, 0.14238066971302032, 0.07072034478187561, -0.13396240770816803, -0.049897026270627975, 0.16617783904075623, 0.2144954651594162, 0.20504923164844513, 0.021453354507684708, 0.03864749148488045, 0.020873451605439186, -0.0012353701749816537, -0.14760971069335938, -0.10115882754325867, 0.01540673989802599, 0.15652620792388916, 0.04985283687710762, -0.02691689506173134, 0.17992709577083588, -0.10161109268665314, 0.16369293630123138, 0.05936018005013466, 0.01154438965022564], [0.13095377385616302, 0.20581474900245667, -0.0358303003013134, 0.05956811457872391, 0.04849414899945259, 0.17419342696666718, -0.08759986609220505, 0.10793034732341766, 0.07616113126277924, 0.025851747021079063, 0.15664829313755035, 0.007309319451451302, -0.06891646981239319, 0.10502006858587265, 0.06976708024740219, 0.08656655997037888, -0.11246570944786072, 0.031015755608677864, 0.05365828797221184, -0.11723621934652328, 0.16183562576770782, 0.0068260300904512405, -0.05152737721800804, -0.12088966369628906, -0.021083269268274307, 0.1570562869310379, 0.19596891105175018, 0.13334627449512482, 0.07712031155824661, 0.12927813827991486], [0.19605375826358795, 0.006367793772369623, -0.061843108385801315, 0.10978615283966064, -0.08987819403409958, 0.16655316948890686, -0.045601170510053635, -0.07787255942821503, 0.05507296696305275, 0.04060828685760498, -0.1483658254146576, 0.05012023448944092, -0.0631461814045906, 0.15116100013256073, 0.23869603872299194, -0.014712882228195667, 0.16389550268650055, 0.2194404900074005, -0.15348485112190247, 0.1770479828119278, 0.12470151484012604, -0.083967424929142, -0.10807487368583679, -0.10972214490175247, -0.007272916845977306, -0.0916714146733284, -0.22627215087413788, -0.0930323675274849, 0.026783015578985214, 0.1621650904417038], [-0.22355437278747559, -0.010163218714296818, -0.13311812281608582, 0.18627914786338806, -0.09517233073711395, -0.000967147818300873, 0.08492351323366165, -0.03165408596396446, 0.024238495156168938, 0.1290065348148346, 0.17670346796512604, 0.0047479174099862576, 0.13917900621891022, -0.04998837038874626, 0.13917790353298187, -0.054910238832235336, -0.1324053853750229, 0.04864859953522682, -0.13872815668582916, -0.10989806801080704, 0.007172602228820324, 7.884496881160885e-05, 0.056255798786878586, -0.10771037638187408, 0.18415239453315735, -0.143716961145401, -0.07018456608057022, -0.12060666084289551, 0.11928699910640717, 0.13719938695430756], [0.15480482578277588, 0.01767561584711075, -0.1249193400144577, -0.1689404547214508, -0.08879300951957703, -0.06498920917510986, -0.021624615415930748, 0.168741375207901, -0.027590831741690636, 0.11930425465106964, -0.011024173349142075, 0.06073537841439247, 0.18525806069374084, 0.09223837405443192, -0.19218744337558746, 0.09174896031618118, -0.13344089686870575, 0.17072166502475739, 0.22343112528324127, 0.1723058670759201, -0.06980353593826294, 0.15362004935741425, 0.014437890611588955, 0.09775605797767639, 0.13431765139102936, 0.029959505423903465, 0.09226619452238083, 0.08518046885728836, -0.0568157397210598, -0.11624226719141006], [0.015189800411462784, -0.15024951100349426, 0.09313669800758362, 0.020786920562386513, 0.05998653918504715, 0.07296265661716461, -0.08545911312103271, 0.017781700938940048, -0.12724819779396057, -0.020227065309882164, -0.14006654918193817, 0.09408728778362274, -0.006307685747742653, 0.029920291155576706, 0.06592795252799988, 0.19697953760623932, 0.052644357085227966, 0.05046959966421127, -0.031299151480197906, -0.15505249798297882, 0.058796193450689316, 0.21412473917007446, 0.036403950303792953, -0.18847043812274933, 0.11749020218849182, 0.024140695109963417, 0.05469857156276703, -0.0735536515712738, -0.10481005162000656, -0.1485571265220642], [0.0032512492034584284, 0.12183144688606262, 0.09584824740886688, 0.1414223611354828, -0.1348789483308792, 0.08731138706207275, -0.019115997478365898, 0.1053779199719429, -0.08328893780708313, -0.10064006596803665, 0.02045905403792858, 0.1291811466217041, 0.07755203545093536, 0.09861060231924057, -0.1483900249004364, -0.037297483533620834, 0.09456916898488998, 0.007951191626489162, -0.06516717374324799, -0.12325781583786011, 0.17040692269802094, -0.05575811117887497, -0.06519981473684311, -0.06057723984122276, -0.0945039913058281, 0.14815767109394073, 0.10307128727436066, 0.03295202553272247, 0.05157223343849182, 0.11444582045078278], [-0.07256726920604706, 0.10906346142292023, -0.15245270729064941, -0.028828106820583344, 0.041578445583581924, -0.03769950941205025, -0.06987632066011429, -0.134926900267601, 0.19002263247966766, 0.09712830185890198, -0.11473734676837921, -0.05762200430035591, 0.0007215171935968101, -0.13127365708351135, 0.08884250372648239, -0.04558372497558594, 0.010117382742464542, -0.15048028528690338, 0.021938897669315338, 0.005859888158738613, -0.010274575091898441, 0.21370789408683777, -0.15259143710136414, 0.061780430376529694, -0.15483614802360535, 0.04901806265115738, 0.05160437524318695, 0.08782802522182465, 0.1322084218263626, 0.15505631268024445], [-0.11829587072134018, -0.026734095066785812, 0.0516921803355217, -0.11780743300914764, 0.13305124640464783, -0.05373537912964821, -0.1373302936553955, 0.04227575659751892, -0.09624961018562317, 0.12071935087442398, 0.030086694285273552, 0.13045397400856018, 0.003356649074703455, 0.06743010878562927, -0.1701059639453888, 0.12973397970199585, -0.14435410499572754, 0.1506158411502838, 0.08102089911699295, 0.18406029045581818, 0.18044845759868622, 0.12398748844861984, -0.0986907109618187, -0.14349861443042755, -0.10305958241224289, 0.14847497642040253, -0.017333893105387688, 0.05058709532022476, 0.08942753821611404, 0.11004453152418137], [-0.1603575050830841, 0.12100468575954437, -0.05575759336352348, -0.13564512133598328, 0.08166774362325668, -0.1228337213397026, -0.06036127358675003, 0.1445731669664383, 0.04443001747131348, -0.13391101360321045, -0.03399001434445381, 0.10215988010168076, 0.1702992171049118, 0.23575063049793243, -0.0762869268655777, 0.1683257669210434, -0.01766594871878624, 0.09022816270589828, 0.1618013232946396, -0.036761607974767685, -0.06772115081548691, -0.07247690856456757, 0.03581426292657852, 0.043054331094026566, -0.14285188913345337, -0.04725494608283043, -0.08315610140562057, 0.16251879930496216, -0.1340571492910385, 0.020164432004094124], [-0.102140411734581, 0.1098216325044632, -0.00552821159362793, -0.07614180445671082, 0.19221411645412445, 0.1634402871131897, 0.19000238180160522, 0.06116793304681778, -0.0917053073644638, 0.017039384692907333, 0.047810159623622894, -0.08529079705476761, -0.006389513611793518, 0.1701243817806244, 0.1872982531785965, -0.04841509461402893, -0.04016167297959328, -0.03562043979763985, 0.10893675684928894, 0.1399368792772293, -0.03488064184784889, -0.056003328412771225, -0.06776407361030579, 0.2207827866077423, -0.1473582237958908, -0.06257403641939163, -0.007400450296700001, 0.19247378408908844, 0.14725947380065918, -0.1474146991968155], [0.1723983883857727, -0.06645706295967102, 0.021633144468069077, -0.014624301344156265, 0.20478567481040955, 0.10860893130302429, 0.0726240798830986, -0.10284094512462616, -0.06851476430892944, 0.12132484465837479, 0.15442851185798645, -0.028362518176436424, 0.0608360581099987, 0.030345581471920013, -0.079569011926651, -0.07865440100431442, 0.10566692054271698, 0.17505359649658203, 0.07715245336294174, 0.08438453078269958, 0.06395173072814941, -0.10800313204526901, -0.011897715739905834, 0.08160500228404999, 0.18309400975704193, -0.0763377845287323, 0.07708455622196198, -0.10339977592229843, -0.035828299820423126, -0.10741831362247467], [-0.10275659710168839, -0.015958286821842194, -0.031028470024466515, 0.14608559012413025, -0.1364125907421112, -0.029951173812150955, 0.008958262391388416, 0.05570393428206444, -0.0849246010184288, -0.05889564007520676, -0.08908572047948837, -0.02926602028310299, 0.13236217200756073, 0.17208562791347504, -0.08982746303081512, -0.00997188687324524, -0.0677332803606987, 0.15460921823978424, -0.04080799221992493, 0.08545393496751785, -0.05606209114193916, 0.11205460876226425, 0.06182898208498955, 0.015232105739414692, 0.19676095247268677, -0.03346386179327965, -0.1253887563943863, -0.022615768015384674, 0.11747314035892487, -0.09464013576507568], [-0.19600243866443634, 0.09130656719207764, 0.21215543150901794, 0.06824030727148056, -0.07261960208415985, -0.1200198158621788, 0.06495685875415802, 0.14727404713630676, 0.182684987783432, 0.09429370611906052, 0.025652911514043808, 0.05274420604109764, -0.05836626887321472, 0.06186969205737114, -0.06698502600193024, 0.061084501445293427, 0.04871920868754387, 0.18014587461948395, -0.17295844852924347, 0.17167797684669495, 0.11323235183954239, 0.08147615194320679, -0.1974627524614334, 0.22010986506938934, 0.1242610290646553, 0.06767716258764267, -0.18877482414245605, 0.011464794166386127, 0.17916640639305115, 0.003377225250005722], [0.0026265380438417196, -0.11292489618062973, -0.1330595463514328, 0.18704138696193695, -0.1348305195569992, -0.03848572075366974, -0.10035347938537598, -0.10455607622861862, -0.02576412446796894, 0.027374619618058205, 0.17014485597610474, -0.12590917944908142, 0.00905923917889595, 0.025117740035057068, 0.13750644028186798, -0.10639901459217072, 0.10837723314762115, 0.04770872741937637, 0.05423407629132271, 0.09245852380990982, -0.11894655227661133, -0.0006548473611474037, -0.09263485670089722, 0.12072817236185074, 0.00693524582311511, 0.19940488040447235, -0.1937270611524582, 0.07869934290647507, 0.17663845419883728, 0.061892252415418625], [0.12605561316013336, 0.026901643723249435, 0.06424625962972641, 0.04121038317680359, -0.1686902791261673, 0.14629513025283813, 0.17059879004955292, 0.07840786874294281, 0.08150126785039902, 0.13047896325588226, -0.01825893670320511, 0.10175570845603943, -0.14172126352787018, -0.08190522342920303, -0.09957023710012436, -0.14305156469345093, -0.0018774120835587382, 0.09141775220632553, -0.046750470995903015, 0.06427604705095291, -0.0940312072634697, -0.002689819550141692, 0.07917048782110214, -0.1355338990688324, 0.09855024516582489, -0.12241572886705399, 0.1805059015750885, 0.13223667442798615, 0.16831131279468536, 0.13632458448410034], [-0.03705722093582153, -0.19378624856472015, 0.06716538965702057, 0.0644063726067543, 0.04919646307826042, -0.15627799928188324, 0.029826993122696877, 0.05657550320029259, -0.12419591844081879, 0.09030493348836899, 0.13354119658470154, 0.10537771135568619, 0.14014697074890137, 0.15585404634475708, -0.020870141685009003, -0.1534666270017624, 0.1663876324892044, 0.03131866827607155, -0.024117400869727135, -0.16057522594928741, -0.055196501314640045, 0.1528216451406479, -0.01457214541733265, -0.07567934691905975, 0.060547634959220886, -0.07415784150362015, -0.021424151957035065, 0.1443752944469452, 0.022100714966654778, 0.07977473735809326], [-0.04973004758358002, 0.05485671013593674, 0.11118466407060623, -0.1441243588924408, 0.12748649716377258, 0.10823944956064224, -0.05578087270259857, 0.1785963773727417, 0.018871232867240906, 0.1876344233751297, 0.12869992852210999, -0.10579653084278107, -0.14991240203380585, -0.08747473359107971, -0.09102996438741684, -0.13435056805610657, 0.051284901797771454, -0.04778304696083069, 0.21142035722732544, 0.14194738864898682, 0.04774679243564606, -0.10743920505046844, 0.18389123678207397, -0.06825686246156693, 0.1916668564081192, 0.19661901891231537, 0.17521946132183075, -0.004814155399799347, -0.056826747953891754, 0.1498504877090454], [-0.039701320230960846, 0.14004161953926086, 0.012797355651855469, -0.031197089701890945, -0.0399472713470459, 0.0013647009618580341, -0.10576475411653519, -0.04760810360312462, -0.023262618109583855, -0.11362088471651077, 0.13705958425998688, -0.06351198256015778, -0.000384943385142833, 0.14547143876552582, 0.20450598001480103, 0.055318333208560944, 0.15133243799209595, 0.03247195854783058, -0.07814896106719971, -0.06145952269434929, 0.03740385174751282, -0.12137988209724426, -0.09269528836011887, 0.013917416334152222, -0.14808009564876556, -0.12328565120697021, -0.14827221632003784, -0.016383083537220955, 0.07341182976961136, 0.0437268503010273], [-0.1552688628435135, -0.18709853291511536, 0.035829808562994, 0.09813867509365082, -0.028375476598739624, -0.15185141563415527, -0.1153235211968422, 0.012112277559936047, 0.0908641368150711, -0.0013446422526612878, 0.0895434021949768, 0.18061217665672302, 0.14042924344539642, 0.19952739775180817, 0.16951826214790344, -0.1371617466211319, 0.04074949771165848, -0.01574202999472618, 0.09578721225261688, 0.02741650678217411, -0.061399105936288834, -0.060064177960157394, -0.18314027786254883, 0.0890597477555275, 0.19781053066253662, 0.13137376308441162, -0.006557638291269541, -0.01745162345468998, -0.13412155210971832, -0.028002602979540825], [-0.14151135087013245, 0.07163708657026291, 0.17704245448112488, -0.12433986365795135, -0.002391525311395526, 0.1570449322462082, 0.1070813313126564, 0.012762467376887798, 0.13164663314819336, -0.010830959305167198, -0.029963558539748192, -0.1277516782283783, 0.07995079457759857, 0.06852685660123825, -0.006636996753513813, 0.007940114475786686, 0.06970664858818054, 0.08306296169757843, -0.026450209319591522, 0.09126569330692291, -0.14797523617744446, 0.15210725367069244, 0.1735122799873352, 0.03240981698036194, -0.003929669503122568, 0.15677706897258759, -0.009933597408235073, -0.10121900588274002, 0.10240469127893448, -0.041017383337020874], [-0.16284766793251038, 0.01661834493279457, -0.11078301072120667, -0.07227205485105515, -0.055786002427339554, -0.13159863650798798, -0.024812664836645126, 0.06410960108041763, -0.07070118933916092, 0.1559407114982605, -0.043078482151031494, -0.10237368941307068, -0.08773986250162125, 0.07672394812107086, 0.08984323590993881, 0.02830113284289837, -0.1050417572259903, 0.1702951341867447, 0.029866516590118408, -0.1622180938720703, 0.052457720041275024, 0.04202025383710861, 0.045730095356702805, 0.17471304535865784, 0.1486499309539795, 0.13533659279346466, 0.036089956760406494, 0.08341466635465622, 0.030046965926885605, -0.03140823170542717], [0.19608986377716064, 0.13323131203651428, -0.010876243934035301, -0.008904033340513706, 0.10636340826749802, 0.060653675347566605, -0.02981593832373619, -0.06237800046801567, 0.11288362741470337, 0.16293151676654816, -0.07648392021656036, 0.1066403016448021, 0.08948234468698502, 0.11402392387390137, -0.06575413793325424, -0.001859294599853456, -0.13112995028495789, 0.04441287741065025, 0.19679439067840576, 0.048020076006650925, -0.10636623203754425, 0.03114296682178974, 0.14468277990818024, -0.1314326375722885, -0.12156914919614792, -0.04188735783100128, 0.23382745683193207, -0.14750483632087708, -0.08789524435997009, 0.033006008714437485], [0.09489081799983978, -0.1696261763572693, -0.15570473670959473, 0.07075722515583038, -0.1515270471572876, -0.10134460031986237, 0.07942350208759308, -0.025397490710020065, 0.10727252066135406, -0.07160966098308563, 0.16301597654819489, -0.16427002847194672, 0.08247334510087967, 0.005416267551481724, 0.04108775034546852, -0.03031732700765133, 0.16143450140953064, -0.17085501551628113, -0.15137945115566254, 0.17269420623779297, -0.1520579606294632, 0.11771199107170105, -0.1729375422000885, 0.20243749022483826, 0.08775889873504639, -0.1696586310863495, 0.05204660817980766, 0.15056075155735016, -0.17360645532608032, -0.005740266293287277], [-0.052175749093294144, -0.023913756012916565, -0.028235329315066338, -0.14928987622261047, 0.0698731541633606, -0.10101880133152008, 0.0864376649260521, -0.06664223968982697, 0.0239408016204834, 0.08590041846036911, -0.12252975255250931, 0.1871696263551712, 0.17911604046821594, 0.15115715563297272, 0.08620575815439224, 0.11625078320503235, -0.18682356178760529, 0.16104023158550262, -0.05717961862683296, 0.00507548451423645, 0.11634563654661179, 0.16271571815013885, -0.09745312482118607, 0.10316529870033264, -0.015574643388390541, 0.10427097231149673, 0.21207933127880096, -0.135456383228302, 0.1311129927635193, -0.05886014923453331], [-0.09971819818019867, -0.06746131926774979, 0.14173361659049988, -0.1079121083021164, -0.11028558760881424, 0.08698669075965881, 0.1793886125087738, 0.18180282413959503, 0.16801902651786804, -0.15115834772586823, 0.15783745050430298, -0.11585846543312073, 0.07152757793664932, -0.015247305855154991, -0.14611046016216278, 0.07230634987354279, 0.08369824290275574, -0.14640790224075317, -0.031683944165706635, 0.09286314994096756, 0.09268241375684738, -0.12452893704175949, 0.12913186848163605, 0.1547875553369522, 0.16491363942623138, 0.14621569216251373, 0.1430627554655075, -0.03170982375741005, 0.043045010417699814, 0.11365189403295517], [-0.21557042002677917, 0.047609634697437286, 0.10890902578830719, 0.046171821653842926, 0.00538245216012001, 0.12247209250926971, 0.11115441471338272, 0.1126788780093193, 0.023926811292767525, -0.019888076931238174, -0.004043270368129015, 0.06159639358520508, -0.13056537508964539, 0.1510169953107834, 0.0983700379729271, 0.060000378638505936, -0.006064578890800476, -0.12535811960697174, 0.16859713196754456, -0.11182504892349243, 0.15294088423252106, -0.044761527329683304, -0.10723031312227249, 0.05544786527752876, -0.1669246256351471, 0.15697218477725983, 0.0840432345867157, 0.07861202210187912, 0.05722332000732422, 0.01724204234778881], [-0.10536066442728043, -0.037114907056093216, 0.10656893998384476, 0.14716151356697083, -0.04329681396484375, 0.17339445650577545, -0.11740480363368988, 0.03433527424931526, -0.14678052067756653, -0.04484615474939346, -0.012896883301436901, 0.028926094993948936, 0.10021589696407318, 0.15352103114128113, -0.039411790668964386, 0.004529270809143782, -0.11997377872467041, -0.10212352126836777, 0.1127120703458786, -0.00785577017813921, 0.06309830397367477, 0.17745384573936462, 0.16493529081344604, 0.1321699470281601, -0.15896561741828918, 0.14523352682590485, -0.1403399109840393, -0.16832581162452698, -0.14223521947860718, 0.10147487372159958], [-0.044783007353544235, -0.11582185328006744, -0.0603778101503849, 0.036471176892519, -0.1420515477657318, 0.0756509080529213, -0.10268034040927887, -0.13914340734481812, 0.10874707251787186, -0.013513291254639626, 0.09328923374414444, -0.11560365557670593, -0.07883566617965698, 0.128151997923851, -0.2260989397764206, -0.0943952351808548, 0.11020822077989578, -0.011913043446838856, -0.1511419266462326, 0.0904046967625618, 0.0058135283179581165, 0.1561317890882492, 0.058907896280288696, -0.034824077039957047, -0.08686784654855728, 0.030394943431019783, -0.08618206530809402, 0.05019598826766014, 0.1533753126859665, -0.007285048253834248], [-0.0920163244009018, 0.0008639453444629908, 0.11543679982423782, 0.20429126918315887, 0.04234810546040535, -0.04206855595111847, 0.045935917645692825, -0.064999520778656, -0.09170379489660263, -0.12751159071922302, 0.024062059819698334, 0.05883322283625603, -0.15849515795707703, -0.051236700266599655, -0.024173932150006294, -0.14258262515068054, 0.12767556309700012, 0.06885506957769394, 0.1826823353767395, -0.08803805708885193, 0.1145797148346901, 0.1164775863289833, -0.06270908564329147, -0.11444366723299026, 0.1190769299864769, 0.053726665675640106, 0.06628579646348953, -0.02806161157786846, 0.10695423930883408, 0.01131399068981409], [0.11051762849092484, -0.0003339690447319299, -0.02730124443769455, -0.14496628940105438, -0.11143025010824203, 0.19594162702560425, 0.167190283536911, 0.0803590714931488, 0.1011580303311348, -0.05250810459256172, 0.1966543346643448, 0.11266075819730759, -0.05362362787127495, 0.07082314789295197, -0.11177045106887817, 0.2035963535308838, -0.09895343333482742, -0.1029198095202446, 0.0035728143993765116, -0.09892507642507553, -0.08507293462753296, -0.027172155678272247, -0.09376869350671768, -0.1644161194562912, 0.007112586870789528, 0.01851568929851055, 0.23262575268745422, 0.08247306942939758, 0.19791923463344574, 0.05889490619301796], [0.06279643625020981, 0.13199011981487274, -0.028404822573065758, 0.17692530155181885, 0.020453782752156258, -0.15991292893886566, -0.07231311500072479, 0.18771488964557648, -0.0008319806074723601, 0.07871455699205399, 0.15062563121318817, -0.10832497477531433, 0.1907731145620346, 0.023798145353794098, 0.02032090350985527, 0.10646657645702362, -0.11762456595897675, -0.06942612677812576, 0.1519842892885208, -0.00820422824472189, 0.1580519676208496, -0.16599266231060028, 0.15271629393100739, -0.08752793073654175, -0.1195838674902916, 0.008828530088067055, 0.03577255830168724, 0.01965685561299324, 0.0608055517077446, 0.14014898240566254], [-0.0597725547850132, -0.0737655907869339, -0.04791081324219704, 0.12307223677635193, -0.1293628066778183, 0.17696167528629303, 0.002227684948593378, 0.05967668443918228, 0.13906122744083405, -0.060756146907806396, -0.0720534473657608, 0.03320770710706711, 0.018458103761076927, 0.21513870358467102, -0.17741118371486664, 0.07104828953742981, -0.14299899339675903, 0.09994512051343918, 0.02083970420062542, 0.1256178319454193, 0.033095456659793854, -0.03527240827679634, -0.014677269384264946, 0.006123384460806847, 0.09953781217336655, -0.03552453592419624, 0.027282007038593292, -0.08134351670742035, -0.10955315083265305, -0.1319209784269333], [-0.09912468492984772, -0.12615534663200378, 0.010068773292005062, -0.020943429321050644, -0.042023930698633194, -0.0687774270772934, 0.000917338824365288, 0.02127090096473694, -0.14110691845417023, 0.05468125268816948, 0.027217905968427658, -0.043704044073820114, 0.04514717683196068, -0.14133797585964203, -0.06861678510904312, 0.09938466548919678, 0.19010330736637115, -0.1155490130186081, 0.024620749056339264, 0.21489620208740234, 0.1666945368051529, -0.009954024106264114, -0.13475476205348969, 0.17867746949195862, 0.17998766899108887, 0.11296151578426361, -0.24908463656902313, -0.1718451827764511, -0.14971376955509186, 0.13742662966251373], [0.09363861382007599, 0.1158939003944397, 0.07523321360349655, 0.03072597086429596, 0.0588996522128582, -0.11536356061697006, -0.07844792306423187, 0.05705215781927109, 0.06056739762425423, -0.14329293370246887, -0.14490772783756256, -0.016292836517095566, 0.030824678018689156, -0.09406033903360367, 0.04553112015128136, 0.13776074349880219, -0.09232915192842484, 0.0009979134192690253, 0.11520686000585556, -0.10891766101121902, -0.016980605199933052, 0.1007528230547905, 0.1641894429922104, -0.14998158812522888, 0.17352120578289032, -0.13289691507816315, -0.007315577007830143, -0.01983252540230751, 0.20607997477054596, -0.054452765733003616], [-0.08554144948720932, 0.09864326566457748, -0.15261094272136688, -0.08937762677669525, 0.153486967086792, 0.10112825781106949, 0.20737166702747345, -0.1171707734465599, -0.06020228564739227, 0.18415236473083496, -0.10121560096740723, -0.020928343757987022, -0.059051185846328735, 0.09169074892997742, -0.12004495412111282, 0.07034087181091309, -0.03058667667210102, 0.04308336228132248, 0.0995226800441742, 0.0025803600437939167, 0.1583753526210785, -0.055275220423936844, 0.05996197089552879, -0.020885825157165527, 0.024532832205295563, -0.14467447996139526, 0.2122075855731964, -0.05358521640300751, 0.18430224061012268, -0.13987335562705994], [0.06700864434242249, -0.13448648154735565, -0.06383103877305984, 0.08602931350469589, 0.14750845730304718, 0.09143813699483871, -0.05829562991857529, -0.08529935777187347, -0.12046635895967484, -0.10581608861684799, 0.06916498392820358, 0.02769164741039276, -0.045731186866760254, -0.026649003848433495, 0.13998278975486755, -0.1453758180141449, 0.18425919115543365, 0.026642315089702606, 0.061202794313430786, -0.11167789995670319, 0.05569101870059967, 0.14196105301380157, 0.033808521926403046, -0.0065261912532150745, 0.08752365410327911, 0.1579066812992096, -0.07361913472414017, -0.1272859424352646, 0.13281914591789246, -0.04775899276137352], [0.04178307577967644, -0.15327319502830505, 0.10100045055150986, -0.11163707822561264, -0.06516742706298828, -0.03104533441364765, -0.13059327006340027, -0.11681364476680756, 0.18600469827651978, -0.029855918139219284, -0.1011243537068367, 0.07750541716814041, 0.13404351472854614, 0.0805196464061737, -0.028313646093010902, 0.15975742042064667, -0.005574236623942852, 0.005023560486733913, 0.1757652461528778, -0.14168797433376312, 0.09739478677511215, 0.04869229346513748, -0.06872871518135071, 0.15833891928195953, 0.05527882277965546, 0.12694941461086273, 0.1913141906261444, 0.02194308303296566, 0.18591336905956268, -0.05309171974658966], [0.08352114260196686, -0.11821567267179489, 0.07013959437608719, -0.04214335232973099, -0.11236163973808289, -0.0850067287683487, -0.015361791476607323, 0.06993165612220764, -0.16433729231357574, -0.007315744645893574, -0.022731060162186623, -0.07889200001955032, -0.06089235469698906, 0.03139746934175491, -0.06591709703207016, 0.1043529137969017, 0.2279294729232788, 0.0019827724900096655, 0.10134557634592056, 0.054232873022556305, -0.05772649496793747, 0.10266068577766418, 0.20378445088863373, 0.19767965376377106, 0.16907934844493866, -0.05949275568127632, -0.2242458164691925, -0.11686316132545471, -0.05583677068352699, -0.060883183032274246], [0.12911663949489594, 0.194596067070961, -0.014748224057257175, -0.09777827560901642, -0.04021234065294266, -0.04762843996286392, 0.16969645023345947, 0.20451416075229645, -0.047024842351675034, 0.20703870058059692, 0.20373962819576263, 0.19845177233219147, -0.06080159917473793, 0.12308225780725479, -0.12409032881259918, -0.050493575632572174, -0.08185463398694992, 0.12309207767248154, 0.11284492164850235, 0.012595013715326786, 0.15593761205673218, 0.05858969688415527, -0.15591035783290863, 0.15794509649276733, 0.10686251521110535, -0.07333412766456604, 0.18762007355690002, 0.032913703471422195, -0.08646682649850845, -0.08567382395267487], [0.12119462341070175, 0.10623574256896973, 0.0636800229549408, -0.057097773998975754, 0.19178526103496552, 0.07003656774759293, 0.0758579671382904, -0.12941420078277588, 0.11438795924186707, 0.1436673402786255, 0.21133878827095032, -0.010213252156972885, -0.1712092012166977, -0.167681485414505, -0.15771698951721191, -0.10140329599380493, 0.04062213748693466, 0.07321155816316605, 0.005271611735224724, 0.1908532828092575, 0.04011296480894089, 0.1381329596042633, 0.08469916135072708, 0.18115775287151337, 0.03130562603473663, -0.15291188657283783, 0.09977836906909943, -0.0364653654396534, 0.002921485574916005, 0.05021277070045471], [0.09475430101156235, 0.19857953488826752, -0.012526066042482853, -0.03646794334053993, 0.048163559287786484, -0.11157099157571793, 0.15352962911128998, -0.11110047996044159, -0.1725994497537613, 0.07487668097019196, -0.14607742428779602, -0.13969290256500244, 0.04557586461305618, 0.24481378495693207, -0.03562634065747261, -0.11559028923511505, 0.12248732149600983, 0.11577033251523972, 0.010640041902661324, -0.10048083961009979, -0.09326878935098648, -0.06422094255685806, 0.15807609260082245, -0.09723474830389023, 0.11099371314048767, -0.03133155032992363, -0.17606918513774872, -0.00742221437394619, 0.07502293586730957, -0.13639557361602783], [0.12886032462120056, 0.05076188966631889, 0.06893078237771988, -0.04788738861680031, 0.09460972994565964, 0.07742153853178024, 0.004370235837996006, 0.04268565773963928, -0.05441061034798622, 0.05736934021115303, -0.07987155765295029, -0.07817680388689041, -0.048284582793712616, -0.046371638774871826, -0.17818056046962738, 0.09492356330156326, 0.11468760669231415, 0.16153396666049957, 0.0830303356051445, 0.14595620334148407, 0.12782756984233856, 0.001227379310876131, -0.01691621169447899, 0.008940582163631916, 0.028915278613567352, -0.13673408329486847, 0.2539989948272705, 0.021119726821780205, -0.05036427453160286, -0.09800047427415848], [-0.01829308271408081, -0.16929391026496887, 0.06364123523235321, 0.09917233884334564, 0.17811168730258942, -0.055032990872859955, 0.13266590237617493, 0.09634353220462799, -0.11139616370201111, 0.03770019859075546, 0.11903531104326248, -0.039355263113975525, 0.19190622866153717, -0.08398844301700592, 0.08179998397827148, -0.13460089266300201, 0.15765297412872314, 0.10262984782457352, -0.00024905463214963675, 0.06918265670537949, -0.09888751059770584, 0.06891366839408875, 0.1924717277288437, -0.14406771957874298, 0.1846901774406433, 0.10721277445554733, -0.01406150870025158, 0.10373785346746445, 0.07657638192176819, -0.08020243048667908], [0.04980073496699333, 0.1106928363442421, -0.12426646798849106, -0.150384321808815, -0.15056577324867249, -0.0018111274112015963, -0.08955270051956177, 0.08680082857608795, 0.07627953588962555, 0.08790083229541779, 0.13507339358329773, 0.0018526550848037004, 0.14175932109355927, 0.10420358926057816, 0.21483416855335236, -0.1502637267112732, 0.18406470119953156, 0.04438309744000435, -0.1453024297952652, 0.130168154835701, 0.2157110571861267, -0.08724000304937363, -0.1435854732990265, -0.0764407142996788, 0.019712228327989578, 0.011563180014491081, -0.22803926467895508, -0.030044086277484894, -0.13773615658283234, -0.12100360542535782], [0.020439939573407173, -0.16659988462924957, -0.10582894831895828, -0.08893659710884094, -0.1319001019001007, 0.16649343073368073, -0.10074969381093979, 0.17716290056705475, -0.0984417274594307, 0.1779719740152359, 0.14402024447917938, 0.17869813740253448, 0.2004258632659912, 0.14755435287952423, -0.06296681612730026, 0.015519277192652225, -0.050570663064718246, 0.17869932949543, -0.005669125821441412, 0.004431297071278095, 0.12577565014362335, -0.08636927604675293, 0.2338348925113678, 0.12820421159267426, 0.03530768305063248, 0.17411015927791595, -0.10482002794742584, 0.07812216132879257, -0.16105304658412933, 0.0663032978773117], [-0.08930946886539459, -0.0938112735748291, 0.15949343144893646, -0.0688949003815651, 0.20423422753810883, -0.1606149822473526, 0.11848096549510956, -0.13531416654586792, -0.07106535136699677, 0.128879114985466, 0.18691584467887878, 0.0020835327450186014, 0.08737465739250183, 0.01822502724826336, 0.022890476509928703, -0.04486983269453049, -0.049029652029275894, -0.008003630675375462, -0.06547872722148895, -0.08597129583358765, 0.12044171243906021, -0.06921032071113586, 0.12409710139036179, 0.013468800112605095, -0.15674491226673126, 0.13851812481880188, 0.15367628633975983, 0.11538645625114441, 0.18250879645347595, -0.015339167788624763], [0.06965844333171844, -0.17666806280612946, -0.20164905488491058, 0.07842299342155457, -0.10661815106868744, -0.037196770310401917, 0.025450684130191803, 0.15335491299629211, -0.11364347487688065, 0.04747084900736809, -0.12493100762367249, 0.07866082340478897, 0.16815252602100372, 0.09624737501144409, -0.0013405061326920986, -0.12408605217933655, -0.15736156702041626, -0.17306110262870789, 0.1729201376438141, 0.05792931839823723, 0.047061849385499954, 0.14950157701969147, 0.12605394423007965, -0.10768796503543854, -0.21999415755271912, -0.006593417376279831, -0.030225032940506935, 0.21371811628341675, -0.019785799086093903, -0.07832171767950058], [0.18646745383739471, -0.0740179494023323, -0.01109291147440672, -0.12079018354415894, -0.07036210596561432, -0.053433652967214584, 0.060096945613622665, -0.1567828208208084, -0.13302496075630188, 0.026497894898056984, 0.0932888314127922, -0.10711310803890228, 0.12465830892324448, 0.191359281539917, -0.024411413818597794, -0.12158728390932083, 0.1834525167942047, -0.06669017672538757, -0.12446973472833633, -0.1767302006483078, 0.04507463052868843, 0.05007617175579071, -0.11573588103055954, 0.19973063468933105, -0.0929134339094162, 0.19504551589488983, 0.024014605209231377, -0.05108985677361488, -0.1368437260389328, 0.0519104041159153], [-0.07510563731193542, 0.08963918685913086, 0.15040290355682373, -0.023786429315805435, 0.14406609535217285, 0.1742057502269745, -0.07196524739265442, -0.0700484961271286, -0.14523746073246002, -0.0772707387804985, 0.021257122978568077, -0.03494376689195633, -0.06797883659601212, -0.03488371521234512, 0.20597946643829346, -0.10897569358348846, 0.051290594041347504, -0.06643718481063843, 0.155325248837471, -0.01607002317905426, -0.08897112309932709, -0.11162937432527542, -0.14313112199306488, -0.02679464779794216, -0.055926717817783356, 0.1493893414735794, 0.03821339085698128, -0.11716508865356445, 0.06601167470216751, -0.14324870705604553], [-0.004298586864024401, 0.2638305425643921, -0.23130197823047638, 0.07337703555822372, 0.07087867707014084, -0.04042230173945427, -0.09357315301895142, -0.04143095761537552, 0.13343918323516846, 0.051072340458631516, -0.1054408997297287, 0.1306292563676834, -0.007299190852791071, 0.07168891280889511, -0.04418559372425079, -0.08376283943653107, 0.11860183626413345, -0.007543526124209166, 0.039622679352760315, 0.11436060070991516, 0.09890878200531006, -0.1396244317293167, 0.08504029363393784, 0.1388990581035614, -0.0249367356300354, 0.02265852317214012, 0.03490254655480385, 0.072678342461586, 0.08084362745285034, 0.126046285033226], [-0.12806430459022522, 0.19854867458343506, 0.10956045240163803, -0.15177980065345764, -0.02730800025165081, -0.15045319497585297, -0.12463009357452393, 0.18003316223621368, 0.16940705478191376, 0.07908221334218979, -0.01600036583840847, -0.10762672126293182, -0.02410021238029003, 0.105924092233181, -0.062301937490701675, -0.06862912327051163, 0.09813444316387177, -0.05886952951550484, -0.00972261093556881, 0.16565734148025513, -0.11230823397636414, 0.16793428361415863, 0.0029468885622918606, -0.10869918763637543, -0.10223029553890228, 0.004233777057379484, 0.022143470123410225, 0.20362630486488342, 0.11487095803022385, 0.0690753161907196], [-0.04385114088654518, 0.11684563755989075, -0.1349206566810608, -0.11291354149580002, 0.01872619055211544, 0.1612909585237503, -0.0863051563501358, 0.17639410495758057, -0.08769629895687103, 0.1481340527534485, 0.07920992374420166, -0.04392407089471817, 0.10170353949069977, 0.07443413883447647, 0.07526702433824539, -0.15799468755722046, -0.0014738418394699693, 0.13247182965278625, -0.009943107143044472, -0.01395426969975233, 0.11920355260372162, -0.052637502551078796, 0.1410527229309082, 0.0657237097620964, 0.011043345555663109, 0.08217809349298477, -0.015406464226543903, 0.11446748673915863, 0.15285491943359375, 0.17013636231422424], [-0.05494406074285507, -0.1173824667930603, 0.23998713493347168, 0.1725933849811554, 0.14598095417022705, -0.1055721864104271, -0.08712877333164215, 0.09795273095369339, -0.014623915776610374, -0.08731553703546524, 0.17990483343601227, 0.04912692680954933, 0.12181476503610611, 0.2265109121799469, 0.16912603378295898, 0.02128804475069046, -0.11007728427648544, -0.15063315629959106, 0.1079355925321579, -0.12936897575855255, 0.19125348329544067, -0.04245362803339958, -0.05369890481233597, 0.05765410512685776, 0.15606535971164703, -0.10707825422286987, -0.09435263276100159, 0.11489241570234299, -0.02950311452150345, 0.08631182461977005], [-0.03385390713810921, -0.07563188672065735, 0.027728328481316566, -0.09363455325365067, -0.050676122307777405, 0.040290866047143936, 0.10784970968961716, 0.1726430207490921, 0.11306564509868622, 0.0910496786236763, -0.0974440798163414, -0.034678373485803604, 0.03528440743684769, -0.027941113337874413, 0.0355391688644886, -0.14095714688301086, -0.06113160029053688, 0.008158798329532146, -0.04601511359214783, -0.01170480065047741, 0.11330007761716843, 0.10408935695886612, -0.1469419151544571, -0.05255189538002014, 0.22410798072814941, 0.024805650115013123, 0.06118497624993324, 0.06823186576366425, 0.08600421994924545, -0.15712769329547882], [-0.015611527487635612, 0.14786459505558014, 0.15788054466247559, 0.16142599284648895, -0.11241696029901505, -0.040652770549058914, -0.007724639493972063, -0.10091891139745712, 0.07283477485179901, 0.10608880966901779, -0.024362746626138687, -0.08283112943172455, 0.17091581225395203, 0.10474063456058502, -0.019798295572400093, 0.1086384579539299, 0.15675844252109528, 0.10060334205627441, -0.04809343442320824, -0.14349670708179474, -0.16891370713710785, 0.13455936312675476, 0.021442975848913193, -0.12339720129966736, -0.14525344967842102, 0.007533046882599592, -0.041723448783159256, -0.059730034321546555, -0.14000718295574188, 0.11517965793609619], [-0.1349039077758789, 0.0969322994351387, -0.09650810062885284, -0.026540499180555344, 0.04421620070934296, -0.01738683506846428, -0.004994699265807867, -0.11576475948095322, -0.008255789056420326, -0.12492524087429047, 0.11368537694215775, -0.043946411460638046, 0.0026237342972308397, 0.15294058620929718, 0.20758092403411865, -0.08005623519420624, 0.11670374125242233, 0.010365410707890987, -0.06093194708228111, -0.10916654765605927, 0.014500514604151249, 0.08981142193078995, -0.14333191514015198, -0.026489857584238052, -0.023203931748867035, 0.12021753191947937, -0.09526821225881577, 0.08827716112136841, -0.01569530926644802, 0.16756249964237213], [0.13417166471481323, 0.21016977727413177, -0.05056284740567207, 0.04179069772362709, -0.15222832560539246, 0.059206824749708176, 0.02172934263944626, 0.08780202269554138, 0.19602303206920624, 0.029483813792467117, 0.1294538527727127, 0.13621772825717926, 0.10272565484046936, 0.04927471652626991, -0.023535337299108505, -0.14813844859600067, 0.07445652037858963, -0.017459144815802574, 0.16059310734272003, 0.0786580890417099, -0.13926532864570618, -0.15235792100429535, 0.13529331982135773, 0.0916578471660614, -0.19484281539916992, 0.03951260447502136, 0.1429213285446167, 0.15019966661930084, 0.12530507147312164, 0.1738826483488083], [-0.09963544458150864, 0.06132132560014725, 0.12785053253173828, 0.1569177210330963, 0.052658915519714355, 0.012004625052213669, -0.038613367825746536, 0.0042077586986124516, -0.062497492879629135, -0.01396635640412569, -0.15549476444721222, -0.11608684808015823, 0.018316296860575676, -0.1906358152627945, 0.10313256829977036, -0.05279575660824776, -0.0018974152626469731, 0.028945203870534897, 0.11573483794927597, -0.1728067249059677, -0.12922611832618713, -0.017322801053524017, 0.0110251409932971, 0.10362005233764648, -0.10239174216985703, -0.10784928500652313, 0.1756127029657364, 0.06989502906799316, 0.16037201881408691, 0.051294729113578796], [0.1636829823255539, -0.14700540900230408, -0.030852554365992546, 0.12293349206447601, -0.14260676503181458, -0.05763700604438782, -0.13411913812160492, 0.02420620433986187, -0.08399777114391327, -0.09963205456733704, 0.09093502163887024, -0.03447238728404045, 0.06805946677923203, 0.129234179854393, 0.04623296856880188, -0.12870992720127106, 0.1970495879650116, -0.0600188672542572, 0.03868148475885391, 0.18657509982585907, -0.08190899342298508, 0.1470497101545334, -0.09235505014657974, -0.053483109921216965, -0.11620162427425385, -0.050589755177497864, -0.08304931968450546, -0.13624151051044464, 0.05632031336426735, -0.02041185088455677], [0.16481247544288635, -0.11043950170278549, -0.0739954486489296, 0.1374966949224472, -0.08628750592470169, -0.036367908120155334, 0.18585288524627686, 0.0635749101638794, 0.021773600950837135, 0.1845361888408661, 0.0375092439353466, -0.07344979792833328, -0.11457493901252747, -0.07450912892818451, -0.1337880939245224, -0.11048062145709991, -0.027017250657081604, 0.11483462899923325, 0.04390173777937889, 0.0022833982948213816, -0.11778074502944946, 0.014791727997362614, 0.07200303673744202, 0.045531243085861206, -0.006895901635289192, 0.16421395540237427, 0.1893080174922943, -0.11248460412025452, 0.17564764618873596, -0.16970810294151306], [0.01035293284803629, 0.07084622234106064, 0.13576456904411316, -0.040567949414253235, -0.09022828936576843, -0.14238610863685608, -0.07956892997026443, -0.09795799851417542, 0.0526985265314579, 0.15953326225280762, 0.1830076426267624, 0.08252549916505814, -0.01711365208029747, 0.09089364111423492, -0.0588887482881546, -0.11040565371513367, 0.06567365676164627, 0.009820847772061825, -0.06224201247096062, 0.1819620281457901, -0.1347639411687851, -0.06710577756166458, 0.02370811440050602, -0.12559467554092407, 0.2151513397693634, -0.07596121728420258, 0.19479280710220337, -0.06720170378684998, 0.11564113944768906, -0.1218821331858635], [-0.12222298979759216, 0.029267670586705208, 0.10579181462526321, -0.16671986877918243, -0.048222433775663376, -0.04713556915521622, 0.02099858969449997, 0.09324457496404648, 0.12699149549007416, 0.12461992353200912, 0.07961312681436539, 0.058945830911397934, -0.046925075352191925, -0.026380043476819992, 0.14139610528945923, 0.03320903703570366, -0.06965433806180954, 0.05199550837278366, 0.15600243210792542, -0.019981393590569496, -0.13419385254383087, 0.011386925354599953, -0.03424406051635742, -0.13243333995342255, -0.05127227306365967, -0.11865900456905365, 0.22967608273029327, 0.059253573417663574, -0.13424640893936157, 0.08364099264144897], [-0.0037748413160443306, 0.2198449820280075, -0.2347807139158249, 0.12044602632522583, 0.1573459357023239, -0.14440570771694183, -0.09364797174930573, 0.02152646891772747, 0.119947150349617, 0.17122618854045868, -0.014517729170620441, 0.15237440168857574, -0.09015703946352005, 0.10424940288066864, -0.019855007529258728, -0.1260351836681366, -0.03538798540830612, 0.03706236183643341, -0.038672082126140594, 0.10101549327373505, -0.032161835581064224, 0.086716428399086, 0.03250214830040932, 0.2095128297805786, -0.24431274831295013, 0.06563269346952438, -0.0353991873562336, -0.1336268037557602, 0.02051074244081974, -0.04120554029941559], [-0.17581906914710999, -0.043315596878528595, 0.09930520504713058, 0.06643058359622955, 0.0006870782235637307, 0.06794198602437973, -0.08872057497501373, -0.11845164000988007, -0.08101963251829147, -0.08831006288528442, -0.13447654247283936, 0.059407420456409454, 0.1456884741783142, -0.0655815377831459, -0.16488035023212433, -0.19725745916366577, 0.07320647686719894, -0.0841064378619194, 0.061599548906087875, 0.17304250597953796, 0.04893438518047333, 0.006567864213138819, 0.16097255051136017, -0.11741125583648682, -0.18101169168949127, -0.14872770011425018, -0.05035409331321716, 0.08646625280380249, -0.01782110147178173, -0.15395906567573547], [-0.013950957916676998, 0.08678316324949265, -0.04735029488801956, 0.1626303791999817, 0.07058501988649368, 0.18472062051296234, -0.13072317838668823, -0.013864069245755672, -0.04214940220117569, 0.1468433141708374, -0.04379281774163246, -0.014874949119985104, -0.08509299904108047, -0.054028477519750595, -0.05550331622362137, -0.06458145380020142, -0.009465214796364307, 0.033988408744335175, 0.19425806403160095, 0.02769361436367035, 0.14852482080459595, 0.010000182315707207, 0.13533857464790344, -0.1254328042268753, -0.052521269768476486, 0.03030596673488617, 0.21756818890571594, -0.07630103081464767, 0.0894085243344307, 0.0015546627109870315], [0.12301327288150787, -0.07295486330986023, 0.0322258360683918, -0.1331491321325302, -0.15909086167812347, -0.039547149091959, -0.08419940620660782, -0.10454987734556198, -0.07096680253744125, -0.10198640823364258, -0.12309380620718002, -0.005392325110733509, -0.15520024299621582, 0.05623515322804451, 0.060038045048713684, -0.17239941656589508, -0.1554221659898758, -0.13522355258464813, -0.10934571921825409, -0.14308010041713715, 0.04507840797305107, 0.16041524708271027, -0.0568397231400013, 0.07105986028909683, -0.03580070659518242, -0.08735758066177368, -0.07102139294147491, 0.10098458081483841, -0.16791324317455292, 0.10552758723497391], [0.059869442135095596, 0.021688098087906837, -0.05373156815767288, -0.08126458525657654, 0.1070459634065628, -0.14794522523880005, -0.10343938320875168, -0.15461501479148865, 0.05084782466292381, -0.05691143870353699, -0.11811704933643341, 0.028026968240737915, 0.1433972716331482, 0.16982659697532654, -0.01371012069284916, -0.030663711950182915, -0.15103976428508759, -0.11059141904115677, 0.04670058935880661, 0.02603858709335327, -0.03505953401327133, 0.11715611815452576, 0.11505437642335892, 0.23153941333293915, -0.01939830370247364, 0.11684956401586533, -0.0474010668694973, -0.052909571677446365, 0.0033353951293975115, -0.11606209725141525], [-0.04603726789355278, 0.21508075296878815, -0.05495328828692436, -0.12208631634712219, 0.08646808564662933, 0.006800733506679535, -0.022066881880164146, 0.1788807064294815, 0.1659972071647644, 0.056619249284267426, 0.14226777851581573, -0.10108571499586105, -0.12376747280359268, 0.033241115510463715, 0.019925681874155998, -0.1352253556251526, 0.04137357696890831, 0.08266854286193848, -0.15576760470867157, 0.12843264639377594, -0.12004604190587997, 0.16017471253871918, 0.005384603515267372, 0.25618717074394226, -0.05394453555345535, 0.16917750239372253, 0.04226982221007347, -0.11092927306890488, 0.14104759693145752, -0.08077497035264969], [0.00474908109754324, 0.11825960874557495, 0.0252545028924942, -0.14896222949028015, 0.027034403756260872, 0.19054532051086426, 0.10618514567613602, -0.12661227583885193, 0.10609740763902664, 0.18054604530334473, -0.005041373893618584, 0.14513036608695984, -0.10347898304462433, -0.13452346622943878, -0.19072990119457245, 0.16628308594226837, -0.14713524281978607, 0.19368094205856323, -0.0800682008266449, 0.16679257154464722, -0.11965063214302063, 0.18902313709259033, 0.11573999375104904, 0.033045053482055664, 0.13674524426460266, 0.13009461760520935, 0.02499055117368698, -0.16818074882030487, 0.179226353764534, -0.09341355413198471], [-0.08710730820894241, 0.006244533695280552, 0.1478710025548935, 0.20892171561717987, 0.03700731694698334, 0.09793417155742645, -0.07739226520061493, -0.13800179958343506, 0.01734740100800991, -0.03227381408214569, -0.03452138975262642, -0.07911433279514313, 0.055397335439920425, 0.10368543863296509, 0.03574761748313904, 0.08313463628292084, -0.02259232848882675, -0.12252765148878098, 0.13386255502700806, 0.20915202796459198, -0.14198650419712067, 0.011704955250024796, -0.08740060776472092, 0.056346479803323746, 0.04619598016142845, -0.08779191970825195, 0.13156187534332275, -0.05165950208902359, 0.030197886750102043, -0.16948235034942627], [-0.1338409185409546, 0.0798945501446724, 0.1376364678144455, -0.08857376873493195, -0.06754767149686813, -0.0965982973575592, -0.031207391992211342, -0.06616278737783432, -0.07992774993181229, 0.022919170558452606, -0.03055315837264061, 0.13884393870830536, 0.06576895713806152, -0.06358350068330765, 0.23690888285636902, -0.00747249461710453, -0.13919459283351898, -0.15445576608181, -0.1584400236606598, -0.19578152894973755, 0.04159965366125107, -0.11931401491165161, 0.028797922655940056, 0.11314437538385391, -0.0974891185760498, -0.022052280604839325, 0.15196585655212402, 0.077781081199646, -0.1287853717803955, 0.07168666273355484], [0.010479823686182499, 0.17502154409885406, -0.16503356397151947, 0.10700983554124832, -0.12291783839464188, 0.0013581711100414395, 0.055347785353660583, -0.15567553043365479, 0.022276997566223145, -0.10167107731103897, 0.00612248620018363, -0.04429132118821144, -0.06279566138982773, 0.0729505717754364, 0.15909884870052338, 0.06588490307331085, -0.11791228502988815, 0.05380312353372574, -0.17349500954151154, 0.12450936436653137, -0.10414180159568787, 0.0018610754050314426, -0.017517732456326485, -0.16700416803359985, 0.08691482245922089, 0.008456479758024216, 0.14270131289958954, -0.017900682985782623, -0.044363584369421005, -0.16914282739162445], [0.07637077569961548, 0.1454576700925827, 0.0070644561201334, 0.042317382991313934, -0.13523635268211365, -0.11373239755630493, 0.05882929265499115, 0.10739991813898087, -0.13800284266471863, -0.027789272367954254, -0.07767461240291595, -0.12351612001657486, -0.059099700301885605, 0.1375405341386795, 0.13553376495838165, -0.03834965452551842, -0.053390100598335266, 0.10965113341808319, 0.11373937129974365, 0.17094798386096954, -0.019439011812210083, 0.08852741122245789, -0.12097743153572083, 0.17065392434597015, 0.14159171283245087, -0.1420011818408966, -0.08343006670475006, 0.18866635859012604, 0.034478794783353806, 0.033566445112228394], [0.032989274710416794, -0.02524500899016857, -0.16450916230678558, 0.05388437584042549, 0.05834481492638588, -0.036443475633859634, 0.06878895312547684, 0.0026619608979672194, 0.037108417600393295, 0.08733630925416946, 0.07099437713623047, -0.027133744210004807, 0.18325315415859222, -0.03555532172322273, 0.20205147564411163, -0.07038479298353195, 0.07832224667072296, 0.18820171058177948, -0.17171303927898407, -0.10754500329494476, -0.013764556497335434, 0.006776711903512478, 0.06033658608794212, -0.10347308963537216, -0.06614843755960464, 0.009898972697556019, -0.15967749059200287, -0.043783772736787796, 0.022936785593628883, -0.12228961288928986], [0.04455709829926491, 0.18107391893863678, 0.04079944267868996, -0.07757450640201569, 0.042701248079538345, 0.02828243002295494, -0.03325771167874336, 0.07135690003633499, -0.05674874410033226, 0.18884505331516266, -0.0930868610739708, 0.14338356256484985, 0.08878139406442642, -0.15870319306850433, 0.11459524929523468, 0.19022803008556366, -0.08709395676851273, -0.06257621943950653, 0.055955443531274796, -0.10095153003931046, -0.14409130811691284, 0.1099494993686676, -0.10408149659633636, -0.04909180849790573, 0.11901682615280151, -0.10838216543197632, 0.18682925403118134, -0.13127681612968445, 0.11048229783773422, -0.028089771047234535], [-0.1567034125328064, 0.036371953785419464, 0.10774538666009903, 0.0023441296070814133, -0.04231848940253258, -0.14749877154827118, -0.011799108237028122, 0.08191587030887604, -0.15420223772525787, 0.045198384672403336, -0.035758305341005325, 0.18493981659412384, 0.06439907103776932, 0.11809302866458893, -0.11190929263830185, -0.11089083552360535, 0.10807957500219345, -0.037126265466213226, -0.1396881639957428, 0.1722830981016159, -0.02606409229338169, 0.0422264002263546, 0.003463196801021695, -0.1780208945274353, 0.05192003399133682, 0.13353769481182098, -0.08323539048433304, -0.08761553466320038, 0.09621129930019379, 0.16734425723552704], [0.02745155431330204, 0.12495202571153641, 0.12746690213680267, -0.1601344347000122, -0.15987297892570496, 0.029318904504179955, -0.06103422865271568, 0.06384952366352081, 0.12626075744628906, 0.013983669690787792, -0.1200626790523529, 0.19726788997650146, -0.09763755649328232, -0.14713966846466064, 0.14935408532619476, -0.09051909297704697, -0.10368511825799942, -0.1276470422744751, 0.11460611969232559, -0.025827011093497276, 0.014765102416276932, 0.031142735853791237, 0.16382895410060883, -0.05707002431154251, 0.18199440836906433, 0.031148964539170265, -0.12924441695213318, -0.010521315038204193, -0.06286559253931046, -0.07251112908124924], [-0.08637237548828125, 0.15547318756580353, 0.1661553531885147, -0.02528509870171547, -0.03880636394023895, -0.1438784897327423, 0.05032650753855705, -0.13673585653305054, -0.11932214349508286, 0.08390943706035614, -0.029296917840838432, -0.14380669593811035, -0.037202559411525726, 0.23036415874958038, -0.05708533897995949, 0.19044137001037598, -0.03276776522397995, -0.15358123183250427, 0.06379888951778412, -0.08853670209646225, 0.04407286271452904, -0.15270452201366425, -0.00859161652624607, 0.050708770751953125, 0.19760683178901672, -0.046461839228868484, 0.13706950843334198, 0.16652850806713104, 0.10998374968767166, 0.17488424479961395], [0.1716499924659729, -0.049338459968566895, -0.15680031478405, 0.03083956241607666, -0.15026862919330597, 0.08984535932540894, -0.025459349155426025, 0.01014885026961565, -0.04822380095720291, 0.1329759806394577, -0.026117384433746338, 0.032614968717098236, -0.022449463605880737, -0.13552142679691315, 0.08346827328205109, -0.010609647259116173, 0.18706120550632477, -0.10934887826442719, -0.11151064187288284, 0.04305224120616913, -0.0036276690661907196, -0.13649730384349823, -0.03304797783493996, 0.13421647250652313, -0.10133565962314606, -0.053788021206855774, -0.21995757520198822, 0.17503012716770172, 0.1590389609336853, -0.09800606220960617], [0.1217532604932785, -0.13944654166698456, 0.04400113224983215, -0.09972615540027618, 0.0560399666428566, -0.05723848566412926, -0.0019330376526340842, 0.16880768537521362, -0.01047508791089058, 0.09498193860054016, -0.009236803278326988, 0.06104272976517677, 0.08201836794614792, 0.11940967291593552, -0.1508970558643341, 0.010455715470016003, 0.136780247092247, 0.16130132973194122, 0.2059244066476822, 0.09840849041938782, -0.0814943015575409, -0.1155070811510086, -0.0590008981525898, -0.01303881499916315, 0.07350136339664459, 0.14916643500328064, 0.24757306277751923, 0.1871786117553711, -0.016093362122774124, -0.05100652202963829], [-0.07018828392028809, -0.10256331413984299, 0.209364652633667, 0.11839842796325684, -0.010661184787750244, -0.0014790401328355074, -0.07481691986322403, -0.07359118014574051, -0.08589625358581543, 0.026826273649930954, -0.09678822010755539, -0.10651437193155289, 0.1991303414106369, 0.1646512746810913, 0.01645001582801342, 0.157124325633049, -0.06808971613645554, 0.18518394231796265, 0.16202840209007263, -0.003027302911505103, -0.01181828323751688, 0.02013937570154667, -0.010929551906883717, -0.12483304738998413, 0.18268467485904694, 0.054636113345623016, 0.20894765853881836, 0.1820976585149765, -0.1125367283821106, 0.10065983980894089], [-0.05628005042672157, -0.013149518519639969, 0.10915792733430862, -0.1525450348854065, -0.13997198641300201, 0.027547620236873627, 0.18607638776302338, 0.06639481335878372, 0.11554111540317535, -0.002946905791759491, -0.015960868448019028, -0.01334324013441801, 0.15449674427509308, -0.12483277916908264, 0.09457691758871078, -0.026222534477710724, 0.05064071714878082, 0.08906421810388565, -0.03504127636551857, -0.08091575652360916, -0.05863470211625099, -0.1357264369726181, 0.030858170241117477, 0.18032509088516235, -0.07460012286901474, -0.017038755118846893, 0.22488394379615784, -0.03604148328304291, 0.1605590581893921, 0.1446632444858551], [-0.072455033659935, -0.05002022534608841, 0.02172057330608368, 0.0018713701283559203, 0.14868509769439697, -0.11214952915906906, -0.08062128722667694, 0.0679270327091217, -0.07311493158340454, -0.1394546627998352, -0.08057405799627304, -0.14713524281978607, -0.13838039338588715, 0.02090035006403923, -0.09709978848695755, 0.06917739659547806, 0.17558380961418152, -0.1489054262638092, 0.05219995975494385, 0.18193817138671875, 0.13813941180706024, -0.1229904294013977, -0.020623331889510155, 0.1463780254125595, -0.08312603831291199, -0.1441326141357422, 0.044595230370759964, 0.11961141228675842, 0.12773463129997253, 0.13098907470703125], [0.009568671695888042, -0.17999541759490967, -0.11186075955629349, -0.16791582107543945, -0.05945923179388046, 0.049892161041498184, -0.11035474389791489, 0.1157015934586525, 0.20031242072582245, -0.013401237316429615, -0.0847737044095993, 0.07869789749383926, -0.0036430188920348883, 0.1616045981645584, -0.0031074280850589275, 0.17501644790172577, -0.14138413965702057, 0.15527115762233734, -0.022320779040455818, -0.1167323887348175, 0.1913796067237854, 0.06720054149627686, 0.05566202849149704, -0.11694541573524475, 0.08171764761209488, -0.038744501769542694, 0.20637701451778412, -0.15321287512779236, -0.01606326550245285, -0.12533271312713623], [0.16762369871139526, 0.030583035200834274, 0.09258870780467987, -0.07822763174772263, -0.05473873391747475, 0.16482356190681458, 0.1605626940727234, -0.1282326579093933, -0.12324564903974533, -0.08207236975431442, 0.07777740061283112, 0.09509051591157913, -0.12071601301431656, 0.2116830199956894, -0.06885220855474472, -0.12898887693881989, 0.10290560126304626, 0.02150198444724083, 0.034787293523550034, -0.08826709538698196, -0.06521298736333847, -0.029138926416635513, 0.16706502437591553, -0.0782659724354744, -0.0634315013885498, -0.10369661450386047, -0.14945733547210693, 0.14733411371707916, -0.08291837573051453, -0.04127529263496399], [-0.14057376980781555, 0.17952969670295715, -0.14678215980529785, 0.00027638793108053505, -0.12394087016582489, -0.09422661364078522, 0.026102688163518906, -0.07491819560527802, 0.03503718227148056, 0.17796194553375244, -0.09339488297700882, 0.17699354887008667, -0.058408208191394806, 0.17076481878757477, 0.21932809054851532, 0.01678447425365448, 0.11117179691791534, -0.07691529393196106, 0.08442528545856476, 0.01647631637752056, 0.11608312278985977, -0.1538897454738617, -0.14821402728557587, 0.16661188006401062, 0.08068953454494476, 0.026893122121691704, 0.02260306477546692, 0.008503594435751438, -0.1256732940673828, -0.07449104636907578], [0.09416186064481735, 0.06718691438436508, -0.04199310764670372, -0.08384791016578674, 0.08156362175941467, -0.04946691170334816, 0.18263298273086548, 0.17980845272541046, 0.051955077797174454, -0.15076716244220734, 0.1349104642868042, 0.12902243435382843, -0.08635146170854568, 0.03719000890851021, 0.1297784000635147, 0.09506893903017044, 0.12062256038188934, -0.16259531676769257, 0.145233616232872, -0.1368265300989151, -0.10598210990428925, 0.1961732804775238, 0.05315904691815376, 0.21324314177036285, -0.11415637284517288, 0.04267719015479088, 0.12582993507385254, 0.11771699041128159, -0.02005484700202942, 0.17749157547950745], [-0.11866157501935959, -0.00744988676160574, 0.023802801966667175, 0.06140000745654106, -0.14460010826587677, 0.01731419749557972, 0.12364048510789871, 0.0930306538939476, 0.04955851286649704, -0.0014368759002536535, -0.11758095026016235, 0.08467817306518555, 0.014545508660376072, 0.005978957284241915, -0.14904573559761047, 0.1838424950838089, 0.16146820783615112, 0.006362203508615494, 0.0917552039027214, 0.18540602922439575, 0.14911596477031708, 0.05481983348727226, 0.0540953204035759, -0.13439863920211792, -0.023527229204773903, 0.061440568417310715, 0.19237768650054932, -0.15371975302696228, 0.16339626908302307, 0.15106387436389923], [0.1119486391544342, 0.15121009945869446, 0.21028897166252136, -0.0156149473041296, -0.0031812279485166073, 0.02067960985004902, 0.10698666423559189, 0.17450474202632904, -0.06330311298370361, -0.06926388293504715, 0.2199595421552658, 0.18948937952518463, -0.09883531928062439, 0.05637131631374359, -0.12801334261894226, 0.1401534527540207, -0.11161813884973526, -0.014805320650339127, -0.03832457214593887, -0.13988785445690155, 0.11811350286006927, -0.13899269700050354, 0.12857159972190857, 0.05497831478714943, -0.03410414606332779, -0.09877360612154007, 0.19762207567691803, 0.06070849671959877, -0.0419098436832428, -0.01813523657619953], [0.15705904364585876, 0.13882297277450562, 0.09023860096931458, 0.09674893319606781, 0.1273391991853714, -0.07415258139371872, -0.04961181432008743, 0.21719197928905487, 0.04618533328175545, 0.1342349350452423, 0.05456490442156792, 0.18455150723457336, 0.010357321240007877, -0.05027000978589058, -0.07829634845256805, -0.06595801562070847, -0.014811716042459011, 0.024277323856949806, -0.15817585587501526, 0.0012729697627946734, -0.10925085842609406, -0.10592171549797058, -0.04125725105404854, -0.05921037495136261, -0.13619540631771088, -0.14622031152248383, -0.014745241962373257, 0.14049269258975983, 0.009449508972465992, 0.0678572803735733], [-0.04328601062297821, 0.1307605803012848, -0.10688488930463791, 0.12020973861217499, 0.20428559184074402, -0.016835013404488564, 0.05281894654035568, 0.18441416323184967, 0.14609481394290924, 0.11646188050508499, 0.010491887107491493, 0.029592245817184448, 0.09921526163816452, 0.02379080094397068, -0.08814886957406998, 0.0009290985180996358, -0.06307756900787354, 0.15377679467201233, 0.23028941452503204, 0.14152948558330536, -0.11879968643188477, -0.04185421019792557, -0.05731342360377312, -0.05982566997408867, 0.07111073285341263, -0.07583608478307724, 0.06288744509220123, -0.08427060395479202, -0.004430245142430067, 0.08551125973463058], [0.19546742737293243, 0.026024119928479195, 0.12829628586769104, -0.09616377204656601, -0.08365218341350555, 0.09230903536081314, -0.17874707281589508, 0.10279326885938644, -0.12020617723464966, -0.11544337868690491, -0.020279496908187866, 0.09616757929325104, 0.03843947872519493, 0.12024521827697754, 0.11617017537355423, -0.10296323150396347, -0.07501932233572006, 0.08385103195905685, 0.10924331843852997, 0.11868144571781158, -0.09802863001823425, -0.14234204590320587, -0.19083265960216522, -0.039700306951999664, 0.1904485523700714, -0.03473702818155289, 0.08874937891960144, 0.13164065778255463, -0.17295609414577484, 0.10516811907291412], [0.13889746367931366, 0.010672598145902157, 0.036122675985097885, -0.15338774025440216, 0.0014554470544680953, -0.0090778274461627, 0.04101133719086647, 0.04294087737798691, 0.10303812474012375, -0.12795467674732208, -0.14743269979953766, 0.07277754694223404, 0.007466285023838282, 0.06748314201831818, 0.18003293871879578, -0.0891350731253624, -0.06706398725509644, 0.20219507813453674, -0.055848754942417145, -0.05647299438714981, 0.2151520997285843, 0.12777234613895416, 0.17421066761016846, 0.09937784075737, 0.1155422031879425, 0.08155980706214905, -0.19882528483867645, -0.06039394438266754, -0.06706912815570831, -0.12903954088687897], [0.08314194530248642, -0.007600235287100077, -0.04047234728932381, 0.07610099017620087, 0.13011017441749573, 0.14067406952381134, 0.01254213135689497, -0.11148932576179504, -0.10136926919221878, 0.14478705823421478, -0.06161435693502426, 0.15072934329509735, 0.18982166051864624, -0.1130753681063652, -0.14372089505195618, 0.15083564817905426, 0.045138370245695114, 0.05944349244236946, -0.08698213845491409, -0.12626010179519653, 0.1545327603816986, 0.13885058462619781, 0.20549951493740082, -0.11521441489458084, -0.15562237799167633, -0.09254422783851624, 0.06558359414339066, -0.0375770665705204, 0.05441511422395706, 0.1809297651052475], [0.20010437071323395, -0.14649228751659393, 0.15629234910011292, -0.17477428913116455, -0.1098737120628357, -0.1559312641620636, -0.022690657526254654, 0.17374394834041595, 0.1667611449956894, 0.15660008788108826, 0.02374035306274891, 0.036106061190366745, 0.021595126017928123, 0.1417238563299179, 0.037961285561323166, 0.006564975716173649, 0.18004631996154785, 0.07857052236795425, 0.115826815366745, 0.18690946698188782, -0.05770835652947426, 0.1394449919462204, -0.03484991565346718, -0.08808425813913345, 0.20529967546463013, 0.09866630285978317, 0.20960617065429688, 0.18235228955745697, -0.0917358547449112, -0.08297094702720642], [0.001409171149134636, -0.15048423409461975, -0.11009736359119415, -0.061380814760923386, 0.06492725014686584, 0.19325606524944305, -0.11257095634937286, -0.10356427729129791, 0.1252233386039734, -0.08709807693958282, 0.041244473308324814, 0.16012780368328094, 0.1190352514386177, -0.12790100276470184, -0.1134592741727829, -0.03401937708258629, -0.0625774934887886, -0.08178091049194336, 0.1642664521932602, 0.16305981576442719, -0.10375027358531952, -0.12811397016048431, 0.18757569789886475, 0.1102827936410904, -0.013981573283672333, -0.045596327632665634, 0.2082192301750183, 0.2124129980802536, -0.007535672280937433, -0.18088752031326294], [-0.1320105642080307, -0.025897907093167305, 0.026628641411662102, 0.06270451843738556, -0.024150123819708824, -0.039952173829078674, -0.06601918488740921, -0.10018010437488556, -0.11258862912654877, 0.14816977083683014, 0.036201294511556625, 0.06127696484327316, 9.475655679125339e-05, 0.18064212799072266, 0.2092875987291336, -0.07528959959745407, -0.0857366994023323, -0.09411834925413132, 0.0781724750995636, 0.16101929545402527, 0.030453750863671303, 0.13804320991039276, -0.008155733346939087, 0.029315566644072533, 0.04064134508371353, 0.023682307451963425, -0.20786665380001068, 0.036216769367456436, -0.06457942724227905, -0.1479862630367279], [-0.05359320342540741, 0.07660311460494995, 0.17412076890468597, -0.06779912859201431, 0.04941795393824577, 0.08263377100229263, 0.1840837448835373, 0.21508975327014923, -0.1398477554321289, -0.06817397475242615, -0.08909902721643448, 0.19327972829341888, 0.15000204741954803, -0.1534542590379715, -0.13942456245422363, -0.07143624126911163, 0.006071761716157198, 0.029864832758903503, 0.02375943399965763, 0.014506945386528969, -0.08040589094161987, -0.01782761700451374, 0.1763683259487152, 0.14179641008377075, 0.020974645391106606, -0.0455038957297802, 0.13909879326820374, 0.2021322399377823, -0.10786016285419464, 0.13352318108081818], [-0.13309553265571594, 0.17809666693210602, -0.18295247852802277, 0.20416928827762604, 0.17972305417060852, -0.03315037488937378, -0.03150264173746109, -0.01716669835150242, -0.011461591348052025, 0.1759076714515686, -0.04868277534842491, 0.09650546312332153, -0.008138402365148067, -0.13028860092163086, -0.15097686648368835, 0.13205958902835846, 0.1870984584093094, 0.040931615978479385, 0.11304432153701782, -0.14738434553146362, -0.07885029166936874, -0.040041618049144745, 0.013613375835120678, -0.03683207184076309, -0.0941358357667923, -0.12105835229158401, -0.07208769768476486, 0.06491611152887344, -0.0848924070596695, -0.0850808247923851], [0.09443444013595581, -0.04896899312734604, 0.11069867759943008, -0.10025431215763092, 0.17770372331142426, 0.11532110720872879, 0.15673357248306274, 0.1569916307926178, 0.1336565613746643, 0.09458684176206589, 0.017820464447140694, 0.17705629765987396, -0.06779120117425919, -0.1246945708990097, 0.03506290540099144, 0.013682737946510315, 0.1343041956424713, 0.18008585274219513, -0.03847383335232735, 0.12312336266040802, -0.0018300218507647514, -0.1220959722995758, 0.057644788175821304, 0.08048345893621445, -0.16799411177635193, 0.06708279252052307, 0.19088533520698547, -0.06972093880176544, -0.031122978776693344, -0.09469955414533615], [-0.09620719403028488, -0.036950789391994476, -0.007227231748402119, -0.07050982862710953, 0.09379006177186966, 0.10506267845630646, 0.15078863501548767, -0.1402519941329956, 0.088957779109478, -0.059537194669246674, 0.1597774624824524, -0.11119875311851501, -0.16263237595558167, -0.14127038419246674, -0.004419025965034962, 0.19148048758506775, 0.1624787151813507, -0.06906181573867798, -0.1438279151916504, 0.001694848295301199, -0.09128458797931671, -0.028377290815114975, -0.013387929648160934, -0.03639111667871475, -0.11205362528562546, -0.06544595956802368, 0.1301587074995041, 0.13859978318214417, -0.11795175820589066, 0.13357621431350708], [-0.0745023712515831, -0.10089608281850815, -0.11766906827688217, -0.010989893227815628, -0.02320706844329834, -0.03948445990681648, 0.16528619825839996, -0.009696156717836857, -0.13847211003303528, -0.05300680920481682, -0.02942293882369995, 0.026845285668969154, 0.03373565152287483, -0.11702336370944977, -0.1791507601737976, -0.007091672625392675, 0.0979519709944725, 0.05260453745722771, -0.05982131510972977, 0.05241537094116211, 0.11704793572425842, 0.1162739023566246, -0.12677361071109772, 0.15023435652256012, 0.0786389634013176, -0.03454386815428734, 0.2466086447238922, -0.09865899384021759, 0.137483611702919, -0.06320160627365112], [-0.07230448722839355, 0.015266520902514458, 0.025081347674131393, 0.1618688404560089, 0.09456827491521835, 0.16426405310630798, -0.1318393349647522, 0.09885703772306442, -0.04822111874818802, 0.08924669027328491, 0.13704410195350647, 0.18115589022636414, -0.008549963124096394, -0.0963989868760109, -0.06022312864661217, 0.01950603723526001, -0.08598016202449799, -0.025205858051776886, -0.02001868188381195, 0.07777712494134903, 0.11255519837141037, -0.059948597103357315, -0.07209832966327667, 0.1367446482181549, 0.013249211944639683, 0.0068585011176764965, 0.23582470417022705, 0.015501756221055984, -0.0493580587208271, -0.1714915931224823], [-0.141485795378685, 0.11227628588676453, -0.11741995066404343, 0.009657829999923706, -0.13028255105018616, -0.15258654952049255, -0.01778438128530979, 0.015477817505598068, 0.18399272859096527, 0.037959445267915726, 0.17473933100700378, 0.1949513852596283, -0.153030127286911, -0.01924383081495762, 0.052147094160318375, -0.11652933806180954, -0.03122851252555847, 0.10792219638824463, 0.18239076435565948, 0.01029494870454073, -0.1692182421684265, 0.16634173691272736, -0.15026579797267914, -0.09409765154123306, 0.09449924528598785, 0.118648000061512, 0.15581931173801422, -0.14348085224628448, 0.1529836654663086, 0.17208126187324524], [-0.14625319838523865, -0.12555527687072754, 0.18719717860221863, 0.04307453706860542, -0.07925890386104584, -0.09693380445241928, -0.14743751287460327, 0.04125048965215683, 0.01665685325860977, 0.09127379953861237, 0.020540468394756317, -0.024475671350955963, 0.12372282147407532, 0.023832805454730988, -0.04899488762021065, 0.15754097700119019, 0.1728103905916214, -0.12495655566453934, -0.08885420113801956, 0.11055482923984528, -0.005614929366856813, -0.08015186339616776, -0.0865105465054512, 0.06578594446182251, -0.12219893932342529, 0.10452918708324432, 0.24606315791606903, 0.1964349001646042, -0.030041808262467384, -0.027783282101154327], [-0.16510608792304993, 0.09875478595495224, 0.15592555701732635, -0.19181004166603088, 0.15756618976593018, -0.016993127763271332, -0.07308299094438553, 0.006707266438752413, 0.09467543661594391, 0.10795775800943375, 0.17598633468151093, 0.1285696178674698, -0.02270274981856346, -0.129127636551857, -0.10420572012662888, -0.11189223825931549, 0.003181114559993148, 0.15201380848884583, -0.07943346351385117, -0.008495473302900791, 0.16950425505638123, -0.04431210830807686, 0.1335698813199997, 0.023162618279457092, -0.05967680364847183, 0.1793852597475052, 0.15381155908107758, -0.07855064421892166, 0.011974927969276905, 0.07678768783807755], [0.13974937796592712, -0.09955612570047379, 0.09326674789190292, 0.14910244941711426, -0.14770984649658203, -0.05583465099334717, 0.1483985036611557, 0.022533582523465157, -0.09378552436828613, -0.015673262998461723, -0.01568378321826458, -0.05543944239616394, -0.08685320615768433, 0.18543556332588196, -0.14179734885692596, -0.1464214026927948, -0.05021197348833084, 0.09401153028011322, -0.17874309420585632, 0.029774850234389305, 0.18876580893993378, 0.10802263766527176, -0.13236579298973083, -0.01086412277072668, -0.14313992857933044, 0.09910079836845398, 0.071320541203022, -0.05108632892370224, -0.13023506104946136, -0.00089471839601174], [0.1213684156537056, -0.0639578104019165, 0.18163201212882996, 0.025248030200600624, -0.11712279915809631, -0.125268816947937, 0.07787896692752838, 0.18029826879501343, -0.1101832389831543, -0.0988362580537796, 0.20308582484722137, 0.11604713648557663, 0.13802145421504974, -0.051583096385002136, -0.013203243725001812, -0.04636044055223465, 0.21201615035533905, -0.07007602602243423, -0.07583830505609512, 0.022122181951999664, 0.20260320603847504, -0.12773634493350983, -0.06738577038049698, 0.17738661170005798, -0.005683824419975281, -0.02202579937875271, 0.2586360573768616, -0.09107784181833267, -0.09455224871635437, 0.08013365417718887], [-0.15998654067516327, -0.07490140199661255, 0.0923856645822525, 0.035770293325185776, -0.06479611247777939, 0.09376388043165207, 0.1632862389087677, -0.07824894040822983, 0.14006033539772034, 0.033795055001974106, -0.1560002565383911, -0.10085495561361313, 0.10009904205799103, 0.12946553528308868, -0.11561678349971771, -0.14232298731803894, -0.014417286030948162, -0.008231503888964653, 0.10792533308267593, -0.1550179272890091, 0.19178734719753265, -0.05667751282453537, -0.1443890482187271, -0.15463300049304962, -0.15822389721870422, -0.09857514500617981, -0.1236552968621254, 0.18669389188289642, 0.011678420007228851, 0.0033188308589160442], [0.15380576252937317, 0.10042231529951096, 0.015861405059695244, 0.08313341438770294, -0.04244384914636612, 0.12105229496955872, 0.057265184819698334, 0.0496208481490612, -0.08813748508691788, 0.09122620522975922, -0.04236817732453346, -0.03188573196530342, 0.07295985519886017, 0.18986058235168457, 0.125522643327713, -0.006409783847630024, -0.16292205452919006, 0.051285963505506516, -0.15600527822971344, -0.13637447357177734, 0.13385576009750366, 0.04665696993470192, -0.05324772372841835, -0.06656963378190994, 0.1365935355424881, -0.03968002274632454, -0.14427360892295837, 0.05533726140856743, 0.19275400042533875, -0.13505646586418152], [-0.16185784339904785, 0.13622887432575226, -0.12116162478923798, 0.08319693058729172, -0.1763656586408615, -0.12571191787719727, 0.20573070645332336, -0.0007824432686902583, 0.004654452204704285, -0.11934738606214523, 0.22769080102443695, 0.07043176889419556, 0.16215500235557556, -0.09170878678560257, -0.14855754375457764, 0.12352467328310013, 0.19218653440475464, 0.05711078643798828, 0.0418412871658802, 0.012271041981875896, 0.15691085159778595, -0.11126746237277985, -0.07058387994766235, 0.08094634860754013, -0.06768573075532913, -0.10346508026123047, -0.00044516572961583734, -0.022176817059516907, 0.04559849575161934, 0.11815125495195389], [0.07096472382545471, 0.06870398670434952, 0.10188405215740204, -0.11941046267747879, -0.14676834642887115, -0.11744143068790436, -0.0833318904042244, -0.15281499922275543, 0.1755467802286148, -0.00361166475340724, -0.005061582662165165, -0.04226541891694069, 0.014532816596329212, 0.05359971895813942, 0.07709932327270508, -0.03414452075958252, -0.029098594561219215, -0.05024943873286247, -0.14469768106937408, -0.008271826431155205, 0.00042753375601023436, 0.10125278681516647, 0.13105055689811707, -0.08092985302209854, 0.02911519445478916, 0.15609155595302582, -0.10314524918794632, 0.04764656350016594, -0.12727688252925873, -0.09789073467254639], [-0.0858929380774498, -0.11277112364768982, 0.16819612681865692, -0.07007869333028793, -0.08611831068992615, -0.10894649475812912, 0.11991763859987259, 0.13358871638774872, -0.04017585143446922, 0.17269283533096313, 0.07774331420660019, 0.09179005771875381, 0.04283880814909935, 0.12799714505672455, -0.15370780229568481, 0.1372290551662445, -0.1049833819270134, 0.05084245651960373, 0.13453085720539093, -0.004623297601938248, 0.09897199273109436, 0.2019307017326355, -0.1803734451532364, 0.13782116770744324, -0.03814083710312843, -0.06467665731906891, -0.020560206845402718, -0.10786895453929901, 0.13656017184257507, -0.03017844818532467], [-0.07706958800554276, 0.03488154709339142, 0.018517224118113518, -0.08820301294326782, -0.018812283873558044, 0.19038143754005432, -0.027020007371902466, -0.06785213202238083, -0.07596351951360703, 0.09105312079191208, 0.1490299552679062, -0.047088805586099625, -0.11094047129154205, -0.16961970925331116, 0.16629356145858765, 0.18373645842075348, 0.11413164436817169, -0.0828331857919693, -0.14513474702835083, 0.19135916233062744, 0.1533549726009369, 0.03862008824944496, -0.1545582413673401, -0.08730381727218628, -0.013678899966180325, -0.022591374814510345, -0.19604924321174622, -0.17225107550621033, 0.10723648965358734, 0.08091844618320465], [0.09047345817089081, 0.06609535962343216, 0.0673334077000618, 0.17125597596168518, 0.11662927269935608, -0.11989688873291016, 0.0837053656578064, 0.04222264140844345, 0.06284224987030029, -0.04438548535108566, 0.0990729108452797, -0.0485517717897892, 0.03262847661972046, 0.021704532206058502, -0.0007146464777179062, -0.1235988438129425, 0.17906554043293, 0.019397584721446037, -0.03512691333889961, 0.01796397753059864, -0.016027284786105156, 0.13179384171962738, -0.11395199596881866, -0.1529419869184494, 0.05324554070830345, -0.058725614100694656, 0.2576172351837158, 0.035943564027547836, 0.1707167625427246, 