{"metadata": {"algorithm": "reinforce_self_play", "num_players": 3, "input_size": 33, "hidden_size": 128, "num_layers": 2, "output_size": 10, "abstract_actions": ["L", "M", "H", "D", "LL", "LH", "HH", "K0", "K1", "K2"], "episodes": 20032, "win_rate_vs_random": 0.52, "exported_at": "2026-03-11T00:27:30Z"}, "weights": {"w1": [[0.14814269542694092, 0.17745043337345123, -0.030078792944550514, 0.16140832006931305, -0.015954863280057907, 0.06509805470705032, -0.07702084630727768, 0.1091589704155922, 0.17336055636405945, -0.11153031885623932, 0.16787779331207275, 0.058996472507715225, 0.14588627219200134, 0.04268674924969673, 0.13433974981307983, -0.0010355620179325342, 0.15085388720035553, 0.055701013654470444, -0.04222462698817253, 0.083179771900177, -0.048959288746118546, 0.01241825707256794, -0.07539264857769012, 0.14923618733882904, -0.1128193736076355, -0.055244434624910355, -0.024263452738523483, -0.07954564690589905, 0.042499374598264694, -0.1719328761100769, 0.17146584391593933, -0.11858724802732468, 0.13439272344112396], [0.06206193193793297, -0.022234998643398285, 0.11869077384471893, 0.03657183423638344, 0.15484923124313354, 0.058736901730298996, -0.03667553886771202, 0.059855785220861435, -0.020082708448171616, 0.10264618694782257, 0.1789962649345398, 0.1297287940979004, -0.04210374876856804, 0.1321411281824112, 0.08101396262645721, 0.10970572382211685, -0.09252344071865082, -0.1326141655445099, -0.03291269764304161, -0.08971571922302246, 0.1806037575006485, 0.09134549647569656, 0.09989111870527267, 0.08176757395267487, 0.0320485457777977, 0.16998255252838135, -0.09615998715162277, 0.04692251235246658, -0.10088963806629181, 0.05367719382047653, -0.03676227107644081, 0.09078118205070496, -0.03626759722828865], [0.16627322137355804, -0.09316537529230118, -0.10064176470041275, -0.10415466129779816, 0.17110659182071686, 0.08421963453292847, 0.1750321090221405, -0.1309494823217392, -0.15683642029762268, -0.12156283110380173, -0.10556470602750778, 0.08943615853786469, 0.07307525724172592, 0.15725386142730713, -0.0660046711564064, -0.10189271718263626, 0.1051633358001709, -0.04415499046444893, 0.1400800496339798, -0.011400816962122917, 0.11710496991872787, -0.11324309557676315, -0.08338551223278046, 0.07376372814178467, 0.04889053478837013, -0.027910787612199783, 0.12000146508216858, 0.13435539603233337, -0.10943274945020676, -0.09293452650308609, 0.17671626806259155, -0.036694202572107315, -0.061713382601737976], [-0.17472973465919495, -0.09610601514577866, 0.04322296380996704, -0.013519958592951298, -0.1255147010087967, 0.0022368624340742826, -0.11909903585910797, -0.13987787067890167, -0.09497030824422836, -0.1503520905971527, -0.11722568422555923, 0.17289918661117554, 0.0292042326182127, 0.05473057180643082, -0.1629105657339096, -0.1066475361585617, -0.054743122309446335, 0.02537429705262184, -0.15491150319576263, -0.07594133168458939, -0.10495341569185257, -0.0003762244014069438, -0.06245119869709015, -0.020872531458735466, -0.11449559032917023, -0.12023445963859558, -0.10651273280382156, -0.06013565883040428, -0.13654907047748566, 0.14595887064933777, -0.036485590040683746, 0.14870354533195496, 0.054239481687545776], [-0.13446509838104248, 0.12477336078882217, -0.03735027462244034, -0.05542768910527229, -0.15189829468727112, -0.14730025827884674, 0.05914962291717529, -0.03441108390688896, 0.0642109140753746, -0.13895167410373688, 0.13131305575370789, -0.12591801583766937, -0.029547719284892082, 0.04724547639489174, 0.11421892791986465, 0.1536569893360138, 0.18273170292377472, -0.11226917803287506, 0.07696748524904251, -0.0458330474793911, -0.005615603178739548, -0.11601784080266953, 0.1731032431125641, -0.1285284012556076, 0.10040897876024246, 0.07133404910564423, 0.06722073256969452, -0.08404874056577682, 0.16906967759132385, 0.03825363516807556, 0.03372936323285103, -0.13296255469322205, 0.0730757936835289], [-0.027572542428970337, -0.06800628453493118, 0.14337915182113647, 0.05478707328438759, -0.09670357406139374, -0.0922011286020279, -0.0105366799980402, 0.10396166145801544, -0.042732998728752136, -0.09886851906776428, -0.051247090101242065, -0.12421398609876633, 0.07642746716737747, 0.13771457970142365, -0.17910006642341614, 0.042128611356019974, 0.08596081286668777, 0.027471760287880898, -0.06741649657487869, 0.08685065060853958, 0.09131931513547897, 0.06672168523073196, -0.024622296914458275, -0.04839301109313965, 0.01824919879436493, -0.028310948982834816, -0.04765833914279938, 0.11658348888158798, 0.14867499470710754, -0.01723322831094265, -0.03240280970931053, -0.0035791757982224226, -0.010393870063126087], [0.024709148332476616, 0.031465861946344376, -0.16011786460876465, -0.05827045068144798, 0.14038865268230438, 0.04598163440823555, -0.020031074061989784, -0.11489058285951614, -0.11095002293586731, -0.17059165239334106, -0.0696907714009285, 0.046347372233867645, 0.09057748317718506, 0.06459670513868332, -0.1766190528869629, -0.11367356777191162, -0.03567753732204437, 0.14656272530555725, 0.010661041364073753, -0.06814734637737274, 0.052465785294771194, -0.08830632269382477, -0.12189440429210663, 0.10804832726716995, -0.09138945490121841, -0.05360695347189903, -0.17972256243228912, 0.09946362674236298, 0.1248188316822052, 0.06344228982925415, -0.1327393501996994, -0.1924179345369339, -0.14138221740722656], [0.12358006834983826, 0.08069231361150742, 0.14019685983657837, 0.09498091787099838, 0.04253410920500755, -0.009498554281890392, -0.1301334798336029, -0.14656947553157806, -0.1630031317472458, 0.06635547429323196, -0.09477705508470535, -0.03868481516838074, -0.10093310475349426, -0.03793073445558548, -0.1213182657957077, -0.11541400849819183, 0.0546320378780365, -0.05952911451458931, 0.10051251202821732, -0.06426481157541275, -0.13496246933937073, -0.03820334002375603, -0.0912516862154007, -0.05874497815966606, -0.1626468300819397, 0.09140553325414658, -0.12082235515117645, 0.08177825063467026, 0.07836313545703888, 0.12436677515506744, -0.13358330726623535, 0.11760639399290085, -0.0822954922914505], [0.09202412515878677, 0.18602816760540009, -0.017569705843925476, -0.007074516266584396, -0.026057468727231026, -0.09185004979372025, 0.08936457335948944, -0.1703270971775055, 0.12535926699638367, 0.1460583657026291, 0.17933782935142517, -0.018809327855706215, -0.1279478669166565, 0.0605427548289299, 0.13604862987995148, -0.15787898004055023, -0.021952882409095764, -0.05084962025284767, 0.03993387892842293, -0.026173679158091545, -0.044230494648218155, -0.02200445532798767, -0.15828247368335724, 0.16407477855682373, 0.17133130133152008, -0.00569140212610364, -0.0022810872178524733, -0.04867181554436684, -0.14313262701034546, -0.16940270364284515, 0.089826300740242, -0.045119233429431915, -0.11191052198410034], [0.004821729380637407, -0.02294035442173481, -0.054748453199863434, -0.011967883445322514, -0.0383310467004776, -0.02238505706191063, -0.0744004100561142, -0.1251593828201294, 0.16070310771465302, -0.046960409730672836, 0.05909260734915733, -0.05010222643613815, 0.035846468061208725, 0.18332719802856445, 0.1047721654176712, -0.14950460195541382, 0.07906100898981094, 0.20279400050640106, 0.0776139572262764, 0.15853378176689148, 0.19916844367980957, 0.0038656210526823997, 0.056275106966495514, -0.09696570038795471, -0.020009249448776245, 0.14462733268737793, 0.09646814316511154, -0.0891990065574646, -0.14210021495819092, -0.11895834654569626, -0.1449962556362152, -0.09858477860689163, -0.043048955500125885], [0.11642783880233765, 0.03860636055469513, -0.1372046321630478, -0.1442192792892456, 0.08037251979112625, -0.1200794205069542, -0.013807038776576519, 0.07959826290607452, -0.07310111820697784, -0.019945485517382622, -0.014967489056289196, -0.04326789453625679, -0.08978348970413208, -0.1615842878818512, -0.14445041120052338, -0.09133826941251755, 0.17597292363643646, -0.07467537373304367, -0.12023206055164337, 0.050013456493616104, 0.05196933075785637, 0.09851861745119095, 0.13482621312141418, 0.10065353661775589, -0.19149908423423767, 0.014918096363544464, 0.10509654134511948, -0.0164326224476099, -0.10587112605571747, 0.16595517098903656, -0.060053206980228424, -0.09133143723011017, -0.15694059431552887], [0.046995945274829865, 0.10594964772462845, 0.04273667931556702, 0.030674809589982033, -0.13300609588623047, -0.11600210517644882, 0.025830822065472603, 0.17134791612625122, 0.11895981431007385, -0.07793248444795609, -0.0015952381072565913, -0.10612241923809052, -0.05331069976091385, 0.06252294033765793, 0.13835416734218597, 0.15226656198501587, -0.14552432298660278, 0.16295769810676575, -0.08343455940485, 0.11070452630519867, 0.18491733074188232, 0.04393710568547249, 0.19235704839229584, -0.1306520700454712, -0.034249767661094666, 0.13044923543930054, -0.022198641672730446, -0.006748615764081478, -0.06861518323421478, 0.11999280005693436, 0.11377624422311783, 0.0943325087428093, -0.0978253185749054], [-0.14849644899368286, 0.011518042534589767, 0.044236134737730026, -0.08037372678518295, -0.048706524074077606, 0.10658909380435944, 0.015764005482196808, 0.00033694447483867407, -0.047042131423950195, -0.15291954576969147, -0.16919293999671936, -0.08570889383554459, -0.09385333955287933, 0.04590042307972908, -0.06800658255815506, -0.07730551064014435, 0.15676824748516083, 0.0496579185128212, 0.11315854638814926, -0.10141030699014664, -0.08036475628614426, 0.05300326272845268, -0.12287797778844833, -0.11961428821086884, -0.01686171628534794, -0.0726531445980072, -0.13282369077205658, 0.09517426788806915, 0.1314282864332199, 0.028239458799362183, -0.03183628246188164, -0.17230170965194702, -0.0634058266878128], [0.0801924392580986, 0.10967302322387695, -0.014813113026320934, -0.0750381126999855, 0.12049434334039688, -0.09815073758363724, 0.12494534254074097, -0.057105109095573425, 0.02726220339536667, -0.0107950484380126, 0.0408291220664978, -0.025852177292108536, 0.14654485881328583, 0.018093323335051537, 0.192410409450531, 0.19740420579910278, -0.05911655351519585, -0.08650657534599304, 0.18642853200435638, 0.18521267175674438, -0.09396720677614212, 0.02723671868443489, -0.14124760031700134, -0.12104057520627975, 0.05709272623062134, 0.0772523507475853, 0.06782449781894684, -0.017460228875279427, 0.19171597063541412, 0.0248892679810524, -0.08228860050439835, 0.028959503397345543, 0.04180391505360603], [0.06762130558490753, -0.11464651674032211, 0.046383362263441086, -0.09508145600557327, -0.16576868295669556, -0.08008520305156708, 0.17187003791332245, 0.1461738795042038, 0.14689931273460388, 0.10014564543962479, 0.1265895664691925, -0.032105702906847, -0.09245243668556213, 0.08746794611215591, -0.09843770414590836, -0.13514691591262817, -0.0634506493806839, 0.051529161632061005, 0.08787525445222855, -0.038000766187906265, -0.10468099266290665, 0.02314651384949684, -0.08820396661758423, -0.11392118781805038, 0.07863108068704605, -0.037810493260622025, 0.14357975125312805, 0.1619844287633896, 0.03137163817882538, 0.05991016700863838, 0.05562755838036537, 0.030833788216114044, -0.012661094777286053], [0.0036482273135334253, 0.05091889947652817, 0.15111415088176727, -0.05978423357009888, -0.08621668070554733, -0.03693179041147232, -0.08982014656066895, 0.021928980946540833, 0.11194631457328796, 0.1222982183098793, 0.06981883198022842, -0.14218932390213013, -0.1085999459028244, -0.0502483993768692, -0.037752825766801834, -0.0013163447147235274, -0.15606245398521423, 0.05940444767475128, -0.11869531124830246, -0.10324965417385101, -0.15798847377300262, 0.1372183859348297, -0.17169247567653656, 0.12575039267539978, -0.019783541560173035, -0.03525882959365845, 0.09397285431623459, -0.033225394785404205, 0.09347809851169586, 0.12586075067520142, -0.14648787677288055, 0.07017021626234055, 0.03286220505833626], [0.046767108142375946, 0.03075798600912094, 0.049748167395591736, -0.08020412921905518, -0.02844863571226597, 0.18141259253025055, 0.1117299273610115, 0.0012519403826445341, -0.16139085590839386, 0.00796448439359665, -0.1236303448677063, 0.1417565792798996, -0.11178995668888092, -0.008472733199596405, -0.007323259953409433, 0.03762979805469513, 0.17595162987709045, 0.03255857899785042, 0.13275577127933502, 0.15568587183952332, 0.1497182548046112, -0.05101444199681282, -0.036025743931531906, 0.09013024717569351, -0.040902771055698395, 0.0853043720126152, -0.033627238124608994, -0.114704929292202, 0.07869356870651245, 0.02668924629688263, 0.08852171897888184, 0.1855451911687851, 0.11884855479001999], [0.15635345876216888, 0.007234692107886076, -0.151896670460701, -0.1250457614660263, -0.10962475836277008, -0.16281060874462128, -0.08680179715156555, -0.16810360550880432, -0.16176742315292358, -0.11400000005960464, -0.1707763969898224, -0.11124257743358612, 0.05712887644767761, 0.13662777841091156, -0.05724553391337395, -0.0545291006565094, 0.08927396684885025, -0.09528964012861252, -0.08970142155885696, 0.10186938941478729, -0.1609499603509903, 0.012402498163282871, 0.1446927934885025, 0.024996191263198853, 0.04599409177899361, -0.11015881597995758, -0.004501829855144024, 0.002354901749640703, 0.03614203631877899, 0.06763717532157898, 0.1489708125591278, -0.140626460313797, 0.005218029022216797], [-0.0715300589799881, -0.1407136619091034, -0.00794647354632616, -0.15369823575019836, 0.10620284080505371, 0.03338366746902466, -0.09511252492666245, 0.08340870589017868, -0.16731806099414825, -0.06870271265506744, -0.03870249539613724, -0.14722870290279388, -0.11033715307712555, -0.023003051057457924, 0.1451452672481537, 0.1812952309846878, 0.1253354251384735, -0.09072303771972656, -0.08738560974597931, 0.17129091918468475, 0.07386454939842224, 0.016533663496375084, 0.034291815012693405, -0.13718998432159424, -0.05130970478057861, 0.17572173476219177, -0.04205264151096344, -0.003534774063155055, -0.14095725119113922, -0.09738028049468994, -0.002197021385654807, -0.09006720036268234, -0.021587302908301353], [0.06459349393844604, -0.16637000441551208, 0.04535212367773056, -0.11589532345533371, -0.09198358654975891, 0.06060118228197098, 0.12928396463394165, -0.04975339397788048, -0.0805962011218071, -0.1565406173467636, -0.09328378736972809, -0.15866942703723907, -0.03979774937033653, 0.031818654388189316, -0.18113842606544495, 0.1440938413143158, 0.10485111176967621, -0.17664164304733276, -0.08995756506919861, 0.044427938759326935, -0.044509898871183395, -0.028049759566783905, -0.07814441621303558, 0.13648687303066254, -0.10735543072223663, 0.13708344101905823, 0.0029020444490015507, 0.02807275392115116, 0.1281099021434784, -0.028682010248303413, -0.09871987253427505, -0.04060279205441475, 0.14118628203868866], [-0.15244531631469727, 0.05305292829871178, -0.17310024797916412, 0.10729112476110458, 0.052677255123853683, 0.0035672124940901995, 0.0815458670258522, -0.003799304598942399, 0.08839230984449387, -0.13923431932926178, -0.037079256027936935, 0.07337285578250885, 0.1674390435218811, 0.08451429009437561, -0.11619975417852402, 0.12879350781440735, -0.04449855908751488, -0.04098045453429222, -0.15373723208904266, -0.02565508335828781, 0.11895375698804855, 0.01939537562429905, -0.12233483791351318, 0.07255326211452484, -0.06513403356075287, 0.15583744645118713, -0.1560383290052414, -0.055385489016771317, -0.17186424136161804, -0.06855703890323639, 0.050551701337099075, 0.16706117987632751, 0.029235705733299255], [0.1929866373538971, 0.0599515326321125, 0.11284984648227692, 0.13901656866073608, 0.14469961822032928, -0.048540666699409485, 0.17767883837223053, 0.11254110932350159, -0.0692751482129097, -0.07259896397590637, -0.13588759303092957, 0.06046343594789505, -0.12810026109218597, 0.08999618142843246, 0.08868885785341263, -0.13607831299304962, 0.07600829005241394, 0.034736912697553635, 0.12442750483751297, 0.1507209986448288, -0.1404092013835907, 0.1941048502922058, 0.1632133573293686, 0.10089506953954697, -0.1465778648853302, -0.043380267918109894, -0.03776537999510765, -0.02551954984664917, 0.10978884994983673, 0.06328951567411423, 0.16109003126621246, -0.02407868392765522, 0.058584053069353104], [0.043643999844789505, -0.16627620160579681, -0.1741652637720108, -0.09207560122013092, 0.10690376907587051, -0.18681570887565613, -0.1604454219341278, 0.08906091004610062, 0.07768012583255768, 0.12439489364624023, -0.14472679793834686, -0.14499782025814056, 0.067494235932827, 0.13283345103263855, 0.07490119338035583, 0.013126598671078682, 0.04812648519873619, 0.14229315519332886, -0.12916700541973114, -0.10203275084495544, 0.10097887367010117, -0.14287319779396057, -0.10012269765138626, 0.10219264775514603, 0.03344736620783806, 0.0357288159430027, -0.09159516543149948, -0.023495936766266823, 0.14613603055477142, -0.1044849082827568, -0.009343679063022137, 0.06267380714416504, -0.12017560005187988], [0.16018551588058472, -0.07751698046922684, -0.0412285141646862, -0.0448613241314888, -0.11014479398727417, -0.1800646185874939, 0.0983344167470932, 0.04870159178972244, -0.1561497300863266, -0.11082173883914948, 0.16998712718486786, 0.060775045305490494, 0.07556619495153427, -0.11136769503355026, -0.08105876296758652, -0.026678606867790222, -0.038977161049842834, -0.128534734249115, 0.008530179969966412, 0.010262717492878437, -0.02467348799109459, 0.020506570115685463, -0.07476869970560074, 0.049920953810214996, 0.05997253209352493, -0.09417536109685898, -0.1699616014957428, 0.09057202935218811, 0.042087309062480927, -0.08853380382061005, 0.16480796039104462, -0.08376012742519379, 0.1176324188709259], [0.12447221577167511, -0.10990671813488007, 0.12001628428697586, -0.15794187784194946, -0.0793893039226532, 0.009521412663161755, -0.09688560664653778, 0.18632975220680237, -0.009603292681276798, 0.09971591085195541, -0.13009195029735565, 0.13143447041511536, -0.019489137455821037, -0.09960287809371948, 0.07536907494068146, 0.10469494760036469, 0.16436588764190674, -0.06778258830308914, -0.05623766407370567, 0.0736391618847847, 0.08468504995107651, 0.10797502845525742, 0.12630951404571533, -0.013248983770608902, 0.12859438359737396, 0.16362935304641724, -0.017601877450942993, 0.1612696647644043, 0.10174510627985, 0.15354567766189575, -0.07581542432308197, -0.05157183110713959, -0.05033262446522713], [0.003777651581913233, 0.0941794216632843, -0.09961345791816711, 0.08725906163454056, -0.06689264625310898, 0.09414993971586227, -0.01697341538965702, -0.15664155781269073, -0.09500065445899963, -0.13322675228118896, 0.07870209217071533, -0.11965727061033249, -0.02010992541909218, 0.029572047293186188, -0.09886759519577026, 0.046037457883358, -0.17281664907932281, -0.1355661153793335, -0.16816769540309906, -0.06436019390821457, -0.07301460951566696, 0.01378674153238535, -0.025098148733377457, 0.07546304166316986, 0.14877761900424957, 0.056621093302965164, -0.06984040141105652, -0.17009982466697693, 0.060560617595911026, -0.08624815195798874, 0.08013508468866348, 0.10642818361520767, 0.06714531779289246], [0.2009221911430359, 0.17687217891216278, 0.05992036312818527, -0.11961884051561356, 0.13440275192260742, -0.03773524612188339, -0.06586934626102448, 0.15842103958129883, 0.1482449769973755, 0.06963939964771271, 0.025799375027418137, -0.13415613770484924, 0.0009415681124664843, 0.19134755432605743, 0.09443079680204391, 0.029399031773209572, -0.012403241358697414, -0.015851328149437904, 0.15135042369365692, 0.05832735821604729, 0.15243291854858398, 0.009007435292005539, 0.10977766662836075, 0.07593299448490143, 0.06293892860412598, 0.13848701119422913, 0.12639866769313812, 0.1887478530406952, 0.14454375207424164, -0.04451107606291771, -0.1194433718919754, 0.07184579223394394, -0.0015193960862234235], [-0.06259392946958542, -0.05151964724063873, 0.001856799703091383, 0.12167640775442123, 0.07207030057907104, -0.08568032830953598, -0.08107802271842957, -0.05050724744796753, -0.07740650326013565, 0.13934625685214996, 0.07870804518461227, 0.14185376465320587, -0.01732054352760315, 0.014503738842904568, 0.029435619711875916, -0.17441710829734802, 0.0024594927672296762, -0.03551040217280388, -0.1183723583817482, -0.1589873880147934, 0.13188989460468292, 0.11953776329755783, 0.06679821759462357, 0.14638541638851166, -0.08898553252220154, -0.04902320355176926, 0.05011099576950073, -0.04874894395470619, -0.0424475334584713, -0.14388588070869446, 0.03375423327088356, -0.12584495544433594, 0.006330547388643026], [0.16146032512187958, -0.05284414812922478, -0.05441707745194435, 0.10004875808954239, -0.060689184814691544, -0.02142801508307457, 0.1554170846939087, -0.07093380391597748, -0.13022451102733612, -0.10597394406795502, -0.0521722249686718, -0.07875745743513107, -0.09578057378530502, 0.06462253630161285, 0.029073571786284447, -0.0582432746887207, -0.13690800964832306, -0.061288733035326004, -0.07865533977746964, -0.06526562571525574, -0.16292302310466766, 0.030847596004605293, -0.13490645587444305, -0.13210992515087128, -0.14816677570343018, 0.06690824776887894, -0.10636954754590988, -0.07753735780715942, 0.13482576608657837, 0.0924290120601654, 0.09355536103248596, -0.17326518893241882, -0.12483105063438416], [-0.08944855630397797, 0.15332384407520294, -0.011312289163470268, -0.13824397325515747, 0.0015959832817316055, -0.1567239910364151, -0.04569600522518158, -0.06234258413314819, 0.13552053272724152, 0.038536325097084045, -0.04237416759133339, 0.020221231505274773, -0.05640507489442825, 0.05296429246664047, 0.03926672041416168, 0.027224889025092125, -0.08768213540315628, 0.12699152529239655, -0.056149523705244064, -0.08833098411560059, 0.08280746638774872, 0.11762817949056625, 0.1464969366788864, 0.06230711564421654, -0.08752207458019257, 0.06619716435670853, 0.12943895161151886, -0.1903211623430252, -0.040860481560230255, -0.11871495097875595, 0.02238735556602478, 0.05461607500910759, -0.035962339490652084], [-0.01331694982945919, 0.07744431495666504, -0.03284554183483124, -0.14819058775901794, 0.13824523985385895, -0.08591525256633759, -0.02227521874010563, 0.0181333776563406, -0.009889168664813042, -0.16490745544433594, 0.07986486703157425, -0.08005134761333466, -0.09124916791915894, 0.03831087797880173, -0.0921856015920639, -0.08163168281316757, -0.06148986890912056, -0.0636964961886406, -0.07198768109083176, -0.046000801026821136, 0.04564050957560539, -0.14204704761505127, -0.1063510924577713, 0.004109382163733244, 0.02293689176440239, 0.09533891826868057, -0.12334862351417542, 0.0544603206217289, 0.09774202853441238, 0.09665839374065399, -0.16571854054927826, -0.06598426401615143, -0.14963117241859436], [-0.1125391498208046, 0.11595121771097183, -0.027937738224864006, 0.10242841392755508, -0.10522579401731491, 0.037430405616760254, -0.10024037212133408, 0.0956287533044815, -0.06099361553788185, -0.02636832371354103, -0.13905832171440125, 0.008338546380400658, 0.18327727913856506, 0.09485501050949097, -0.10528350621461868, 0.012023999355733395, -0.012470455840229988, -0.1291678249835968, 0.13693131506443024, 0.01207094918936491, 0.043601393699645996, -0.057323090732097626, -0.07419619709253311, 0.0442035049200058, 0.06685461848974228, 0.051022328436374664, -0.07675444334745407, 0.1826217770576477, -0.020559391006827354, -0.10660777986049652, -0.07760439068078995, 0.17844608426094055, 8.383676686207764e-06], [0.01204703189432621, -0.03064105100929737, -0.031806036829948425, -0.14234283566474915, -0.11939401179552078, 0.14493149518966675, 0.1733645796775818, 0.18818610906600952, -0.09700748324394226, 0.1279064416885376, -0.07964612543582916, 0.13490277528762817, 0.1644177883863449, 0.17222550511360168, 0.18366621434688568, 0.13186192512512207, 0.02161347307264805, 0.12303117662668228, -0.024526447057724, 0.12020225822925568, -0.013408818282186985, 0.04191570356488228, -0.12001357227563858, -0.013449730351567268, -0.05473126843571663, -0.01957116648554802, -0.08070939034223557, -0.11548382043838501, 0.032641731202602386, 0.11297278106212616, 0.18482953310012817, 0.13962848484516144, -0.09023095667362213], [-0.181229367852211, 0.04573824629187584, 0.09660094976425171, -0.15408742427825928, 0.08305108547210693, 0.12762005627155304, -0.004607243463397026, -0.116028793156147, 0.1346123218536377, 0.061921343207359314, 0.10675585269927979, -0.12664292752742767, 0.07844691723585129, -0.13093167543411255, 0.16280773282051086, -0.0684899389743805, 0.1059228926897049, 0.015298854559659958, 0.03885297477245331, -0.04863080754876137, 0.05484389141201973, -0.08926974982023239, -0.174451544880867, -0.07672666013240814, 0.12140337377786636, -0.05566973239183426, 0.05036194995045662, -0.07928299158811569, 0.13866113126277924, 0.10418377816677094, 0.05199094116687775, -0.1104060485959053, -0.14224405586719513], [0.0008491812623105943, -0.10174021869897842, 0.13158714771270752, -0.1675644814968109, 0.07372353225946426, 0.16343116760253906, 0.08707688003778458, 0.056666966527700424, -0.1620606780052185, 0.15885134041309357, -0.03338951617479324, -0.16828665137290955, 0.1714504510164261, -0.07599255442619324, -0.03054770641028881, 0.15656954050064087, -0.12292467057704926, -0.13326749205589294, 0.013784664683043957, -0.039177294820547104, 0.026712093502283096, -0.15617653727531433, -0.006383636966347694, -0.08034252375364304, -0.08842726796865463, -0.16575798392295837, 0.08347538113594055, 0.02474878542125225, -0.15066087245941162, 0.13813966512680054, 0.053836043924093246, 0.01628461480140686, -0.10220732539892197], [0.04180576652288437, 0.2047080397605896, 0.1274377852678299, -0.12820503115653992, 0.1383347362279892, 0.05631721764802933, 0.09792974591255188, 0.1495305597782135, 0.15794064104557037, -0.1196875125169754, 0.16381025314331055, -0.10558944195508957, 0.04262969642877579, -0.100380539894104, -0.0078117032535374165, -0.01006461214274168, -0.00975623819977045, 0.015324441716074944, 0.04582516849040985, 0.2161548137664795, 0.13061535358428955, 0.1295800805091858, 0.07870130985975266, 0.1638130247592926, 0.015924401581287384, 0.03118978440761566, 0.04239844158291817, -0.12877486646175385, -0.1465930938720703, 0.021342163905501366, -0.041894495487213135, 0.03535651043057442, -0.03994365409016609], [0.03053719736635685, 0.09510888159275055, -0.06899281591176987, 0.13933821022510529, 0.1197395771741867, -0.14768941700458527, -0.13057366013526917, -0.15020309388637543, -0.10799916833639145, -0.0762617364525795, -0.020792735740542412, -0.053171057254076004, -0.09434543550014496, -0.059843339025974274, -0.08887265622615814, 0.15500004589557648, -0.07741036266088486, -0.1387249082326889, 0.055750273168087006, -0.02624834142625332, 0.11654536426067352, 0.0920594111084938, 0.16819553077220917, -0.1532796174287796, 0.0928134173154831, 0.1332508772611618, -0.09932135045528412, 0.14556418359279633, 0.11457163095474243, 0.0019063525833189487, 0.07965850085020065, -0.0723046362400055, -0.15182770788669586], [0.051305677741765976, 0.09101450443267822, -0.12182625383138657, 0.08226855844259262, -0.16483637690544128, 0.1837165206670761, 0.1789408028125763, 0.05151762068271637, -0.10387343168258667, 0.09060436487197876, 0.03895634412765503, 0.056987591087818146, 0.07626855373382568, 0.14823055267333984, -0.044107310473918915, -0.04516352340579033, 0.051293086260557175, 0.052868761122226715, 0.1722530871629715, -0.047655895352363586, 0.01615477167069912, 0.05759306624531746, -0.037179794162511826, 0.14835074543952942, 0.02832082100212574, -0.1516687273979187, -0.017596887424588203, -0.06451713293790817, 0.010181194171309471, -0.020230598747730255, -0.1512347310781479, 0.004878075327724218, -0.01667303591966629], [-0.02040201798081398, 0.17260324954986572, -0.020070193335413933, 0.1086849719285965, 0.03648190572857857, -0.10507381707429886, 0.054962847381830215, 0.1558702439069748, -0.1050194725394249, -0.09901467710733414, 0.18297994136810303, 0.1458464413881302, -0.08084215223789215, 0.12875236570835114, 0.016238557174801826, -0.1652626097202301, 0.0277412012219429, 0.09811430424451828, -0.007450950797647238, 0.1064693033695221, -0.11657493561506271, 0.15262077748775482, 0.18925926089286804, 0.09901878982782364, 0.04690178856253624, 0.07749758660793304, -0.1169247105717659, -0.024987714365124702, -0.008561433292925358, -0.09687180072069168, -0.10673987120389938, 0.15421563386917114, 0.11813697963953018], [-0.17258070409297943, 0.03698771074414253, 0.05581646040081978, 0.18601647019386292, 0.10437103360891342, 0.1332404762506485, -0.0656312108039856, 0.11192692071199417, 0.12905357778072357, -0.17803485691547394, -0.14789967238903046, 0.02487925998866558, 0.07783756405115128, -0.10139140486717224, -0.015987170860171318, -0.012620823457837105, 0.02772347442805767, -0.12033606320619583, 0.07454054057598114, 0.0892978236079216, -0.14436247944831848, -0.023866286501288414, -0.010957689024508, 0.041726887226104736, 0.13829277455806732, 0.031206520274281502, -0.05393228307366371, 0.13511954247951508, -0.07096824049949646, -0.05054723843932152, -0.002389828208833933, -0.15596981346607208, 0.018942667171359062], [-0.1207822933793068, 0.026734597980976105, 0.005551950540393591, 0.02208021655678749, -0.15329502522945404, -0.16113519668579102, 0.07406524568796158, 0.14073793590068817, -0.15188239514827728, 0.06036835536360741, -0.12483244389295578, 0.00771317956969142, 0.16652697324752808, 0.13051021099090576, -0.14216333627700806, 0.10705142468214035, 0.09584907442331314, 0.0039340597577393055, 0.1684691309928894, -0.05857715383172035, -0.04440297558903694, -0.08817112445831299, 0.028551273047924042, 0.04747835546731949, 0.00772495660930872, -0.1019439771771431, -0.08514492213726044, 0.05601870268583298, -0.15977273881435394, -0.0271099042147398, 0.0007665669545531273, -0.060576751828193665, 0.06335000693798065], [-0.0007971369195729494, 0.10441568493843079, -0.012316878885030746, -0.0922178253531456, 0.14476805925369263, 0.00457680132240057, -0.058832619339227676, -0.12164448201656342, 0.035558030009269714, -0.17702364921569824, 0.039541374891996384, 0.07584063708782196, -0.16769090294837952, -0.12450991570949554, -0.1312136948108673, 0.14572381973266602, 0.13809995353221893, -0.008835519663989544, 0.1548273265361786, -0.07838159799575806, -0.18357542157173157, 0.04561243951320648, 0.04935488477349281, 0.1626160740852356, -0.0132451131939888, 0.12625804543495178, 0.10445798933506012, 0.11592540889978409, -0.15903185307979584, 0.1433456391096115, -0.15953004360198975, 0.1377793848514557, -0.007213883567601442], [-0.15713869035243988, 0.043048273772001266, -0.04036693647503853, -0.15635539591312408, -0.055928513407707214, 0.009763619862496853, 0.12913843989372253, -0.05204540491104126, 0.09706694632768631, 0.01532645896077156, 0.0014349919511005282, 0.029120557010173798, -0.11089824885129929, -0.14507794380187988, -0.057754650712013245, -0.1544351577758789, -0.07793305069208145, -0.00017609723727218807, -0.12040536850690842, -0.08044277876615524, -0.03944804519414902, -0.026900622993707657, -0.09775666147470474, 0.006986279971897602, -0.032498739659786224, 0.044680964201688766, 0.0036228536628186703, -0.09222991019487381, -0.058061759918928146, -0.0020063756965100765, -0.11209779232740402, 0.006596495863050222, -0.012290884740650654], [0.09563876688480377, 0.08549287915229797, 0.1373651623725891, -0.008996288292109966, -0.12190241366624832, 0.1229662373661995, -0.09439834952354431, -0.009155438281595707, -0.0341024212539196, -0.037518054246902466, -0.04120352491736412, 0.1835412234067917, 0.13172650337219238, 0.07938122749328613, 0.2143378108739853, -0.14076033234596252, 0.04853824898600578, 0.15659229457378387, 0.15646614134311676, -0.09202025830745697, 0.10142414271831512, -0.05786142498254776, 0.012825914658606052, 0.00016577568021602929, -0.1135164424777031, -0.13563883304595947, -0.09218574315309525, 0.11234468966722488, 0.09370467066764832, -0.1514064371585846, -0.0399385467171669, 0.042942412197589874, -0.15050449967384338], [0.1308230757713318, 0.19603385031223297, 0.0437222421169281, -0.12309253960847855, 0.038803644478321075, 0.1053524911403656, 0.1585187464952469, -0.06716974824666977, -0.13070586323738098, 0.10404438525438309, 0.03383124619722366, -0.03424781188368797, -0.03867712989449501, -0.055121734738349915, 0.19285526871681213, -0.011043727397918701, 0.1461557149887085, 0.19755035638809204, 0.06209150329232216, 0.08028671145439148, 0.02884126640856266, 0.1609773486852646, -0.12380822747945786, 0.09405560046434402, 0.003376567969098687, 0.11347658932209015, 0.02451075240969658, -0.02870679646730423, -0.0021840487606823444, 0.0940006822347641, -0.09568426012992859, -0.07322557270526886, -0.03899277001619339], [-0.04635252431035042, 0.09068851172924042, 0.13292592763900757, -0.008063332177698612, 0.14352066814899445, -0.03120046854019165, -0.08301553875207901, -0.0726473331451416, -0.11545076221227646, -0.11298894137144089, -0.1466747224330902, -0.14659668505191803, 0.06464318931102753, 0.12161634117364883, 0.19566138088703156, 0.15201117098331451, 0.010031197220087051, 0.07531186938285828, -0.06189482659101486, 0.11201157420873642, -0.13929572701454163, 0.11049938946962357, 0.047051262110471725, 0.07006201148033142, 0.08663495630025864, -0.06469854712486267, 0.15738555788993835, 0.10150179266929626, 0.1139359101653099, 0.02299192175269127, 0.12996447086334229, 0.15507854521274567, 0.07889807224273682], [0.1619545817375183, -0.0034561706706881523, 0.11536742746829987, 0.032113201916217804, 0.1256774216890335, 0.2085368037223816, 0.046515025198459625, -0.051613498479127884, 0.0014043727423995733, 0.06804542988538742, 0.04565378278493881, -0.025707701221108437, 0.15171922743320465, 0.12580838799476624, -0.06061764806509018, 0.007736595347523689, 0.0026652796659618616, -0.07011446356773376, 0.0684090405702591, -0.007058899849653244, -0.05766121298074722, -0.021465962752699852, -0.03886709734797478, 0.18711838126182556, 0.08271661400794983, 0.19373540580272675, 0.07127400487661362, 0.062453169375658035, 0.09350710362195969, 0.02987738884985447, -0.11366886645555496, -0.06419342756271362, -0.0421752892434597], [-0.009933777153491974, 0.08342880010604858, 0.06739307194948196, 0.1440432369709015, 0.053361810743808746, -0.07485302537679672, -0.12821246683597565, -0.11811208724975586, -0.0878690555691719, 0.06180226802825928, 0.10164723545312881, 0.15883052349090576, -0.044716160744428635, -0.008830336853861809, -0.05337188020348549, 0.007947773672640324, 0.04311267286539078, -0.01926620677113533, -0.01468048058450222, 0.010049715638160706, 0.06564333289861679, -0.047491490840911865, -0.11174649000167847, 0.0538455992937088, -0.017309753224253654, -0.07263504713773727, 0.08046144992113113, 0.010892597027122974, -0.013955987058579922, -0.08426816761493683, -0.03331047296524048, -0.1572253406047821, 0.039600979536771774], [-0.007535876706242561, 0.09632283449172974, 0.01209682784974575, 0.03162163868546486, 0.04717068001627922, 0.11824117600917816, -0.09066805243492126, 0.0957535058259964, 0.04407781735062599, -0.11769222468137741, 0.05592089518904686, -0.11080286651849747, -0.06010736897587776, -0.08744584023952484, -0.1318744421005249, 0.13661298155784607, -0.16140976548194885, 0.07282042503356934, -0.17030835151672363, -0.03857401758432388, 0.0002903357963077724, 0.113288015127182, -0.06134173274040222, 0.04382836073637009, 0.0124349445104599, 0.09788724035024643, 0.011368564330041409, 0.060508809983730316, -0.09816299378871918, -0.12096848338842392, 0.1454870104789734, -0.1416264772415161, -0.029634926468133926], [-0.028502631932497025, 0.18740352988243103, -0.04624275118112564, -0.1170821487903595, -0.04690353199839592, 0.09690556675195694, 0.07128908485174179, 0.14354699850082397, -0.028433553874492645, 0.07989718019962311, -0.16293911635875702, 0.0721927359700203, 0.09082010388374329, 0.11406455934047699, -0.0978240892291069, -0.0395316481590271, 0.05399736389517784, -0.11658945679664612, -0.1382192075252533, -0.1537490040063858, 0.01296213548630476, 0.11378178000450134, 0.042956896126270294, 0.02836090698838234, 0.056257449090480804, -0.1055528074502945, 0.019995909184217453, -0.037211835384368896, -0.08451415598392487, 0.15011990070343018, -0.1293812394142151, 0.03595858812332153, -0.15296421945095062], [-0.0017492648912593722, -0.0781739205121994, 0.054001584649086, -0.10106401890516281, 0.09424619376659393, -0.12461667507886887, 0.10430130362510681, -0.13357439637184143, 0.08573701977729797, -0.07605880498886108, -0.008577931672334671, -0.04633384943008423, 0.11376861482858658, 0.05667667090892792, -0.15588301420211792, 0.0028230969328433275, -0.11704018712043762, 0.14677530527114868, 0.046690795570611954, -0.022874698042869568, -0.08913824707269669, 0.05968780443072319, -0.10776884108781815, 0.08081883937120438, 0.09666884690523148, 0.10044166445732117, 0.03545005992054939, -0.16016829013824463, 0.11456961929798126, -0.054002974182367325, -0.03568202257156372, -0.00015705774421803653, 0.12727424502372742], [0.12124559283256531, 0.017885291948914528, 0.07922572642564774, -0.16114339232444763, -0.019407574087381363, -0.14941328763961792, 0.05797455832362175, -0.13439658284187317, -0.07827625423669815, 0.10745232552289963, 0.15365715324878693, -0.12066163122653961, -0.10370231419801712, 0.009437854401767254, 0.04951990023255348, -0.05202076584100723, -0.07089574635028839, -0.10975147783756256, 0.06561613082885742, 0.18644405901432037, -0.0999421700835228, 0.06597251445055008, 0.06878193467855453, 0.1389574110507965, -0.027950359508395195, -0.010839337483048439, 0.10698641091585159, 0.09335613995790482, 0.15023159980773926, -0.049885448068380356, 0.07563284039497375, 0.13480739295482635, -0.11816669255495071], [0.02098526619374752, -0.06507959216833115, 0.11147300153970718, -0.07183488458395004, 0.004662972409278154, 0.08489616960287094, -0.16911233961582184, -0.159179225564003, -0.098654605448246, 0.09524598717689514, 0.10067040473222733, -0.1317281275987625, 0.008551644161343575, -0.1116107702255249, -0.09336704015731812, 0.1456780880689621, 0.08118404448032379, -0.06686361879110336, 0.018871206790208817, 0.011026853695511818, 0.023186249658465385, -0.0796230286359787, -0.1114550530910492, 0.09610884636640549, 0.009344863705337048, 0.058578312397003174, -0.07367156445980072, 0.06621041893959045, 0.12720127403736115, 0.10586941987276077, 0.03453315794467926, 0.14963723719120026, -0.0003807102038990706], [0.051691532135009766, 0.18804672360420227, 0.1631898134946823, -0.06928523629903793, 0.1482388824224472, 0.08996391296386719, -0.010169832967221737, 0.1524481326341629, -0.08472500741481781, 0.11902673542499542, 0.17733345925807953, -0.11127916723489761, -0.08343229442834854, -0.15631245076656342, -0.02069011703133583, -0.16937659680843353, -0.06506435573101044, 0.07856792956590652, 0.13170497119426727, 0.12930040061473846, 0.11005725711584091, 0.08924324810504913, -0.09926526993513107, -0.12438616901636124, 0.019603123888373375, 0.17090411484241486, 0.0037534574512392282, -0.007007161621004343, -0.1326148360967636, -0.0863143652677536, -0.11442194133996964, 0.1685417741537094, -0.028362412005662918], [-0.13811956346035004, 0.0487959049642086, 0.019779248163104057, -0.0350753478705883, 0.07943965494632721, 0.12411284446716309, -0.14570370316505432, -0.11771342158317566, 0.01229055691510439, -0.1397399604320526, -0.1453832983970642, 0.1762186735868454, 0.011530433781445026, -0.06734147667884827, -0.023563338443636894, -0.12293536961078644, 0.14861534535884857, -0.007249295711517334, -0.07748369127511978, -0.10256490856409073, 0.1272425502538681, 0.006145053543150425, 0.012424670159816742, -0.036503370851278305, -0.06251388043165207, 0.05471071973443031, 0.15414923429489136, -0.07483013719320297, 0.0196780227124691, -0.1323883831501007, -0.06386876851320267, 0.1790548861026764, 0.0018252135487273335], [0.1941608190536499, -0.0001140141612268053, -0.09918969124555588, -0.11238094419240952, 0.14049676060676575, -0.09823624044656754, 0.10965461283922195, 0.05345087870955467, 0.06223155930638313, 0.11551152169704437, -0.03394059091806412, 0.12281212955713272, -0.10915157198905945, -0.038195788860321045, 0.1522982120513916, 0.04812351614236832, -0.01718997396528721, -0.005025296937674284, -0.08568772673606873, 0.14471544325351715, 0.02036660723388195, 0.023718344047665596, 0.061019133776426315, 0.15186794102191925, -0.06997489184141159, -0.041037943214178085, 0.12235662341117859, 0.11945923417806625, -0.09465938806533813, -0.17220808565616608, 0.05642000213265419, 0.12569496035575867, 0.04157969355583191], [0.1173798143863678, -0.12547162175178528, 0.0830293521285057, -0.11899976432323456, 0.08915826678276062, 0.1458529531955719, 0.05378415435552597, 0.13038019835948944, -0.12058185040950775, -0.16354624927043915, -0.17250463366508484, 0.10242896527051926, 0.05882960185408592, -0.1267816573381424, 0.0893140509724617, 0.15331298112869263, -0.15966390073299408, 0.1426684856414795, 0.05758954957127571, 0.03676198050379753, 0.15709388256072998, 0.1557123363018036, 0.06458824127912521, 0.1459566056728363, 0.07198494672775269, 0.022336386144161224, -0.16017594933509827, 0.026422599330544472, -0.12939125299453735, 0.05359262973070145, 0.04493536055088043, 0.016458451747894287, -0.11902153491973877], [-0.08524942398071289, 0.1649715155363083, 0.09867095947265625, 0.11830036342144012, -0.06360393762588501, 0.009337183088064194, -0.014385223388671875, 0.13365913927555084, -0.06576919555664062, 0.13356202840805054, 0.13952289521694183, -0.1460723727941513, 0.02764381282031536, -0.0014640460722148418, -0.039890170097351074, 0.08320281654596329, -0.015150217339396477, 0.19171911478042603, -0.0665099173784256, 0.12392588704824448, -0.11050472408533096, -0.04777178913354874, 0.03400883078575134, 0.16776782274246216, 0.11926471441984177, -0.11171085387468338, 0.03365709260106087, -0.06919112056493759, 0.011245290748775005, -0.14501944184303284, -0.03246673196554184, 0.15586471557617188, -0.15972253680229187], [-0.18013758957386017, 0.02118503674864769, 0.0059538716450333595, -0.0508183054625988, 0.1388026475906372, -0.11639059334993362, -0.11845163255929947, -0.13354122638702393, -0.0523444227874279, -0.06676480174064636, 0.09132236242294312, -0.029727939516305923, 0.035033080726861954, -0.08389720320701599, 0.11670766770839691, 0.12431168556213379, -0.16289874911308289, -0.05631822347640991, -0.15503469109535217, 0.06481090933084488, -0.17398960888385773, -0.10525944828987122, 0.161689892411232, -0.16590264439582825, 0.10508183389902115, -0.010486475192010403, 0.11489184945821762, -0.11212477087974548, 0.09094388782978058, 0.02100312151014805, 0.007289237808436155, 0.11218556761741638, -0.1654655486345291], [-0.14043274521827698, 0.1729331612586975, -0.0891885906457901, -0.1152414083480835, 0.012786091305315495, -0.07477917522192001, -0.02829444408416748, -0.11178933084011078, 0.08171340078115463, -0.13264182209968567, 0.027325764298439026, 0.11265760660171509, 0.042674463242292404, 0.025837289169430733, 0.03623969852924347, -0.032262589782476425, -0.04203552007675171, -0.09246382862329483, -0.13612927496433258, -0.1120012179017067, 0.17745880782604218, -0.020927997305989265, 0.06339772045612335, 0.12887774407863617, -0.008524787612259388, -0.07947418838739395, -0.09848131239414215, -0.0502743162214756, 0.08083921670913696, -0.14660099148750305, -0.027450794354081154, 0.04831383004784584, 0.14202214777469635], [0.08917518705129623, 0.05928875133395195, 0.11982821673154831, 0.10081708431243896, 0.05056890472769737, -0.01957150176167488, -0.12145345658063889, -0.030449477955698967, -0.010843939147889614, 0.0318911038339138, -0.001260212273336947, 0.0942336767911911, 0.14520779252052307, -0.040652111172676086, -0.12135007232427597, -0.07780227810144424, -0.07434424757957458, 0.13307484984397888, -0.09110556542873383, 0.020477881655097008, -0.0060091204941272736, -0.06965623795986176, 0.1089867502450943, -0.06964097917079926, 0.014507245272397995, -0.09412789344787598, 0.000616406905464828, 0.053399357944726944, -0.000796909152995795, -0.06504371762275696, 0.07097633183002472, -0.014073113910853863, -0.0965084657073021], [-0.11985544860363007, -0.011171635240316391, -0.17254886031150818, 0.132282093167305, -0.08554822206497192, -0.049816034734249115, 0.023210041224956512, 0.04876121133565903, -0.0005375021719373763, 0.1335352212190628, -0.09051073342561722, 0.07354491949081421, 0.017208674922585487, -0.12478844821453094, -0.06108195707201958, 0.05389272794127464, 0.04569309949874878, 0.1489029824733734, 0.116307333111763, -0.0686597228050232, -0.05841275677084923, -0.01696627214550972, -0.112440325319767, -0.03777588903903961, -0.12946783006191254, 0.08059531450271606, 0.12785662710666656, 0.03192824497818947, -0.13317418098449707, -0.13183040916919708, -0.06574814021587372, 0.0764085203409195, 0.004246103577315807], [0.043284643441438675, 0.20184898376464844, 0.0807279571890831, 0.0436972938477993, -0.03786783665418625, 0.1146216168999672, 0.08360836654901505, -0.14040082693099976, -0.08287806808948517, 0.029535923153162003, 0.0867438018321991, 0.09788081049919128, -0.07436531037092209, -0.14833703637123108, 0.010597702115774155, -0.021511036902666092, 0.04839872568845749, -0.015598093159496784, 0.14425554871559143, 0.04729962348937988, 0.15658141672611237, -0.08831602334976196, 0.09006249159574509, 0.03936993330717087, -0.06754935532808304, 0.10727676004171371, -0.16569946706295013, 0.1687658578157425, 0.009231644682586193, 0.01680765300989151, 0.10217802226543427, 0.04548804089426994, 0.07461865991353989], [0.0876615047454834, -0.14219793677330017, 0.10703959316015244, -0.035054970532655716, -0.0239681638777256, 0.010516232810914516, 0.12072347104549408, -0.09869711101055145, -0.12638863921165466, 0.09551125019788742, -0.09382542222738266, 0.049588799476623535, -0.04554395377635956, 0.03309778869152069, 0.12120331078767776, -0.08419816195964813, -0.08646045625209808, 0.06088374927639961, -0.002326834946870804, -0.04591846466064453, -0.17181813716888428, 0.12731356918811798, -0.026064181700348854, -0.03381708636879921, -0.090646892786026, -0.04969107732176781, 0.07915032655000687, -0.01848541758954525, 0.15429440140724182, -0.010050326585769653, -0.04144522175192833, 0.07418934255838394, -0.004504358395934105], [-0.04406755417585373, 0.09215179830789566, 0.12588754296302795, 0.04132109507918358, 0.13924111425876617, 0.11762409657239914, 0.05283619835972786, 0.07326766848564148, 0.0712515190243721, 0.03492964059114456, 0.1577393263578415, 0.17071117460727692, 0.08190453052520752, 0.0023651067167520523, 0.15014727413654327, -0.13708864152431488, 0.11651472747325897, 0.0970459058880806, 0.09859622269868851, 0.000532486301381141, -0.12175840139389038, 0.13655288517475128, -0.07847217470407486, 0.06671486049890518, 0.10141683369874954, -0.1571374088525772, 0.015362109988927841, -0.04885474219918251, 0.1224350780248642, -0.110835500061512, 0.11414620280265808, 0.12184307724237442, 0.096041239798069], [0.15227210521697998, -0.0026253259275108576, -0.15867966413497925, 0.12076695263385773, 0.018308965489268303, -0.02168702334165573, -0.17426584661006927, -0.053696926683187485, -0.09792918711900711, 0.15222987532615662, 0.10766933858394623, 0.1133507788181305, 0.09699169546365738, -0.13094337284564972, -0.09261613339185715, -0.0766570121049881, -0.07956457138061523, 0.110366091132164, 0.04476438835263252, 0.11251428723335266, -0.03194529563188553, -0.17979274690151215, -0.06574194878339767, 0.10717877745628357, 0.08641119301319122, 0.035021599382162094, -0.059388868510723114, -0.18477220833301544, -0.09514815360307693, 0.09076068550348282, -0.08253613859415054, 0.05900153890252113, 0.04753036051988602], [-0.07732311636209488, 0.10802111029624939, -0.05935639142990112, -0.0033257585018873215, -0.06254700571298599, -0.17473052442073822, 0.025266524404287338, 0.04829302430152893, -0.08664583414793015, 0.10509157925844193, -0.15865269303321838, -0.1641305685043335, -0.1062643900513649, -0.056047651916742325, -0.016429323703050613, -0.0346422977745533, 0.07310149073600769, -0.1623803675174713, 0.02132176049053669, -0.00828595645725727, 0.04268525540828705, 0.16974712908267975, 0.1005467027425766, -0.09078385680913925, -0.1399838626384735, -0.043263256549835205, -0.0850641131401062, 0.06018223986029625, 0.004335698671638966, 0.14001476764678955, 0.06254271417856216, -0.04339980334043503, 0.005983039736747742], [0.026101667433977127, -0.028454367071390152, 0.13377645611763, -0.1325136125087738, 0.06800691038370132, -0.12127586454153061, -0.15255671739578247, -0.04052165150642395, 0.06809908896684647, 0.109651118516922, 0.03326841816306114, -0.027987724170088768, -0.02498718351125717, -0.08352013677358627, -0.027811486274003983, -0.027308888733386993, 0.14049719274044037, 0.09156681597232819, -0.14219921827316284, -0.009215950034558773, -0.12007918208837509, -0.04427141323685646, -0.15386003255844116, 0.03868690878152847, -0.1344047337770462, 0.156925767660141, 0.11775439977645874, -0.13410229980945587, -0.17656664550304413, 0.006792105734348297, -0.05409376695752144, 0.04094093665480614, -0.1178356185555458], [0.06848829984664917, -0.15306030213832855, -0.09021592885255814, -0.09536270797252655, 0.07336889207363129, -0.004043043591082096, -0.1654464304447174, -0.10538454353809357, -0.09158941358327866, -0.1655169576406479, 0.012987359426915646, 0.060830291360616684, -0.036349136382341385, -0.07300953567028046, -0.0032883735839277506, -0.13036412000656128, -0.09343846887350082, -0.0034555436577647924, 0.1648319959640503, -0.05386779084801674, 0.08513032644987106, -0.07041063904762268, -0.05193416029214859, -0.16489803791046143, 0.1436130702495575, 0.16845154762268066, -0.007064181845635176, 0.10768313705921173, 0.14432905614376068, 0.0864674299955368, 0.08454570919275284, -0.1658707559108734, -0.163575679063797], [-0.14007462561130524, 0.0461481511592865, -0.15185540914535522, -0.12845078110694885, -0.07921675592660904, -0.17069587111473083, -0.004761876538395882, 0.018799414858222008, -0.104105643928051, 0.10496459156274796, -0.06400836259126663, -0.05520448461174965, 0.12754055857658386, 0.14169108867645264, -0.029128298163414, -0.12143969535827637, -0.09248023480176926, 0.011915947310626507, 0.0924772396683693, 0.07749500870704651, -0.08368882536888123, -0.1740507334470749, -0.1497003585100174, -0.06193894147872925, -0.006232334766536951, -0.08684374392032623, -0.1375436782836914, 0.009722443297505379, -0.1430453360080719, -0.13367845118045807, -0.13870413601398468, -0.056235745549201965, 0.15375550091266632], [0.06563917547464371, -0.02026660554111004, 0.034823499619960785, 0.06837756931781769, -0.013318801298737526, -0.1366453319787979, -0.11122206598520279, -0.12255358695983887, -0.01192812342196703, -0.17341047525405884, -0.03784620761871338, -0.06485705077648163, 0.163112074136734, 0.13504654169082642, 0.11039941757917404, 0.009866718202829361, -0.050598107278347015, 0.0481632724404335, -0.11125554889440536, -0.0695543885231018, -0.03709555044770241, -0.0427250973880291, -0.17062588036060333, 0.06651829183101654, 0.1447625607252121, -0.09918580949306488, 0.040387216955423355, -0.024443764239549637, -0.006089678965508938, 0.01014698762446642, 0.1559678167104721, 0.02548300474882126, -0.11013494431972504], [-0.055687591433525085, 0.12110760062932968, 0.05276239290833473, -8.049074676819146e-05, -0.02871200628578663, -0.02918289229273796, -0.051032546907663345, -0.09069681167602539, 0.03418300673365593, 0.054919593036174774, 0.14051693677902222, -0.026617148891091347, 0.02971729449927807, 0.1268702745437622, 0.108946792781353, 0.023735811933875084, 0.06723405420780182, 0.047582462430000305, -0.10806889086961746, 0.05046738311648369, -0.01626276783645153, 0.18131938576698303, 0.15231052041053772, 0.06967531144618988, 0.16949127614498138, -0.07924169301986694, 0.15769673883914948, 0.16437600553035736, -0.006742354016751051, -0.13969896733760834, -0.032759781926870346, -0.009294136427342892, 0.0028754142113029957], [-0.14775605499744415, 0.03286711126565933, -0.07387999445199966, -0.05051642656326294, -0.07897545397281647, -0.038835637271404266, -0.16961468756198883, -0.08645180612802505, 0.02749710902571678, 0.1143573671579361, 0.16478358209133148, -0.12619397044181824, 0.0754501074552536, -0.09723374247550964, -0.12963968515396118, -0.0021958923898637295, -0.10063670575618744, -0.1520056128501892, -0.16843737661838531, -0.11655453592538834, 0.14664506912231445, 0.10112131386995316, -0.05824263021349907, -0.12972430884838104, -0.1258649379014969, -0.09956490993499756, -0.06627482175827026, 0.1081571877002716, 0.06087430566549301, -0.06708468496799469, 0.11512269079685211, -0.10790310800075531, -0.14181897044181824], [0.0700717493891716, -0.10255328565835953, 0.05905098095536232, 0.14831122756004333, -0.06380020827054977, -0.10364104807376862, 0.06994487345218658, -0.15117746591567993, 0.16346344351768494, -0.06771892309188843, 0.0959833562374115, -0.12444539368152618, -0.11252546310424805, 0.035674504935741425, 0.09472084790468216, 0.15833081305027008, 0.16553205251693726, 0.007820981554687023, 0.006750856526196003, 0.04857968911528587, -0.019008643925189972, 0.02693774551153183, -0.12843696773052216, -0.1540927290916443, 0.1296137273311615, -0.08210194110870361, 0.1561148464679718, 0.03320060297846794, 0.06681106984615326, 0.15821528434753418, -0.08946331590414047, -0.014654161408543587, 0.030841242522001266], [0.0854014903306961, -0.14049936830997467, 0.058579277247190475, -0.1050698384642601, 0.01858978345990181, 0.15335363149642944, -0.0012524097692221403, -0.0002161011943826452, -0.00033325294498354197, 0.16040977835655212, 0.11168324947357178, 0.044751543551683426, -0.07805730402469635, -0.07117665559053421, 0.16223864257335663, 0.12566888332366943, 0.10684078931808472, -0.10014989972114563, 0.15544438362121582, 0.021834271028637886, 0.15272760391235352, 0.17949563264846802, 0.03834422677755356, -0.04965867102146149, 0.1812557876110077, -0.07274772226810455, 0.12199040502309799, -0.14664927124977112, -0.05819733068346977, -0.15177041292190552, -0.05444128438830376, 0.10755065083503723, -0.12473152577877045], [-0.15449847280979156, 0.1159108430147171, 0.09886583685874939, 0.007253102958202362, -0.1209983304142952, -0.052200548350811005, -0.05247312784194946, 0.09545247256755829, -0.05732480809092522, -0.06341391801834106, -0.1273529976606369, -0.08565443009138107, 0.08429963886737823, 0.1074293926358223, 0.04173427075147629, -0.06470292806625366, 0.165876567363739, 0.02827836573123932, -0.061556629836559296, -0.06439979374408722, -0.027265122160315514, 0.07836511731147766, 0.06672924757003784, 0.11770505458116531, -0.007235999684780836, 0.14141316711902618, -0.0698167011141777, -0.08288268744945526, -0.060547031462192535, -0.16332104802131653, -0.11814133077859879, -0.16219474375247955, -0.010287580080330372], [-0.005547636188566685, -0.08388247340917587, -0.12363450229167938, 0.16021853685379028, -0.07368463277816772, 0.05804317072033882, 0.10869833827018738, -0.135063037276268, -0.04319502413272858, 0.07927661389112473, 0.14898721873760223, -0.03997260332107544, 0.0994676798582077, -0.15782083570957184, -0.1380198895931244, 0.12759371101856232, -0.025861317291855812, 0.1470612734556198, -0.003413240425288677, -0.09830477088689804, 0.14007499814033508, 0.12490610778331757, 0.010437452234327793, -0.136756032705307, -0.029569007456302643, -0.10453644394874573, 0.10746771842241287, -0.017282327637076378, 0.022540826350450516, 0.10557200759649277, 0.04394926130771637, -0.1325242668390274, 0.14461052417755127], [0.1278315633535385, -0.08829650282859802, 0.1440432071685791, 0.046126432716846466, -0.02404140867292881, -0.09399839490652084, -0.025362908840179443, -0.15688541531562805, 0.11494951695203781, 0.14290718734264374, -0.03873889148235321, 0.17701980471611023, -0.05791505053639412, 0.0478338785469532, -0.07439874857664108, 0.012549128383398056, 0.0876212939620018, 0.10547682642936707, 0.03238557651638985, -0.04969728738069534, 0.1517869383096695, 0.1452469676733017, 0.04260128736495972, -0.06600948423147202, 0.05681039020419121, 0.02271498180925846, 0.17955029010772705, 0.047973666340112686, 0.03417583554983139, 0.011899860575795174, 0.1104072853922844, 0.02898428589105606, 0.14920967817306519], [0.07287749648094177, -0.15534381568431854, -0.004779503680765629, -0.14405205845832825, -0.12293224036693573, 0.010218658484518528, 0.02209356427192688, -0.03173226863145828, 0.1509118229150772, -0.11730272322893143, -0.09444368630647659, -0.03862440958619118, -0.02046145498752594, -0.03482772409915924, 0.14296410977840424, -0.06149899587035179, -0.08141421526670456, -0.008641460910439491, 0.11786489188671112, 0.017081713303923607, 0.07304438203573227, 0.011040830984711647, 0.1360221952199936, 0.08429107815027237, 0.10774900764226913, -0.040583305060863495, -0.15170300006866455, -0.1018957868218422, 0.06470368057489395, 0.1221235990524292, -0.08445172011852264, 0.12126962095499039, 0.025019526481628418], [0.0012347954325377941, 0.000548606039956212, -0.047637876123189926, 0.15427154302597046, 0.008882399648427963, 0.09407740086317062, -0.15151716768741608, -0.08985910564661026, 0.013420739211142063, 0.13310059905052185, 0.07636978477239609, 0.021876651793718338, -0.18038572371006012, -0.002645260188728571, -0.13091528415679932, -0.16052396595478058, 0.009831193834543228, -0.12268657237291336, 0.1413263976573944, -0.10039830207824707, 0.045901186764240265, 0.08981557190418243, -0.12532508373260498, 0.0718875601887703, -0.03283678740262985, 0.07924895733594894, 0.15497621893882751, -0.08573433756828308, -0.08705870062112808, 0.13831326365470886, 0.016110321506857872, -0.021673383191227913, 0.13206720352172852], [-0.09014085680246353, -0.00853694137185812, 0.12423501163721085, 0.06769493967294693, -0.11259601265192032, 0.04754417762160301, -0.1363125592470169, -0.09157516062259674, 0.11598319560289383, -0.04739224165678024, -0.08891962468624115, 0.012804890982806683, 0.04076983779668808, -0.10945697873830795, -0.12132160365581512, -0.15775911509990692, 0.05569058656692505, -0.11002151668071747, 0.01803496852517128, -0.036774009466171265, -0.1102437674999237, -0.05322323366999626, -0.12787675857543945, -0.09607353061437607, -0.002689543878659606, -0.14527055621147156, -0.1535484492778778, 0.13295240700244904, 0.016186483204364777, -0.07698651403188705, -0.009047629311680794, 0.13281646370887756, -0.14522700011730194], [-0.11039876192808151, -0.1374741643667221, -0.025938140228390694, -0.014376495033502579, -0.132223442196846, 0.1002674549818039, -0.14586642384529114, 0.15265683829784393, -0.12825138866901398, -0.03524727374315262, 0.019939279183745384, -0.09200946241617203, 0.1495582014322281, -0.1289147138595581, -0.04051503166556358, -0.14391307532787323, 0.0314442440867424, 0.12785929441452026, 0.13668499886989594, -0.0015141862677410245, -0.10929611325263977, 0.14796210825443268, -0.002374491887167096, 0.10591419786214828, -0.10728219896554947, -0.10054206103086472, -0.16084177792072296, 0.1429547369480133, 0.01313182432204485, -0.12502072751522064, 0.007749171461910009, -0.09452663362026215, 0.008696299977600574], [0.08617828786373138, -0.10254702717065811, 0.043818943202495575, -0.10530418902635574, 0.039308637380599976, -0.15369464457035065, 0.028574084863066673, 0.18431423604488373, 0.17117905616760254, 0.0753067135810852, 0.13530772924423218, 0.17294533550739288, 0.053301841020584106, 0.06946679949760437, 0.043021101504564285, 0.16749241948127747, 0.1632525473833084, -0.06747819483280182, 0.021057698875665665, -0.07511704415082932, 0.07568012923002243, -0.15466724336147308, 0.09313211590051651, -0.07293441891670227, 0.07766994088888168, 0.06799342483282089, -0.07450316846370697, 0.10069191455841064, 0.08665601164102554, -0.14797310531139374, 0.1877991259098053, 0.15814708173274994, 0.10830803215503693], [0.014670023694634438, 0.09633617103099823, -0.08350168913602829, -0.06685558706521988, 0.09882358461618423, 0.12031213194131851, 0.08751153945922852, -0.15241777896881104, 0.16141168773174286, -0.05163486674427986, 0.17141816020011902, 0.16609419882297516, 0.08610886335372925, 0.20149663090705872, 0.16098026931285858, 0.12150092422962189, -0.03707320615649223, 0.20427298545837402, 0.09290825575590134, 0.15067709982395172, 0.0016966040711849928, 0.16715092957019806, 0.17834490537643433, -0.10463646054267883, 0.1689593642950058, -0.08482895791530609, -0.09583306312561035, -0.11489278078079224, 0.0684589371085167, -0.13070225715637207, -0.04101988673210144, -0.04754699766635895, 0.04652492329478264], [-0.18735118210315704, -0.06765810400247574, -0.0011835105251520872, 0.016225051134824753, -0.08495818078517914, 0.060132432729005814, -0.11879018694162369, -0.14749178290367126, -0.01762046478688717, -0.09200026839971542, 0.10513363033533096, -0.11811050027608871, -0.018679024651646614, 0.0651375874876976, -0.1657828837633133, 0.12986363470554352, -0.08199851959943771, -0.049602653831243515, -0.10974108427762985, -0.06684282422065735, -0.072632797062397, -0.15887227654457092, 0.04342234134674072, 0.01753290742635727, 0.16546346247196198, 0.11390077322721481, 0.14642015099525452, 0.04811321943998337, 0.08874298632144928, 0.16300366818904877, 0.14291678369045258, -0.1342020481824875, -0.03903323411941528], [-0.15148226916790009, 0.01581001840531826, -0.05047639459371567, 0.1644740104675293, 0.044267624616622925, 0.012445752508938313, -0.11574246734380722, -0.13575926423072815, 0.037676505744457245, -0.07395067811012268, -0.06668291985988617, 0.13801151514053345, -0.07957014441490173, -0.0667654499411583, 0.15942731499671936, 0.09575416892766953, -0.07822765409946442, 0.06324904412031174, 0.1103345975279808, -0.14579583704471588, 0.051988404244184494, 0.059646137058734894, 0.0005012069013901055, 0.18263988196849823, -0.10573083907365799, 0.11359727382659912, -0.06699283421039581, -0.13084527850151062, 0.14366430044174194, -0.0835089311003685, 0.015026557259261608, 0.09432245790958405, -0.14529550075531006], [-0.1359807699918747, 0.10398401319980621, 0.15786491334438324, -0.018912097439169884, 0.1396452933549881, 0.10120002180337906, 0.06250710785388947, -0.10019625723361969, 0.1897534728050232, 0.1014363169670105, 0.04255025461316109, 0.14824798703193665, -0.12717220187187195, 0.058621522039175034, -0.031878821551799774, 0.0021614886354655027, 0.07654505968093872, 0.11712746322154999, 0.0849403515458107, -0.09192243963479996, -0.07570479065179825, 0.03902069106698036, -0.026937270537018776, -0.10755448788404465, 0.19970683753490448, 0.04618743062019348, -0.10012318193912506, 0.10418163239955902, 0.09582167863845825, -0.08539652079343796, 0.1131303533911705, -0.07132576406002045, 0.060314636677503586], [0.2167065590620041, 0.14455558359622955, 0.10788796842098236, -0.029910994693636894, 0.05623254179954529, 0.11688046157360077, 0.0687800794839859, -0.016259348019957542, 0.056283775717020035, -0.03423832356929779, -0.06447776407003403, -0.12319353222846985, -0.10195313394069672, -0.06734005361795425, 0.2285546511411667, 0.06687088310718536, -0.1302802860736847, -0.03284977748990059, 0.0952155739068985, 0.0026372820138931274, 0.0020984415896236897, -0.008823265321552753, 0.006092115771025419, 0.029596349224448204, 0.05315524712204933, 0.15890344977378845, 0.14835147559642792, 0.18843673169612885, 0.023970918729901314, -0.07772911339998245, 0.03170469403266907, -0.06879044324159622, 0.07121893763542175], [-0.04360963776707649, -0.074015773832798, -0.15213382244110107, 0.08484088629484177, 0.10425383597612381, 0.13383042812347412, -0.06863265484571457, 0.03428039327263832, -0.008009776473045349, -0.13137786090373993, -0.12228143215179443, 0.0707578957080841, -0.11843318492174149, 0.10511698573827744, 0.036826059222221375, 0.04690059646964073, 0.09964430332183838, 0.06022849678993225, 0.05655675008893013, 0.06879549473524094, -0.09528495371341705, -0.11698492616415024, -0.04085264354944229, 0.08055619150400162, 0.09879069775342941, 0.10601717233657837, -0.07006286829710007, -0.04398104548454285, -0.1270292103290558, 0.10733562707901001, -0.12570729851722717, -0.08870597928762436, 0.14374732971191406], [0.05780724808573723, -0.029650921002030373, -0.1207912489771843, -0.12176667898893356, 0.1576482504606247, -0.12734806537628174, 0.15940171480178833, 0.1572411209344864, 0.032973308116197586, 0.00676076952368021, 0.1546899676322937, 0.09879405051469803, 0.19450031220912933, 0.1681310087442398, -0.08014213293790817, 0.12641820311546326, 0.09940266609191895, -0.0918375626206398, 0.10463041067123413, -0.051773082464933395, -0.0748976543545723, 0.03660430386662483, -0.009479069150984287, -0.016868334263563156, -0.094894640147686, 0.11985069513320923, 0.19588956236839294, -0.00943435076624155, -0.10192384570837021, -0.008976178243756294, -0.13839244842529297, -0.1083453968167305, -0.05798914283514023], [0.10348711907863617, -0.11966626346111298, -0.022242270410060883, -0.09741348773241043, -0.16042526066303253, -0.03171468526124954, -0.009152397513389587, -0.034238550812006, 0.12957388162612915, 0.07180418819189072, 0.1099201962351799, 0.06888924539089203, 0.024954548105597496, 0.09427810460329056, -0.13144300878047943, 0.09441236406564713, 0.09339912980794907, -0.06640764325857162, -0.004988349974155426, -0.12640069425106049, -0.1512083262205124, 0.003518628655001521, 0.031746648252010345, -0.03320847451686859, 0.05525302514433861, -0.13354308903217316, -0.09594784677028656, 0.12444431334733963, -0.17167061567306519, 0.02733391895890236, 0.14117495715618134, 0.13469693064689636, 0.05938110128045082], [-0.15673589706420898, 0.028922200202941895, -0.06550343334674835, -0.0464053638279438, 0.15659798681735992, -0.07066423445940018, -0.12574945390224457, -0.1281047761440277, 0.12259785085916519, 0.022797496989369392, 0.1781206578016281, 0.04465889930725098, -0.149825781583786, 0.04813118651509285, 0.15654413402080536, 0.10775797814130783, 0.03557009622454643, -0.14229047298431396, -0.12582284212112427, 0.10995487868785858, -0.11470319330692291, 0.043244365602731705, -0.018810134381055832, 0.05245914310216904, 0.01992531679570675, -0.12745904922485352, -0.06481737643480301, 0.15852349996566772, 0.02494284138083458, 0.08826695382595062, -0.09369240701198578, 0.13208234310150146, -0.037263739854097366], [-0.07458510994911194, 0.03683708980679512, -0.07609812170267105, -0.0816078782081604, -0.024042857810854912, -0.02613244019448757, -0.10647157579660416, 0.06247083842754364, -0.17536717653274536, 0.10249438136816025, 0.1547105759382248, 0.017623456194996834, -0.042849451303482056, -0.1642596572637558, 0.05125413462519646, 0.1277739554643631, 0.1318589597940445, -0.0006717555806972086, 0.03150443732738495, 0.1549338698387146, 0.011217409744858742, -0.09865587949752808, -0.16811905801296234, 0.06317973136901855, 0.05911363661289215, 0.14031265676021576, -0.103281170129776, 0.06385762989521027, -0.07430236041545868, -0.043264396488666534, 0.09826075285673141, -0.16534185409545898, 0.12831911444664001], [0.07686704397201538, -0.08456902951002121, 0.07818025350570679, -0.05934552848339081, 0.037271711975336075, -0.059539735317230225, -0.1720675826072693, -0.014415239915251732, 0.09719119966030121, -0.013719569891691208, -0.08040627837181091, 0.013498223386704922, 0.04617999121546745, -0.04449010640382767, -0.13972923159599304, -0.09090036898851395, -0.04459119588136673, 0.049746446311473846, 0.13379760086536407, -0.006452019792050123, 0.060733694583177567, 0.10182573646306992, -0.07546960562467575, -0.04697827994823456, 0.11030114442110062, 0.1262616068124771, 0.04624788463115692, -0.1304263025522232, 0.10427802056074142, -0.14387431740760803, 0.08138193190097809, 0.012715347111225128, 0.05622965097427368], [-0.18645231425762177, -0.028917212039232254, 0.05866364762187004, 0.12681148946285248, -0.049138523638248444, 0.17243176698684692, -0.040278080850839615, -0.09942277520895004, -0.07785405218601227, 0.012951196171343327, -0.028269408270716667, 0.08369649201631546, -0.0879945456981659, -0.04715128242969513, -0.18128009140491486, 0.14105749130249023, -0.02598227746784687, -0.12002944946289062, -0.0053023225627839565, 0.023438548669219017, 0.050386037677526474, -0.014933920465409756, 0.10274376720190048, -0.03878151997923851, -0.05888660252094269, -0.045497771352529526, 0.029633905738592148, 0.14152345061302185, -0.013838336803019047, 0.13394039869308472, 0.15058119595050812, -0.06872063130140305, -0.014956790022552013], [-0.08410495519638062, 0.05670376494526863, -0.06008392199873924, 0.038909390568733215, 0.004515917506068945, -0.111503966152668, -0.12116196751594543, -0.17479602992534637, -0.1056966632604599, 0.03692445904016495, 0.0009837852558121085, 0.12027662247419357, -0.15877442061901093, -0.014884731732308865, -0.17206209897994995, -0.010723041370511055, 0.06766069680452347, -0.15338319540023804, 0.15472963452339172, -0.05225292965769768, 0.1436484307050705, -0.041110504418611526, 0.1021062359213829, 0.14069655537605286, -0.06595978140830994, -0.05369429662823677, 0.07849042862653732, -0.16299323737621307, 0.09129376709461212, -0.10934048891067505, 0.16225074231624603, -0.11194609850645065, -0.07163494825363159], [0.1131623312830925, -0.08044479787349701, 0.13994576036930084, 0.11069747060537338, 0.14300931990146637, -0.1814984530210495, -0.010403942316770554, -0.07196684181690216, 0.024686157703399658, -0.14129780232906342, 0.05945240706205368, -0.02454545721411705, -0.09835894405841827, -0.1670156717300415, 0.07281286269426346, -0.07610543072223663, 0.12399524450302124, 0.0182202011346817, 0.04816660284996033, -0.039934173226356506, -0.04224821925163269, -0.07776091247797012, -0.1562405824661255, 0.09195303916931152, -0.11558356881141663, 0.08404093980789185, -0.07602190971374512, 0.09109161049127579, 0.13632641732692719, -0.10646696388721466, 0.12876558303833008, -0.006707226857542992, -0.13298332691192627], [0.06683008372783661, 0.08411496877670288, 0.16513186693191528, -0.15811790525913239, 0.1742253601551056, 0.11430621892213821, 0.16341818869113922, 0.09651418775320053, -0.076808400452137, 0.13027730584144592, 0.15688815712928772, -0.06657231599092484, -0.036128658801317215, 0.1308993250131607, 0.14768058061599731, 0.12658043205738068, 0.13106589019298553, -0.1071215495467186, -0.0338004045188427, -0.08805835247039795, 0.08694814145565033, 0.03837345167994499, -0.13492436707019806, -0.03767380863428116, -0.14157265424728394, -0.16266578435897827, 0.1656554788351059, -0.08826766908168793, 0.09353458881378174, -0.03876335918903351, -0.04348200932145119, -0.018339436501264572, 0.13576796650886536], [-0.01907149702310562, 0.13458643853664398, 0.11833421140909195, 0.1267179548740387, -0.14575491845607758, -0.08414001762866974, -0.14228513836860657, -0.04274173080921173, -0.03096114657819271, 0.030700350180268288, 0.1540123075246811, 0.08281436562538147, -0.12167119979858398, -0.10748791694641113, 0.14763705432415009, 0.03481800854206085, 0.06076209247112274, -0.09379087388515472, -0.005614100955426693, 0.04584042355418205, -0.11152144521474838, 0.11687317490577698, 0.07575219869613647, -0.08813078701496124, -0.06550630182027817, -0.031598761677742004, 0.03585878387093544, -0.05942148342728615, 0.18201422691345215, -0.16767321527004242, -0.10072442144155502, -0.11089370399713516, 0.04706718400120735], [0.009155490435659885, -0.05227486416697502, 0.13618484139442444, -0.16588272154331207, 0.06804424524307251, -0.1207469180226326, -0.05291293188929558, -0.16458848118782043, -0.13242055475711823, -0.1556391417980194, 0.06910083442926407, -0.07309981435537338, 0.079398974776268, -0.10504648834466934, -0.06829649209976196, 0.006480817217379808, 0.12665817141532898, -0.07187669724225998, 0.07352542132139206, 0.01785637065768242, 0.08792401850223541, 0.08997123688459396, 0.06175973638892174, -0.06335020810365677, -0.06608535349369049, 0.05183214321732521, 0.08392545580863953, -0.024089215323328972, 0.0767911747097969, -0.10472845286130905, 0.0805477574467659, -0.04820816591382027, -0.11979534476995468], [-0.09290298074483871, -0.13828778266906738, 0.03733846917748451, -0.10402297973632812, -0.05480481684207916, -0.014339439570903778, -0.10862740874290466, 0.004368091933429241, -0.028140394017100334, 0.05595042183995247, 0.12004631757736206, -0.10171709954738617, 0.08912713825702667, -0.011781248264014721, -0.10882595926523209, -0.08331193029880524, 0.04067796841263771, 0.03281271085143089, -0.007646716665476561, -0.09298226237297058, 0.08662395179271698, 0.021724548190832138, -0.17381054162979126, -0.03692779690027237, -0.04491933807730675, -0.07693823426961899, -0.10325971990823746, -0.14325574040412903, 0.16602349281311035, -0.1590050756931305, 0.1630171537399292, -0.14192384481430054, -0.042234282940626144], [-0.08362961560487747, -0.10141473263502121, 0.058942265808582306, 0.09626519680023193, -0.10608919709920883, -0.09662090986967087, 0.08044639974832535, -0.02294413186609745, 0.03219783306121826, 0.08395147323608398, -0.07589903473854065, -0.09864706546068192, 0.05094953626394272, -0.06921644508838654, -0.1227705180644989, -0.09424538910388947, -0.0889408066868782, 0.15778791904449463, 0.02649412676692009, 0.05640021711587906, 0.011647007428109646, -0.1315910965204239, 0.115813247859478, -0.038540586829185486, -0.047332268208265305, 0.13106763362884521, -0.08852428942918777, 0.024648869410157204, -0.1429090052843094, 0.08920138329267502, 0.06309258192777634, -0.16042830049991608, 0.09715919196605682], [-0.004228163044899702, -0.10075373202562332, 0.13585740327835083, 0.06751329451799393, 0.03968178108334541, -0.08146683126688004, -0.10578551143407822, -0.10549675673246384, 0.042960990220308304, 0.027362726628780365, -0.12143169343471527, 0.1338055431842804, 0.08170697093009949, -0.08482915908098221, 0.05730956420302391, -0.09917169064283371, 0.042654868215322495, 0.1280805617570877, -0.1691693663597107, -0.09902659058570862, -0.03362470120191574, -0.0003468490904197097, -0.16199037432670593, -0.12476895749568939, -0.03885897621512413, -0.051921918988227844, 0.008919772692024708, -0.004636311903595924, 0.011543619446456432, 0.011540213599801064, 0.01029125601053238, -0.02215570956468582, 0.06251522898674011], [0.10140068084001541, -0.10042775422334671, -0.10102910548448563, 0.07860251516103745, -0.12014125287532806, 0.09108415991067886, 0.07114183902740479, 0.018482787534594536, -0.0830315351486206, -0.010031936690211296, -0.14738774299621582, -0.16184201836585999, 0.1453968584537506, -0.167837455868721, -0.17508246004581451, -0.06681010127067566, 0.009065446443855762, 0.017828071489930153, -0.10572047531604767, -0.04084295406937599, -0.05757986381649971, 0.12400735914707184, 0.13480421900749207, 0.0556388683617115, -0.011172867380082607, 0.11499928683042526, -0.14147061109542847, 0.05786874517798424, -0.10129232704639435, 0.1357564777135849, -0.16386723518371582, 0.0434938445687294, -0.1431237757205963], [0.12934011220932007, 0.037458956241607666, 0.16203048825263977, -0.1447196900844574, 0.13289499282836914, -0.08938904851675034, -0.09170958399772644, 0.07831554859876633, -0.013793821446597576, -0.12822140753269196, -0.13451170921325684, -0.028915779665112495, 0.05942435562610626, 0.16907913982868195, 0.1588658094406128, 0.028719529509544373, -0.08314456045627594, -0.12841559946537018, 0.18447433412075043, -0.06611756980419159, -0.0016021180199459195, -0.11181674152612686, -0.0985235720872879, 0.04221613332629204, -0.022055430337786674, 0.04369841888546944, 0.01960797607898712, 0.02885717898607254, -0.014694529585540295, -0.006731593981385231, 0.08831186592578888, 0.1517721563577652, 0.14713557064533234], [-0.13534529507160187, -0.11596688628196716, -0.03351083770394325, -0.021769026294350624, 0.08583709597587585, 0.18771734833717346, 0.057896796613931656, -0.10900971293449402, -0.01272321306169033, 0.1251656711101532, 0.07346059381961823, -0.10980881750583649, 0.03383566811680794, -0.15068593621253967, -0.06961550563573837, 0.1140393316745758, -0.0785832330584526, 0.1301330029964447, -0.13762392103672028, 0.18324878811836243, 0.10110362619161606, 0.13274824619293213, 0.05563459172844887, 0.029061049222946167, -0.07255124300718307, -0.08727885782718658, -0.1192631646990776, 0.1589391529560089, -0.07166309654712677, 0.004240936599671841, -0.14935524761676788, 0.07347285747528076, -0.059340700507164], [-0.11607341468334198, 0.029444966465234756, -0.1544913947582245, -0.02357843890786171, -0.15114694833755493, 0.13979646563529968, -0.13604463636875153, 0.028243567794561386, 0.09118346869945526, -0.13975171744823456, 0.12088292092084885, 0.15545938909053802, -0.0946313738822937, 0.028661010786890984, 0.08790255337953568, 0.16082938015460968, 0.15990601480007172, -0.11627458035945892, -0.11322879046201706, -0.12282932549715042, -0.05565638840198517, -0.011766104027628899, -0.051640499383211136, 0.12408851832151413, -0.10121944546699524, -0.12093612551689148, -0.12359441816806793, -0.08764366060495377, 0.1797918677330017, 0.021982766687870026, -0.012689943425357342, -0.02989559806883335, -0.13333027064800262], [-0.06011677533388138, 0.10011262446641922, 0.11923995614051819, 0.12581917643547058, 0.01647290401160717, -0.08929889649152756, -0.09947527945041656, 0.1793484389781952, -0.15069857239723206, 0.04780995473265648, -0.01674491912126541, 0.16514794528484344, 0.10848373919725418, -0.03471836820244789, -0.13738666474819183, 0.02794528938829899, -0.11771537363529205, -0.012751225382089615, 0.04511461406946182, 0.09049561619758606, -0.039638813585042953, -0.11044615507125854, -0.157526433467865, -0.16984161734580994, 0.034165892750024796, -0.1008039340376854, 0.012592646293342113, -0.07407676428556442, -0.11367546766996384, 0.11737929284572601, 0.09848935902118683, 0.12942585349082947, 0.16698504984378815], [-0.12843987345695496, -0.09365426003932953, -0.13927647471427917, 0.11801701039075851, 0.09671250730752945, 0.13477790355682373, -0.12162802368402481, -0.09646543115377426, 0.16262409090995789, -0.13824456930160522, -0.12262772768735886, 0.0580078549683094, -0.15891703963279724, -0.04861138015985489, 0.06817623972892761, 0.1407850980758667, -0.017177656292915344, -0.16038468480110168, 0.09635157883167267, 0.16643524169921875, -0.13473133742809296, -0.014807481318712234, -0.12874522805213928, -0.08779672533273697, 0.05019379034638405, 0.07593324035406113, 0.06745526939630508, -0.17003637552261353, -0.04289776086807251, 0.07419072091579437, -0.02342391200363636, -0.0651370957493782, -0.08992034196853638], [0.15706434845924377, -0.1582743227481842, -0.14025238156318665, 0.1379137635231018, -0.11317326873540878, 0.08744187653064728, -0.09731695801019669, -0.0325905941426754, -0.09261225908994675, 0.13057363033294678, 0.10893388837575912, 0.0001513505121693015, -0.0107130641117692, -0.07809784263372421, -0.10288715362548828, -0.06888335198163986, 0.05095185711979866, -0.049060795456171036, 0.11023619025945663, 0.006800508126616478, -0.010800778865814209, -0.12304544448852539, 0.06635632365942001, -0.1740584522485733, 0.02506641112267971, 0.052081767469644547, 0.025566264986991882, 0.11031574755907059, 0.04081627354025841, -0.04807671159505844, -0.133323535323143, -0.17709429562091827, 0.08785393834114075], [0.10438582301139832, -0.11424939334392548, 0.03635946288704872, -0.07265844941139221, 0.1474771946668625, -0.04100159928202629, 0.14720790088176727, 0.12063954770565033, 0.10393676906824112, 0.12242433428764343, 0.05582902580499649, 0.06556174159049988, -0.14294657111167908, -0.035323288291692734, -0.005589889362454414, 0.08588573336601257, -0.059071674942970276, 0.09876320511102676, 0.147160142660141, 0.09901562333106995, 0.09817782789468765, -0.012107220478355885, 0.0775352418422699, -0.03597891330718994, 0.15148325264453888, -0.001013346016407013, -0.007961023598909378, -0.14965501427650452, 0.16143767535686493, -0.02435561828315258, 0.1473599076271057, -0.0960734561085701, -0.14563779532909393], [-0.03912339732050896, -0.15223482251167297, 0.03155765309929848, -0.004295897204428911, -0.061129845678806305, 0.0961923897266388, 0.1018574982881546, -0.15879450738430023, -0.1457151472568512, 0.08732930570840836, -0.11322282254695892, 0.03132931888103485, -0.05331146717071533, 0.020391594618558884, -0.10630609095096588, -0.0015855706296861172, -0.06242140009999275, -0.09122227132320404, -0.09404537826776505, 0.022462449967861176, 0.09882254153490067, -0.01753309555351734, -0.015571856871247292, 0.13669629395008087, 0.13280583918094635, -0.03489338606595993, -0.14369341731071472, 0.03195389732718468, 0.05138363316655159, -0.1377468705177307, -0.1590840071439743, 0.0029994146898388863, 0.16998547315597534], [-0.16618852317333221, -0.10058599710464478, -0.07089812308549881, -0.1553703099489212, -0.10216856002807617, 0.11668552458286285, 0.11844371259212494, -0.13379420340061188, -0.004884849302470684, -0.15021799504756927, 0.057621486485004425, -0.12545429170131683, -0.10152005404233932, -0.09117328375577927, 0.006213749293237925, 0.103098563849926, -0.08630171418190002, 0.01215567346662283, 0.12052523344755173, -0.03064584732055664, -0.0011374934110790491, -0.006963205523788929, -0.011313159950077534, 0.0900622233748436, 0.07717976719141006, -0.11015718430280685, 0.1518806517124176, 0.08393152803182602, -0.036536380648612976, 0.15155825018882751, -0.004481702111661434, 0.093122698366642, -0.14780816435813904], [0.14596150815486908, 0.1543903350830078, -0.12916885316371918, -0.15257105231285095, -0.05910336971282959, -0.11725030839443207, 0.04016553983092308, 0.0666113942861557, -0.027935650199651718, 0.10901455581188202, -0.0018678039778023958, -0.058197006583213806, -0.1558385193347931, 0.042312223464250565, -0.1747855395078659, -0.012722051702439785, 0.015890145674347878, -0.10771702975034714, 0.042730726301670074, 0.024439871311187744, 0.10316958278417587, 0.09529124945402145, -0.1461554318666458, -0.1349201798439026, -0.07507834583520889, -0.1366269290447235, 0.04066793993115425, -0.12722526490688324, -0.14493325352668762, 0.05070219188928604, 0.10452156513929367, -0.0595657154917717, -0.17346081137657166], [0.013758165761828423, 0.11963693797588348, 0.13863438367843628, 0.007949304766952991, 0.11565064638853073, -0.1132364347577095, 0.17029975354671478, -0.12275044620037079, -0.1247386559844017, 0.12628813087940216, -0.03899068757891655, 0.11357608437538147, -0.12005479633808136, 0.13577714562416077, 0.18783439695835114, 0.05695125088095665, 0.16978168487548828, -0.08190038055181503, 0.002592959674075246, 0.09643919765949249, 0.11201868951320648, -0.07881613820791245, 0.0939328521490097, -0.022962400689721107, -0.08755742758512497, 0.03626759722828865, -0.1363850086927414, -0.15464934706687927, 0.05869043245911598, 0.05929294973611832, 0.08756115287542343, 0.012049440294504166, -0.1273091584444046], [-0.1017359048128128, 0.19282574951648712, -0.13391181826591492, 0.0454413965344429, 0.1626453548669815, 0.1762298196554184, -0.09101635962724686, -0.03827439621090889, -0.11708080768585205, 0.13519002497196198, -0.13918597996234894, -0.13535642623901367, -0.09358029067516327, 0.1733936369419098, 0.17479608952999115, 0.1425752341747284, 0.15647192299365997, -0.03794771805405617, -0.0487649142742157, -0.05886055901646614, 0.10315738618373871, 0.11276262998580933, 0.07313084602355957, -0.12082624435424805, 0.04615474119782448, -0.05515934154391289, -0.006510442588478327, 0.008380978368222713, 0.03406194597482681, -0.1526346206665039, 0.16705061495304108, -0.0325978621840477, 0.05439092591404915], [0.13884635269641876, 0.10608789324760437, 0.13233983516693115, 0.10255710035562515, 0.10810354351997375, 0.07735027372837067, 0.12946029007434845, -0.060480885207653046, -0.07989910244941711, 0.10152558982372284, 0.061011895537376404, 0.008135350421071053, -0.11496049165725708, 0.08261038362979889, 0.14935517311096191, -0.01628933474421501, 0.053484153002500534, 0.11810579895973206, -0.13948313891887665, 0.01361563615500927, -0.03119056671857834, -0.05469867214560509, 0.12094651907682419, 0.2012178748846054, 0.057147786021232605, 0.13099642097949982, -0.11747584491968155, 0.05735113099217415, -0.02157238870859146, -0.10736414045095444, 0.060841623693704605, 0.09160067141056061, -0.008407935500144958], [0.0570094920694828, 0.0657518282532692, 0.1507604569196701, 0.011030130088329315, 3.8371290429495275e-05, -0.025701168924570084, 0.006450045388191938, -0.12787587940692902, -0.036091066896915436, -0.16943708062171936, -0.1390940397977829, -0.16439063847064972, 0.1059054508805275, -0.11788519471883774, -0.025908032432198524, 0.006476514041423798, 0.1424662172794342, 0.05579373612999916, -0.13318797945976257, 0.15184666216373444, -0.18562325835227966, -0.0007782983011566103, 0.14625266194343567, 0.13024993240833282, -0.05553971230983734, -0.1381109654903412, 0.058452438563108444, 0.11205928027629852, -0.10031457990407944, -0.027546290308237076, -0.11536265909671783, 0.0494537279009819, 0.037052445113658905], [0.1102372482419014, -0.04371204599738121, -0.16100554168224335, -0.06751232594251633, -0.1403016895055771, -0.010715517215430737, 0.08051205426454544, -0.13564914464950562, 0.005770083516836166, -0.15545602142810822, -0.1079995408654213, -0.10391755402088165, -0.034662049263715744, -0.07203107327222824, 0.055841729044914246, 0.124980628490448, 0.15015317499637604, 0.08606946468353271, 0.01799634099006653, 0.0001286675251321867, 0.14600689709186554, -0.06931329518556595, 0.1521548330783844, -0.15148989856243134, -0.11908607184886932, 0.06867057085037231, -0.05173205956816673, 0.0551319494843483, 0.17039835453033447, 0.0795067623257637, 0.19004397094249725, -0.048550017178058624, -0.08312734961509705], [-0.021667608991265297, -0.052754662930965424, -0.0732095018029213, -0.01767110824584961, 0.15040859580039978, -0.10098068416118622, 0.0896676778793335, 0.06602155417203903, 0.08735410869121552, 0.031156394630670547, -0.07474778592586517, 0.06448306143283844, -0.0941704511642456, -0.11262331902980804, 0.17167921364307404, 0.15064048767089844, -0.11290629208087921, 0.1358363926410675, 0.050928812474012375, 0.035625629127025604, 0.15979737043380737, -0.018635282292962074, -0.06384392827749252, 0.10553309321403503, -0.04904398322105408, -0.04681773483753204, -0.07277495414018631, 0.16003867983818054, 0.0887322649359703, -0.028219910338521004, -0.005303438752889633, 0.0002728242252487689, -0.10319261997938156], [0.02623394876718521, -0.15146908164024353, -0.018549714237451553, -0.02930954098701477, -0.07708319276571274, 0.13305681943893433, 0.039886049926280975, 0.071864552795887, -0.1265682578086853, 0.01058279350399971, 0.033499665558338165, 0.07677280902862549, -0.06526647508144379, -0.050937049090862274, -0.17341892421245575, 0.08858206123113632, 0.09404183179140091, 0.053712159395217896, 0.05617794394493103, 0.07618202269077301, 0.1412561684846878, 0.03234396502375603, 0.04597930610179901, 0.03864346072077751, -0.11595558375120163, 0.02490115910768509, 0.03470035269856453, -0.15876540541648865, -0.06663838773965836, -0.10740496218204498, -0.1273796707391739, 0.09673722833395004, 0.13694451749324799], [0.017084015533328056, 0.04001033306121826, -0.020392674952745438, 0.04261437803506851, -0.0059304675087332726, -0.05741991475224495, -0.06851408630609512, 0.1835387647151947, 0.050446540117263794, -0.07878624647855759, 0.03816331923007965, -0.15370723605155945, 0.014891366474330425, 0.1511455625295639, 0.05533406510949135, 0.06566685438156128, -0.1451655924320221, 0.00039567676139995456, 0.13808952271938324, -0.08774636685848236, -0.05584661662578583, 0.14570388197898865, 0.08987362682819366, 0.06302002817392349, -0.13438040018081665, 0.13604702055454254, -0.014451386407017708, 0.056479211896657944, 0.1645493507385254, -0.16042299568653107, 0.06470818817615509, -0.12758727371692657, 0.12887640297412872], [0.08905303478240967, 0.0609111562371254, -0.05380836874246597, 0.07414162158966064, -0.0671696737408638, 0.07900229096412659, 0.16648389399051666, -0.10752620548009872, -0.013372445479035378, 0.07875674962997437, 0.0592077262699604, 0.039158355444669724, 0.1875072419643402, -0.00878771860152483, 0.10505039989948273, 0.12280624359846115, -0.01435158122330904, 0.1594741940498352, 0.15544115006923676, 0.12451183050870895, 0.004193071275949478, 0.20076824724674225, -0.06685512512922287, 0.08474630117416382, 0.0772835835814476, 0.16545650362968445, -0.1068762019276619, 0.07465235143899918, -0.07063424587249756, 0.09226667135953903, 0.08824998140335083, -0.09526249021291733, -0.010898405686020851], [0.017904076725244522, 0.06018131971359253, 0.1443110853433609, 0.08698410540819168, 0.01935657113790512, 0.06512388586997986, -0.1727338433265686, 0.09831829369068146, -0.03648729622364044, 0.07879001647233963, 0.03231867402791977, -0.023924674838781357, 0.09894926100969315, -0.12207575887441635, 0.017582610249519348, 0.062142513692379, -0.07678554952144623, 0.035327401012182236, -0.19572177529335022, -0.11579340696334839, 0.0577206127345562, 0.061728451400995255, -0.18795481324195862, 0.05834343656897545, -0.008731220848858356, 0.14661970734596252, -0.18477030098438263, -0.06360429525375366, -0.10610035061836243, -0.10592249780893326, -0.04380326718091965, -0.1845700889825821, 0.13638153672218323], [-0.06844379007816315, 0.06301288306713104, -0.1022152304649353, 0.028806645423173904, -0.11729402095079422, 0.12215179204940796, 0.14817465841770172, 0.13387535512447357, -0.05344250425696373, 0.1111663281917572, -0.14187750220298767, 0.08914545178413391, -0.0161298718303442, -0.14235419034957886, -0.13551336526870728, -0.15075941383838654, 0.024612965062260628, -0.08092189580202103, -0.09676651656627655, 0.14601123332977295, -0.055277157574892044, 0.056808412075042725, -0.03971610218286514, 0.11500996351242065, 0.04580989480018616, 0.11593553423881531, 0.05572932958602905, -0.030923334881663322, 0.1668844074010849, -0.012410206720232964, -0.11081080883741379, 0.03620688244700432, -0.021123647689819336], [-0.1345081478357315, 0.009203273802995682, -0.046194735914468765, -0.061867013573646545, -0.08329422771930695, -0.08797343820333481, -0.0713062509894371, 0.010527389124035835, 0.1576155126094818, -0.11272631585597992, -0.0875801220536232, -0.12326371669769287, -0.0150147071108222, 0.0013224742142483592, -0.13516992330551147, 0.07801217585802078, -0.15834447741508484, 0.1472267508506775, 0.022231493145227432, -0.03214801847934723, -0.07730722427368164, 0.06465189903974533, 0.11313073337078094, -0.12312420457601547, -0.04464492201805115, 0.1177617684006691, -0.03636590391397476, -0.1396269053220749, -0.05404186621308327, 0.006013171281665564, -0.03769197314977646, -0.13411366939544678, -0.10905828326940536], [0.06259855628013611, 0.13725240528583527, 0.174991175532341, -0.007138181012123823, 0.05840562283992767, -0.09901558607816696, 0.10391789674758911, 0.17946891486644745, 0.09449858218431473, -0.053914137184619904, 0.14646939933300018, -0.16668955981731415, -0.016290733590722084, -0.027947233989834785, -0.13807258009910583, -0.10575520247220993, -0.13119083642959595, 0.08602757006883621, 0.0263166893273592, 0.1256079226732254, -0.012528304010629654, 0.17003294825553894, 0.035793136805295944, 0.1549469381570816, 0.16046683490276337, -0.13451118767261505, -0.11904855072498322, 0.11975308507680893, 0.16321533918380737, -0.14857785403728485, 0.02884494885802269, -0.02847628854215145, 0.1638876497745514], [0.17270420491695404, 0.16702403128147125, 0.08681201934814453, -0.022458447143435478, 0.18159188330173492, -0.03291596099734306, 0.020486611872911453, -0.0325176827609539, -0.10991077870130539, -0.06356655061244965, 0.05890645831823349, 0.005585850216448307, -0.09718159586191177, 0.005100357346236706, 0.07996606826782227, -0.10109582543373108, 0.1345503330230713, -0.09945499897003174, 0.050585757941007614, -0.09503516554832458, -0.11742279678583145, 0.020065613090991974, 0.18228887021541595, 0.19783495366573334, 0.07464396208524704, 0.15931342542171478, -0.0768033042550087, 0.12152282893657684, 0.12463919073343277, -0.16636601090431213, -0.1111571341753006, 0.11131184548139572, 0.016085825860500336]], "b1": [-0.08499687165021896, -0.09616298228502274, 0.14782078564167023, 0.01815783418715, 0.013892313465476036, -0.16665403544902802, 0.13073094189167023, -0.12256497889757156, 0.110824815928936, 0.009607669897377491, 0.008812212385237217, 0.12696656584739685, -0.05734972655773163, -0.008143273182213306, 0.13843657076358795, -0.1478511542081833, 0.08656959235668182, -0.05380714684724808, -0.04625604301691055, 0.10745112597942352, 0.024509811773896217, -0.1276104897260666, 0.13179750740528107, -0.09000394493341446, 0.19153472781181335, -0.06577321887016296, 0.20955157279968262, 0.02935425564646721, -0.015063125640153885, 0.04219621792435646, -0.006593554280698299, -0.07336514443159103, 0.14006075263023376, 0.09619113802909851, -0.03198494017124176, 0.19592969119548798, -0.0056550754234194756, -0.06699562072753906, -0.06288115680217743, 0.0915718823671341, -0.07070650160312653, 0.09475666284561157, -0.1759442538022995, 0.0473046600818634, -0.07885988056659698, 0.09014109522104263, 0.17588059604167938, 0.07382552325725555, -0.07031817734241486, -0.1576223373413086, -0.08304356038570404, -0.11880753189325333, 0.14618994295597076, -0.07657040655612946, 0.0975157618522644, 0.16935163736343384, 0.06082737445831299, -0.11327435076236725, -0.04272798076272011, -0.04346085712313652, 0.14815740287303925, 0.0036162317264825106, 0.023715104907751083, 0.13467934727668762, 0.05380038544535637, 0.056079309433698654, -0.0593370757997036, 0.09720401465892792, 0.02312670461833477, -0.04445114731788635, 0.031722359359264374, -0.11279477179050446, 0.010437584482133389, 0.10084627568721771, -0.13470330834388733, -0.09663126617670059, 0.08174143731594086, 0.033943772315979004, -0.028587527573108673, 0.005402878392487764, -0.07580465078353882, 0.12273435294628143, -0.0032476410269737244, -0.022303050383925438, 0.0876680389046669, -0.12501859664916992, 0.003871978260576725, 0.07409049570560455, -0.07869847118854523, 0.12809927761554718, -0.14495113492012024, -0.04665404558181763, -0.08778094500303268, 0.1627461314201355, 0.07364482432603836, -0.14174680411815643, 0.04884132742881775, -0.008700541220605373, 0.16261450946331024, 0.07607222348451614, -0.10576972365379333, 0.14093372225761414, -0.05744102597236633, -0.061286911368370056, 0.08070309460163116, 0.19289225339889526, 0.0758969858288765, -0.1608990877866745, -0.06268682330846786, 0.14723031222820282, -0.05025915056467056, -0.09699103236198425, -0.15864434838294983, -0.10967836529016495, -0.08104200661182404, 0.08662332594394684, 0.10382413119077682, 0.1427239626646042, 0.1446278840303421, -0.006922667380422354, 0.06921486556529999, 0.12756173312664032, -0.10058361291885376, 0.059844162315130234, -0.1209884062409401, 0.12091680616140366, -0.049274224787950516, 0.07780878990888596], "w2": [[0.02550678700208664, 0.07057902961969376, 0.03341444209218025, -0.06599970906972885, 0.028812604025006294, 0.057405948638916016, -0.02700742334127426, -0.054015904664993286, -0.0226507019251585, -0.010283260606229305, 0.0017253445694223046, 0.04037850350141525, -0.0066922614350914955, -0.011266344226896763, 0.0746343731880188, 0.01335203368216753, -0.03015504777431488, -0.016281617805361748, -0.07065480947494507, -0.027192169800400734, -0.05291751027107239, 0.03693070262670517, -0.04788700118660927, 0.0366559736430645, 0.08018110692501068, -0.05269363150000572, -0.018473070114850998, -0.050597529858350754, 0.02586718462407589, 0.043662793934345245, -0.03821210935711861, 0.08554378151893616, 0.07223363220691681, -0.06123073771595955, 0.011243561282753944, -0.005164600443094969, -0.013137132860720158, 0.08140379935503006, 0.0280117429792881, -0.043360259383916855, 0.07885050028562546, -0.07052716612815857, -0.023899512365460396, 0.06627888232469559, 0.10825381428003311, 0.10919860750436783, 0.005891728214919567, 0.0390949621796608, -0.06959398090839386, 0.010136517696082592, -0.017074082046747208, 0.044790152460336685, -0.04500806704163551, 0.04959503933787346, 0.060683269053697586, 0.10049107670783997, 0.014977824874222279, 0.10726571828126907, -0.07453501969575882, -0.012854351662099361, 0.06150628626346588, 0.0364038310945034, 0.06686875224113464, -0.03402241691946983, 0.08343247324228287, -0.059396907687187195, -0.053399696946144104, 0.004911643452942371, -0.08881914615631104, -0.07736700028181076, -0.055708371102809906, 0.10010115802288055, 0.018762901425361633, -0.031080352142453194, 0.01626555621623993, -0.05857014283537865, -0.06349437683820724, -0.043637715280056, -0.061904191970825195, 0.07072773575782776, -0.027757709845900536, 0.00438271276652813, -0.06424909830093384, 0.046703439205884933, -0.00925502274185419, -0.06074150651693344, 0.0761633887887001, 0.09794939309358597, -0.05397793650627136, 0.07047281414270401, -0.0025313054211437702, 0.011567918583750725, 0.05027075111865997, 0.0018177449237555265, 0.0841854140162468, 0.056506600230932236, -0.06106366217136383, -0.03979118913412094, -0.07904596626758575, 0.032816365361213684, -0.07263720780611038, -0.05444794148206711, -0.04204097017645836, -0.062335118651390076, -0.05707329884171486, 0.10918807238340378, 0.05352934077382088, 0.08447358757257462, -0.043491002172231674, -0.023914102464914322, -0.017766732722520828, 0.013682548888027668, -0.05625109747052193, 0.01936284825205803, -0.04683411493897438, 0.036476980894804, 0.11377155780792236, 0.03717255964875221, 0.05678355693817139, -0.04246467351913452, 0.00647674361243844, -0.03762108460068703, 0.02562076970934868, -0.011250690557062626, -0.03293826803565025, -0.0767364427447319, -0.007415244821459055, 0.01567770726978779], [-0.009967547841370106, -0.0832291692495346, 0.061633527278900146, 0.064064621925354, -0.05794607102870941, 0.014504407532513142, 0.05707356706261635, -0.08252511918544769, -0.0747641921043396, 0.049973756074905396, 0.00477035203948617, 0.029684090986847878, -0.036882877349853516, 0.015018357895314693, 0.06224965676665306, -0.015517108142375946, -0.028653530403971672, -0.07964383065700531, -0.020733069628477097, 0.0620446614921093, -0.08361852169036865, -0.014148165471851826, 0.07293295115232468, -0.021498529240489006, -0.029427621513605118, -0.03506822511553764, -0.030667947605252266, 0.012583529576659203, -0.0898752510547638, 0.03705846145749092, -0.028440484777092934, -0.010816291905939579, -0.004288754891604185, 0.05401089787483215, -0.04985430836677551, -0.07707734405994415, -0.06814496964216232, -0.06148315966129303, -0.05032673105597496, 0.0740518569946289, -0.06181814521551132, -0.04630167782306671, -0.06846176087856293, -0.0439426489174366, -0.002040978753939271, -0.054669782519340515, 0.005953694693744183, 0.028752315789461136, -0.007214186247438192, 0.04347873851656914, 0.027627283707261086, 0.08555280417203903, 0.0035467145498842, 0.07765538990497589, 0.059608496725559235, 0.04461543262004852, 0.047581955790519714, -0.05043025314807892, -0.0600944459438324, 0.03399856388568878, 0.032549601048231125, 0.09248130768537521, -0.014090191572904587, -0.01666479930281639, 0.06260579079389572, 0.0036144531331956387, 0.08789345622062683, -0.036400310695171356, -0.03196582943201065, 0.002457796363160014, 0.04357367008924484, -0.07476043701171875, -0.021182335913181305, 0.06511691957712173, 0.02008330635726452, 0.06650544703006744, -0.02640373446047306, -0.051377225667238235, -0.06228497624397278, -0.045249685645103455, -0.06373331695795059, 0.049623485654592514, 0.02893340215086937, -0.055846720933914185, 0.08111771941184998, 0.020554576069116592, 0.036729320883750916, -0.04161946475505829, 0.06063266471028328, -0.05761369690299034, 0.07212650775909424, -0.04791883006691933, 0.04185561090707779, -0.02643069438636303, 0.05464901402592659, -0.0754130631685257, -0.017170226201415062, -0.021011069416999817, -0.05537339299917221, -0.044315747916698456, -0.0152231240645051, 0.0063393390737473965, 0.0644470825791359, -0.017011471092700958, 0.07895869016647339, -0.03758474066853523, -0.04262017831206322, -0.005687427241355181, -0.01208463218063116, 0.030621521174907684, 0.08434542268514633, 0.033758025616407394, -0.0786532536149025, -0.03443296626210213, -0.02254246547818184, -0.0793757513165474, 0.02771701291203499, 0.07729669660329819, 0.03969280794262886, 0.0018682366935536265, -0.004892551805824041, -0.0348815955221653, -0.00719161331653595, 0.08396347612142563, -0.03842086344957352, 0.02276305854320526, -0.05856800079345703, -0.028863443061709404], [-0.03597463294863701, -0.10826395452022552, -0.005109259858727455, 