{"metadata": {"algorithm": "reinforce_gpu_self_play", "num_players": 2, "game": "imposter_zero_match", "game_version": "3.0-match", "input_size": 43, "hidden_size": 256, "num_layers": 3, "output_size": 36, "abstract_actions": ["L", "M", "H", "D", "LL", "LH", "HH", "K0", "K1", "K2", "SK_C", "SK_T", "EM", "BR", "RC_P", "RC_N", "DS0", "DS1", "DS2", "DS3", "DS4", "DS5", "DS6", "DS7", "DS8", "DO_F", "DO_S", "DP0", "DP1", "DP2", "DP3", "DP4", "DP5", "DP6", "DP7", "DP8"], "episodes": 20160, "win_rate_vs_random": 0.899, "exported_at": "2026-03-11T11:59:25Z"}, "weights": {"w1": [[0.12634669244289398, -0.18102949857711792, 0.04855911433696747, -0.0716630294919014, -0.011171914637088776, -0.005471184384077787, -0.047055378556251526, 0.004358773119747639, -0.06706647574901581, 0.09752807021141052, 0.14814405143260956, -0.008832273073494434, -0.03577861562371254, -0.0680059865117073, -0.02014962211251259, 0.022898968309164047, 0.15375512838363647, -0.03753179684281349, 0.2307835817337036, -0.03717866167426109, 0.1972772181034088, -0.009097195230424404, 0.05851270630955696, 0.03839224576950073, 0.07800490409135818, 0.07176986336708069, 0.12862950563430786, 0.08332714438438416, 0.08090771734714508, -0.09897473454475403, 0.046192336827516556, 0.09861902892589569, 0.03862806409597397, 0.0371415950357914, 0.07433779537677765, 0.24896816909313202, -0.14144259691238403, -0.0579666830599308, 0.03852042928338051, -0.13719739019870758, 0.15993960201740265, -0.12114959210157394, -0.12340272217988968], [0.24769353866577148, 0.03556477278470993, 0.017539501190185547, -0.13816706836223602, 0.03646363690495491, 0.12430980801582336, -0.11402148008346558, -0.14717549085617065, 0.08543253690004349, 0.14344419538974762, 0.03293151035904884, -0.11327015608549118, -0.018430091440677643, -0.07387931644916534, -0.055886249989271164, 0.06725935637950897, 0.1302594691514969, 0.06555331498384476, 0.10719360411167145, 0.11764515191316605, -0.0291000846773386, 0.0003644120879471302, 0.005303395912051201, -0.09091340005397797, 0.006450978107750416, 0.0868341401219368, 0.0876336470246315, 0.047198906540870667, -0.05931960791349411, 0.039343468844890594, -0.1591319441795349, 0.01071222685277462, 0.14386263489723206, 0.06063990667462349, 0.010745243169367313, 0.16252785921096802, -0.14754712581634521, 0.1299135535955429, -0.0444239117205143, -0.09925546497106552, 0.05976967141032219, -0.11859886348247528, -0.094589963555336], [-0.0004947513807564974, 0.20065724849700928, 0.00847945548593998, 0.24596458673477173, -0.05261582136154175, -0.028402065858244896, 0.15877272188663483, 0.0334874764084816, -0.07832552492618561, -0.079715296626091, -0.03480555862188339, 0.19967783987522125, 0.15730272233486176, 0.20745806396007538, -0.01834787428379059, -0.06559940427541733, -0.05522269010543823, 0.024488089606165886, -0.10957853496074677, -0.022353963926434517, 0.14031358063220978, 0.013354077003896236, -0.02745208702981472, 0.1395234316587448, 0.03201231360435486, 0.17495357990264893, 0.10605514049530029, 0.08993447571992874, 0.0320136696100235, -0.017353687435388565, 0.009282581508159637, -0.06289465725421906, -0.0862903743982315, 0.07774579524993896, 0.030466599389910698, -0.17813336849212646, 0.20752128958702087, -0.008000853471457958, 0.09718559682369232, 0.0436929389834404, -0.15787436068058014, -0.0131903737783432, 0.1412809193134308], [0.17083115875720978, -0.17574362456798553, -0.04755410924553871, -0.2069253772497177, 0.1502142697572708, 0.18676799535751343, 0.047662246972322464, -0.09893384575843811, 0.06252066791057587, 0.10121197998523712, 0.019393697381019592, -0.03522929921746254, 0.05538511276245117, 0.024155354127287865, -0.05649978294968605, -0.09140108525753021, -0.02959997020661831, 0.07816429436206818, 0.06259869784116745, 0.17768384516239166, 0.07439612597227097, 0.015638096258044243, -0.1006985604763031, -0.09647785872220993, 0.11411193013191223, 0.17651452124118805, -0.012608171440660954, -0.0918942540884018, 0.054143015295267105, 0.11323026567697525, -0.11798460781574249, 0.02059122733771801, 0.012825694866478443, -0.009811419062316418, -0.1414031833410263, 0.16000276803970337, -0.21692010760307312, 0.0020209418144077063, -0.018069270998239517, 0.05361377075314522, 0.11998046189546585, 0.005693457089364529, -0.163324773311615], [0.2532806098461151, -0.0973588153719902, -0.08458099514245987, -0.007613843306899071, -0.04391918331384659, 0.07383421063423157, 0.12918728590011597, -0.07112864404916763, 0.10848462581634521, 0.008694324642419815, 0.04511140659451485, 0.03662421926856041, 0.0023761603515595198, -0.014639059081673622, -0.0814218744635582, 0.14585477113723755, 0.18623420596122742, 0.1412871927022934, 0.18590869009494781, 0.24283428490161896, 0.23830801248550415, -0.06629344820976257, 0.06625600904226303, 0.03814701363444328, 0.1399022936820984, 0.04681083932518959, 0.06952845305204391, -0.06480298191308975, 0.06970085203647614, 0.18310199677944183, -0.03267596289515495, -0.06283583492040634, -0.12676779925823212, 0.047992926090955734, -0.0023067828733474016, 0.13548578321933746, -0.09804624319076538, 0.18572291731834412, 0.06687451899051666, -0.02653852291405201, 0.021173037588596344, 0.0763808935880661, -0.011395910754799843], [0.08920647948980331, -0.0036993841640651226, 0.05398241803050041, -0.09186708927154541, 0.03553306683897972, 0.027663584798574448, 0.04075024649500847, -0.11680193990468979, -0.020412953570485115, 0.0042913081124424934, -0.050025977194309235, -0.019079038873314857, -0.06419723480939865, -0.14203111827373505, -0.11901576817035675, -0.08170686662197113, 0.10472052544355392, 0.16266828775405884, 0.2221415638923645, 0.21650879085063934, 0.1295437514781952, 0.0830751284956932, -0.0471307635307312, 0.10270004719495773, -0.006954833399504423, -0.022386016324162483, -0.05083385109901428, -0.07192597538232803, -0.11753133684396744, -0.05525432154536247, 0.05801302567124367, -0.04941844567656517, -0.13844674825668335, -0.024967122822999954, 0.13818494975566864, 0.13969643414020538, -0.11039765179157257, -0.03462188318371773, 0.196615070104599, -0.1932450234889984, 0.16317041218280792, -0.009655067697167397, 0.03874310851097107], [-0.18785357475280762, 0.06731857359409332, -0.0640881136059761, 0.24993668496608734, 0.04783099889755249, -0.07553016394376755, 0.16137832403182983, 0.040960874408483505, 0.05801500752568245, -0.07727228105068207, -0.08284611999988556, 0.22082334756851196, -0.022120870649814606, 0.0591929629445076, 0.06536047160625458, 0.16780471801757812, -0.06964010745286942, -0.04861722141504288, -0.14054380357265472, -0.0020061591640114784, 0.1422433704137802, 0.1632324904203415, 0.13803713023662567, 0.19843871891498566, -0.021020108833909035, 0.0827345922589302, -0.04319983720779419, 0.08236818760633469, -0.13033829629421234, -0.05223184823989868, 0.18479955196380615, -0.05844609811902046, -0.012150535359978676, 0.011710611172020435, -0.12095440179109573, -0.13336098194122314, 0.129713237285614, 0.20509403944015503, 0.008849766105413437, 0.2407936304807663, -0.0766601487994194, 0.18678607046604156, 0.2259170562028885], [-0.08184853196144104, 0.053665559738874435, 0.11280640959739685, 0.05014723911881447, -0.08063865453004837, 0.017128417268395424, -0.01144461426883936, 0.01885589212179184, -0.08969162404537201, 0.12133049219846725, -0.09760861098766327, -0.0383714959025383, 0.1166430413722992, 0.1770254671573639, 0.23434975743293762, -0.03972539305686951, 0.1530330926179886, 0.11423460394144058, -0.1742125302553177, 0.15475142002105713, -0.0024547327775508165, 0.11418755352497101, -0.06954679638147354, -0.008347566239535809, -0.010573736391961575, 0.05939380079507828, 0.08230040222406387, 0.08001510798931122, -0.09008749574422836, 0.1760379672050476, 0.17101506888866425, -0.1655290275812149, -0.14135393500328064, 0.04046428203582764, 0.042421597987413406, -0.21592557430267334, 0.08104178309440613, 0.09983336180448532, -0.038213472813367844, 0.23639173805713654, 0.06946580857038498, 0.20531606674194336, 0.03036871924996376], [-0.08713608235120773, 0.11788567155599594, 0.08919729292392731, 0.18345355987548828, -0.016833577305078506, 0.23573045432567596, 0.0324641615152359, -0.007579214405268431, 0.02009062096476555, 0.11209498345851898, -0.030201269313693047, 0.016346067190170288, 0.07969942688941956, 0.19208626449108124, 0.05570684000849724, 0.1971411406993866, 0.2510021924972534, 0.1120791882276535, -0.021941298618912697, 0.11735290288925171, 0.1674434244632721, 0.0835358053445816, -0.038465455174446106, 0.21677187085151672, 0.05192138999700546, 0.012025192379951477, 0.19777269661426544, 0.14904549717903137, 0.11110704392194748, 0.08090777695178986, 0.18274801969528198, 0.0218149833381176, -0.09468422085046768, 0.26308560371398926, 0.15004466474056244, 0.17047034204006195, 0.025841007009148598, 0.055261578410863876, 0.14203642308712006, 0.1764959990978241, 0.1160687580704689, 0.17117878794670105, 0.1136348620057106], [-0.004076396115124226, 0.1982535421848297, 0.08686349540948868, 0.09854740649461746, -0.06629644334316254, 0.008797205984592438, 0.014551045373082161, 0.17856058478355408, 0.0366559699177742, -0.00300107360817492, 0.050843674689531326, 0.10855952650308609, 0.22498853504657745, 0.11864343285560608, 0.18999257683753967, 0.20389346778392792, -0.041953761130571365, 0.14457538723945618, 0.1214807778596878, 0.04394809901714325, 0.132014200091362, 0.10787130147218704, 0.17370201647281647, 0.1436420977115631, -0.003237529657781124, -0.0009719966910779476, 0.24671657383441925, 0.04208364710211754, -0.1340319961309433, -0.01783503219485283, -0.009418686851859093, 0.05613267421722412, 0.017629215493798256, 0.016944367438554764, -0.0344504714012146, -0.07546870410442352, 0.16897134482860565, 0.17348714172840118, 0.026260891929268837, 0.2437821477651596, 0.21616189181804657, 0.007498008664697409, 0.24215924739837646], [-0.23159879446029663, 0.02545478381216526, 0.030108358711004257, 0.1521671861410141, 0.23321154713630676, 0.08906067907810211, 0.20991510152816772, 0.03030506893992424, -0.058019548654556274, 0.03520708158612251, 0.1615225374698639, 0.03625265136361122, -0.019624456763267517, 0.016193542629480362, 0.1392723172903061, 0.24861617386341095, 0.08600986003875732, -0.07831486314535141, -0.14909736812114716, 0.18444092571735382, 0.02421381324529648, 0.06770912557840347, 0.19936580955982208, 0.14160366356372833, 0.19939666986465454, 0.24499483406543732, 0.059514518827199936, 0.1265265792608261, -0.11441586911678314, 0.2658982574939728, 0.00761052779853344, 0.14954139292240143, 0.1396239697933197, 0.10496503114700317, -0.13184893131256104, -0.12180580198764801, 0.054462455213069916, 0.15446914732456207, 0.18609727919101715, 0.18313290178775787, 0.0461868979036808, -0.013300136663019657, -0.02635101228952408], [0.18149958550930023, -0.16036440432071686, 0.07127339392900467, 0.02551277168095112, 0.1255030333995819, -0.0056255534291267395, -0.014539388008415699, 0.053638141602277756, 0.0006911268574185669, 0.06384100019931793, -0.0697956308722496, 0.033111270517110825, -0.019871171563863754, 0.12932968139648438, 0.06535840034484863, 0.028159819543361664, -0.0413985475897789, 0.08749446272850037, 0.2434542179107666, 0.0779871791601181, 0.09283488988876343, -0.054819658398628235, 0.1871010661125183, 0.19638299942016602, -0.04162880778312683, -0.03344438597559929, 0.018635060638189316, -0.010390122421085835, -0.12478101998567581, 0.08123622089624405, -0.021936122328042984, 0.13259606063365936, 0.06059684604406357, 0.20893409848213196, 0.09060540050268173, 0.005772748496383429, -0.26534557342529297, 0.17597170174121857, -0.03053462691605091, 0.010439438745379448, 0.004097665660083294, 0.042768172919750214, -0.0001381494803354144], [-0.18859782814979553, -0.0028447736985981464, -0.06686243414878845, 0.04128766432404518, -0.01251176930963993, 0.21019437909126282, 0.15474142134189606, 0.029093265533447266, 0.024407848715782166, 0.08476996421813965, 0.09671039134263992, 0.07701548933982849, 0.24482817947864532, 0.21529600024223328, 0.12378201633691788, 0.21232812106609344, 0.044088270515203476, -0.069923035800457, 0.026924436911940575, 0.1961197555065155, 0.1125519871711731, -0.027378246188163757, 0.2033187597990036, 0.11613883078098297, 0.029525352641940117, -0.022365326061844826, 0.03108968771994114, 0.2512725293636322, 0.07563735544681549, 0.05002705007791519, 0.23797917366027832, 0.12946684658527374, 0.07579636573791504, 0.08337635546922684, 0.14291106164455414, -0.13980796933174133, 0.05037409067153931, 0.18577195703983307, 0.04188643768429756, 0.21802380681037903, -0.08943451941013336, 0.16027124226093292, -0.007408520206809044], [-0.15709836781024933, 0.09388531744480133, 0.12021037936210632, 0.020118681713938713, 0.036761607974767685, 0.1624346524477005, 0.0964040756225586, -0.07199031859636307, 0.0669863224029541, 0.010374781675636768, 0.13424566388130188, 0.16028542816638947, 0.06003605201840401, 0.010376272723078728, 0.1893416792154312, -0.025420919060707092, 0.17177902162075043, 0.16030479967594147, 0.06882896274328232, 0.016834959387779236, 0.15818481147289276, 0.00048331834841519594, 0.1592075228691101, 0.017308788374066353, 0.1437603086233139, 0.11218287795782089, 0.003010014072060585, -0.03824657201766968, -0.035971276462078094, 0.20637549459934235, 0.079354427754879, -0.06026569753885269, -0.09468573331832886, -0.03127560392022133, -0.012381793931126595, -0.08226126432418823, 0.12477990984916687, 0.2588386833667755, 0.007752753794193268, 0.03205614164471626, 0.07839719206094742, -0.022590510547161102, 0.07134073972702026], [-0.01709729991853237, 0.13257700204849243, -0.016975853592157364, 0.1439971923828125, 0.17241725325584412, -0.03224419429898262, 0.029240284115076065, 0.165480375289917, 0.13032318651676178, 0.020588507875800133, 0.23703324794769287, 0.1794847548007965, 0.012601079419255257, 0.03196049481630325, 0.1475081592798233, -0.0016893820138648152, -0.04161800444126129, 0.0015092459507286549, -0.07703600078821182, 0.1919124722480774, 0.11617083102464676, -0.05253852158784866, 0.04729297384619713, 0.21950311958789825, 0.00530324736610055, -0.003648543730378151, 0.13989578187465668, -0.014463454484939575, -0.1422625482082367, 0.18041673302650452, 0.03108513541519642, 0.08813676238059998, -0.03170573338866234, 0.2128167450428009, -0.06293264031410217, 0.2019876390695572, -0.11205404251813889, 0.05068926140666008, 0.21040844917297363, 0.11476829648017883, -0.03247004747390747, 0.03638716787099838, 0.12205828726291656], [-0.21348007023334503, 0.11685967445373535, 0.09340565651655197, -0.04419727250933647, 0.07301721721887589, -0.05097781866788864, -0.059439532458782196, 0.02323920466005802, -0.07118149101734161, -0.043316472321748734, 0.14229562878608704, 0.039631448686122894, -0.02381027862429619, 0.18944981694221497, -0.0681297555565834, 0.09405884146690369, -0.042168907821178436, -0.059032127261161804, -0.040329884737730026, 0.25535935163497925, 0.03877892717719078, -0.05502679571509361, 0.1300983875989914, 0.04676401615142822, -0.008166274055838585, 0.15877027809619904, 0.16795317828655243, 0.01888950727880001, 0.009965353645384312, 0.11503628641366959, 0.11732842028141022, -0.05523601174354553, -0.08813203871250153, 0.17400117218494415, 0.11523186415433884, 0.04289711266756058, 0.21518290042877197, 0.10370621085166931, 0.09754648804664612, 0.04888314753770828, -0.047400008887052536, 0.16229502856731415, 0.1225547194480896], [0.0099754324182868, -0.21599669754505157, 0.07067213207483292, 0.05543375760316849, 0.24524103105068207, 0.14271879196166992, 0.09241819381713867, 0.0782117173075676, 0.06739386916160583, -0.03556828200817108, 0.07747991383075714, 0.052966054528951645, 0.0358637273311615, -0.014423288404941559, -0.0622900165617466, -0.030384676530957222, 0.016167132183909416, 0.10426842421293259, 0.25403597950935364, 0.027305664494633675, -0.04261103272438049, -0.08325649052858353, 0.08429224789142609, 0.07960610091686249, -0.014524303376674652, -0.004279939457774162, 0.1244874969124794, -0.051736555993556976, 0.0895572230219841, 0.03281392902135849, -0.07153873890638351, 0.19802437722682953, -0.10022331029176712, 0.16040508449077606, 0.12639524042606354, 0.19017016887664795, -0.04529854282736778, 0.08629720658063889, 0.20429015159606934, -0.054845619946718216, -0.039427317678928375, -0.14943422377109528, -0.07466080784797668], [0.23177774250507355, -0.12630441784858704, 0.05536147952079773, 0.06369541585445404, 0.0839538723230362, -0.05423847213387489, 0.18818747997283936, -0.08009664714336395, -0.023365961387753487, -0.08345336467027664, 0.1080557107925415, 0.11441678553819656, 0.07658518105745316, -0.018335992470383644, 0.062306877225637436, -0.053440630435943604, 0.2192060351371765, 0.17077088356018066, 0.20135140419006348, 0.11730042845010757, -0.057778604328632355, -0.036970656365156174, -0.07203657925128937, 0.1324588805437088, 0.2195156365633011, 0.16148053109645844, -0.014776494354009628, -0.029063355177640915, -0.08829774707555771, 0.17708855867385864, -0.11839388310909271, -0.07433619350194931, 0.06334078311920166, 0.07967706024646759, -0.07855910807847977, 0.02970631793141365, -0.2547897696495056, 0.11333555728197098, 0.004920220002532005, -0.10135777294635773, 0.181083083152771, -0.18157561123371124, 0.08886542171239853], [0.05242624506354332, 0.010235335677862167, -0.025004426017403603, 0.17482534050941467, -0.002412019297480583, 0.047314733266830444, -0.00023211748339235783, 0.08184435963630676, -0.13019512593746185, 0.0862254798412323, 0.07611025869846344, -0.06977442651987076, 0.03415125608444214, 0.04491167142987251, 0.029391301795840263, 0.011791927739977837, 0.05253065004944801, 0.09296488761901855, 0.14731073379516602, 0.12332791835069656, 0.2022712081670761, 0.055706050246953964, 0.16303937137126923, 0.08827090263366699, -0.005841085687279701, 0.20064349472522736, 0.10386330634355545, 0.19365836679935455, -0.14516261219978333, 0.08244908601045609, -0.10760600864887238, -0.006372764240950346, -0.05510122328996658, -0.042046330869197845, -0.09576594084501266, 0.20688828825950623, -0.00981962215155363, 0.14796726405620575, 0.1276923418045044, 0.02546624466776848, 0.09673717617988586, -0.16616927087306976, -0.05544421076774597], [0.026075702160596848, 0.0934261828660965, 0.026664555072784424, 0.19861066341400146, 0.18754717707633972, 0.07242938131093979, 0.22338256239891052, -0.012794282287359238, 0.020610136911273003, 0.13825535774230957, 0.005710922181606293, 0.24980273842811584, 0.03726812079548836, 0.03280491754412651, 0.22814470529556274, 0.21668460965156555, -0.01609891466796398, 0.14467452466487885, -0.027880709618330002, -0.0020781448110938072, 0.05290187522768974, 0.11232295632362366, -0.059855829924345016, 0.08584953844547272, 0.14850857853889465, 0.22565652430057526, 0.21960888803005219, 0.045029692351818085, 0.07236505299806595, 0.14862880110740662, 0.10458757728338242, -0.1267147809267044, 0.0432942770421505, 0.23028337955474854, -0.12839461863040924, -0.08097682148218155, 0.17765504121780396, 0.1100984439253807, 0.21719594299793243, 0.07625936716794968, -0.06055237352848053, -0.027741698548197746, 0.0039889016188681126], [-0.12058964371681213, 0.2045600712299347, 0.015793366357684135, 0.11030685901641846, 0.1673094928264618, 0.09698512405157089, 0.021245965734124184, -0.029705481603741646, 0.1110968366265297, -0.06538460403680801, 0.0913790836930275, 0.13301658630371094, 0.08459725230932236, -0.028080465272068977, -0.0022659406531602144, -0.06879504770040512, 0.07213884592056274, -0.11347934603691101, -0.14406348764896393, 0.21540546417236328, 0.02902176044881344, 0.12713071703910828, -0.017023984342813492, 0.03269849345088005, -0.006095795426517725, 0.1322142630815506, -0.01532673742622137, 0.0028335198294371367, 0.03730248659849167, 0.09653978049755096, 0.009260433726012707, -0.007514334749430418, -0.02700868807733059, -0.09086354821920395, 0.14262518286705017, -0.22615328431129456, 0.14951029419898987, 0.16074658930301666, 0.03417998552322388, 0.05855609104037285, 0.13403773307800293, 0.21004579961299896, 0.06770026683807373], [0.06276163458824158, -0.173654705286026, 0.12512116134166718, -0.01339503563940525, 0.1408003866672516, 0.14744296669960022, 0.20087705552577972, 0.004623815417289734, 0.09530127793550491, -0.08664198964834213, 0.035782016813755035, 0.010452832095324993, -0.06711505353450775, -0.06443169713020325, 0.1473395973443985, 0.15218643844127655, 0.06230614334344864, -0.04278552159667015, 0.19339604675769806, 0.25631678104400635, 0.2577359676361084, 0.041998956352472305, -0.030875401571393013, 0.19427360594272614, 0.18376527726650238, 0.22529548406600952, 0.14907321333885193, 0.20520496368408203, -0.06751026958227158, -0.02874714694917202, 0.1036854237318039, 0.18486250936985016, -0.09514826536178589, 0.1728443205356598, -0.0640944391489029, 0.012376883067190647, -0.13566483557224274, 0.2603297233581543, 0.23766499757766724, 0.13541321456432343, 0.24598035216331482, 0.0012787217274308205, 0.05355039983987808], [-0.013869717717170715, 0.04222964867949486, 0.10002057999372482, 0.08158258348703384, 0.06714288145303726, 0.18629373610019684, 0.258572518825531, 0.14412128925323486, 0.03540126979351044, -0.0736304447054863, 0.24170391261577606, 0.16192369163036346, 0.2312430590391159, 0.05804590508341789, 0.19619740545749664, 0.11480265110731125, 0.2069113403558731, 0.13218963146209717, -0.08367980271577835, 0.1761329174041748, 0.24343250691890717, -0.0027628454845398664, 0.23912353813648224, 0.22901767492294312, 0.23678791522979736, 0.14147032797336578, 0.06533089280128479, 0.0519041083753109, -0.019721737131476402, 0.009350210428237915, 0.163399338722229, 0.08948471397161484, -0.03178590536117554, 0.23599950969219208, 0.0517236664891243, 0.09223025292158127, 0.2150665670633316, 0.08012460172176361, -0.018969038501381874, -0.002398547250777483, 0.22070848941802979, 0.008264584466814995, 0.10729451477527618], [0.2143915444612503, -0.15317244827747345, 0.08769072592258453, -0.22065342962741852, 0.12412303686141968, 0.14173227548599243, -0.12690743803977966, -0.011767971329391003, -0.029103191569447517, 0.022770186886191368, 0.17684489488601685, 0.10304731875658035, 0.05992249771952629, -0.06408971548080444, -0.057833634316921234, 0.052323002368211746, 0.21781742572784424, -0.030184736475348473, 0.06525034457445145, -0.06295876950025558, 0.14582395553588867, 0.051869362592697144, -0.0051740664057433605, -0.07319473475217819, 0.009633352980017662, -0.08118429034948349, 0.05075982213020325, -0.07923019677400589, -0.07815100252628326, 0.13855485618114471, -0.14616116881370544, -0.07056223601102829, -0.11692208051681519, -0.01608576625585556, 0.1206931471824646, 0.07642413675785065, -0.24650020897388458, 0.1349010318517685, 0.2020915299654007, 0.00994844175875187, 0.1005367562174797, -0.040183909237384796, -0.010366453789174557], [0.2723042964935303, -0.03524085879325867, -0.11883460730314255, -0.10123035311698914, 0.003778141923248768, 0.000427249469794333, 0.23013147711753845, -0.17548054456710815, -0.04136315733194351, 0.11327257007360458, 0.14848774671554565, -0.030470820143818855, 0.07708688080310822, -0.0640883818268776, -0.019628871232271194, -0.023535231128335, -0.0027900366112589836, 0.25365203619003296, 0.09308598935604095, 0.03225996717810631, 0.01579030230641365, -0.05543672665953636, -0.021836284548044205, 0.0520266629755497, 0.011370622552931309, 0.1229955330491066, 0.15214481949806213, 0.19656796753406525, -0.08637110888957977, 0.05317722260951996, 0.2314465343952179, 0.05152594670653343, -0.13604366779327393, 0.012843340635299683, 0.04901966452598572, 0.1135002076625824, -0.07986751198768616, -0.021511539816856384, 0.185791477560997, -0.13956637680530548, 0.06597885489463806, -0.07381201535463333, 0.0735299214720726], [0.23584942519664764, 0.029077710583806038, -0.022007068619132042, -0.01497081108391285, 0.0630003958940506, 0.15817254781723022, -0.01712702214717865, -0.1068577915430069, -0.13378791511058807, -0.020436851307749748, -0.009744195267558098, 0.08069322258234024, -0.06925030052661896, 0.041017383337020874, -0.09736181795597076, 0.10483848303556442, 0.0922943651676178, -0.0038445796817541122, 0.09745896607637405, -0.07101938873529434, 0.07209383696317673, -0.0362120158970356, -0.13032448291778564, 0.1305961012840271, 0.15025678277015686, 0.07880014181137085, 0.07271106541156769, -0.07440529018640518, -0.08007042109966278, -0.07136121392250061, -0.15991447865962982, 0.008633757010102272, 0.11315643042325974, -0.06821794807910919, 0.02926509641110897, 0.17838698625564575, -0.19131428003311157, 0.09937861561775208, 0.026579316705465317, 0.01014283299446106, 0.21779626607894897, -0.0193435437977314, -0.1427086740732193], [-0.1892072856426239, 0.2256878763437271, -0.04468522593379021, 0.257331520318985, -0.11088216304779053, -0.02580137737095356, 0.2538664638996124, 0.02344834990799427, -0.03734799847006798, 0.0302886962890625, 0.032194677740335464, -0.05503706634044647, 0.12618204951286316, 0.16035257279872894, 0.08559692651033401, -0.04932497814297676, -0.01785585843026638, 0.048875439912080765, -0.1280352771282196, 0.18963442742824554, -0.012305008247494698, 0.021927712485194206, 0.14705349504947662, 0.0846695750951767, 0.15514680743217468, -0.032697439193725586, 0.17789098620414734, 0.02625882625579834, 0.0014329428086057305, 0.16434936225414276, 0.12700244784355164, -0.07306725531816483, 0.08862246572971344, 0.04193121939897537, 0.0700853243470192, -0.15635740756988525, 0.11077677458524704, 0.022346174344420433, 0.1488776057958603, 0.20935668051242828, 0.016364330425858498, 0.21506033837795258, 0.14250245690345764], [-0.21307635307312012, 0.02622983045876026, -0.010660219006240368, -0.0135845011100173, 0.051497459411621094, 0.22161170840263367, 0.00480416277423501, -0.01402805931866169, -0.10080888122320175, 0.0720558762550354, 0.059312231838703156, 0.1921229362487793, 0.03304550424218178, -0.040840983390808105, 0.23653218150138855, 0.23386500775814056, -0.06646404415369034, -0.049478910863399506, -0.11751364171504974, -0.008803537115454674, -0.09749762713909149, 0.19321581721305847, 0.1656552106142044, 0.16029703617095947, -0.04524620249867439, 0.061720553785562515, 0.1835419088602066, 0.17402581870555878, -0.03685518726706505, 0.10608097165822983, 0.16469374299049377, 0.12029411643743515, 0.1419728845357895, 0.21409015357494354, 0.13584212958812714, -0.17045816779136658, 0.2469671070575714, 0.08974724262952805, 0.04489101842045784, 0.22541256248950958, -0.04843531548976898, 0.11477271467447281, 0.08189370483160019], [-0.17705567181110382, -0.0022388393990695477, 0.13510175049304962, 0.23041892051696777, 0.08425676077604294, 0.01863972283899784, 0.2508394122123718, 0.082427978515625, 0.11783110350370407, -0.08628389239311218, 0.16374263167381287, 0.11359867453575134, 0.24298545718193054, 0.22366836667060852, 0.20091915130615234, 0.14212846755981445, 0.15612569451332092, 0.143009752035141, 0.15392155945301056, 0.19201010465621948, 0.10654348134994507, 0.16058970987796783, 0.053306058049201965, 0.2324298769235611, 0.032762497663497925, 0.24871797859668732, 0.23105183243751526, -0.012935498729348183, -0.1380602866411209, 0.10466285794973373, 0.17131492495536804, 0.17647035419940948, -0.13070088624954224, 0.06912679970264435, 0.03747435286641121, -0.11537681519985199, -0.03387019410729408, 0.15328676998615265, 0.16952447593212128, 0.09424827247858047, 0.1609121710062027, 0.14259806275367737, 0.23177652060985565], [-0.05695955082774162, 0.15119118988513947, -0.02872340939939022, 0.03182593360543251, 0.008776545524597168, 0.22476913034915924, 0.16388444602489471, -0.10657697916030884, 0.12627877295017242, 0.1416434347629547, 0.033257365226745605, -0.020050380378961563, 0.04492586851119995, 0.1936219483613968, 0.17842376232147217, 0.05922887474298477, 0.03111814707517624, -0.03739302232861519, -0.21925273537635803, 0.19424565136432648, 0.003882182529196143, -0.04724343121051788, 0.11099065095186234, 0.1705891489982605, -0.04024861752986908, 0.08970872312784195, -0.05034307762980461, 0.14295411109924316, 0.02147928811609745, 0.18943288922309875, 0.06759751588106155, 0.14230336248874664, -0.14326773583889008, 0.032063521444797516, -0.10974740236997604, -0.2173885554075241, 0.231330007314682, 0.1803855299949646, 0.20478123426437378, 0.15857727825641632, -0.12250329554080963, 0.057670142501592636, -0.044368863105773926], [0.25408318638801575, -0.09752365946769714, -0.006931982934474945, -0.03964903950691223, 0.06933439522981644, -0.04178887605667114, 0.06364823132753372, 0.05877353250980377, 0.07336782664060593, -0.1294023096561432, 0.19982101023197174, 0.07150357961654663, -0.08325465768575668, 0.014171476475894451, -0.055266816169023514, 0.07778970152139664, -0.04212849214673042, 0.051694419234991074, 0.20275701582431793, 0.04726625978946686, 0.1105479821562767, -0.014146147295832634, 0.14815127849578857, 0.1399528831243515, 0.069651760160923, 0.06895507872104645, 0.11347955465316772, -0.08155009895563126, 0.06766641139984131, -0.05818771943449974, -0.04080287739634514, -0.07951533049345016, 0.036478277295827866, 0.1690680831670761, -0.02901327796280384, 0.17705374956130981, -0.13983643054962158, -0.0693809986114502, -0.05677616968750954, -0.052879344671964645, 0.19953225553035736, 0.055159054696559906, -0.11196572333574295], [-0.07568914443254471, 0.24689963459968567, -0.12081863731145859, -0.06722266972064972, -0.13925378024578094, 0.15048088133335114, -0.031953115016222, -0.1254730075597763, 0.07494699209928513, 0.09281487762928009, 0.10713765025138855, -0.05794410780072212, 0.22811922430992126, 0.19946691393852234, 0.04652738571166992, -0.03316415473818779, -0.07143458724021912, -0.10849839448928833, -0.2198724001646042, 0.14962045848369598, 0.13238221406936646, 0.1175171434879303, 0.13544262945652008, -0.02375134825706482, 0.15661169588565826, 0.20442840456962585, 0.15297317504882812, 0.20287463068962097, -0.06636306643486023, 0.1590162068605423, 0.03330337256193161, -0.04863737151026726, 0.14722749590873718, 0.031245162710547447, 0.006651840638369322, -0.09980890154838562, 0.12560966610908508, 0.013624310493469238, 0.17556650936603546, 0.21253444254398346, -0.13807450234889984, -0.058497317135334015, 0.04744534194469452], [-0.1958419382572174, 0.22311550378799438, -0.051525894552469254, 0.22979526221752167, 0.11066942662000656, 0.01880497857928276, 0.02246544137597084, 0.05279553681612015, -0.028388556092977524, 0.017017649486660957, -0.07508590817451477, -0.040477458387613297, 0.01146587636321783, 0.1764679253101349, -0.0052414401434361935, 0.23592445254325867, -0.06355158239603043, -0.07206433266401291, 0.018988091498613358, 0.08220644295215607, 0.16597223281860352, 0.03823618218302727, 0.13801909983158112, 0.19694845378398895, -0.020064527168869972, -0.019272301346063614, 0.21487058699131012, 0.21875505149364471, -0.006190742366015911, 0.19154925644397736, -0.010824769735336304, 0.14821557700634003, -0.044523466378450394, 0.14161087572574615, -0.04044844210147858, -0.26065051555633545, 0.0788218304514885, 0.06144999340176582, 0.08130843192338943, 0.14511562883853912, -0.10511720180511475, 0.028421154245734215, 0.04967287927865982], [0.13962247967720032, -0.20058229565620422, 0.12850907444953918, -0.1387142688035965, 0.2166597694158554, 0.06092151626944542, 0.07013408094644547, -0.05277936905622482, 0.025200344622135162, -0.03999403119087219, 0.04549723118543625, 0.0468376986682415, -0.023723382502794266, -0.03475560247898102, -0.030686046928167343, -0.041684143245220184, -0.02691817469894886, 0.052560072392225266, 0.10730122774839401, 0.1926165521144867, 0.0717146173119545, -0.0018391113262623549, 0.005094349384307861, 0.008823619224131107, 0.044843729585409164, 0.09725853055715561, 0.08195620030164719, 0.002603964414447546, -0.072393998503685, -0.02256586402654648, 0.060410697013139725, 0.09612787514925003, -0.13135677576065063, 0.12293332070112228, 0.12444665282964706, 0.24686472117900848, -0.06126939132809639, -0.12905539572238922, 0.08979040384292603, -0.07992514222860336, 0.002705460414290428, -0.1699100285768509, -0.09491356462240219], [0.046965811401605606, 0.16150642931461334, 0.013220148161053658, 0.1650323122739792, -0.14127010107040405, 0.17506882548332214, 0.12847311794757843, -0.0699116513133049, -0.0962323471903801, -0.07068613916635513, 0.10645133256912231, 0.1348939687013626, 0.12353966385126114, 0.06928089261054993, 0.17100445926189423, -0.004630287177860737, 0.11871455609798431, -0.06853386014699936, -0.14610224962234497, -0.012097479775547981, 0.10722687095403671, 0.012966278940439224, 0.17904675006866455, 0.1803547590970993, 0.09748812764883041, 0.1921873539686203, 0.18781980872154236, 0.16396507620811462, -0.11760210990905762, 0.08060349524021149, 0.07853884994983673, 0.07987617701292038, -0.05890457704663277, 0.11584381014108658, 0.060677435249090195, -0.006518078036606312, 0.25392553210258484, 0.07105232775211334, -0.024861039593815804, -0.02609902061522007, -0.05732661485671997, 0.19059383869171143, 0.0681115910410881], [-0.011993136256933212, -0.1812252551317215, -0.08599798381328583, -0.018275262787938118, 0.12480349838733673, 0.06754398345947266, -0.0066690691746771336, -0.016643080860376358, -0.08709349483251572, -0.014166168868541718, 0.15231171250343323, 0.06473485380411148, 0.05394597724080086, 0.11679449677467346, 0.18189796805381775, 0.2320009171962738, 0.03659461438655853, -0.028189482167363167, 0.13330815732479095, 0.16352003812789917, 0.10570024698972702, 0.23127372562885284, 0.1543768346309662, 0.0697498545050621, 0.19514302909374237, 0.1973489671945572, 0.0045783682726323605, -0.030987044796347618, -0.005036414600908756, 0.036240354180336, -0.007258165627717972, -0.0629570484161377, 0.09774389863014221, 0.007183067500591278, -0.08443983644247055, 0.20937444269657135, -0.08860129863023758, 0.11792962998151779, 0.046843089163303375, 0.0045708646066486835, 0.1966145634651184, -0.14977605640888214, -0.07923587411642075], [-0.08195459097623825, 0.2398623377084732, 0.12257736921310425, 0.19589833915233612, -0.10460922867059708, 0.08486613631248474, 0.09858663380146027, -0.07885146886110306, -0.06066613271832466, -0.026749545708298683, 0.02269408293068409, 0.1354261189699173, -0.04227457568049431, 0.024100286886096, 0.22354304790496826, 0.10790296643972397, -0.08797798305749893, 0.04928765818476677, -0.14378419518470764, 0.0007542998646385968, -0.028285235166549683, 0.0005774123128503561, -0.0035422788932919502, 0.1166185662150383, 0.16875289380550385, 0.17737874388694763, 0.2429506629705429, 0.22003775835037231, -0.08067624270915985, 0.23471508920192719, 0.060356009751558304, 0.07828622311353683, -0.07162854075431824, 0.19846460223197937, -0.01079300045967102, -0.05967454984784126, 0.24396690726280212, 0.06476198881864548, 0.14160338044166565, 0.14432086050510406, -0.09793192148208618, 0.1002618595957756, 0.22114266455173492], [-0.0168356541544199, 0.2152436226606369, 0.07586245238780975, 0.17280790209770203, 0.02527885138988495, 0.08090753108263016, 0.20283468067646027, 0.07053156942129135, 0.11490092426538467, 0.14115877449512482, 0.16663403809070587, 0.15473906695842743, 0.04114913567900658, 0.13667266070842743, 0.09279650449752808, 0.21542634069919586, 0.16089320182800293, 0.011723596602678299, 0.15581609308719635, 0.0914907306432724, 0.1668737530708313, 0.04616570845246315, -0.018445884808897972, 0.1870197206735611, 0.1975547969341278, 0.2406216710805893, 0.21182595193386078, 0.1842721849679947, 0.08042296767234802, 0.15830233693122864, 0.04252725839614868, 0.10029764473438263, -0.11742286384105682, 0.03113260678946972, 0.13955320417881012, 0.027044806629419327, 0.13789686560630798, 0.10279428958892822, -0.032141707837581635, 0.055905941873788834, 0.03169919177889824, 0.05002886429429054, 0.13998305797576904], [-0.15997181832790375, 0.04818231612443924, -0.03268510475754738, -0.03685251623392105, 0.06940320879220963, 0.11491085588932037, 0.09686894714832306, -0.0007389513775706291, -0.010727683082222939, 0.163145050406456, 0.2025046944618225, 0.1487731635570526, 0.01715938374400139, 0.032637033611536026, 0.18524113297462463, 0.11252384632825851, 0.11080844700336456, 0.06527958065271378, -0.0510406568646431, 0.038992784917354584, 0.19655080139636993, 0.2343859225511551, 0.2002350240945816, 0.02154942974448204, 0.11940544098615646, -0.005803708918392658, 0.0352858304977417, 0.008727733977138996, 0.04617121443152428, -0.01795734092593193, 0.23530671000480652, 0.1938914656639099, -0.01308445818722248, 0.15366891026496887, 0.05301177501678467, 0.07727066427469254, 0.13263186812400818, 0.2651199996471405, 0.1750025600194931, 0.07586771249771118, 0.20493435859680176, 0.16854333877563477, 0.1912742406129837], [-0.07774923741817474, 0.06070065125823021, 0.13806307315826416, 0.14428861439228058, 0.06279867142438889, 0.09863623231649399, 0.024168726056814194, 0.10069572925567627, -0.14509743452072144, 0.11906013637781143, 0.20123451948165894, 0.02255307324230671, 0.18884189426898956, 0.13836437463760376, 0.0798477828502655, 0.26709994673728943, 0.1016659289598465, -0.015179522335529327, -0.21462996304035187, 0.13989906013011932, -0.042109936475753784, -0.07825929671525955, -0.04924549162387848, 0.1588020771741867, 0.048635467886924744, 0.03589901328086853, 0.04246899485588074, 0.13716939091682434, -0.03699396550655365, 0.01071549765765667, 0.040399935096502304, -0.13754869997501373, 0.03264787420630455, 0.02399757318198681, 0.13049593567848206, -0.061049021780490875, 0.1633366197347641, 0.25996485352516174, 0.15576502680778503, 0.03653857856988907, 0.1629658192396164, 0.04476631432771683, 0.01647941954433918], [0.008487625978887081, 0.256609171628952, 0.08662943542003632, 0.08040100336074829, 0.13425610959529877, 0.152691051363945, 0.12701836228370667, 0.03518650308251381, 0.07153092324733734, 0.0025065233930945396, 0.007876801304519176, 0.17602071166038513, 0.11763945966959, 0.09637463837862015, 0.0944228544831276, 0.10350162535905838, 0.18632850050926208, 0.1294838935136795, -0.24443240463733673, -0.026392875239253044, -0.06501089036464691, 0.06750009208917618, 0.10634538531303406, -0.010850842110812664, 0.1574966013431549, -0.05785948038101196, 0.19436216354370117, 0.08548401296138763, 0.04769274592399597, 0.22006522119045258, 0.11770475655794144, -0.07773514091968536, -0.04260662570595741, 0.19418269395828247, -0.031109871342778206, -0.13022398948669434, -0.007653725799173117, -0.005894732195883989, 0.06934804469347, 0.13509221374988556, -0.13091248273849487, 0.10585279017686844, 0.22982889413833618], [0.07100452482700348, 0.09594931453466415, 0.1513158679008484, 0.2538730204105377, 0.11548828333616257, 0.22945237159729004, 0.12989448010921478, -0.04012347757816315, 0.16025084257125854, 0.10758770257234573, 0.12238641828298569, 0.07420704513788223, 0.07977449148893356, -0.03696437552571297, 0.015726296231150627, -0.0057786451652646065, 0.06633375585079193, 0.1549772322177887, -0.10627438127994537, 0.12631265819072723, 0.04296432062983513, 0.04670507088303566, 0.14312653243541718, 0.16667141020298004, 0.24397966265678406, 0.08076822012662888, 0.22723263502120972, -0.0036904646549373865, 0.020099356770515442, 0.11858958750963211, 0.23246493935585022, 0.056449100375175476, -0.07973681390285492, 0.179861918091774, 0.0012151553528383374, -0.17976327240467072, -0.01433362066745758, 0.000852454686537385, 0.23065155744552612, 0.222734272480011, -0.06829531490802765, 0.18556182086467743, 0.23249676823616028], [0.08770682662725449, 0.06667754054069519, 0.1175554096698761, 0.1965431571006775, 0.023465562611818314, 0.24493150413036346, 0.1541716307401657, 0.09976579993963242, -0.09969645738601685, 0.07669492810964584, 0.19782234728336334, -0.007526323664933443, -0.01245820615440607, 0.025412460789084435, 0.1623157411813736, 0.046915069222450256, 0.09440993517637253, -0.04062608256936073, 0.04454576596617699, 0.06451808661222458, -0.03737954422831535, 0.1788962334394455, 0.12372033298015594, -0.028742581605911255, 0.19390761852264404, 0.22096818685531616, 0.02178669348359108, 0.05681408941745758, -0.06763574481010437, 0.07191555947065353, 0.1234079897403717, 0.13984401524066925, 0.12085821479558945, -0.013554738834500313, 0.14132104814052582, 0.10403278470039368, -0.20652630925178528, 0.20583926141262054, 0.2373177856206894, 0.024774298071861267, -0.04671787843108177, 0.14939121901988983, -0.045934341847896576], [-0.1141943633556366, 0.05262957885861397, -0.0030835638754069805, 0.14719504117965698, 0.16445469856262207, 0.1725781410932541, 0.08709781616926193, -0.03665057569742203, -0.014053676277399063, 0.14529502391815186, 0.15410414338111877, 0.1983102709054947, 0.11534205079078674, 0.11460966616868973, -0.03518000245094299, 0.0810316875576973, 0.03516984358429909, -0.04136020690202713, 0.1849040985107422, 0.21181665360927582, 0.25220760703086853, 0.24351578950881958, 0.20870999991893768, 0.037562593817710876, 0.25281479954719543, 0.002132055349647999, 0.16606946289539337, 0.007524179294705391, 0.09114154428243637, 0.09787312895059586, 0.22895191609859467, 0.0824594646692276, 0.10318318754434586, 0.09480393677949905, -0.12404083460569382, -0.10763760656118393, -0.08503509312868118, 0.045472417026758194, 0.2601209282875061, 0.14378292858600616, 0.11104829609394073, 0.21960854530334473, 0.003116336651146412], [-0.07340618222951889, 0.19655929505825043, -0.14858677983283997, -0.01325357984751463, 0.16753196716308594, 0.045598212629556656, -0.05197252333164215, 0.13745595514774323, 0.06478073447942734, 0.09897671639919281, 0.06763450801372528, 0.14139577746391296, 0.2015661895275116, 0.14871954917907715, -0.032018162310123444, 0.16855520009994507, -0.06998132169246674, 0.0890679731965065, -0.2121724784374237, 0.04047803580760956, 0.022446375340223312, 0.10287713259458542, 0.1512226164340973, -0.023236697539687157, -0.041628241539001465, 0.18688537180423737, -0.01821168325841427, -0.02743021585047245, -0.03908209130167961, 0.054708175361156464, -0.014840574935078621, -0.02569894678890705, 0.045381397008895874, 0.20409917831420898, 0.04507342353463173, -0.06325942277908325, 0.12869644165039062, 0.007037419825792313, 0.05952225998044014, 0.07684056460857391, 0.016553474590182304, 0.18497328460216522, 0.22713199257850647], [-0.16101770102977753, 0.1293061375617981, 0.018344640731811523, 0.03662503510713577, 0.16409899294376373, 0.1908140927553177, 0.11657826602458954, -0.01117350347340107, 0.14083287119865417, 0.12445614486932755, -0.013256760314106941, 0.0028901679906994104, 0.22914794087409973, -0.036395687609910965, 0.09533613175153732, 0.07754196226596832, 0.005514448042958975, -0.08484213054180145, -0.15473605692386627, -0.0015963837504386902, 0.06541837006807327, 0.17533497512340546, -0.014470918104052544, 0.22094516456127167, 0.1519879549741745, 0.05846135690808296, 0.19128696620464325, 0.06232327222824097, -0.05332881957292557, -0.031132442876696587, 0.04635817930102348, -0.048598118126392365, 0.061246808618307114, -0.07078476995229721, 0.1396339386701584, -0.12168679386377335, 0.14474107325077057, 0.055879756808280945, 0.03456524387001991, -0.00021190219558775425, -0.035882823169231415, 0.20030054450035095, 0.14097575843334198], [-0.04658520594239235, 0.014230835251510143, 0.07446342706680298, 0.03785274550318718, -0.08192706853151321, -0.0024389680474996567, -0.013387815095484257, -0.009233048185706139, 0.21556784212589264, -0.060645051300525665, 0.0004017470055259764, 0.18574096262454987, 0.027133584022521973, 0.14521704614162445, 0.19931212067604065, 0.15622064471244812, 0.10133384168148041, 0.12095225602388382, -0.09346580505371094, -0.0467781126499176, -0.04498210549354553, 0.07567235827445984, 0.05103609710931778, 0.11977402120828629, 0.13872972130775452, 0.05956815555691719, 0.1380227506160736, -0.051556967198848724, -0.004989094100892544, -0.038760121911764145, 0.14585363864898682, 0.09610050171613693, -0.05660344660282135, 0.05316511169075966, 0.06700102984905243, -0.17945973575115204, 0.17760154604911804, -0.017337458208203316, 0.06228082999587059, 0.09760906547307968, -0.1764952838420868, 0.09453876316547394, 0.09250379353761673], [-0.001208374509587884, 0.14419196546077728, -0.023604242131114006, 0.08880043774843216, -0.044408537447452545, -0.08110038191080093, -0.016374683007597923, -0.08939728140830994, -0.0666285902261734, -0.03954638913273811, 0.010372732765972614, -0.08472909033298492, -0.08048948645591736, -0.11112293601036072, -0.09110435098409653, -0.13466320931911469, -0.10522404313087463, -0.04408854618668556, -0.020978396758437157, 0.09967393428087234, -0.006273603532463312, -0.08288298547267914, -0.12396713346242905, -0.05691585689783096, 0.0039054658263921738, -0.12070279568433762, -0.06027847155928612, 0.011759700253605843, 0.1390252411365509, 0.00036963861202821136, -0.14525029063224792, -0.11007646471261978, -0.11444731801748276, 0.1017657145857811, 0.0938391461968422, 0.0035161934792995453, -0.09173453599214554, -0.0646158754825592, -0.08736123889684677, 0.14123156666755676, -0.1200483962893486, 0.027269015088677406, 0.06703530251979828], [-0.22871564328670502, 0.17528459429740906, 0.07587406784296036, 0.1506163328886032, 0.1413353532552719, 0.003360120579600334, -0.02523941732943058, -0.07288259267807007, -0.11727575957775116, 0.05344323068857193, 0.08281918615102768, 0.010354198515415192, 0.041255850344896317, 0.1801002472639084, 0.09771876037120819, 0.20883427560329437, -0.029330095276236534, 0.0016884880606085062, -0.03696930408477783, 0.035439953207969666, 0.12220446765422821, 0.030016446486115456, 0.11878586560487747, -0.04455583915114403, 0.13046994805335999, 0.20166842639446259, -0.052771229296922684, 0.24741530418395996, 0.011440654285252094, 0.2560894787311554, 0.19707153737545013, 0.07442621141672134, -0.00758287264034152, 0.1098390594124794, 0.049854837357997894, -0.2099032998085022, 0.17731115221977234, 0.22966337203979492, 0.0335293710231781, -0.007801295258104801, 0.08550717681646347, 0.228006511926651, 0.1080973893404007], [-0.22522829473018646, 0.11668389290571213, -0.0010583047987893224, 0.1954759806394577, -0.11240092664957047, -0.013307652436196804, 0.09577330946922302, -0.004006745759397745, 0.04710067808628082, 0.1526000201702118, 0.17622072994709015, 0.2354845404624939, -0.041316159069538116, 0.23677849769592285, -0.009468881413340569, 0.048642199486494064, 0.12919418513774872, -0.04761040210723877, -0.15800493955612183, 0.10520171374082565, 0.19881582260131836, 0.07562565058469772, -0.06336867064237595, 0.050082046538591385, -0.030887458473443985, 0.10647692531347275, 0.20845575630664825, 0.22292360663414001, 0.027094677090644836, 0.012964224442839622, 0.020203405991196632, 0.05559804290533066, 0.06310652941465378, -0.02202484756708145, 0.03906065598130226, -0.17332836985588074, 0.006803043186664581, 0.24816995859146118, 0.15736229717731476, 0.04959538206458092, 0.04474866762757301, -0.0012153411516919732, 0.1770879328250885], [0.17704744637012482, -0.14041848480701447, -0.07769277691841125, -0.02155623398721218, 0.17745260894298553, 0.059265125542879105, -0.15572260320186615, -0.06934471428394318, -0.04766114801168442, 0.008081353269517422, 0.1371765434741974, 0.07505781203508377, 0.09961509704589844, -0.024933381006121635, -0.09285047650337219, -0.0469697043299675, 0.09142119437456131, 0.21639975905418396, 0.15486176311969757, 0.13715219497680664, 0.11424018442630768, -0.08348850905895233, -0.05014662444591522, -0.07431568950414658, -0.05071563273668289, 0.15335793793201447, 0.09458374232053757, 0.04767652973532677, -0.09400379657745361, 0.033136337995529175, -0.16027115285396576, -0.08162811398506165, 0.035472363233566284, 0.08681861311197281, 0.05884584039449692, 0.262367844581604, 0.0005041402182541788, -0.029844775795936584, 0.16934973001480103, -0.192200168967247, 0.19506284594535828, -0.19094926118850708, -0.11169716715812683], [0.2101965695619583, -0.11871833354234695, -0.11120150238275528, -0.06451743096113205, 0.18443675339221954, 0.04363897815346718, 0.14969992637634277, -0.08273491263389587, 0.03189193829894066, -0.11029191315174103, 0.025410301983356476, -0.042354386299848557, -0.10961148887872696, -0.01949332281947136, -0.10406958311796188, -0.03947718068957329, -0.06065072491765022, 0.12415874004364014, 0.1908080130815506, 0.2208627313375473, 0.2024376094341278, -0.13997365534305573, 0.07699067890644073, 0.09825657308101654, 0.10718221962451935, 0.09441159665584564, 0.09749942272901535, 0.10602051019668579, 0.016441820189356804, -0.1514524668455124, -0.046696100383996964, -0.09429842233657837, 0.1326492726802826, 0.13522489368915558, -0.055121149867773056, 0.25906044244766235, -0.13423913717269897, -0.1345398724079132, 0.13878147304058075, 0.06767187267541885, 0.21519985795021057, 0.017089277505874634, 0.0419449619948864], [0.025167690590023994, 0.20095756649971008, -0.1307271420955658, 0.05440644919872284, 0.12191391736268997, 0.24044275283813477, 0.08144430816173553, 0.11284518986940384, -0.09468357264995575, -0.030717357993125916, 0.1610879898071289, 0.15190184116363525, 0.13623178005218506, 0.12773679196834564, 0.20441600680351257, 0.08887951076030731, 0.20975151658058167, 0.25587862730026245, 0.026977581903338432, -0.0034608235582709312, 0.14731360971927643, 0.18971048295497894, 0.1854415386915207, -0.026003427803516388, 0.09949227422475815, 0.11381886154413223, 0.18557099997997284, 0.09263597428798676, 0.12515640258789062, 0.07129168510437012, 0.2154911607503891, -0.06547486037015915, 0.15023399889469147, 0.12939560413360596, -0.0785672664642334, 0.045060161501169205, 0.04648267850279808, 0.030977385118603706, 0.04977978765964508, 0.2565767765045166, 0.2419796586036682, 0.151840940117836, 0.09502801299095154], [0.02242826670408249, -0.14538809657096863, -0.1472601741552353, -0.07659343630075455, 0.09586489200592041, 0.22027643024921417, 0.10653713345527649, -0.14379043877124786, -0.03849748149514198, 0.08791922777891159, 0.12483467906713486, 0.08566314727067947, -0.058593470603227615, 0.023158395662903786, 0.19778697192668915, 0.03760745748877525, 0.04254109784960747, -0.028266018256545067, 0.17546451091766357, 0.159819096326828, 0.08815352618694305, 0.2159024029970169, 0.17481622099876404, 0.16315911710262299, 0.20308999717235565, 0.09347711503505707, 0.047981951385736465, 0.029289424419403076, 0.01906493864953518, -0.01357031799852848, 0.01835392601788044, -0.055424418300390244, 0.05201428011059761, 0.14089854061603546, -0.09581335633993149, 0.16105002164840698, -0.08555448055267334, 0.2329988181591034, 0.23081687092781067, 0.09360364079475403, 0.20514999330043793, 0.0075852032750844955, 0.1099633127450943], [-0.06778111308813095, 0.07295647263526917, 0.11582061648368835, 0.09542500227689743, 0.0003367504687048495, 0.04293154552578926, 0.1767309010028839, 0.003443959169089794, 0.10916519910097122, 0.06275403499603271, 0.10367491096258163, 0.009607354179024696, -0.04878659173846245, -0.04751364141702652, -0.040030915290117264, -0.04765681177377701, 0.0020103147253394127, 0.03901367634534836, 0.17219756543636322, 0.11805135011672974, 0.15528464317321777, -0.03765707090497017, 0.18009476363658905, 0.18083456158638, 0.2163054347038269, 0.040730029344558716, 0.07665184140205383, 0.11807513982057571, -0.060012854635715485, 0.15363942086696625, 0.016346486285328865, -0.09599674493074417, -0.04175518453121185, 0.20253713428974152, 0.06849182397127151, 0.15143291652202606, -0.042768023908138275, 0.1409207582473755, 0.1457139551639557, -0.08463631570339203, 0.09026555716991425, -0.043460577726364136, -0.10593457520008087], [-0.21677321195602417, 0.08202166855335236, -0.14379379153251648, -0.040381308645009995, 0.1131652370095253, 0.09883755445480347, 0.10084250569343567, -0.11076349765062332, 0.05611509829759598, 0.13617542386054993, 0.20600755512714386, -0.04120177403092384, 0.05026596039533615, 0.21853816509246826, 0.23523809015750885, 0.23694439232349396, -0.09798883646726608, -0.14537855982780457, -0.164418026804924, 0.1759956032037735, -0.07020692527294159, 0.1124134361743927, 0.1735117882490158, 0.11275948584079742, 0.06498322635889053, 0.18195728957653046, 0.1173408180475235, 0.18766647577285767, -0.09739960730075836, 0.21210813522338867, 0.11903540790081024, -0.13278330862522125, 0.0422777459025383, -0.04324372112751007, 0.13237935304641724, -0.07496384531259537, -0.009741757996380329, 0.10340065509080887, 0.07347026467323303, 0.037627965211868286, -0.17278249561786652, -0.006944911554455757, -0.03533126413822174], [0.14867375791072845, -0.10603705048561096, 0.01887814700603485, -0.276275098323822, -0.030208971351385117, -0.02454826422035694, 0.044327262789011, -0.166570782661438, 0.06590506434440613, -0.10601173341274261, 0.06833836436271667, 0.08108149468898773, -0.06079772114753723, 0.07856739312410355, -0.14534279704093933, 0.0486859455704689, -0.047736965119838715, 0.06808347254991531, 0.2364742010831833, 0.18332111835479736, 0.09798383712768555, -0.0007300378638319671, 0.08507310599088669, -0.08792576938867569, 0.160269632935524, -0.059921663254499435, -0.028993574902415276, 0.14219337701797485, -0.1137595996260643, -0.095036581158638, -0.044034723192453384, 0.04791628569364548, 0.01182327326387167, -0.005919106304645538, -0.05555397644639015, 0.2604771554470062, -0.005173494108021259, -0.08834993094205856, 0.08007154613733292, -0.18525955080986023, 0.18361571431159973, -0.059291526675224304, -0.1304842084646225], [0.06892703473567963, 0.21154431998729706, -0.02510223165154457, 0.0710749551653862, 0.054970260709524155, 0.002493465319275856, 0.11156263947486877, -0.008847721852362156, -0.052406080067157745, 0.11829952895641327, -0.01576920971274376, 0.029516948387026787, 0.004844772629439831, 0.1381411999464035, 0.18885233998298645, 0.16509297490119934, 0.020061088725924492, 0.05300771817564964, -0.1895572990179062, -0.03521174564957619, 0.012009798549115658, -0.017480455338954926, 0.05892128497362137, 0.24618521332740784, -0.008591851219534874, 0.00948228407651186, 0.1880238652229309, 0.03029896318912506, 0.05788442865014076, 0.10238954424858093, -0.013087821193039417, 0.057724080979824066, -0.04129264876246452, -0.009586222469806671, 0.11422782391309738, -0.11841760575771332, 0.18550419807434082, 0.11365975439548492, 0.0023413465823978186, 0.1264641135931015, 0.06989309191703796, 0.11568477749824524, 0.13972364366054535], [-0.021288082003593445, 0.2115652859210968, 0.006116916425526142, 0.09040550887584686, -0.14434288442134857, 0.016313446685671806, 0.04160407558083534, -0.02935834974050522, -0.08132106810808182, 0.011075949296355247, -0.03957540541887283, 0.10156778246164322, 0.13046902418136597, 0.2111850380897522, 0.09971311688423157, 0.1853865385055542, -0.06454579532146454, -0.031874556094408035, -0.12517309188842773, 0.02455657534301281, -0.08220314234495163, -0.05933794379234314, -0.04032789543271065, 0.2167031317949295, 0.012129240669310093, 0.1563885658979416, 0.13218383491039276, 0.11025311797857285, 0.028186412528157234, 0.07462817430496216, 0.04301030933856964, 0.028276583179831505, -0.1414870023727417, 0.14431427419185638, -0.013164246454834938, -0.21422849595546722, 0.2507774829864502, -0.030865104869008064, 0.02333768457174301, 0.11696544289588928, 0.06795833259820938, 0.07637377828359604, 0.07653947174549103], [0.015867985785007477, 0.23935700953006744, -0.009759782813489437, 0.016449620947241783, -0.12813159823417664, 0.1357787847518921, 0.0034050671383738518, 0.060021091252565384, 0.011635061353445053, 0.06425074487924576, -0.05049426853656769, -0.04842299595475197, 0.03284713998436928, 0.035948846489191055, 0.25298428535461426, 0.08318901807069778, 0.0026855776086449623, -0.0930100604891777, -0.1244647428393364, 0.14377793669700623, -0.029767971485853195, 0.2021663933992386, -0.02535603754222393, -0.06184166297316551, 0.1700843870639801, 0.17821308970451355, 0.24253268539905548, -0.03937622159719467, 0.021244866773486137, 0.14603573083877563, 0.07512421905994415, -0.04252505302429199, 0.048119138926267624, 0.08502359688282013, 0.008479037322103977, -0.06344261020421982, 0.21080811321735382, 0.09529228508472443, 0.15325693786144257, 0.057607416063547134, -0.0012169727124273777, 0.1944725513458252, 0.1459946185350418], [-0.16938699781894684, -0.03309551253914833, -0.0290050245821476, 0.23194877803325653, 0.10671557486057281, 0.0973074734210968, 0.1410275548696518, -0.03636658936738968, -0.027554040774703026, 0.040469616651535034, 0.13093702495098114, 0.22332456707954407, 0.17465317249298096, -0.05515431985259056, 0.18810245394706726, 0.08555205911397934, -0.06813277304172516, -0.1504542976617813, -0.04249051585793495, -0.04040684923529625, 0.056014396250247955, 0.21950872242450714, -0.03331169858574867, 0.13103853166103363, -0.027463344857096672, 0.04212350398302078, 0.19834983348846436, 0.1545507162809372, 0.04340836778283119, 0.012333158403635025, 0.23582015931606293, -0.10866186022758484, 0.10806532949209213, -0.057944294065237045, -0.11689329892396927, -0.03340098634362221, 0.2124132364988327, -0.023749789223074913, 0.1505560725927353, 0.11600719392299652, -0.0036390642635524273, 0.12884962558746338, 0.10494454205036163], [0.1713414490222931, -0.17461678385734558, 0.08092440664768219, 0.019935132935643196, -0.007334042806178331, 0.1576559990644455, 0.18158656358718872, 0.122759610414505, 0.09700581431388855, -0.14795583486557007, 0.06771765649318695, 0.16144268214702606, 0.030984526500105858, 0.2041584700345993, 0.025282137095928192, 0.2081289440393448, 0.1209074854850769, 0.07807225733995438, 0.06576148420572281, 0.12788400053977966, 0.23097163438796997, 0.1046302318572998, -0.01749100349843502, 0.1646726131439209, 0.09543987363576889, -0.06189671531319618, 0.2388719916343689, -0.02474255859851837, 0.11071855574846268, -0.06611292064189911, 0.07227915525436401, 0.17884939908981323, -0.014914654195308685, -0.056616414338350296, -0.1297392100095749, 0.1339772343635559, -0.04754086211323738, 0.20344868302345276, 0.13387849926948547, 0.04470536857843399, 0.12475720047950745, -0.06839616596698761, -0.17315593361854553], [0.004503556527197361, -0.2164638191461563, -0.09687924385070801, -0.10547375679016113, -0.008655949495732784, 0.07657699286937714, -0.10401510447263718, 0.09163588285446167, 0.09506551176309586, 0.06513972580432892, 0.03801831975579262, -0.048229873180389404, -0.09126155823469162, 0.03406660258769989, 0.06429789960384369, 0.05093642324209213, 0.053317055106163025, -0.05675571411848068, 0.1441524624824524, -0.04600077494978905, 0.1629542112350464, -0.07472419738769531, -0.0810602605342865, 0.047296345233917236, -0.00917834509164095, -0.05276171863079071, -0.04225510358810425, 0.1942179650068283, -0.13416357338428497, 0.06675636768341064, 0.17932415008544922, 0.13608548045158386, 0.13906995952129364, 0.08344443142414093, -0.14116767048835754, -0.0190748181194067, -0.06092626973986626, -0.024033382534980774, 0.06776701658964157, -0.11845117807388306, 0.028283195570111275, -0.11827965825796127, -0.03358939662575722], [-0.11678054928779602, 0.044536661356687546, 0.06475409120321274, 0.09879299253225327, 0.17988380789756775, 0.05448705703020096, 0.22233524918556213, 0.01726604998111725, 0.07611866295337677, -0.024555860087275505, 0.18219181895256042, 0.11944480985403061, 0.1380995661020279, 0.18035021424293518, 0.06506424397230148, -0.03709876909852028, 0.06322294473648071, 0.05866502597928047, 0.19959565997123718, 0.13272851705551147, 0.1840890347957611, 0.19487932324409485, 0.06482011079788208, 0.09176721423864365, 0.23714420199394226, 0.2548823356628418, 0.11727546900510788, 0.25143757462501526, 0.043189071118831635, 0.25664836168289185, 0.09372670203447342, 0.1496347337961197, 0.06641782075166702, 0.20615462958812714, 0.07637876272201538, 0.1411033421754837, 0.06515553593635559, 0.08429986983537674, 0.041874174028635025, 0.0652376040816307, 0.10598764568567276, -0.02601020038127899, 0.22530686855316162], [0.2643638849258423, -0.026854485273361206, 0.01662166602909565, -0.16161707043647766, 0.07090454548597336, 0.055345937609672546, 0.007401761598885059, 0.09945544600486755, 0.08618582785129547, -0.07235854119062424, 0.12935541570186615, -0.15432992577552795, 0.030271736904978752, 0.040937796235084534, 0.06428318470716476, -0.05967860296368599, 0.22105355560779572, -0.00871419720351696, 0.14618881046772003, -0.06254269927740097, 0.21047700941562653, -0.055976834148168564, 0.14637146890163422, 0.13069669902324677, 0.14972996711730957, -0.06239970773458481, -0.08414516597986221, -0.07302173972129822, 0.0006104227504692972, -2.5075278244912624e-05, -0.027898259460926056, 0.07943139970302582, -0.05838872119784355, -0.025091448798775673, 0.07922141253948212, 0.22547580301761627, -0.18258726596832275, 0.0914234071969986, 0.032348111271858215, 0.057035017758607864, 0.1235075443983078, 0.027385370805859566, -0.04367003217339516], [0.16579845547676086, -0.019276021048426628, -0.08382054418325424, -0.07311339676380157, 0.19848757982254028, -0.021781984716653824, 0.04399074241518974, -0.18992270529270172, 0.045617733150720596, -0.0446731261909008, 0.034298039972782135, 0.04735395684838295, 0.07957029342651367, -0.011386487632989883, -0.05406765639781952, 0.06537681072950363, 0.04832106828689575, -0.052715059369802475, 0.23460228741168976, 0.1654806137084961, -0.037752050906419754, 0.15148773789405823, 0.07226742058992386, 0.09540355950593948, -0.08449111133813858, 0.03020310029387474, -0.082771897315979, -0.12231190502643585, -0.1021750345826149, -0.15204240381717682, 0.024446628987789154, 0.01932811364531517, -0.07778666913509369, 0.049547985196113586, 0.11833146214485168, 0.14851991832256317, -0.184677854180336, 0.1612129807472229, -0.053009677678346634, -0.17616739869117737, 0.1629789024591446, -0.19730409979820251, -0.17173762619495392], [0.028912926092743874, 0.24998608231544495, 0.11682276427745819, 0.04391069710254669, -0.17307749390602112, 0.23009824752807617, -0.03406814485788345, -0.018537499010562897, 0.10500821471214294, -0.008549423888325691, 0.15283821523189545, 0.22740767896175385, 0.0986114963889122, 0.17699037492275238, 0.23798657953739166, 0.09075404703617096, -0.051377661526203156, -0.007555260322988033, -0.13325954973697662, 0.184125617146492, 0.04550587758421898, 0.2067382037639618, 0.016244955360889435, -0.029624739661812782, -0.0065752784721553326, 0.19039462506771088, 0.0014926590956747532, 0.1552315652370453, 0.10229851305484772, 0.06657078862190247, 0.10836374014616013, -0.07365594059228897, 0.1450970619916916, 0.08875181525945663, -0.12554815411567688, -0.21049511432647705, 0.032891154289245605, 0.20575016736984253, -0.01169451791793108, 0.07059244066476822, -0.15371385216712952, -0.004405722953379154, -0.0297324750572443], [0.22942914068698883, -0.17568835616111755, -0.13433879613876343, -0.12164005637168884, -0.03292052447795868, -0.03983800485730171, -0.020078204572200775, -0.06035934388637543, -0.1612687110900879, -0.10105022042989731, -0.054850392043590546, 0.04259515553712845, 0.0008333930745720863, -0.08985526859760284, 0.037683822214603424, -0.05249899625778198, 0.18029528856277466, -0.05501648038625717, -0.00529540004208684, 0.03553229942917824, -0.0257890447974205, 0.15951037406921387, -0.006629578769207001, 0.07673902809619904, 0.2044951617717743, 0.06737595796585083, 0.10474834591150284, -0.07057894766330719, 0.09403026103973389, 0.10260771960020065, -0.031679440289735794, 0.0423177033662796, -0.029190579429268837, -0.05283356457948685, 0.0747223049402237, 0.1406613290309906, -0.2223987579345703, 0.15896306931972504, 0.04428381845355034, -0.12739861011505127, 0.17708371579647064, -0.1875513345003128, -0.22250334918498993], [-0.012960218824446201, -0.19035035371780396, 0.12290596216917038, -0.11343450844287872, 0.11275562644004822, -0.05397779867053032, 0.0360550656914711, 0.10351938009262085, 0.06180869787931442, -0.04592477157711983, 0.007395248394459486, -0.07993854582309723, -0.057171281427145004, -0.02875157818198204, 0.05130698159337044, 0.008049470372498035, 0.09720903635025024, -0.018465546891093254, 0.2223581075668335, 0.08275460451841354, 0.20968660712242126, 0.15290704369544983, -0.10540188103914261, -0.12122498452663422, 0.1814243495464325, -0.02370835840702057, 0.0051557631231844425, -0.07845492660999298, 0.040008578449487686, -0.13226549327373505, -0.06861615180969238, 0.19036006927490234, -0.07879838347434998, 0.10838104039430618, 0.10285286605358124, 0.1389191746711731, -0.12240928411483765, 0.04677240550518036, 0.03421057015657425, -0.2312212884426117, 0.18735967576503754, -0.10435786843299866, 0.06353311985731125], [0.04269098863005638, 0.08461159467697144, 0.10406378656625748, 0.07396087050437927, 0.04102959856390953, -0.055654317140579224, 0.2449875771999359, 0.11996867507696152, -0.08191151171922684, 0.1101190373301506, 0.009334476664662361, 0.1725001186132431, 0.09528101235628128, 0.04529830068349838, 0.06656927615404129, 0.05573263019323349, -0.02391538955271244, -0.08095578849315643, -0.13192297518253326, 0.12504757940769196, -0.06726321578025818, 0.19613106548786163, 0.061320800334215164, 0.19692957401275635, 0.0003639739006757736, 0.16403096914291382, 0.12501153349876404, 0.052525270730257034, -0.06268300861120224, 0.14673864841461182, 0.014243824407458305, -0.17632314562797546, 0.08078688383102417, 0.18861936032772064, 0.06884564459323883, -0.2275061011314392, 0.09807656705379486, 0.10449175536632538, 0.21455194056034088, -0.005668629892170429, -0.024471325799822807, 0.09630649536848068, 0.19358323514461517], [-0.19751080870628357, 0.17994070053100586, 0.08558554947376251, 0.2408735603094101, 0.16828303039073944, 0.035372208803892136, 0.05744520574808121, -0.0204976424574852, 0.05509805679321289, 0.024107953533530235, -0.024821149185299873, -0.05647147446870804, 0.08212680369615555, -0.05673620477318764, 0.06264982372522354, 0.09379835426807404, 0.08754352480173111, -0.0532195009291172, 0.0663764625787735, 0.14706505835056305, 0.12482947111129761, 0.09350017458200455, 0.22166675329208374, 0.23883232474327087, 0.025101862847805023, 0.15954817831516266, 0.01461842656135559, 0.01105660293251276, -0.0636800080537796, 0.0680847093462944, 0.23434758186340332, 0.12207100540399551, -0.05486765503883362, 0.19291362166404724, 0.14908383786678314, 0.03044706955552101, 0.16635346412658691, 0.23375117778778076, 0.23323819041252136, 0.11935898661613464, 0.14139775931835175, 0.22555412352085114, 0.07204041630029678], [0.02780373953282833, -0.0809689462184906, -0.0970379114151001, -0.024573469534516335, 0.010406918823719025, -0.058523084968328476, 0.1671455204486847, 0.1346297413110733, 0.07179145514965057, 0.11560770869255066, 0.06307244300842285, 0.01281802635639906, -0.08605894446372986, -0.024791855365037918, -0.15512575209140778, 0.1056182011961937, 0.02616417035460472, 0.01562650129199028, 0.20157815515995026, 0.22055138647556305, 0.16497167944908142, 0.05842147767543793, 0.07988802343606949, 0.08498629927635193, 0.12090399116277695, 0.08975235372781754, 0.045285604894161224, 0.14794999361038208, -0.12156142294406891, 0.06212862581014633, -0.026027193292975426, 0.1794053018093109, -0.07120292633771896, 0.0013087027473375201, 0.1255614012479782, 0.17923781275749207, -0.1743421107530594, -0.09631470590829849, 0.007103392388671637, 0.0014069522731006145, 0.23170022666454315, 0.07952319085597992, -0.1251898854970932], [-0.1876542717218399, 0.20572814345359802, -0.015557872131466866, 0.18297314643859863, -0.07136136293411255, 0.11621861904859543, 0.03799024224281311, 0.0037103844806551933, -0.013207047246396542, -0.07411079853773117, -0.04155687987804413, 0.06127024441957474, -0.041488166898489, 0.04858402907848358, 0.03928351029753685, 0.07584597170352936, 0.14677287638187408, 0.002091001719236374, -0.04763680323958397, -0.0944155752658844, 0.07242058217525482, -0.07331227511167526, 0.0997423529624939, -0.052279021590948105, -0.0727786123752594, -0.0009461069130338728, 0.17217624187469482, 0.14524511992931366, 0.1349186897277832, 0.0779988020658493, 0.014782310463488102, 0.05271430313587189, -0.0958649143576622, 0.15014328062534332, 0.14057385921478271, -0.20638178288936615, 0.25097590684890747, 0.009598290547728539, 0.13627029955387115, 0.035596173256635666, -0.0743137001991272, 0.12352995574474335, 0.136358380317688], [0.1606779545545578, -0.14286179840564728, 0.13035273551940918, -0.05763544142246246, 0.11077005416154861, 0.13039803504943848, -0.11449555307626724, 0.04354534670710564, -0.12735195457935333, 0.03154809772968292, -0.03621477261185646, -0.013392037712037563, -0.09347755461931229, 0.051266636699438095, 0.1538705974817276, 0.16395874321460724, 0.015811121091246605, 0.20735935866832733, 0.1323917657136917, 0.08869870752096176, 0.05194707587361336, 0.2147684246301651, -0.09342159330844879, 0.12885591387748718, 0.19043244421482086, 0.09940411895513535, 0.0862760916352272, -0.014390642754733562, 0.06790690124034882, 0.04720982909202576, -0.07544607669115067, 0.08195848762989044, 0.14336688816547394, 0.09125040471553802, -0.10648613423109055, 0.20424014329910278, -0.07375068217515945, 0.021162303164601326, 0.03472307696938515, -0.0022836807183921337, 0.22258132696151733, -0.13787150382995605, -0.1772921085357666], [0.25632336735725403, -0.190279021859169, 0.00404411880299449, -0.14280226826667786, 0.08629393577575684, -0.03473350778222084, 0.1272675096988678, 0.0701846107840538, -0.13303065299987793, 0.04377442225813866, 0.07509088516235352, 0.13475865125656128, -0.07220963388681412, -0.05706228315830231, -0.014960591681301594, -0.052727486938238144, 0.021582746878266335, -0.007872405461966991, 0.09579399228096008, 0.11766401678323746, 0.04404216259717941, 0.12001777440309525, 0.14143230020999908, -0.0709913894534111, -0.016095077618956566, 0.20470590889453888, 0.09636150300502777, -0.08610747009515762, 0.08894789218902588, -0.10571257770061493, 0.13292698562145233, 0.15879806876182556, 0.03135807439684868, -0.057468265295028687, -0.09338831901550293, 0.2521679699420929, -0.21141685545444489, -0.07394607365131378, -0.0672515407204628, -0.059404563158750534, 0.16562387347221375, -0.15149430930614471, 0.048684023320674896], [0.22184710204601288, -0.18672288954257965, -0.07870583236217499, -0.021137382835149765, 0.15001140534877777, 0.07683447748422623, 0.13067415356636047, -5.162192974239588e-05, -0.06914542615413666, -0.08605819940567017, -0.06266209483146667, -0.1404920220375061, -0.07052790373563766, -0.07163568586111069, -0.03747722506523132, -0.04637859761714935, 0.20246601104736328, -0.003992648329585791, 0.12606097757816315, -0.061815135180950165, 0.05591969192028046, -0.05044274404644966, 0.11408057808876038, -0.11243191361427307, 0.022593125700950623, 0.15680643916130066, 0.06320444494485855, 0.11615926772356033, -0.0752834752202034, -0.08950863778591156, 0.06323710829019547, 0.12635613977909088, 0.06291844695806503, 0.09754816442728043, 0.021259356290102005, 0.17761239409446716, -0.1772071272134781, -0.003217194927856326, 0.19624949991703033, -0.1804848313331604, 0.08515516668558121, -0.16921716928482056, 0.02711624652147293], [0.05150074139237404, 0.21455806493759155, 0.04048818349838257, 0.012698899954557419, -0.05967634171247482, -0.05179944261908531, 0.1501232236623764, 0.1173405721783638, 0.022058265283703804, 0.011842709966003895, 0.12993745505809784, 0.010620256885886192, 0.2385881245136261, 0.11419901996850967, 0.04589604213833809, 0.15220369398593903, 0.08223163336515427, -0.028471356257796288, 0.049772996455430984, -0.050288718193769455, 0.1774006336927414, -0.04225696995854378, 0.09778891503810883, 0.047252483665943146, 0.08382738381624222, 0.092239148914814, 0.20300960540771484, 0.034942466765642166, 0.09524136036634445, 0.12031923234462738, 0.12269438803195953, 0.020595896989107132, 0.03753994405269623, 0.09482409805059433, -0.1464681327342987, -0.2280723601579666, 0.20643682777881622, 0.19198252260684967, 0.1386444866657257, 0.10539661347866058, -0.08158940076828003, 0.213430717587471, 0.22036831080913544], [-0.00653045903891325, 0.03386731818318367, 0.05863334238529205, 0.11635016649961472, 0.12605947256088257, 0.1828847974538803, 0.25339141488075256, 0.09998476505279541, 0.14186260104179382, -0.059263408184051514, 0.1819780468940735, 0.14121949672698975, 0.2510615885257721, 0.11669673025608063, 0.25055623054504395, 0.09916050732135773, 0.11457857489585876, 0.19047759473323822, 0.04185114800930023, 0.24318553507328033, -0.021011702716350555, -0.01628018170595169, -0.025179699063301086, 0.029969796538352966, 0.259337842464447, 0.2424566000699997, 0.15244325995445251, 0.0949346125125885, 0.06480434536933899, 0.17854894697666168, -0.036686018109321594, 0.005701704416424036, 0.08363024145364761, 0.04894233122467995, -0.14636345207691193, -0.12527576088905334, 0.22614799439907074, 0.06894586235284805, -0.033712439239025116, 0.22975149750709534, 0.04568365961313248, 0.12494151294231415, 0.1064738929271698], [-0.025785520672798157, 0.013919569551944733, -0.14566510915756226, 0.0967288389801979, 0.05480364337563515, -0.0439969003200531, 0.27202287316322327, -0.08980786800384521, -0.21444663405418396, 0.0790882334113121, 0.055039409548044205, 0.05729489028453827, -0.0031551369465887547, 0.19800986349582672, 0.0205236729234457, 0.09676533937454224, 0.19900891184806824, 0.1826426386833191, 0.10736268013715744, 0.033934932202100754, 0.176039457321167, 0.024404235184192657, -0.047507256269454956, 0.08509980142116547, 0.15471628308296204, 0.23379909992218018, 0.01861848309636116, 0.10648056864738464, 0.010577303357422352, 0.036875151097774506, 0.24030646681785583, -0.126549631357193, -0.1455191671848297, 0.06392567604780197, 0.030345307663083076, -0.21194779872894287, 0.25007396936416626, 0.20787686109542847, 0.04120161384344101, 0.03171337768435478, 0.00926999095827341, 0.22732743620872498, 0.08424343168735504], [-0.011691250838339329, 0.027216944843530655, -0.003046896308660507, 0.22223730385303497, -0.011216862127184868, 0.14215633273124695, 0.03623037412762642, 0.03778989240527153, 0.1506677120923996, -0.022129571065306664, 0.0051184906624257565, 0.2167813777923584, 0.07728905230760574, 0.22231167554855347, 0.12043512612581253, 0.14572551846504211, 0.08155042678117752, 0.1586572825908661, -0.14599749445915222, 0.1526026427745819, -0.029187170788645744, 0.2016996294260025, 0.22039180994033813, 0.1853059083223343, 0.14554855227470398, 0.23180986940860748, 0.08627329766750336, 0.047848109155893326, 0.02370499260723591, 0.0640435740351677, 0.17195478081703186, -0.034560658037662506, -0.14087335765361786, 0.10482851415872574, 0.11818880587816238, -0.17985902726650238, 0.2156372368335724, 0.01432890072464943, -0.013365599326789379, 0.14817294478416443, -0.0028886725194752216, 0.051929812878370285, 0.2218712866306305], [-0.13807553052902222, 0.2098441869020462, -0.0005596480914391577, 0.23437954485416412, -0.11201434582471848, 0.030155014246702194, 0.15145975351333618, 0.03812310844659805, 0.012283699586987495, -0.019668860360980034, 0.14324180781841278, 0.16227322816848755, 0.06219293922185898, 0.21567890048027039, 0.07054810225963593, 0.12728317081928253, 0.03948457911610603, 0.09050702303647995, -0.037996552884578705, 0.15383793413639069, 0.08249788731336594, 0.17585857212543488, 0.04941525310277939, 0.010530632920563221, 0.15232403576374054, -0.010292056016623974, -0.07165485620498657, 0.0033644267823547125, -0.13765709102153778, 0.0023991172201931477, 0.06518548727035522, 0.0009899251163005829, -0.067055843770504, 0.020181044936180115, 0.08393372595310211, -0.13415195047855377, 0.16277313232421875, -0.01653612032532692, -0.07559483498334885, -0.01197538897395134, -0.021220983937382698, 0.14313705265522003, 0.13610240817070007], [-0.12814617156982422, 0.2280547320842743, -0.12342604994773865, 0.020365029573440552, -0.018664726987481117, 0.13720352947711945, 0.0338076651096344, 0.11372420936822891, -0.10842660069465637, 0.05384288355708122, 0.18277379870414734, 0.031158560886979103, -0.045915134251117706, 0.1421273648738861, -0.0069070132449269295, 0.10037130862474442, -0.03123292699456215, 0.1339450180530548, -0.14083775877952576, 0.06369630247354507, 0.02616169862449169, 0.0927843376994133, 0.023139532655477524, 0.18564973771572113, 0.11278242617845535, 0.10232660174369812, 0.05407353863120079, 0.07310766726732254, -4.3757445382652804e-05, 0.18309372663497925, -0.061219532042741776, -0.07549012452363968, -0.004285357426851988, 0.046647269278764725, 0.10654027760028839, -0.14122332632541656, 0.13362343609333038, 0.13483048975467682, 0.17772282660007477, 0.10168939083814621, -0.09647424519062042, 0.1940809041261673, 0.12851515412330627], [0.2651919424533844, -0.23143219947814941, -0.0703587532043457, -0.17205198109149933, 0.11482825130224228, -0.03922850638628006, 0.11235411465167999, -0.07287409156560898, 0.07180792838335037, -0.00744895962998271, -0.04762492701411247, -0.007370254956185818, 0.005951098632067442, -0.038818150758743286, 0.007637133356183767, 0.003631006693467498, 0.08063315600156784, -0.05001213401556015, 0.16434797644615173, 0.04518035426735878, 0.1756710410118103, -0.07345826178789139, 0.028025830164551735, 0.15714892745018005, -0.020757047459483147, 0.2100187987089157, 0.007062467746436596, 0.030460698530077934, 0.024011513218283653, -0.06329506635665894, -0.09026547521352768, 0.10925424844026566, 0.03099759668111801, 0.12460699677467346, -0.10460799932479858, 0.004938676953315735, -0.236688032746315, -0.08001668006181717, 0.12747377157211304, -0.1520461142063141, -0.03157654404640198, -0.06840456277132034, -0.15171635150909424], [-0.07114242017269135, 0.24679136276245117, -0.1343853920698166, 0.10207720100879669, -0.023975946009159088, 0.03615367412567139, 0.184971421957016, 0.08746834099292755, 0.07532235980033875, 0.01619883067905903, 0.028444085270166397, 0.015247723087668419, 0.17728383839130402, 0.037749554961919785, 0.19266900420188904, 0.21793730556964874, -0.0282736886292696, -0.017736056819558144, -0.035538770258426666, -0.059698436409235, -0.07227633893489838, 0.16796118021011353, 0.1258210390806198, 0.21775954961776733, 0.17145094275474548, 0.2146667242050171, 0.02167084813117981, 0.0031682131811976433, -0.0978778824210167, -0.019207799807190895, 0.061698272824287415, -0.1209234669804573, 0.05783843621611595, -0.07503724098205566, -0.08199761807918549, -0.23297610878944397, 0.09483650326728821, 0.22260773181915283, 0.0573342926800251, -0.0013501791981980205, -0.12371717393398285, 0.0317978635430336, -0.059831853955984116], [0.017303448170423508, 0.2669522166252136, -0.10068366676568985, 0.20626045763492584, 0.09415457397699356, 0.007240103557705879, 0.23484478890895844, -0.07988092303276062, -0.01656147465109825, -0.0641438439488411, 0.17440173029899597, 0.1855791062116623, 0.11674367636442184, -0.03603268787264824, 0.012517862021923065, 0.009376205503940582, 0.07720844447612762, 0.014063648879528046, -0.051897529512643814, 0.19334565103054047, 0.1420605182647705, 0.031154487282037735, 0.22347494959831238, 0.17926470935344696, 0.23608723282814026, 0.22328487038612366, 0.23381872475147247, 0.11894001811742783, -0.11559879034757614, 0.08336140960454941, 0.261241614818573, 0.1374833732843399, 0.010344808921217918, 0.16062712669372559, -0.10960618406534195, 0.015454965643584728, 0.258409321308136, 0.029958371073007584, 0.160037562251091, 0.25192156434059143, 0.08818605542182922, -0.028533486649394035, 0.023667767643928528], [0.17714138329029083, -0.21003954112529755, 0.035667408257722855, -0.0094044404104352, 0.05252114310860634, 0.11668022722005844, -0.03596767783164978, 0.1329226940870285, 0.12251902371644974, 0.13421188294887543, 0.01403027679771185, 0.023140694946050644, 0.02046338841319084, -0.12190840393304825, -0.011804349720478058, 0.06402432173490524, 0.15245628356933594, 0.04872658848762512, 0.2303125262260437, 0.10168638080358505, 0.22028711438179016, 0.10980034619569778, 0.10516691952943802, -0.08066481351852417, 0.03285815939307213, -0.06074577942490578, 0.031488627195358276, 0.13838648796081543, 0.06194918230175972, 0.031081480905413628, -0.2030492126941681, 0.040405698120594025, -0.0930640697479248, -0.011591600254178047, -0.062116269022226334, 0.08270974457263947, -0.24826116859912872, -0.11141899228096008, 0.2232309877872467, -0.14560900628566742, -0.06083882972598076, -0.15767519176006317, -0.0365426167845726], [-0.09844426065683365, 0.13552746176719666, -0.07362913340330124, 0.07529781758785248, -0.0073833283968269825, 0.21523647010326385, 0.17404846847057343, 0.053443748503923416, -0.05338018387556076, 0.03871229290962219, 0.05759028345346451, 0.17558157444000244, 0.13244470953941345, 0.1509302705526352, 0.13479609787464142, -0.025702930986881256, 0.03625138849020004, 0.04653340205550194, -0.16114799678325653, 0.15482743084430695, 0.06754068285226822, 0.19841518998146057, 0.0966486781835556, 0.2266540229320526, -0.029345456510782242, 0.17916764318943024, 0.21658283472061157, 0.09386587142944336, 0.06435046344995499, 0.17902043461799622, 0.029075995087623596, 0.08839982748031616, -0.1422012597322464, 0.01857462339103222, -0.06424187868833542, -0.05080937221646309, 0.20444144308567047, -0.01345224678516388, 0.0597120001912117, 0.20773737132549286, -0.13867613673210144, 0.12820656597614288, 0.09164027869701385], [-0.2354741245508194, 0.08031382411718369, 0.10119861364364624, 0.19422531127929688, 0.12477334588766098, 0.11627204716205597, -0.021258022636175156, 0.08938625454902649, 0.0991145595908165, -0.018618125468492508, -0.08469119668006897, 0.17802296578884125, -0.0032695396803319454, 0.24431665241718292, 0.22709424793720245, 0.13652218878269196, -0.029103336855769157, 0.027843106538057327, -0.022108571603894234, 0.13668054342269897, -0.013369358144700527, 0.1646462231874466, 0.20235466957092285, 0.1349479705095291, 0.21606791019439697, 0.010077673941850662, 0.15675927698612213, 0.12232635915279388, -0.061412274837493896, 0.05203639715909958, 0.24434444308280945, -0.0066773188300430775, -0.14061656594276428, 0.17783531546592712, -0.0236334390938282, -0.2583841383457184, -0.02985583432018757, 0.15995730459690094, 0.21314296126365662, 0.17573054134845734, -0.19639956951141357, 0.1622072458267212, 0.12241196632385254], [-0.19937124848365784, 0.12361415475606918, -0.13799110054969788, 0.08157392591238022, 0.05224530026316643, 0.17912544310092926, 0.02160833775997162, 0.18378421664237976, -0.12867018580436707, 0.062311526387929916, 0.10307209193706512, 0.0664062649011612, 0.04740807041525841, 0.1493295580148697, 0.23634028434753418, -0.043590836226940155, -0.09253697097301483, 0.08642128109931946, -0.229528546333313, 0.14081795513629913, 0.1182233989238739, -0.037573590874671936, -0.01801016740500927, 0.05494162067770958, 0.07594723254442215, 0.1968659907579422, 0.1721404790878296, 0.17050480842590332, 0.08454178273677826, 0.2012491524219513, 0.05854622647166252, -0.13109450042247772, 0.07466500252485275, 0.049111876636743546, 0.019059358164668083, -0.18675382435321808, 0.17908422648906708, 0.12552161514759064, -0.026797473430633545, -0.00846454594284296, 0.05762682110071182, 0.21899591386318207, 0.1500013917684555], [0.01649775542318821, 0.11159262806177139, 0.0445995107293129, 0.1770917922258377, -0.1428411900997162, 0.02656867913901806, -0.027700360864400864, -0.043816227465867996, -0.08084766566753387, 0.1460108757019043, -0.06105325371026993, 0.05246348679065704, 0.07973133772611618, 0.2217520922422409, 0.021190190687775612, 0.20335665345191956, 0.07583845406770706, -0.1640673726797104, -0.07975262403488159, 0.17100106179714203, 0.03553422540426254, 0.20827451348304749, -0.035006895661354065, 0.19233733415603638, 0.045242100954055786, 0.11755567789077759, 0.018898431211709976, 0.14121292531490326, 0.10069453716278076, 0.14290475845336914, 0.16516147553920746, -0.08521878719329834, 0.04767550900578499, -0.005963429342955351, 0.040732983499765396, -0.19347386062145233, 0.23790530860424042, 0.1822463423013687, -0.01340202521532774, 0.17718128859996796, 0.06135337054729462, 0.21536636352539062, 0.1454300433397293], [0.09551284462213516, -0.20541302859783173, 0.1104651391506195, -0.014884714037179947, 0.0521891824901104, 0.10229324549436569, 0.16674624383449554, -0.07481316477060318, 0.036787889897823334, 0.07374944537878036, 0.13073739409446716, 0.005833097733557224, -0.06081552803516388, 0.026966415345668793, -0.11119120568037033, 0.0029535526409745216, 0.034358568489551544, -0.042527664452791214, 0.17489345371723175, 0.09224814921617508, 0.13547460734844208, 0.1465490758419037, 0.09021344780921936, 0.06914966553449631, 0.00705893337726593, 0.18883240222930908, -0.09759777039289474, -0.026811495423316956, -0.1076035276055336, 0.06504538655281067, 0.09296869486570358, 0.10469815880060196, 0.13848115503787994, 0.11283745616674423, 0.11050122231245041, 0.13405974209308624, -0.24649497866630554, 0.1310569941997528, 0.103578582406044, 0.0801747590303421, -0.013278384692966938, -0.0602608397603035, -0.16969598829746246], [-0.0044809444807469845, 0.2623419463634491, 0.03727130964398384, 0.2389354556798935, 0.14049947261810303, 0.11987273395061493, 0.09461233764886856, -0.03339771181344986, -0.012790940701961517, -0.0325268879532814, 0.09581350535154343, 0.1883363425731659, 0.03795142471790314, 0.174721822142601, 0.19184763729572296, 0.10796285420656204, 0.04318922385573387, -0.08970232307910919, 0.008282971568405628, 0.09962736815214157, 0.030613888055086136, 0.002090596593916416, 0.08167864382266998, 0.02968539111316204, 0.10978412628173828, 0.021840307861566544, 0.2237274944782257, 0.0681108757853508, -0.14913730323314667, 0.1526528298854828, -0.03379189223051071, 0.1539248824119568, 0.13486319780349731, -0.016276756301522255, 0.11670498549938202, -0.2732941508293152, 0.016913114115595818, 0.014427850022912025, -0.05196952074766159, 0.015335727483034134, -0.004558526445180178, 0.2579329311847687, 0.004826983902603388], [0.05754774808883667, -0.10502961277961731, 0.10907565802335739, -0.11028127372264862, -0.03331694379448891, 0.13719825446605682, -0.05164850130677223, 0.12425650656223297, 0.0020012538880109787, -0.12581299245357513, 0.10016210377216339, -0.11248805373907089, -0.031336646527051926, -0.11750396341085434, -0.12432307004928589, 0.058920446783304214, 0.18444865942001343, 0.1256866455078125, 0.15923893451690674, 0.07908693701028824, 0.21960240602493286, -0.001473841955885291, 0.12223967164754868, -0.06623273342847824, 0.222952201962471, -0.05076991766691208, -0.05275982245802879, -0.0785466730594635, 0.053967129439115524, 0.09594133496284485, 0.040826860815286636, -0.10131115466356277, 0.028551742434501648, -0.06462867558002472, -0.09219201654195786, 0.11923224478960037, -0.1430511623620987, 0.20472703874111176, -0.021642988547682762, 0.09071539342403412, -0.033040851354599, -0.16369499266147614, -0.1976410299539566], [-0.18252791464328766, 0.06729733198881149, -0.0382186658680439, 0.017271194607019424, 0.03486885502934456, 0.042576950043439865, 0.018229488283395767, 0.05927945673465729, 0.11232094466686249, 0.06743201613426208, -0.06594988703727722, -0.06911040097475052, 0.14862355589866638, 0.025273161008954048, 0.016535524278879166, 0.23099151253700256, 0.13961701095104218, -0.045193493366241455, -0.20448847115039825, -0.029668746516108513, 0.1626085340976715, 0.10812222212553024, 0.044624608010053635, 0.0874752476811409, 0.14189384877681732, 0.1708618402481079, -0.03315826877951622, 0.11956667900085449, -0.11350692808628082, 0.2298729568719864, -0.030374158173799515, 0.10929138958454132, -0.1391475647687912, 0.19727526605129242, 0.04206063225865364, -0.20431718230247498, 0.05752307176589966, 0.022769104689359665, 0.19516333937644958, 0.08116753399372101, -0.12715746462345123, 0.078590027987957, 0.18069377541542053], [0.18826523423194885, -0.10806980729103088, -0.07152028381824493, 0.10067011415958405, 0.17385081946849823, 0.1204867884516716, -0.03420618921518326, -0.004907303024083376, -0.01255763042718172, -0.006166690960526466, 0.09635290503501892, 0.043002836406230927, -0.036131616681814194, 0.16839011013507843, 0.22420169413089752, 0.22215747833251953, 0.140067920088768, 0.11630920320749283, 0.11872577667236328, -0.015097598545253277, -0.03170374780893326, 0.045554060488939285, 0.1625322699546814, 0.025661155581474304, 0.21209748089313507, -0.043900467455387115, 0.004716913681477308, -0.013695549219846725, 0.0836571678519249, -0.05481944978237152, -0.026162000373005867, -0.042730074375867844, 0.10343329608440399, 0.09334491193294525, -0.09562045335769653, 0.2786838412284851, -0.05160084366798401, 0.020610598847270012, 0.1289682686328888, 0.015629231929779053, 0.08129259198904037, -0.06590326130390167, -0.08747486770153046], [-0.11254708468914032, 0.025364680215716362, 0.13150815665721893, 0.09771114587783813, -0.02352496050298214, 0.07175307720899582, 0.08980546146631241, -0.0706837996840477, 0.05347241088747978, 0.11664054542779922, 0.08924979716539383, 0.1939607858657837, -0.030297350138425827, -0.04025978222489357, 0.017976969480514526, 0.047781188040971756, -0.008149218745529652, -0.039902545511722565, -0.08699909597635269, 0.22163404524326324, -0.0921129658818245, -0.03501594439148903, 0.04163029417395592, 0.09189851582050323, 0.168047696352005, 0.08088076859712601, 0.16812677681446075, 0.22696813941001892, 0.14284874498844147, 0.06448638439178467, 0.09718004614114761, -0.009262999519705772, 0.05862930789589882, 0.21520866453647614, 0.13935290277004242, -0.13245642185211182, 0.2238553911447525, 0.11158683896064758, -0.045484934002161026, 0.10820875316858292, -0.0017515079816803336, 0.1243714988231659, 0.15295055508613586], [0.047719985246658325, -0.2056838572025299, 0.12444305419921875, -0.11640600860118866, -0.0878438949584961, -0.043412595987319946, 0.08163617551326752, 0.105181984603405, 0.09016360342502594, -0.08382634818553925, 0.0017537393141537905, -0.03989933058619499, -0.03613495081663132, 0.07340769469738007, -0.13773605227470398, 0.11453790217638016, 0.011339451186358929, 0.18477070331573486, 0.1966078132390976, 0.05012182891368866, 0.07905111461877823, 0.13647860288619995, 0.05512971431016922, -0.008171502500772476, -0.013675451278686523, 0.11601486802101135, 0.022747687995433807, 0.07830249518156052, 0.06939796358346939, 0.03346365690231323, -0.10539472848176956, 0.17392699420452118, 0.033106479793787, -0.012792523950338364, -0.016884993761777878, 0.1545509397983551, -0.08542285859584808, 0.1492408663034439, 0.06265914440155029, -0.011868808418512344, -0.024163711816072464, -0.04774494469165802, 0.04598977416753769], [0.23912262916564941, -0.07495305687189102, -0.00587276928126812, -0.15055185556411743, 0.15069620311260223, 0.14576071500778198, -0.03204823657870293, -0.1481802612543106, 0.1559043824672699, 0.10149325430393219, 0.007643543183803558, -0.02921168878674507, -0.047667987644672394, -0.10032325237989426, -0.07106893509626389, 0.06676886230707169, 0.09157600998878479, 0.03074764274060726, 0.08320459723472595, 0.1784253567457199, -0.035047497600317, -0.015742145478725433, -0.05923362076282501, -0.094443678855896, 0.12200375646352768, 0.15881353616714478, -0.06372223049402237, -0.04166027903556824, 0.10264257341623306, -0.04310604929924011, -0.09998484700918198, 0.1853000819683075, 0.12158522009849548, 0.026345232501626015, 0.03971681743860245, 0.24388398230075836, -0.1186465248465538, 0.06710043549537659, 0.17079408466815948, 0.03662707284092903, -0.03780413791537285, 0.03685959428548813, 0.007571966852992773], [-0.14017824828624725, 0.13938204944133759, 0.01920720934867859, -0.03490111976861954, 0.06362059712409973, 0.12172304838895798, 0.1983364075422287, -0.11498058587312698, 0.0814434140920639, 0.12307634949684143, 0.1888304203748703, -0.04474523663520813, 0.11679016798734665, 0.06892434507608414, 0.1813451200723648, 0.20333561301231384, 0.016556592658162117, -0.06905438005924225, -0.13839761912822723, 0.22970141470432281, 0.0020278410520404577, 0.1805436909198761, 0.018361367285251617, -0.055284079164266586, -0.04480646550655365, 0.17450053989887238, -0.05561359226703644, 0.05823594704270363, -0.013067224062979221, 0.01746470108628273, 0.10207076370716095, -0.04980041831731796, -0.08567464351654053, 0.08621655404567719, -0.08412951976060867, -0.12760591506958008, 0.18289081752300262, 0.10021868348121643, 0.20259101688861847, 0.1941158026456833, -0.02957877330482006, 0.161025732755661, 0.11342459917068481], [-0.1906813234090805, 0.011648709885776043, -0.0029402023646980524, 0.17440654337406158, 0.034108687192201614, -0.07151225209236145, 0.09680482000112534, 0.15692298114299774, 0.0964418351650238, 0.0970652624964714, 0.008738392032682896, 0.21936093270778656, 0.034174416214227676, 0.21420983970165253, 0.015466971322894096, 0.15381388366222382, 0.07490469515323639, 0.12354832887649536, -0.022124169394373894, 0.13918520510196686, 0.046236276626586914, -0.03212001174688339, -0.07757695764303207, 0.03461770340800285, 0.07367776334285736, 0.11094887554645538, 0.2007794976234436, 0.16514982283115387, -0.018820900470018387, 0.23996159434318542, 0.2119111567735672, -0.07378224283456802, -0.11860854923725128, 0.064959317445755, -0.048741649836301804, -0.20357520878314972, 0.1980268955230713, 0.20085307955741882, 0.09716585278511047, 0.11927860975265503, -0.11554979532957077, 0.166231170296669, -0.00929440837353468], [-0.1964433491230011, 0.2145526260137558, 0.11160724610090256, 0.24510161578655243, 0.0014013532781973481, 0.11708186566829681, 0.07716630399227142, 0.06931478530168533, 0.21624527871608734, 0.17898774147033691, 0.18616428971290588, 0.19442938268184662, 0.19561845064163208, 0.031058544293045998, 0.14881294965744019, 0.08905933052301407, -0.05567498877644539, 0.005447795614600182, 0.002326639834791422, -0.04505643621087074, 0.1709018498659134, -0.04315821826457977, 0.18536193668842316, 0.05072542279958725, 0.1800423264503479, 0.07586712390184402, 0.11316843330860138, 0.11105681210756302, -0.07925187796354294, -0.012906092219054699, -0.051299430429935455, 0.10471919924020767, -0.05572093650698662, -0.06482843309640884, -0.15128281712532043, -0.2435847967863083, 0.08345172554254532, 0.0068081640638411045, 0.017084253951907158, -0.062436603009700775, -0.08743496984243393, 0.15392667055130005, 0.047209806740283966], [0.16797874867916107, -0.10030598193407059, 0.14963781833648682, -0.08422484993934631, 0.2071598619222641, 0.07779392600059509, -0.010198399424552917, -0.05949676036834717, 0.07863707840442657, 0.06504837423563004, 0.1202797144651413, 0.05909152701497078, -0.0962100699543953, 0.07432251423597336, -0.0803743302822113, 0.10083910822868347, 0.08659245818853378, 0.18174141645431519, 0.20520366728305817, 0.04321691393852234, 0.037575412541627884, 0.0181320421397686, 0.032556623220443726, 0.11718858778476715, 0.16833384335041046, -0.09004078060388565, -0.05183994397521019, -0.025355344638228416, 0.1367696225643158, -0.08922140300273895, -0.054159488528966904, 0.15407168865203857, 0.11028037965297699, 0.0886930599808693, -0.12661144137382507, 0.19803227484226227, -0.12588123977184296, 0.063143290579319, -0.03924180194735527, -0.013319689780473709, 0.19524459540843964, -0.18516163527965546, -0.07072863727807999], [0.0896063968539238, -0.1128014549612999, -0.11183340102434158, -0.21466028690338135, -0.03800911828875542, -0.029493194073438644, 0.08056078106164932, 0.09855632483959198, -0.12831227481365204, 0.1395503282546997, 0.0751405581831932, -0.060098033398389816, -0.0853438675403595, 0.0026990266051143408, -0.08312951028347015, 0.08446704596281052, 0.06391673535108566, 0.16478537023067474, -0.005627208389341831, 0.05474444851279259, 0.12884804606437683, 0.09329137206077576, -0.10159815102815628, -0.04955306649208069, 0.10948926210403442, -0.0058578141033649445, 0.05548699572682381, -0.005500876810401678, 0.04705730825662613, 0.020038945600390434, 6.476498674601316e-05, -0.06533024460077286, 0.022884981706738472, 0.14104090631008148, 0.017931045964360237, 0.1472797840833664, -0.18863941729068756, 0.14200875163078308, -0.03686891868710518, -0.022318776696920395, 0.18192555010318756, 0.03553761914372444, 0.0054467967711389065], [0.046203337609767914, -0.09923215210437775, 0.02792726829648018, 0.013581812381744385, 0.00133524090051651, 0.09131740033626556, -0.10792375355958939, 0.006813335232436657, 0.07876387983560562, -0.03232778236269951, 0.17947304248809814, 0.10626034438610077, -0.0479402132332325, 0.0034979742486029863, -0.11856034398078918, 0.05492844805121422, 0.05578504875302315, 0.19828790426254272, 0.14127768576145172, 0.15911409258842468, 0.0030648440588265657, -0.014062787406146526, -0.035642109811306, 0.06953969597816467, 0.11299259960651398, -0.11424168199300766, 0.11553224921226501, 0.1412590742111206, -0.10920322686433792, -0.13438788056373596, 0.03236240893602371, -0.011504514142870903, 0.06854655593633652, -0.023346545174717903, 0.09422407299280167, 0.21042490005493164, -0.13982707262039185, 0.13875046372413635, 0.01469214167445898, -0.03783035650849342, 0.062277913093566895, -0.09623737633228302, -0.10098382085561752], [-0.07213740050792694, 0.2525789737701416, -0.08215472102165222, -0.055512718856334686, 0.04841403663158417, 0.17205046117305756, 0.1672968566417694, 0.1804921180009842, 0.023541854694485664, -0.09792550653219223, 0.029716232791543007, 0.07946610450744629, 0.1434701383113861, 0.20516856014728546, 0.1983223408460617, 0.023281274363398552, 0.0013513164594769478, -0.10961230844259262, -0.09277158975601196, 0.013219294138252735, -0.07983077317476273, 0.20219258964061737, 0.03230208158493042, 0.002465475583449006, -0.004606720991432667, 0.01558925025165081, -0.030496733263134956, -0.021414730697870255, -0.09582298994064331, 0.14982163906097412, 0.1763908416032791, 0.08095627278089523, -0.1349678933620453, 0.00660600746050477, 0.06644143909215927, -0.1246248185634613, 0.12937960028648376, 0.13301977515220642, 0.040562763810157776, 0.17802895605564117, 0.04997309669852257, 0.11446736007928848, -0.0034925290383398533], [0.028291480615735054, 0.2606322467327118, 0.06085915490984917, 0.25792452692985535, 0.051575325429439545, 0.2501990497112274, 0.20139679312705994, 0.18164221942424774, 0.1666993349790573, -0.07050515711307526, 0.05587072670459747, 0.19562958180904388, 0.022994263097643852, 0.004521546885371208, 0.12616834044456482, 0.0015572166303172708, -0.03757732734084129, 0.010132506489753723, 0.055525194853544235, 0.002340826438739896, 0.01847299374639988, 0.19672837853431702, -0.008631903678178787, 0.10126714408397675, 0.2622212767601013, 0.22818639874458313, 0.06525182723999023, 0.13661442697048187, -0.009857078082859516, 0.20154252648353577, 0.2389403134584427, -0.09353047609329224, 0.024998880922794342, 0.2026563286781311, 0.018604276701807976, -0.011417470872402191, 0.12645398080348969, 0.2460082769393921, -0.03965664654970169, -0.030704373493790627, -0.09799294173717499, 0.018816350027918816, -0.010753605514764786], [0.02810516022145748, 0.1488332450389862, -0.14856693148612976, 0.15542550384998322, 0.09214244037866592, -0.03718451410531998, 0.2123008668422699, -0.006670599337667227, 0.14036345481872559, -0.10383196175098419, 0.014603487215936184, 0.12907132506370544, 0.01727486029267311, 0.15465578436851501, 0.21808306872844696, 0.21387414634227753, -0.01308540627360344, -0.09878082573413849, -0.1348310261964798, 0.17822808027267456, -0.006395783741027117, 0.13022291660308838, -0.05728331580758095, 0.10562809556722641, -0.02353491634130478, 0.10447148978710175, 0.0043911258690059185, 0.1440415233373642, -0.006179980468004942, 0.06102389097213745, 0.14738517999649048, -0.1402295082807541, -0.12841810286045074, 0.04395516216754913, 0.15075239539146423, -0.07148930430412292, 0.24468542635440826, 0.1681378185749054, -0.07192263007164001, 0.03215941786766052, -0.05547903850674629, 0.01425664871931076, 0.00831401627510786], [0.1817420870065689, -0.00937596708536148, 0.062322329729795456, -0.26412710547447205, 0.10126890987157822, -0.05704205110669136, 0.047089461237192154, -0.10598330199718475, -0.11977194249629974, 0.030752602964639664, 0.14714385569095612, -0.08632706850767136, -0.06332969665527344, 0.0489017628133297, -0.11314195394515991, -0.07938755303621292, 0.21510764956474304, 0.2046499252319336, -0.011316030286252499, 0.2027682214975357, 0.21630430221557617, -0.06976065039634705, -0.0037353746592998505, 0.15017284452915192, 0.19089555740356445, -0.029613569378852844, 0.0748366266489029, 0.07286959141492844, -0.06142956390976906, -0.1431221067905426, -0.12155477702617645, 0.15293103456497192, 0.055255528539419174, 