{"metadata": {"algorithm": "reinforce_self_play", "num_players": 3, "input_size": 30, "hidden_size": 256, "num_layers": 3, "output_size": 10, "abstract_actions": ["L", "M", "H", "D", "LL", "LH", "HH", "K0", "K1", "K2"], "episodes": 1340032, "win_rate_vs_random": 0.5323, "exported_at": "2026-03-05T17:22:19Z", "trained_against": ["2026-03-05T14:29:12Z", "2026-03-05T16:07:04Z"]}, "weights": {"w1": [[0.09111371636390686, -0.01119973324239254, 0.2076811045408249, 0.0434688925743103, -0.11719812452793121, 0.0692552775144577, 0.13377851247787476, 0.11366172134876251, 0.046549297869205475, -0.043701156973838806, 0.15026438236236572, -0.1288997232913971, -0.12421754747629166, -0.08917511999607086, -0.20433588325977325, -0.0063132643699646, -0.1540265828371048, 0.19176901876926422, 0.20112115144729614, -0.0624038428068161, 0.09061023592948914, 0.013136221095919609, -0.023040059953927994, 0.06306537985801697, 0.12566322088241577, -0.13737550377845764, 0.026892555877566338, 0.1906234323978424, 0.15668265521526337, -0.11993087828159332], [0.120960533618927, -0.02418520487844944, 0.24519765377044678, 0.0339571051299572, 0.07076440006494522, -0.07142806053161621, 0.17568181455135345, 0.20335909724235535, -0.0018132878467440605, -0.0998881533741951, -0.0527830645442009, -0.10737919807434082, 0.029691297560930252, -0.01078697107732296, 0.0308641716837883, 0.08922630548477173, -0.16391144692897797, -0.161122664809227, -0.07248590886592865, -0.13880425691604614, 0.03807481750845909, 0.016483042389154434, 0.17009210586547852, 0.12331782281398773, 0.17738096415996552, 0.16836492717266083, 0.0957190990447998, -0.011208554729819298, -0.13029316067695618, 0.16580967605113983], [-0.04764431715011597, 0.15714509785175323, -0.11214546114206314, -0.15695635974407196, 0.18308523297309875, 0.17470276355743408, 0.011354094371199608, -0.09356824308633804, 0.07704655826091766, 0.1689552664756775, -0.07397796958684921, 0.06547684967517853, 0.17631812393665314, 0.02034277655184269, 0.007147961296141148, -0.029560284689068794, 0.10810668021440506, -0.07203229516744614, -0.0534621998667717, 0.17320488393306732, 0.15335991978645325, 0.13209868967533112, 0.021206282079219818, -0.1616486757993698, -0.09191163629293442, 0.15712197124958038, 0.19530089199543, 0.04623384028673172, 0.07687925547361374, -0.01269614789634943], [-0.12394005060195923, 0.06396477669477463, 0.05597156658768654, 0.02595778927206993, 0.12778715789318085, -0.06880475580692291, 0.07997211813926697, -0.11663136631250381, 0.03360164538025856, -0.047941938042640686, 0.02782568335533142, -0.04498617351055145, 0.054135676473379135, 0.11612114310264587, 0.00501939607784152, 0.07676447927951813, -0.13898155093193054, 0.14791901409626007, 0.1634625941514969, -0.12494134157896042, 0.08271338790655136, 0.13604818284511566, -0.1171133741736412, 0.00024333299370482564, 0.1519280970096588, -0.09594560414552689, 0.23913420736789703, 0.12228325754404068, -0.11247728765010834, 0.1202552318572998], [-0.13691234588623047, 0.17168553173542023, 0.0018490254878997803, 0.06370966136455536, 0.14943081140518188, 0.09577873349189758, 0.011767452582716942, 0.000653489085379988, -0.12585297226905823, 0.09369958937168121, 0.07374898344278336, -0.004598395433276892, -0.1621902883052826, -0.0744900330901146, -0.19477388262748718, 0.10685966163873672, 0.03453758731484413, 0.17590996623039246, 0.20537465810775757, 0.07694726437330246, -0.03189856931567192, 0.1261674165725708, -0.17237715423107147, -0.03959224000573158, -0.07556513696908951, 0.021192338317632675, -0.020648565143346786, 0.1663352996110916, 0.10468606650829315, 0.13959762454032898], [-0.14725156128406525, -0.043898552656173706, -0.031368572264909744, -0.20576055347919464, -0.09357152134180069, 0.06535933911800385, 0.06823330372571945, 0.08398209512233734, 0.027447907254099846, 0.08887480944395065, 0.01397140696644783, 0.02303748019039631, 0.02019253559410572, -0.21043597161769867, 0.21201853454113007, 0.2044544219970703, 0.061395999044179916, 0.05813300982117653, -0.11420994251966476, -0.19001314043998718, -0.023506183177232742, -0.08364202082157135, -0.09076212346553802, 0.1038423553109169, -0.07227461785078049, -0.06691443175077438, -0.12805327773094177, -0.09189067780971527, -0.07778985798358917, -0.08278372883796692], [-0.027104970067739487, 0.11557238548994064, -0.12634524703025818, 0.15878157317638397, 0.11215310543775558, 0.038125015795230865, 0.16483205556869507, -0.08863383531570435, 0.0029201828874647617, -0.06748903542757034, 0.11737877875566483, -0.1825852245092392, -0.07928614318370819, -0.09968717396259308, -0.0830109491944313, -0.20217183232307434, -0.1582966148853302, 0.1287020742893219, 0.028534838929772377, 0.19902968406677246, -0.056740425527095795, -0.0010731485672295094, 0.12030437588691711, 0.11759962886571884, -0.04338599741458893, 0.016567716374993324, -0.18609507381916046, -0.021737052127718925, -0.15924082696437836, -0.022841447964310646], [0.15291202068328857, -0.09899736195802689, 0.11782627552747726, 0.14625337719917297, 0.20820793509483337, -0.14551159739494324, 0.07465654611587524, 0.17091062664985657, 0.1353122591972351, 0.012359941378235817, -0.08624577522277832, -0.07768314331769943, 0.015016989782452583, -0.10881804674863815, -0.08126752823591232, 0.10311845690011978, 0.007379536051303148, 0.13755860924720764, 0.11143607646226883, -0.0028598366770893335, -0.10481685400009155, 0.013038498349487782, 0.037088554352521896, 0.1400783658027649, -0.13486458361148834, 0.19093866646289825, 0.2144359052181244, -0.024658147245645523, 0.0032478480134159327, -0.12034079432487488], [0.16938172280788422, 0.019779104739427567, 0.046795617789030075, -0.0724756121635437, -0.14014555513858795, 0.13891775906085968, -0.19279558956623077, -0.17155718803405762, 0.15290680527687073, -0.06628432124853134, 0.09972354024648666, 0.13234132528305054, -0.10907557606697083, -0.06286437064409256, -0.13654865324497223, -0.037875398993492126, 0.08465660363435745, -0.034822817891836166, 0.12380409985780716, 0.07615976780653, 0.15360386669635773, 0.05011982098221779, 0.047764286398887634, -0.07952412962913513, 0.14326462149620056, -0.1530102640390396, -0.20298004150390625, 0.0038503468967974186, -0.13454650342464447, 0.15195193886756897], [-0.11495060473680496, 0.11164359748363495, -0.14243875443935394, -0.048387560993433, 0.17750832438468933, 0.07197187095880508, 0.15512238442897797, -0.039172060787677765, 0.18237878382205963, -0.14900106191635132, 0.11191219091415405, -0.036169957369565964, 0.11345600336790085, -0.045463379472494125, -0.007675638888031244, -0.032433800399303436, -0.11459676176309586, -0.11948705464601517, 0.024788029491901398, -0.08734940737485886, 0.15520723164081573, 0.020759087055921555, -0.07262624800205231, 0.08430662006139755, -0.07496226578950882, 0.13753154873847961, 0.09777643531560898, 0.09436053037643433, 0.01540411077439785, 0.13321222364902496], [-0.0562070868909359, 0.19726380705833435, -0.21126993000507355, -0.00897233560681343, 0.11070501059293747, -0.010377238504588604, 0.13975882530212402, 0.18733491003513336, 0.09328355640172958, 0.15258368849754333, -0.10935408622026443, -0.0168172474950552, -0.09999766200780869, 0.01949983276426792, 0.14268401265144348, 0.09632866084575653, 0.022710254415869713, -0.10841242969036102, 0.09071356058120728, 0.05029912665486336, -0.010294409468770027, -0.1496637463569641, 0.011221281252801418, 0.2398536652326584, -0.02185174450278282, -0.00030312943272292614, 0.18034009635448456, -0.09405222535133362, -0.05459385737776756, 0.11232410371303558], [-0.004346158821135759, 0.011290215887129307, 0.15730999410152435, -0.09989912807941437, 0.13144055008888245, 0.05357866361737251, 0.1688099056482315, -0.03450486809015274, -0.08660394698381424, 0.0739680752158165, 0.10544110089540482, -0.08385667204856873, -0.15030886232852936, -0.12943053245544434, -0.1614317148923874, 0.065098837018013, 0.046408746391534805, -0.017362365499138832, 0.027503477409482002, 0.15858975052833557, 0.12596015632152557, 0.14996950328350067, 0.022160004824399948, -0.0747138112783432, -0.08946191519498825, 0.055151231586933136, 0.19781188666820526, -0.06735439598560333, -0.10447431355714798, -0.1018299013376236], [0.10009182244539261, 0.05144546553492546, -0.011819807812571526, -0.1546270251274109, -0.05407785251736641, -0.15767329931259155, -0.16604870557785034, -0.14133916795253754, -0.15688873827457428, 0.06652355939149857, -0.10787065327167511, -0.024476781487464905, -0.02651352249085903, 0.12183281034231186, 0.1148529201745987, -0.10713983327150345, -0.07291513681411743, 0.1871459186077118, -0.06469427794218063, 0.07597634941339493, 0.07697227597236633, 0.1513422578573227, 0.1463281363248825, 0.016790080815553665, 0.1815653145313263, 0.13625934720039368, -0.12765394151210785, 0.030429037287831306, 0.04351138696074486, -0.15979453921318054], [-0.11823999136686325, -0.12249895185232162, 0.06619767844676971, -0.08418788760900497, 0.09102155268192291, 0.04594903811812401, 0.004284186754375696, 0.049939777702093124, 0.0636831521987915, 0.0030159917660057545, 0.15633001923561096, 0.16257797181606293, 0.13440106809139252, -0.13549715280532837, -0.1825166642665863, -0.04629244655370712, -0.1287223994731903, 0.2213897407054901, 0.15935248136520386, 0.09969845414161682, -0.13178233802318573, 0.21801038086414337, 0.20638595521450043, -0.10141222178936005, -0.0893079861998558, -0.09061378985643387, 0.037772513926029205, 0.12063463777303696, 0.04951906204223633, -0.07986345142126083], [-0.03771660104393959, -0.06906432658433914, 0.05286969617009163, -0.15207171440124512, -0.1798626184463501, -0.16176337003707886, 0.10296115279197693, -0.0157136432826519, -0.12280522286891937, 0.021520478650927544, 0.004545575473457575, -0.1283881515264511, -0.1742279827594757, -0.03018529899418354, -0.15290431678295135, -0.12430168688297272, -0.15136641263961792, -0.12989458441734314, -0.15079310536384583, 0.022829469293355942, 0.04291756823658943, 0.14123941957950592, -0.09766075015068054, -0.16386176645755768, 0.16324882209300995, -0.18977628648281097, 0.13153724372386932, -0.1471453607082367, -0.057082246989011765, 0.18228843808174133], [0.09295717626810074, 0.011346867308020592, -0.04323398694396019, 0.09605196863412857, -0.04363828897476196, 0.20017394423484802, -0.1062132865190506, 0.031999051570892334, 0.061252184212207794, -0.06805363297462463, 0.013675231486558914, 0.15093857049942017, -0.02949349395930767, -0.17782080173492432, 0.08704789727926254, -0.08553547412157059, -0.01966417394578457, -0.09544502198696136, -0.08803974092006683, -0.14079782366752625, -0.049403052777051926, -0.08286654949188232, 0.034096281975507736, -0.05682248994708061, 0.16403481364250183, 0.15664157271385193, -0.16845236718654633, -0.10431994497776031, 0.026724442839622498, 0.16679389774799347], [-0.13230779767036438, 0.1471683830022812, -0.14686517417430878, -0.18171073496341705, -0.15272517502307892, -0.04326958209276199, 0.036543335765600204, 0.03649536147713661, 0.019060272723436356, 0.022554311901330948, 0.008319925516843796, -0.17526821792125702, -0.18248747289180756, 0.1096331775188446, 0.10025980323553085, -0.14415429532527924, -0.03457768261432648, 0.07317289710044861, 0.12397750467061996, -0.021647995337843895, -0.029969025403261185, -0.016514470800757408, 0.06970997899770737, -0.10683733969926834, 0.017710110172629356, -0.15598800778388977, -0.00411422410979867, 0.1366591453552246, -0.038815826177597046, -0.001993457553908229], [-0.1301172971725464, -0.07223627716302872, 0.18376165628433228, 0.1654520183801651, -0.011392168700695038, -0.09382996708154678, 0.11995021998882294, -0.08317345380783081, 0.10010886937379837, -0.11106143891811371, -0.09340279549360275, -0.024097096174955368, -0.05756992846727371, 0.18505920469760895, 0.23142766952514648, 0.07330051064491272, -0.1659296751022339, -0.16625365614891052, 0.1377338469028473, -0.09024146944284439, 0.09273186326026917, 0.15953569114208221, 0.0440765880048275, 0.06600978970527649, 0.21090319752693176, 0.05174856260418892, -0.0908384770154953, -0.016641786321997643, 0.032180801033973694, 0.18078385293483734], [0.10876819491386414, 0.06708267331123352, -0.10955587029457092, 0.012980160303413868, -0.06747632473707199, -0.16939890384674072, 0.06934325397014618, 0.12557993829250336, 0.1919989436864853, 0.186427503824234, -0.10526684671640396, 0.1339615136384964, -0.06813551485538483, -0.1370074599981308, -0.14333932101726532, -0.1378309577703476, 0.13112801313400269, -0.02299146167933941, -0.06621214002370834, -0.1050550788640976, 0.02174733579158783, -0.04560251906514168, 0.06760735809803009, -0.01835547760128975, -0.1698502004146576, 0.0009491542587056756, 0.146447092294693, 0.04717104882001877, 0.1275213062763214, -0.06020619720220566], [-0.07027904689311981, -0.050683993846178055, -0.07108745723962784, 0.04187013581395149, -0.14383427798748016, 0.08639945089817047, 0.06302042305469513, 0.08041445165872574, 0.06684014201164246, 0.01680747978389263, -0.049370452761650085, 0.006587723735719919, 0.06427343934774399, -0.2170635461807251, 0.227281391620636, -0.14007024466991425, 0.1896650195121765, -0.0498371347784996, -0.1521110236644745, -0.0971650779247284, 0.07806271314620972, 0.07343529164791107, -0.032112158834934235, -0.058918025344610214, -0.00208992138504982, 0.10953958332538605, -0.1277777999639511, -0.1364273875951767, -0.062493108212947845, -0.020628059282898903], [0.004393721930682659, -0.06052631884813309, -0.04552597552537918, 0.10444929450750351, -0.002003366593271494, -0.1549004763364792, -0.059689000248909, 0.14562487602233887, 0.124334916472435, 0.06243262439966202, 0.06373670697212219, 0.031761012971401215, -0.021160637959837914, 0.010725360363721848, -0.13774406909942627, 0.10537776350975037, -0.06951446086168289, 0.0020347952377051115, 0.11323781311511993, 0.16730192303657532, -0.0831729993224144, -0.13839232921600342, -0.02307148650288582, -0.24766336381435394, 0.22683987021446228, -0.12467688322067261, -0.04610390588641167, 0.1757432073354721, -0.09036023914813995, -0.043026141822338104], [0.16323210299015045, -0.08963775634765625, -0.11513800173997879, 0.05184715986251831, -0.13870908319950104, 0.048979029059410095, -0.08651883155107498, -0.11592323333024979, -0.13570933043956757, 0.07400573045015335, -0.09410497546195984, -0.01469926256686449, 0.0074819824658334255, 0.23457364737987518, 0.05549726262688637, -0.08485964685678482, 0.08069957047700882, -0.016011875122785568, -0.12814559042453766, -0.05270536616444588, 0.23944143950939178, 0.21123963594436646, -0.04207298532128334, 0.05964916571974754, -0.09363262355327606, -0.08613751083612442, -0.13382922112941742, -0.11004618555307388, -0.08650325238704681, 0.123838871717453], [-0.21578852832317352, 0.12445773929357529, 0.14629881083965302, -0.05358951911330223, 0.17467090487480164, -0.1253904104232788, -0.12742580473423004, 0.0195432361215353, -0.030657125636935234, 0.12233364582061768, 0.08487538993358612, 0.15261931717395782, 0.14710184931755066, 0.004382294602692127, 0.036454152315855026, 0.1379445344209671, -0.1107969805598259, 0.04439372941851616, 0.17311543226242065, 0.0924132838845253, -0.06454093009233475, -0.06610850244760513, -0.16105897724628448, 0.13331998884677887, -0.12580817937850952, 0.03522754833102226, 0.08424532413482666, 0.14870913326740265, 0.0716397762298584, -0.1513761281967163], [0.08159951865673065, -0.14457441866397858, -0.044140156358480453, -0.03287327289581299, 0.03873315453529358, -0.010748208500444889, 0.004771721549332142, 0.10970014333724976, 0.14661119878292084, -0.026791585609316826, -0.06078947335481644, -0.06232044845819473, 0.054148703813552856, -0.20690754055976868, -0.08761566877365112, -0.20055989921092987, -0.07318700850009918, 0.1170310527086258, 0.02797759138047695, 0.19001005589962006, 0.03660134598612785, 0.14134347438812256, 0.01958669163286686, 0.1690010279417038, 0.10834332555532455, 0.03599073365330696, -0.18528446555137634, 0.17587655782699585, 0.04512976109981537, -0.14889760315418243], [0.025741660967469215, 0.13822515308856964, 0.14942386746406555, -0.07057687640190125, -0.05238776654005051, 0.05892646685242653, 0.15033946931362152, 0.15135914087295532, -0.009801083244383335, 0.04814757779240608, 0.06065084785223007, 0.13526861369609833, -0.02488010749220848, 0.1372455507516861, 0.12544937431812286, 0.055703453719615936, 0.030530046671628952, 0.03556699678301811, -0.1970643699169159, -0.13959576189517975, 0.0871833860874176, 0.039248086512088776, -0.1430848389863968, 0.026561817154288292, 0.10291082412004471, -0.050590574741363525, -0.09068138897418976, -0.12753765285015106, -0.17302420735359192, -0.01996687427163124], [-0.13653510808944702, 0.11352308839559555, 0.16053229570388794, -0.13477477431297302, -0.1325545310974121, 0.1150941327214241, 0.07375436276197433, -0.10133965313434601, -0.11098296195268631, -0.11805402487516403, 0.17138950526714325, 0.13885809481143951, -0.0508292019367218, 0.08502807468175888, -0.10355554521083832, -0.0020665910560637712, 0.07127145677804947, -0.12304183095693588, 0.13202327489852905, -0.14814862608909607, -0.06210055947303772, 0.0669717788696289, 0.08162693679332733, 0.1903945803642273, -0.0314694307744503, -0.06288547813892365, 0.18622717261314392, 0.02144131250679493, -0.08039308339357376, 0.06364057958126068], [-0.10651852190494537, -0.19689396023750305, 0.06576702743768692, -0.13461492955684662, 0.18423445522785187, -0.1032443642616272, 0.013651859015226364, -0.14517618715763092, -0.07010819762945175, -0.036241672933101654, -0.04397566616535187, -0.09707286953926086, -0.020258722826838493, 0.2116967737674713, 0.10166268050670624, 0.09716170281171799, -0.11409580707550049, -0.03324653580784798, 0.014229139313101768, -0.01681823842227459, 0.07146694511175156, 0.09861937910318375, -0.07302377372980118, -0.0724281519651413, 0.06717180460691452, 0.09645146876573563, 0.18114469945430756, 0.21636927127838135, 0.12609171867370605, 0.11623134464025497], [-0.06956902146339417, 0.11468815803527832, 0.06762721389532089, 0.015018009580671787, -0.03331905975937843, 0.12710854411125183, 0.09602294862270355, -0.04414423182606697, 0.11616794019937515, 0.0761885866522789, -0.10386908054351807, 0.00699184974655509, -0.11259164661169052, -0.1445363163948059, 0.17519211769104004, 0.20255836844444275, 0.18308764696121216, 0.15773478150367737, 0.18392178416252136, 0.14557543396949768, -0.0386667400598526, -0.03912254422903061, -0.008459086529910564, -0.12868483364582062, -0.16110911965370178, 0.1293897032737732, 0.030873171985149384, 0.13310128450393677, -0.05346086248755455, -0.0906091257929802], [0.08428038656711578, -0.04518740996718407, -0.01584630273282528, -0.021803244948387146, 0.11499428004026413, 0.03859807178378105, -0.08014775067567825, -0.1590900868177414, 0.05894267559051514, -0.12646085023880005, -0.003656217362731695, 0.06773900240659714, -0.06933044642210007, -0.20850339531898499, 0.14763911068439484, -0.07367628067731857, 0.008833330124616623, 0.15409448742866516, -0.09500353783369064, -0.08744362741708755, -0.12243960797786713, -0.04583283141255379, 0.10974723100662231, 0.1147836372256279, -0.011909876018762589, -0.01761150173842907, -0.07683169096708298, 0.13426198065280914, 0.05239361524581909, -0.17930756509304047], [0.03880173712968826, 0.037623170763254166, 0.0695224180817604, 0.047523993998765945, 0.1474502682685852, -0.051071230322122574, -0.0017961289267987013, -0.1202816367149353, 0.1537715494632721, -0.09183760732412338, 0.06336940079927444, 0.018499627709388733, -0.030926993116736412, 0.03283114731311798, 0.18985258042812347, 0.1588786393404007, -0.11324302852153778, -0.048186104744672775, 0.0349457748234272, 0.15890605747699738, -0.029765397310256958, 0.036759164184331894, -0.1269775629043579, 0.026730870828032494, 0.25779959559440613, 0.18737353384494781, 0.16033507883548737, -0.1098422110080719, 0.0671839565038681, -0.015750691294670105], [0.1334676742553711, 0.021401960402727127, -0.030412036925554276, -0.11899437755346298, 0.11544297635555267, 0.01722611114382744, -0.05884144455194473, -0.1330883651971817, 0.18256984651088715, -0.03628070279955864, -0.06069717928767204, 0.02194480411708355, -0.10888650268316269, 0.12054494768381119, -0.008744675666093826, 0.2106519639492035, 0.02677878364920616, -0.10710487514734268, 0.14298859238624573, -0.10815109312534332, 0.0396440364420414, 0.08542345464229584, 0.15983130037784576, 0.033395927399396896, -0.06917867809534073, 0.03224616497755051, 0.2166980654001236, 0.12063141167163849, 0.048118043690919876, -0.05803979933261871], [-0.09001775085926056, 0.0897466391324997, 0.07571741193532944, -0.09055650234222412, -0.15554669499397278, -0.018074018880724907, 0.09302439540624619, 0.05952861160039902, 0.13385675847530365, 0.1483059525489807, -0.1036502793431282, -0.04227747395634651, 0.038269124925136566, -0.05260581895709038, 0.18942387402057648, -0.06571651995182037, -0.0418177992105484, -0.01759994588792324, -0.07928858697414398, -0.06833750009536743, 0.028199031949043274, 0.1773156076669693, -0.14484265446662903, 0.12964674830436707, -0.16807006299495697, -0.08296649158000946, 0.01536893006414175, 0.019593393430113792, -0.06707924604415894, -0.06786934286355972], [0.06881116330623627, 0.036258816719055176, 0.1299293041229248, -0.041570138186216354, 0.17788851261138916, 0.0630730614066124, 0.165558323264122, 0.1485564112663269, 0.18266843259334564, -0.006779045332223177, 0.03621959686279297, -0.007030013483017683, -0.036405049264431, 0.13397914171218872, -0.038981132209300995, -0.083659328520298, -0.1152319386601448, 0.11138693243265152, -0.028721727430820465, -0.03532261773943901, -0.022765669971704483, 0.004592683166265488, -0.10252667218446732, -0.14573147892951965, -0.050493862479925156, -0.045627694576978683, 0.09406650066375732, 0.17591987550258636, 0.2017962485551834, 0.09417315572500229], [-0.1269448697566986, -0.06899664551019669, 0.08892413228750229, -0.06820924580097198, -0.14571116864681244, 0.11292842775583267, 0.029482034966349602, 0.2134777009487152, 0.11957793682813644, 0.17133378982543945, -0.07792183011770248, 0.14674721658229828, 0.015670206397771835, 0.012106921523809433, -0.09217873215675354, -0.04256344214081764, -0.021367711946368217, -0.05133643373847008, 0.17778250575065613, -0.05565221235156059, -0.018596570938825607, 0.054219868034124374, 0.002126234583556652, 0.15645872056484222, 0.010895484127104282, 0.17259137332439423, 0.19494876265525818, 0.06397697329521179, 0.060448020696640015, 0.09103503823280334], [-0.0672018975019455, 0.01841985434293747, -0.0211664829403162, 0.091092050075531, 0.14572472870349884, -0.1038767471909523, 0.0023927967995405197, 0.14673396944999695, -0.024979062378406525, 0.16860489547252655, -0.04260004684329033, -0.0003998967004008591, -0.051933653652668, 0.1698707789182663, -0.08854497224092484, 0.1427992880344391, 0.07832027971744537, 0.1518041491508484, -0.07767631858587265, 0.15090171992778778, -0.07318584620952606, -0.10970514267683029, 0.2623426616191864, -0.06508057564496994, -0.12474360316991806, 0.07799903303384781, -0.11130235344171524, 0.11125600337982178, 0.0908198282122612, 0.12172543257474899], [0.020046351477503777, 0.12234233319759369, -0.09272325038909912, 0.05317080020904541, -0.04295598715543747, -0.10238297283649445, 0.0031987184192985296, -0.14334435760974884, 0.07701427489519119, -0.1929834485054016, -0.008781813085079193, -0.056160181760787964, 0.024417666718363762, 0.01195866521447897, -0.16694428026676178, 0.10716988891363144, -0.07440066337585449, 0.14689774811267853, -0.08601485937833786, 0.0002332040894543752, -0.20728503167629242, -0.06132063642144203, 0.1387406587600708, -0.06317842751741409, -0.18071353435516357, -0.12025731056928635, -0.08642732352018356, -0.19497640430927277, -0.126699298620224, -0.019846472889184952], [-0.1810249239206314, 0.17550815641880035, 0.012122530490159988, -0.059928543865680695, 0.11737052351236343, 0.059298887848854065, 0.011741198599338531, 0.038453858345746994, 0.20610345900058746, 0.030030012130737305, 0.053502414375543594, 0.05809484422206879, -0.052782777696847916, -0.10304262489080429, 0.09915433824062347, -0.015494201332330704, 0.05375569313764572, 0.07611894607543945, -0.0986945852637291, -0.1683366745710373, -0.05081453546881676, -0.012754871509969234, -0.04534998908638954, 0.1544308066368103, -0.19324354827404022, 0.15236547589302063, 0.2261819690465927, 0.177163764834404, -0.10646294057369232, 0.08642163127660751], [-0.00555189186707139, -0.1963651329278946, 0.03922445699572563, 0.10626605898141861, -0.05216241255402565, -0.12209224700927734, 0.004741694778203964, -0.0467849001288414, -0.09736098349094391, -0.08709828555583954, -0.06353231519460678, -0.1505415290594101, 0.09453602135181427, 0.09294022619724274, 0.02774542197585106, 0.04265814647078514, 0.15020720660686493, 0.0034864621702581644, 0.15978029370307922, 0.06661854684352875, 0.1817343384027481, -0.023884763941168785, 0.186338871717453, 0.1419394165277481, 0.1608416885137558, 0.09697021543979645, 0.1237850934267044, 0.15621325373649597, 0.18586613237857819, 0.1140550822019577], [0.03635788708925247, 0.1408829241991043, -0.13268700242042542, 0.09296872466802597, 0.07975315302610397, 0.035705167800188065, 0.08294941484928131, 0.01923755370080471, 0.1565195769071579, 0.05706457048654556, 0.055482786148786545, -0.08555234223604202, 0.06288935989141464, -0.14262999594211578, -0.0798710510134697, -0.08027880638837814, -0.011275069788098335, -0.11201918125152588, -0.081865593791008, -0.11720491945743561, 0.14880232512950897, -0.1115814596414566, -0.0794333666563034, -0.0347270630300045, -0.2876136004924774, 0.17923423647880554, 0.06448512524366379, 0.1950547844171524, -0.13950563967227936, -0.057664863765239716], [0.09981939941644669, 0.029314707964658737, 0.07530634850263596, -0.07237792015075684, 0.00861956737935543, 0.11182304471731186, 0.01132922526448965, 0.004463629797101021, -0.10485736280679703, 0.02427700161933899, -0.1213606595993042, 0.08065667003393173, 0.04238712787628174, 0.15278597176074982, 0.17874358594417572, 0.14962708950042725, 0.12228233367204666, -0.06570460647344589, -0.009672991000115871, -0.0996355190873146, -0.024240074679255486, -0.0169936902821064, -0.11260182410478592, -0.034344106912612915, -0.13615703582763672, 0.07658319920301437, -0.18873776495456696, -0.1327347457408905, -0.10923442244529724, 0.03762855753302574], [0.14984270930290222, -0.13348019123077393, 0.06843606382608414, -0.010043018497526646, 0.019633250311017036, -0.052755046635866165, 0.06796897947788239, 0.057843711227178574, -0.15174700319766998, -0.014331266283988953, 0.13316117227077484, 0.09910856932401657, -0.04406464472413063, -0.13182863593101501, -0.12885524332523346, 0.20111875236034393, 0.12028107792139053, -0.0053787147626280785, -0.07092878222465515, 0.1020754799246788, -0.14566682279109955, -0.014510626904666424, -0.0009669907158240676, 0.16073961555957794, 0.031999971717596054, 0.0549565888941288, 0.07743650674819946, 0.12370220571756363, -0.16330105066299438, -0.11608419567346573], [-0.12775328755378723, 0.25001221895217896, -0.099817655980587, 0.09507302194833755, 0.07876298576593399, -0.1305224746465683, -0.03250844031572342, -0.010368545539677143, 0.06996700912714005, 0.147404745221138, -0.017496712505817413, 0.04037227854132652, -0.0630163848400116, 0.09825289249420166, -0.08927277475595474, 0.03155241534113884, -0.106536366045475, 0.09082325547933578, 0.19834457337856293, -0.07925713807344437, 0.1356644630432129, -0.06188809499144554, -0.18878532946109772, 0.25328850746154785, -0.09444281458854675, -0.12352891266345978, 0.03201881796121597, -0.09110555797815323, -0.09190015494823456, -0.03610743582248688], [-0.0520971454679966, -0.1542588621377945, 0.14832893013954163, -0.11839747428894043, -0.08435361087322235, 0.14747577905654907, 0.19425323605537415, 0.20207905769348145, 0.09798106551170349, -0.12984402477741241, 0.04804158955812454, 0.016540570184588432, -0.09192413836717606, 0.15612059831619263, -0.20564678311347961, -0.08080635219812393, -0.048267509788274765, 0.18314754962921143, 0.16473719477653503, 0.1307179182767868, 0.07217857241630554, -0.014226135797798634, 0.2011546492576599, 0.11023169010877609, 0.053633514791727066, -0.08467056602239609, 0.22201573848724365, 0.14521630108356476, -0.10234773904085159, 0.06783340871334076], [0.16625618934631348, -0.11653729528188705, 0.146224245429039, -0.004609387833625078, -0.13259050250053406, -0.10120909661054611, 0.0724576786160469, 0.07764022052288055, -0.09757404029369354, -0.14328058063983917, -0.033597636967897415, -0.10787732899188995, 0.183052197098732, 0.23405398428440094, -0.06698080152273178, -0.03203366696834564, 0.11078987270593643, -0.043657489120960236, 0.09690631181001663, -0.10514827817678452, -0.10328852385282516, 0.16305556893348694, -0.041431721299886703, -0.04247617349028587, 0.16569460928440094, 0.14301759004592896, -0.19201906025409698, 0.031225718557834625, 0.03496978059411049, 0.16797365248203278], [0.014850708656013012, -0.03476542606949806, -0.02417132258415222, -0.15280279517173767, -0.13099153339862823, 0.04054679349064827, 0.005985427647829056, 0.1398279219865799, -0.035371311008930206, 0.033318039029836655, -0.1477517932653427, -0.14459215104579926, 0.1565096080303192, 0.19492337107658386, 0.17123571038246155, 0.04028783738613129, -0.010830773040652275, 0.19644543528556824, 0.1403045952320099, 0.11794200539588928, 0.02617812156677246, 0.0884455144405365, -0.046560849994421005, 0.013418538495898247, 0.009931514970958233, 0.2024364173412323, -0.09056641906499863, 0.1553809940814972, -0.16280198097229004, -0.15224577486515045], [0.027826538309454918, 0.0884811133146286, -0.2019968181848526, 0.041001711040735245, 0.05973762646317482, -0.17389723658561707, -0.02733072265982628, 0.010816405527293682, 0.12189152836799622, -0.08938527852296829, 0.05441536009311676, 0.14277248084545135, 0.11824528127908707, 0.039021559059619904, 0.042815327644348145, 0.11336971074342728, -0.14415401220321655, -0.11820944398641586, 0.10956186056137085, 0.07493537664413452, -0.16043995320796967, 0.09722818434238434, 0.06663988530635834, 0.15177881717681885, 0.0474165640771389, 0.044640231877565384, -0.060110826045274734, 0.11658619344234467, 0.16672831773757935, -0.15186694264411926], [-0.027985189110040665, 0.17654763162136078, 0.034679822623729706, 0.03476338088512421, -0.06089455634355545, -0.05405454337596893, -0.04829636216163635, 0.0934349000453949, 0.02355743944644928, 0.029233967885375023, -0.12510210275650024, 0.17195934057235718, 0.14913047850131989, -0.05607647821307182, 0.1033191978931427, -0.14931350946426392, -0.02342158555984497, 0.18831416964530945, -0.10364368557929993, 0.04271135851740837, -0.127902552485466, 0.18895086646080017, 0.10195352137088776, -0.026054350659251213, -0.09539663791656494, 0.18252965807914734, -0.18864654004573822, -0.08882775902748108, -0.04033711180090904, -0.013518956489861012], [-0.05686784163117409, 0.0006547712255269289, -0.05305144190788269, -0.03228314593434334, -0.10822732001543045, 0.13206364214420319, -0.07958599925041199, 0.08998528867959976, 0.12592290341854095, 0.05034029111266136, 0.08774297684431076, -0.11747030168771744, -0.13515864312648773, 0.13374926149845123, -0.05849121883511543, -0.1357906013727188, 0.056013964116573334, -0.11366710066795349, -0.1357719749212265, 0.029387567192316055, 0.18563471734523773, 0.06784283369779587, -0.07836898416280746, 0.15539173781871796, 0.15709087252616882, 0.060187481343746185, 0.07105309516191483, 0.06966300308704376, 0.039843928068876266, -0.10729780793190002], [0.14385834336280823, 0.1052006259560585, -0.1412379890680313, 0.13483957946300507, 0.07233848422765732, 0.07720251381397247, -0.05908561125397682, 0.018487289547920227, -0.13628564774990082, 0.07838992029428482, 0.043664850294589996, 0.07614690810441971, 0.17831990122795105, 0.052932534366846085, 0.05562195926904678, -0.05241890251636505, -0.03792440518736839, 0.04786494001746178, 0.04890551045536995, -0.07553748041391373, 0.15701712667942047, -0.09109361469745636, -0.0853104218840599, -0.035674095153808594, -0.1258513182401657, 0.08786345273256302, -0.18416322767734528, 0.19943192601203918, -0.17657014727592468, -0.04623686894774437], [0.15377642214298248, 0.02693806402385235, -0.1215658113360405, 0.04522481560707092, 0.14954644441604614, -0.16394369304180145, 0.1257227063179016, -0.06925906985998154, -0.13852126896381378, -0.001805822947062552, 0.12979106605052948, -0.15696443617343903, 0.012758813798427582, -0.08934808522462845, 0.12819860875606537, 0.06518559902906418, 0.14838488399982452, -0.058940716087818146, 0.14643599092960358, 0.1443270444869995, -0.1218736320734024, 0.1470216065645218, 0.1653435230255127, 0.004209430422633886, 0.09257058799266815, 0.1394864320755005, 0.17507125437259674, -0.09160911291837692, 0.011031202040612698, -0.10128811746835709], [0.10930930078029633, 0.14972861111164093, -0.06729809939861298, -0.09494610875844955, -0.13515490293502808, 0.15017901360988617, 0.016974758356809616, 0.06062649190425873, 0.02086058259010315, -0.10355760902166367, 0.01810004748404026, 0.147692009806633, 0.08082962036132812, -0.06473644822835922, 0.11702073365449905, -0.15297727286815643, 0.1498526781797409, -0.03600500524044037, -0.06713961809873581, 0.11582013964653015, 0.19012677669525146, 0.11456852406263351, 0.17383918166160583, -0.11161185801029205, -0.07430344074964523, 0.11424098163843155, 0.038874611258506775, 0.14180460572242737, -0.09759631752967834, 0.12280765175819397], [-0.0032331340480595827, -0.16085191071033478, -0.12739355862140656, 0.004185595083981752, 0.13650891184806824, -0.07731837034225464, 0.14331115782260895, -0.13810282945632935, 0.13467125594615936, 0.15149056911468506, -0.09589865803718567, 0.04011661186814308, -0.15541398525238037, -0.03613528236746788, 0.11552797257900238, -0.15356408059597015, 0.15376171469688416, 0.006490668281912804, -0.08567535877227783, 0.03874299302697182, 0.018457185477018356, -0.15134237706661224, 0.10244358330965042, 0.1530848741531372, -0.1191742941737175, -0.0436207540333271, 0.18684104084968567, 0.022623268887400627, -0.15844348073005676, 0.028253700584173203], [-0.007327057886868715, 0.044565312564373016, -0.1445733904838562, -0.1497189998626709, -0.10754197835922241, 0.18647611141204834, 0.02801954373717308, -0.11909056454896927, -0.14732982218265533, 0.14614471793174744, 0.0844520628452301, -0.09729190915822983, -0.05316049978137016, -0.044059038162231445, 0.10428743064403534, 0.006526182405650616, -0.05643133819103241, -0.059156566858291626, 0.07860345393419266, 0.039534639567136765, 0.14881190657615662, 0.17349562048912048, 0.13663837313652039, 0.11762065440416336, 0.06460446119308472, 0.16022756695747375, -0.2256932109594345, 0.14591597020626068, -0.0510031133890152, 0.11337964236736298], [0.027348613366484642, 0.17335553467273712, -0.0865577906370163, 0.04804453253746033, 0.09195856004953384, -0.04761891812086105, 0.09156683087348938, -0.1775929033756256, 0.051422782242298126, 0.08422105759382248, 0.16760481894016266, 0.061460282653570175, 0.06512865424156189, -0.10905586183071136, -0.14105673134326935, -0.02129019796848297, -0.06663476675748825, 0.13099305331707, 0.017889268696308136, 0.06593970209360123, -0.007212181109935045, -0.14932654798030853, 0.08505675941705704, -0.1318923979997635, -0.03551080450415611, 0.015687743201851845, 0.1361882984638214, 0.14494265615940094, -0.05251907557249069, -0.01685223914682865], [-0.1453338861465454, -0.10875413566827774, 0.14771737158298492, -0.0569068044424057, -0.09251027554273605, -0.11192609369754791, 0.12977302074432373, -0.16300198435783386, 0.11141350120306015, 0.0796206071972847, 0.1583334058523178, -0.09726245701313019, 0.08597340434789658, 0.12017901986837387, -0.11664634197950363, 0.08344561606645584, -0.04996619373559952, -0.11512836813926697, 0.1125563383102417, 0.06250947713851929, 0.06393762677907944, 0.13441547751426697, -0.09172479808330536, -0.1940145194530487, 0.16259831190109253, 0.0013125772820785642, 0.0812893882393837, 0.08647224307060242, -0.11643534153699875, -0.16098426282405853], [-0.060373954474925995, 0.1862960159778595, 0.115957111120224, 0.04029465094208717, -0.0946439728140831, 0.12971259653568268, -0.15872077643871307, -0.024305077269673347, -0.10641832649707794, 0.017683017998933792, 0.11974585801362991, -0.16565324366092682, 0.0030157018918544054, -0.14016740024089813, 0.15942923724651337, 0.05723100155591965, -0.005912479478865862, -0.07928195595741272, 0.12280630320310593, 0.047773320227861404, 0.058722104877233505, 0.03191829100251198, -0.12410768121480942, 0.2001379281282425, 0.0165252685546875, 0.12986263632774353, 0.0638236254453659, 0.07315679639577866, 0.04631483927369118, 0.05872142314910889], [0.11624404042959213, 0.1226799413561821, 0.04320382699370384, 0.002043945947661996, -0.09163624048233032, 0.0367649644613266, 0.1790597289800644, -0.07547753304243088, -0.026147333905100822, -0.023773299530148506, -0.02400881238281727, 0.1480548232793808, 0.19359932839870453, -0.09798365831375122, -0.19949625432491302, 0.10417617857456207, 0.174157053232193, 0.050709277391433716, 0.024714646860957146, -0.12994039058685303, -0.06155333295464516, -0.06269322335720062, 0.02512846514582634, 0.19170121848583221, -0.07762200385332108, -0.008688833564519882, 0.19593237340450287, -0.1522715538740158, -0.0015753114130347967, 0.164587140083313], [-0.14327332377433777, 0.07301008701324463, -0.1520289033651352, 0.06146489083766937, -0.04622284322977066, -0.154423326253891, 0.0882505252957344, -0.15778999030590057, 0.1976032853126526, 0.021036598831415176, 0.06892737001180649, -0.10414567589759827, 0.19426925480365753, -0.0550772100687027, -0.14288946986198425, 0.0612914115190506, -0.016890695318579674, 0.04433547705411911, -0.04116639122366905, -0.047734420746564865, -0.06617378443479538, -0.12492968887090683, 0.07131548225879669, 0.22990599274635315, -0.23028776049613953, 0.08845427632331848, 0.06764226406812668, 0.09566796571016312, -0.0803259089589119, 0.16869789361953735], [0.13741052150726318, -0.14681905508041382, -0.07920447736978531, 0.12518587708473206, -0.03591952100396156, 0.17675486207008362, 0.13545359671115875, -0.02369319461286068, -0.12530583143234253, -0.032723333686590195, -0.09711120277643204, -0.12640495598316193, -0.15854492783546448, 0.17716562747955322, 0.18979260325431824, -0.000548137875739485, -0.0927748903632164, 0.1358414590358734, -0.03454223647713661, -0.16485747694969177, -0.09059937298297882, 0.15765385329723358, -0.04792817682027817, 0.0829044058918953, -0.12401701509952545, 0.18027707934379578, -0.04675102233886719, 0.1429622322320938, -0.1591348499059677, -0.08229552954435349], [-0.07315000891685486, 0.147014319896698, 0.11131647229194641, -0.057149238884449005, 0.04687761515378952, 0.1731352061033249, -0.008708781562745571, -0.148092120885849, -0.005954815074801445, -0.14357686042785645, -0.03260183334350586, 0.005645912606269121, -0.09951159358024597, 0.08133836835622787, -0.03438873589038849, 0.03427143767476082, -0.12486045062541962, -0.1327105313539505, -0.07491977512836456, 0.10115859657526016, 0.03119017742574215, 0.09757557511329651, 0.14041438698768616, -0.021232889965176582, 0.14413906633853912, 0.2064487636089325, -0.10530209541320801, 0.09361755102872849, -0.09967944025993347, 0.036295220255851746], [0.022637084126472473, 0.06055808439850807, 0.19482916593551636, 0.019935214892029762, 0.06806556135416031, -0.017906824126839638, 0.13960911333560944, 0.02071496658027172, 0.0016124109970405698, 0.10021774470806122, -0.0324932225048542, 0.09113053977489471, -0.12135203182697296, -0.07988329976797104, -0.12758146226406097, -0.11445482075214386, 0.18435591459274292, -0.1017335057258606, -0.018494000658392906, -0.06682088971138, 0.06054465100169182, -0.09252507984638214, 0.19497591257095337, -0.07574155181646347, 0.1396060436964035, 0.09388116002082825, 0.13306722044944763, -0.10436634719371796, 0.005070638842880726, 0.15408013761043549], [-0.13681066036224365, 0.08985774219036102, 0.11689455807209015, 0.0345914252102375, 0.1581888198852539, -0.07128480821847916, -0.05445500463247299, 0.03052789904177189, -0.06586259603500366, 0.11163219809532166, 0.02855709195137024, -0.031958892941474915, 0.18955621123313904, 0.044277653098106384, -0.12953300774097443, 0.02231384627521038, -0.07478147000074387, -0.07472135871648788, 0.200607031583786, -0.18516558408737183, 0.18810413777828217, 0.165048286318779, 0.1903320699930191, -0.1185934990644455, 0.1367698609828949, -0.03532043471932411, 0.123931385576725, 0.024020306766033173, 0.10252454876899719, -0.12390094995498657], [-0.08891593664884567, 0.0969606563448906, 0.05381796509027481, 0.08549284189939499, 0.05338740348815918, -0.006111410912126303, 0.08930022269487381, 0.2017459273338318, -0.06621094793081284, 0.11394910514354706, 0.16631761193275452, 0.14098045229911804, 0.07231203466653824, -0.182981476187706, 0.0763963833451271, -0.06242581829428673, 0.19275209307670593, -0.0996730849146843, 0.021792516112327576, -0.17197786271572113, 0.07733409851789474, -0.08250894397497177, 0.15129002928733826, -0.04268674552440643, -0.03826427459716797, 0.043256547302007675, 0.14102482795715332, 0.11877258867025375, -0.15330106019973755, 0.1203439012169838], [0.06395209580659866, 0.12529370188713074, 0.021915605291724205, 0.16192464530467987, -0.026706580072641373, -0.1616150587797165, -0.10438129305839539, -0.15390291810035706, 0.06139908358454704, 0.04757572337985039, -0.023599136620759964, -0.022430405020713806, 0.1621054857969284, -0.16315187513828278, -0.043096695095300674, -0.16742999851703644, -0.14473973214626312, 0.09663909673690796, 0.009415441192686558, 0.032399095594882965, -0.10662266612052917, -0.1101938858628273, 0.15433190762996674, 0.20455220341682434, -0.08282838761806488, 0.03751189261674881, -0.021954433992505074, 0.07921098917722702, -0.14171677827835083, 0.12720505893230438], [-0.1082802563905716, 0.17189380526542664, -0.009840895421802998, 0.06853975355625153, 0.09729086607694626, -0.05813734978437424, -0.03830372169613838, 0.03389459475874901, -0.10126570612192154, 0.15892869234085083, 0.05969015881419182, 0.15869911015033722, 0.061822060495615005, -0.010179140605032444, -0.057820748537778854, 0.07258208841085434, 0.10047247260808945, -0.11820930987596512, 0.1670410931110382, -0.10969424247741699, 0.1220075786113739, -0.015559244900941849, -0.01478230208158493, -0.019838156178593636, 0.042497146874666214, 0.04128999635577202, 0.20919719338417053, -0.12386039644479752, 0.05871717259287834, -0.16840524971485138], [0.15716667473316193, 0.07660506665706635, -0.07885190099477768, 0.016316812485456467, 0.13219603896141052, -0.004121704958379269, -0.01200299896299839, 0.0527941957116127, 0.02672754041850567, -0.05183975771069527, -0.1474425494670868, 0.021431149914860725, 0.1638534516096115, 0.06676671653985977, -0.051541268825531006, -0.13824588060379028, -0.09570075571537018, 0.04418889805674553, 0.12496490031480789, 0.07799941301345825, -0.16163323819637299, -0.15101593732833862, 0.09630773216485977, -0.07488774508237839, 0.10021486133337021, -0.15734876692295074, 0.19227160513401031, -0.09942933917045593, 0.07459644228219986, -0.02931036986410618], [-0.1695244163274765, 0.13529016077518463, -0.07221655547618866, 0.08267106860876083, 0.019155245274305344, 0.01264958642423153, 0.09314440190792084, -0.008813448250293732, 0.11267828196287155, 0.0612272173166275, -0.10532581061124802, 0.1315108984708786, -0.017236558720469475, -0.11995599418878555, 0.13076376914978027, -0.12170614302158356, -0.09833909571170807, -0.07543133199214935, 0.10868477076292038, 0.13582782447338104, -0.11248268187046051, 0.14037947356700897, -0.10188320279121399, 0.215516597032547, 0.0009409872000105679, 0.17299331724643707, -0.06096198037266731, -0.04944789782166481, 0.1538742035627365, 0.1555960774421692], [0.08477120846509933, 0.2572982907295227, 0.016236405819654465, -0.1258198767900467, -0.06268277019262314, -0.09409802407026291, -0.02738845907151699, -0.09284669160842896, -0.015797415748238564, 0.1563093513250351, 0.026616742834448814, 0.06935279071331024, 0.03273344039916992, -0.09352453052997589, -0.0025470207910984755, -0.1401645392179489, -0.09160958975553513, -0.08412451297044754, -0.12165142595767975, 0.07063258439302444, 0.01838482730090618, 0.1803954541683197, -0.15717363357543945, 0.2345121055841446, -0.07594896852970123, 0.2075432986021042, -0.02847185730934143, -0.059565220028162, -0.059929609298706055, -0.032239049673080444], [0.21408577263355255, 0.022344127297401428, -0.052216537296772, -0.08071757853031158, -0.12034264951944351, -0.05212356895208359, -0.09660710394382477, -0.09519707411527634, 0.16226139664649963, 0.12863090634346008, 0.0819709450006485, -0.141596257686615, 0.17694494128227234, 0.21124021708965302, 0.21989159286022186, -0.05172449350357056, 0.18591907620429993, 0.1782955825328827, -0.0602513924241066, 0.12458627671003342, -0.11395736038684845, -0.06428234279155731, 0.13511718809604645, -0.1150360256433487, 0.14538809657096863, 0.14512385427951813, -0.17761152982711792, -0.08576281368732452, -0.07803089916706085, -0.014768480323255062], [0.18852488696575165, -0.09498941898345947, 0.1396448314189911, -0.12336473912000656, 0.03297173231840134, 0.07815231382846832, -0.0631246268749237, 0.12934823334217072, 0.13263069093227386, -0.04508545994758606, -0.08237889409065247, -0.1246919333934784, 0.190286323428154, -0.16677717864513397, 0.08315333724021912, -0.02664009854197502, 0.058490436524152756, -0.04085974767804146, -0.005609703715890646, 0.0609290786087513, 0.06842396408319473, 0.013619495555758476, 0.1865893453359604, 0.14550073444843292, 0.08234574645757675, 0.18718905746936798, 0.07673158496618271, 0.15463361144065857, 0.16528728604316711, 0.060710832476615906], [0.12883968651294708, -0.17107827961444855, -0.19106325507164001, 0.03606113791465759, 0.13239550590515137, 0.19649869203567505, -0.11637376993894577, 0.001974447863176465, 0.17791436612606049, 0.054848071187734604, 0.19974568486213684, 0.19475045800209045, 0.028671376407146454, 0.04461653530597687, 0.12541478872299194, 0.03621895611286163, 0.14638075232505798, -0.07291807234287262, 0.23043666779994965, -0.10421150177717209, -0.09411732107400894, 0.015098411589860916, 0.12673735618591309, -0.06856250762939453, 0.05514981970191002, 0.10431461781263351, 0.22673754394054413, 0.1440669745206833, -0.03149653971195221, -0.17484430968761444], [0.09382940083742142, -0.15248100459575653, 0.18365412950515747, 0.08651082217693329, -0.1087687611579895, -0.007129888515919447, 0.21517743170261383, 0.21159571409225464, 0.20599375665187836, -0.13340024650096893, 0.1828634887933731, 0.16393500566482544, 0.055580444633960724, -0.10154853016138077, -0.07877760380506516, 0.14694537222385406, 0.12383778393268585, 0.03585948795080185, 0.09658210724592209, 0.20719961822032928, 0.13679002225399017, -0.1283903568983078, -0.13653211295604706, -0.11199275404214859, -0.15601325035095215, 0.09745295345783234, 0.0512823686003685, -0.11992301791906357, -0.03141357749700546, 0.14381712675094604], [0.008280780166387558, -0.03524192422628403, 0.07098603993654251, -0.10773099213838577, -0.18955518305301666, -0.13248762488365173, -0.12759749591350555, 0.1399291306734085, -0.08847154676914215, 0.010370125994086266, -0.04882017895579338, -0.0037115549203008413, -0.08098183572292328, 0.20535805821418762, -0.16066867113113403, -0.13745184242725372, 0.02193465456366539, 0.141387939453125, -0.06167185679078102, 0.09592614322900772, 0.051475051790475845, -0.1265765130519867, -0.13117341697216034, -0.05359206348657608, 0.13385066390037537, 0.18364255130290985, -0.016974331811070442, 0.0019227820448577404, 0.005129101220518351, 0.10129107534885406], [0.1695777028799057, 0.18215708434581757, 0.13922858238220215, -0.12998643517494202, 0.04833100736141205, -0.09049950540065765, -0.08896461129188538, 0.05525675788521767, -0.08887160569429398, -0.1174900010228157, -0.06767666339874268, -0.1432897299528122, 0.18187914788722992, -0.007169603835791349, 0.1253814995288849, 0.14444592595100403, 0.09547929465770721, 0.165376216173172, -0.12462665885686874, 0.17857906222343445, 0.013998744077980518, 0.18463072180747986, -0.14579473435878754, 0.012826397083699703, 0.013836024329066277, -0.07540018856525421, -0.1272806078195572, 0.10283808410167694, -0.15185505151748657, -0.15905967354774475], [-0.1380782425403595, 0.06563229858875275, -0.063444584608078, -0.04519549384713173, 0.08360875397920609, -0.02996295504271984, -0.03275446966290474, -0.15826824307441711, 0.12591256201267242, -0.11884667724370956, -0.1064235270023346, -0.004696778953075409, -0.15396414697170258, 0.10494700819253922, -0.1261102706193924, 0.11128073185682297, -0.1359080672264099, 0.16420891880989075, 0.2012067437171936, 0.06074778735637665, -0.02198021672666073, -0.14648038148880005, 0.14439286291599274, -0.003174633951857686, 0.11352397501468658, 0.13032430410385132, -0.05127551406621933, -0.08947858214378357, 0.051338598132133484, 0.05767332762479782], [0.19106416404247284, -0.11666399985551834, 0.10090591758489609, -0.07212895900011063, -0.19731777906417847, 0.19168762862682343, -0.003117881715297699, -0.08726706355810165, -0.12459567189216614, -0.004190347157418728, -0.008827824145555496, -0.1415400505065918, -0.0014924881979823112, 0.20400582253932953, -0.04391668736934662, -0.13431169092655182, 0.21338127553462982, 0.03599371761083603, -0.06350746750831604, -0.03791780769824982, -0.12240507453680038, 0.04431091248989105, -0.12553653120994568, -0.15284472703933716, 0.0873732790350914, 0.07756663113832474, -0.23494255542755127, 0.14501439034938812, -0.019434036687016487, 0.10553879290819168], [0.0837114006280899, 0.10426159203052521, 0.0835527628660202, -0.14565742015838623, 0.009243878535926342, 0.06343749910593033, -0.1276228278875351, 0.13721953332424164, 0.11527233570814133, -0.1182345300912857, 0.13790717720985413, -0.09655056148767471, -0.09174562990665436, -0.0873885527253151, 0.13595160841941833, 0.18321095407009125, -0.0514744333922863, 0.11030539870262146, 0.10890799015760422, -0.20573216676712036, 0.14312563836574554, -0.17918451130390167, 0.002867443487048149, -0.019076187163591385, 7.057000766508281e-05, -0.0032189665362238884, -0.03278147429227829, -0.1742863655090332, 0.09277431666851044, 0.11741121858358383], [0.2004862129688263, -0.17668423056602478, 0.14151149988174438, 0.18265531957149506, 0.03867694362998009, 0.1450788527727127, -0.09319192916154861, -0.18163040280342102, 0.08609627932310104, -0.17108817398548126, -0.07468421012163162, -0.05845807492733002, 0.17150932550430298, 0.04363029822707176, 0.03304152935743332, 0.10192344337701797, 0.03939157724380493, 0.14143995940685272, -0.11568514257669449, 0.09578247368335724, 0.07383836060762405, 0.08767467737197876, 0.1018289178609848, 0.020868981257081032, -0.09357253462076187, -0.009646475315093994, -0.04981306567788124, -0.16660699248313904, 0.00013731869694311172, 0.13554464280605316], [-0.004911770578473806, -0.1129174754023552, -0.14119958877563477, 0.08872905373573303, 0.04108038544654846, -0.1614593118429184, -0.03716646507382393, -0.060273751616477966, 0.015917841345071793, -0.1424563080072403, 0.11123392730951309, 0.0945318192243576, 0.12634705007076263, -0.13453194499015808, 0.13915841281414032, -0.14725643396377563, -0.08766499906778336, 0.09519602358341217, -0.18167267739772797, 0.06623957306146622, -0.1774374097585678, -0.16497507691383362, -0.09166628122329712, -0.10664763301610947, 0.07003408670425415, -0.03380192816257477, -0.07066512852907181, -0.008242963813245296, -0.025928055867552757, -0.07692671567201614], [0.011073143221437931, 0.16677974164485931, -0.10904163122177124, 0.03272620588541031, 0.028650643303990364, 0.1679808497428894, -0.03203292191028595, 0.2118901163339615, 0.054481539875268936, 0.09086912870407104, 0.08484666794538498, -0.14203277230262756, -0.010102972388267517, -0.16681353747844696, -0.0031902913469821215, 0.18532578647136688, 0.10463365167379379, -0.13773059844970703, 0.18579426407814026, -0.018992170691490173, 0.1291162520647049, 0.01542991679161787, -0.14503410458564758, 0.1467314064502716, 0.1575995236635208, 0.191046804189682, 0.1648571491241455, -0.06697667390108109, -0.09662627428770065, -0.058599844574928284], [-0.18890327215194702, 0.13660593330860138, -0.2298460751771927, 0.15166153013706207, 0.12874366343021393, -0.097788505256176, 0.009875492192804813, -0.10145185887813568, 0.050143856555223465, 0.06361275911331177, 0.026537753641605377, 0.03891512379050255, -0.036468781530857086, -0.019175974652171135, -0.07376598566770554, -0.07156861573457718, 0.11248085647821426, -0.021312402561306953, 0.07196223735809326, 0.04764692112803459, 0.053026698529720306, -0.14092157781124115, 0.09227018058300018, 0.24287238717079163, -0.026816535741090775, -0.1274542659521103, -0.12880031764507294, 0.14382019639015198, 0.17827783524990082, 0.08132737874984741], [0.15666797757148743, -0.027085114270448685, 0.03267005458474159, -0.15486885607242584, 0.08840423822402954, 0.07891437411308289, -0.1664692610502243, 0.0029333489947021008, -0.011704538948833942, 0.03911251202225685, -0.038193169981241226, -0.024948617443442345, -0.03101065568625927, -0.06907498836517334, -0.13411901891231537, 0.08953866362571716, -0.04495890811085701, 0.13146227598190308, 0.07667836546897888, 0.17783278226852417, -0.03317442536354065, -0.11265704035758972, 0.09569858014583588, 0.06202184408903122, 0.12422667443752289, 0.19023410975933075, -0.188914492726326, 0.10949724912643433, -0.07001582533121109, -0.07065476477146149], [-0.03675265237689018, 0.10031993687152863, -0.01596948318183422, 0.1746235489845276, -0.13465502858161926, 0.12400443106889725, 0.07985018938779831, -0.18041284382343292, -0.1657889485359192, 0.05347597226500511, 0.1408023089170456, -0.10464601218700409, 0.17191661894321442, -0.07515748590230942, 0.039755046367645264, -0.07982058823108673, 0.051061395555734634, -0.10610916465520859, 0.10938465595245361, -0.0027406595181673765, 0.032487545162439346, 0.15640562772750854, 0.09292777627706528, 0.15405744314193726, -0.04728039726614952, -0.09958413243293762, -0.20351949334144592, -0.06575441360473633, -0.01207442581653595, -0.0605938695371151], [-0.1572100967168808, -0.0707610622048378, 0.022535018622875214, -0.11719952523708344, 0.044147517532110214, 0.10339938849210739, 0.19552184641361237, -0.12249768525362015, 0.011165590025484562, 0.14806880056858063, 0.1217551901936531, 0.061368949711322784, 0.11576077342033386, 0.027135588228702545, -0.16216905415058136, 0.1535835862159729, -0.12290818244218826, -0.048203300684690475, 0.14103858172893524, 0.1699773520231247, -0.0635901466012001, -0.034847334027290344, -0.05095526948571205, 0.033804960548877716, 0.021104205399751663, -0.031365763396024704, -0.035908423364162445, -0.005402751732617617, 0.07796134799718857, 0.048141200095415115], [0.08324822038412094, 0.052603740245103836, -0.05161227285861969, -0.12534531950950623, 0.0069981785491108894, -0.003742746775969863, -0.012438273057341576, -0.1723209172487259, -0.13953280448913574, 0.04699142649769783, -0.10002601146697998, 0.17143778502941132, -0.16527603566646576, 0.1994604617357254, 0.02464049495756626, 0.15560929477214813, 0.03399370238184929, 0.12511208653450012, -0.17929093539714813, 0.19450213015079498, 0.06036010757088661, 0.15974849462509155, 0.01993291825056076, -0.03310215100646019, 0.018577873706817627, -0.17232100665569305, 0.0854794979095459, -0.15391217172145844, -0.08529911190271378, -0.018324000760912895], [-0.2015632688999176, 0.2142481654882431, 0.13654805719852448, 0.034006375819444656, -0.12213123589754105, -0.09338507056236267, 0.20151889324188232, -0.09345822781324387, 0.1562591791152954, 0.17363916337490082, -0.06224317103624344, -0.14671295881271362, -0.05134352296590805, 0.06538118422031403, 0.03294714167714119, -0.11778651922941208, -0.12062874436378479, -0.05353151261806488, -0.014415510930120945, 0.03897619992494583, 0.13974903523921967, 0.08204945921897888, -0.17289671301841736, 0.22862015664577484, 0.16941195726394653, 0.1289883404970169, 9.758896339917555e-05, -2.282555760757532e-05, 0.025070911273360252, 0.09076857566833496], [0.16714204847812653, -0.12779271602630615, -0.2817893624305725, 0.07131927460432053, -0.11751864105463028, -0.1716771423816681, 0.17014338076114655, -0.07235093414783478, 0.10542874038219452, 0.05374123901128769, -0.07069804519414902, 0.1515687108039856, 0.08947452157735825, 0.022804973646998405, -0.045705780386924744, -0.015882205218076706, -0.17340989410877228, 0.07193724066019058, 0.0016194047639146447, -0.17531995475292206, -0.09244304150342941, -0.034910015761852264, -0.10194241255521774, 0.06133946403861046, -0.2840511202812195, 0.048134129494428635, 0.14444325864315033, 0.13211330771446228, -0.038204170763492584, 0.052961546927690506], [-0.004727005958557129, -0.07706359028816223, -0.02107619307935238, -0.06450039148330688, -0.0919899195432663, -0.06546732783317566, 0.19926926493644714, 0.13029825687408447, 0.16829779744148254, 0.025584382936358452, 0.15313029289245605, -0.08415190130472183, -0.023493871092796326, -0.07720386236906052, -0.07942679524421692, -0.05554153397679329, 0.20843984186649323, -0.07840979099273682, -0.09479090571403503, 0.008324265480041504, 0.009368306025862694, 0.10376385599374771, -0.15253037214279175, 0.03253687173128128, -0.05143677070736885, -0.04768660292029381, 0.01815934106707573, 0.15791793167591095, 0.1771194040775299, 0.09839704632759094], [-0.007124702911823988, -0.019209809601306915, 0.06206566467881203, -0.12467391043901443, 0.13681447505950928, -0.1250365525484085, 0.08136976510286331, -0.11677167564630508, 0.18897618353366852, 0.1424998790025711, 0.04645341634750366, 0.188725546002388, -0.06934598833322525, -0.05929373949766159, -0.12529787421226501, -0.10174819827079773, -0.12454542517662048, 0.16014568507671356, -0.08888888359069824, 0.0044202362187206745, -0.08251266181468964, -0.054547134786844254, 0.09832623600959778, 0.0549066960811615, 0.08777564764022827, -0.025911737233400345, 0.16999678313732147, 0.14914944767951965, 0.02497408166527748, -0.06949228048324585], [-0.09018108248710632, -0.07863273471593857, 0.01778641901910305, 0.038735367357730865, 0.21747781336307526, 0.034713100641965866, 0.01257004588842392, 0.15838775038719177, 0.19428779184818268, -0.06932030618190765, 0.09853772819042206, 0.14744798839092255, 0.04496638476848602, -0.11713238060474396, 0.020264899358153343, -0.0815335363149643, -0.16581659018993378, 0.12069877237081528, -0.06775300204753876, -0.058733679354190826, -0.09483034163713455, -0.14115214347839355, 0.06527051329612732, 0.2141409069299698, 0.03388362377882004, 0.07410687953233719, -0.04339660331606865, 0.025868009775877, 0.025671405717730522, 0.03431534394621849], [-0.061131689697504044, 0.16181406378746033, 0.035552818328142166, -0.11577438563108444, -0.02296946942806244, -0.06660192459821701, 0.0060189031064510345, -0.0211871899664402, -0.06300940364599228, 0.00027357545332051814, 0.12493718415498734, -0.029895847663283348, -0.019698936492204666, 0.18528200685977936, 0.21251781284809113, 0.017696866765618324, -0.12533654272556305, -0.05826418474316597, -0.21950605511665344, 0.09464040398597717, -0.08757150918245316, 0.12219826877117157, -0.03229643404483795, 0.19954946637153625, 0.04033579304814339, -0.08543321490287781, 0.09830120205879211, 0.04100100323557854, -0.11182058602571487, 0.15854130685329437], [0.19553512334823608, 0.0705164447426796, 0.152083158493042, -0.14061084389686584, -0.1723986268043518, 0.07405158877372742, -0.008592714555561543, -0.08423794060945511, 0.1773279458284378, 0.042976170778274536, 0.13629303872585297, 0.1888868808746338, 0.17301258444786072, 0.1322050392627716, -0.14704401791095734, -0.12494181841611862, 0.1775924563407898, -0.08526574075222015, 0.18034479022026062, -0.017074093222618103, -0.13332466781139374, -0.12965969741344452, -0.18197235465049744, -0.03788703680038452, -0.12758658826351166, 0.06605520844459534, -0.1444171816110611, 0.004870499949902296, -0.16873282194137573, 0.117494598031044], [-0.015954380854964256, -0.11224595457315445, 0.007003255654126406, -0.005539705511182547, 0.038147687911987305, -0.02339114435017109, 0.11465682089328766, 0.02378261461853981, -0.17029599845409393, -0.1677323877811432, -0.023680059239268303, -0.0911547914147377, -0.1758311539888382, -0.023061657324433327, -0.022954395040869713, 0.10466493666172028, 0.15051215887069702, 0.15962623059749603, -0.1863056868314743, 0.004629849456250668, -0.04175850749015808, 0.17711609601974487, 0.005052447319030762, 0.05916692689061165, -0.05707915499806404, 0.1492099016904831, -0.09973087161779404, 0.06271447241306305, 0.11825455725193024, -0.13726621866226196], [0.017189504578709602, -0.10449671000242233, -0.0296291783452034, -0.09039018303155899, 0.1385892927646637, 0.11009866744279861, 0.055142175406217575, 0.11297249048948288, 0.16498158872127533, 0.0762958750128746, 0.11176250874996185, 0.10964407026767731, 0.16304512321949005, -0.09579416364431381, -0.1554661989212036, 0.03838654235005379, -0.06944850087165833, 0.1378105729818344, -0.02169385552406311, 0.07746104151010513, -0.08162909001111984, -0.02300635538995266, -0.06599897146224976, 0.061655737459659576, 0.04987318441271782, -0.09608182311058044, 0.06035781279206276, -0.0017565411981195211, -0.06229952722787857, -0.05725601688027382], [-0.15399828553199768, -0.14235740900039673, -0.12421973049640656, 0.1653480976819992, -0.09161337465047836, 0.13510990142822266, 0.12995660305023193, -0.030771896243095398, 0.02682976797223091, 0.003341058036312461, 0.045232005417346954, -0.04120490327477455, -0.024746505543589592, 0.00935381930321455, -0.15079815685749054, 0.013168211095035076, 0.10367441177368164, 0.13580992817878723, -0.09919480979442596, -0.07397665828466415, -0.07178692519664764, 0.09444129467010498, -0.12894079089164734, -0.04995081573724747, -0.06316293030977249, 0.04734937101602554, 0.1454477459192276, -0.0822446271777153, 0.12046579271554947, 0.07484468072652817], [-0.04812082275748253, 0.0007478942861780524, -0.06575426459312439, 0.0832882672548294, -0.0038871534634381533, -0.03479083627462387, 0.06899207085371017, -0.07265138626098633, -0.159755676984787, -0.13945099711418152, -0.10574844479560852, 0.09961864352226257, 0.1365479677915573, 0.03559720888733864, 0.0570085309445858, -0.017976699396967888, 0.1887374371290207, -0.1290324181318283, 0.08419310301542282, 0.15695002675056458, 0.13833455741405487, 0.08108490705490112, -0.15378615260124207, -0.049058567732572556, 0.2015356570482254, 0.030059929937124252, -0.10042469948530197, -0.07392466068267822, 0.1353502720594406, 0.1815754920244217], [0.00889650546014309, 0.17974120378494263, -0.19156906008720398, 0.16230185329914093, 0.06495018303394318, -0.0861644595861435, 0.06501483172178268, 0.1326935738325119, -0.021617865189909935, -0.037094902247190475, 0.1495896428823471, 0.010282100178301334, -0.06250368803739548, -0.009583331644535065, -0.07711263000965118, 0.16554777324199677, -0.0314144641160965, -0.13523919880390167, 0.00038057853817008436, 0.0885363519191742, -0.14641420543193817, 0.0782419964671135, -0.0016490061534568667, 0.08669698238372803, 0.04219765588641167, 0.17964592576026917, -0.12523241341114044, -0.15291713178157806, -0.08707215636968613, -0.14480015635490417], [0.1445925235748291, -0.1705213189125061, -0.09284700453281403, -0.019814644008874893, -0.00734045822173357, 0.18957966566085815, -0.13070164620876312, -0.12571293115615845, -0.14325161278247833, 0.1429152488708496, -0.02878415398299694, -0.029514141380786896, 0.10500498116016388, 0.0006764738354831934, -0.10166105628013611, 0.06633512675762177, 0.0744108185172081, 0.06751399487257004, 0.15751494467258453, 0.07608790695667267, 0.18228870630264282, -0.12429680675268173, 0.1256004273891449, 0.04173987731337547, 0.0719577893614769, 0.1297728717327118, -0.1347639262676239, -0.09463737905025482, 0.07145317643880844, 0.1555628478527069], [0.0449591763317585, -0.05731413513422012, -0.1472620815038681, -0.1767451912164688, -0.09430613368749619, 0.1441107541322708, -0.09226705133914948, -0.033486586064100266, 0.20975591242313385, 0.06221693381667137, 0.17515921592712402, 0.10966910421848297, 0.04752849414944649, 0.04499289020895958, -0.16861049830913544, 0.14503563940525055, 0.09058926999568939, 0.14540593326091766, 0.144666388630867, -0.08664842694997787, 0.07437954843044281, -0.09532612562179565, -0.03444633632898331, -0.05811507999897003, 0.10871601104736328, 0.11415103077888489, 0.17680011689662933, 0.20858065783977509, 0.09925299137830734, -0.04098430275917053], [0.07026489078998566, -0.030349036678671837, 0.09239009022712708, -0.15613284707069397, -0.05671823397278786, 0.06982274353504181, -0.01310616172850132, -0.1457001119852066, -0.0183493010699749, 0.08954577893018723, 0.03187449276447296, 0.11951259523630142, -0.14638304710388184, 0.13688473403453827, 0.2153552919626236, -0.026390990242362022, 0.0661175549030304, -0.09036324918270111, -0.06703915446996689, -0.09386452287435532, 0.13943149149417877, 0.1321716457605362, -0.04664650559425354, 0.10852695256471634, 0.11898113042116165, 0.10728131234645844, 0.04531035199761391, 0.055594079196453094, 0.0440160296857357, 0.1394984871149063], [-0.137711763381958, -0.10486965626478195, 0.07082152366638184, 0.008842652663588524, -0.1541002094745636, -0.03423940762877464, 1.529077962914016e-06, 0.03871225565671921, 0.1206471174955368, -0.05394653230905533, -0.1256609708070755, 0.17964358627796173, -0.06532679498195648, 0.2148527204990387, 0.12971888482570648, 0.0746949091553688, -0.0765373557806015, 0.16849932074546814, -0.1895095258951187, -0.09632323682308197, -0.010137795470654964, -0.061788856983184814, 0.03707859665155411, -0.1316155195236206, 0.1346236914396286, -0.05025052651762962, -0.06383761018514633, 0.13392673432826996, 0.10022994130849838, -0.08841247111558914], [-0.189325749874115, 0.11763874441385269, -0.13352294266223907, -0.032067082822322845, 0.1828654706478119, 0.004336062353104353, 0.16889949142932892, -0.018818702548742294, -0.018672674894332886, 0.12870970368385315, 0.1580485701560974, -0.04476995766162872, 0.13922031223773956, 0.048130206763744354, -0.061461497098207474, -0.09595895558595657, -0.11675245314836502, 0.18372240662574768, -0.07356711477041245, -0.10606246441602707, -0.029497671872377396, -0.14902062714099884, 0.005654613021761179, -0.06022201105952263, -0.014608665369451046, -0.05959725007414818, 0.046624183654785156, -0.13437901437282562, 0.12064268440008163, 0.06103947386145592], [0.22554069757461548, -0.1578187346458435, -0.026633312925696373, 0.21478043496608734, 0.1525363028049469, -0.09302418678998947, -0.002994339447468519, -0.023487111553549767, 0.1485603153705597, -0.11122511327266693, -0.08201790601015091, 0.06652575731277466, 0.09426671266555786, 0.23178628087043762, 0.0813017413020134, 0.08848978579044342, 0.1105620339512825, 0.18994155526161194, -0.0994148924946785, 0.11339395493268967, -0.019115636125206947, -0.13490091264247894, 0.15213315188884735, 0.18539787828922272, 0.039811599999666214, -0.12029106914997101, -0.22127871215343475, -0.08782742917537689, -0.1298433095216751, 0.16827543079853058], [-0.1434309184551239, -0.21388955414295197, 0.048161331564188004, -0.10830601304769516, 0.08358219265937805, -0.05194571614265442, 0.07346885651350021, 0.19067125022411346, 0.03127159923315048, 0.017568742856383324, -0.03021107241511345, 0.1758231669664383, 0.07800491899251938, -0.04102705046534538, -0.016605587676167488, -0.046486981213092804, 0.137418732047081, -0.15623809397220612, 0.0019654622301459312, -0.09657508879899979, 0.02552623674273491, 0.03673192113637924, -0.13927823305130005, -0.016728442162275314, 0.10812491923570633, 0.2095893919467926, -0.10284889489412308, 0.10860920697450638, -0.06314991414546967, -0.1621793806552887], [-0.17261233925819397, 0.16013503074645996, 0.1474718302488327, 0.09978020936250687, -0.07156220078468323, 0.12846852838993073, -0.04506285861134529, 0.07898405194282532, -0.06699486821889877, 0.009596100077033043, -0.006133729591965675, 0.13430169224739075, -0.11821632832288742, -0.21171829104423523, 0.17698565125465393, -0.1576509326696396, -0.07137329876422882, 0.1395224630832672, 0.09146679937839508, 0.10234246402978897, -0.022878160700201988, 0.02728419005870819, -0.0663018599152565, -0.10912292450666428, -0.12410810589790344, -0.13044077157974243, -0.028096124529838562, -0.03296393156051636, 0.1509074568748474, 0.039253413677215576], [-0.19094178080558777, 0.12024886161088943, 0.0753692016005516, -0.061111193150281906, -0.13878995180130005, 0.00507378252223134, 0.09508810192346573, 0.001565941027365625, 0.00968952663242817, -0.0039949482306838036, 0.135470449924469, -0.08397684246301651, 0.05830337107181549, -0.1859569102525711, 0.028246374800801277, 0.0840347483754158, -0.11113744229078293, -0.14062748849391937, 0.01808316446840763, 0.03639388084411621, 0.14132113754749298, 0.12492682784795761, 0.13262705504894257, -0.10846735537052155, -0.1086275652050972, 0.10583247989416122, -0.1316114366054535, -0.032441847026348114, 0.10373034328222275, 0.16847074031829834], [-0.12887850403785706, 0.0903078019618988, 0.08371709287166595, -0.06285085529088974, 0.10484108328819275, 0.036920592188835144, 0.14194320142269135, -0.09648016095161438, 0.022324301302433014, -0.0921945720911026, 0.12227211147546768, 0.13239772617816925, 0.11562874913215637, -0.05316600203514099, 0.15526354312896729, -0.07973048090934753, 0.07686682045459747, -0.049962662160396576, 0.09502153843641281, 0.06167678162455559, -0.14292272925376892, 0.16665063798427582, -0.11901578307151794, 0.13117089867591858, -0.1713225394487381, 0.12680615484714508, -0.19196373224258423, -0.12770171463489532, 0.13794156908988953, 0.1081070750951767], [-0.15332825481891632, 0.01736101694405079, 0.15722589194774628, -0.10723330825567245, -0.0670793354511261, 0.06097555533051491, -0.06821328401565552, 0.05631159618496895, -0.06331975758075714, -0.08570268750190735, 0.03554418683052063, 0.10492801666259766, 0.1385863870382309, 0.07843006402254105, 0.12991252541542053, 0.016213202849030495, 0.11647669970989227, 0.09366189688444138, -0.00364585779607296, 0.12563461065292358, 0.1859191656112671, 0.030421631410717964, 0.1790720820426941, -0.1860109120607376, 0.05878658965229988, 0.02789643406867981, 0.0782075971364975, 0.03517098352313042, -0.06878635287284851, 0.10557548701763153], [-0.10141967982053757, -0.11669953912496567, -0.05625880882143974, 0.03457144647836685, -0.03892287239432335, -0.1707139015197754, 0.1293463408946991, 0.07405799627304077, -0.053321924060583115, -0.03786145895719528, -0.13115210831165314, -0.10191258043050766, 0.0411134734749794, -0.02256828173995018, -0.002420347183942795, 0.08240532875061035, -0.09569408744573593, -0.07139852643013, -0.09434463828802109, 0.1662556529045105, 0.1617421656847, -0.11296912282705307, -0.16336284577846527, -0.06467850506305695, 0.009875441901385784, -0.059967007488012314, -0.17906835675239563, -0.10752125829458237, 0.010638484731316566, 0.08863810449838638], [0.035870879888534546, 0.01543755829334259, -0.17254072427749634, -0.10437417030334473, 0.1290607452392578, 0.19270339608192444, 0.08124397695064545, -0.11566170305013657, -0.03892279416322708, -0.031860604882240295, 0.07727456837892532, -0.12912388145923615, -0.03535299003124237, -0.09268100559711456, 0.10414135456085205, 0.04050368070602417, -0.02445686236023903, 0.2017214000225067, -0.09033992886543274, -0.029248159378767014, -0.10913076996803284, 0.03208744153380394, 0.011040118522942066, -0.06463807076215744, -0.003946858923882246, 0.16368325054645538, -0.17038536071777344, -0.0837855115532875, -0.08904358744621277, 0.055504992604255676], [0.0267094187438488, -0.07158226519823074, -0.03145141527056694, -0.13286440074443817, -0.04355090111494064, -0.07511886954307556, -0.1709718406200409, 0.08491304516792297, -0.019377315416932106, 0.12859368324279785, 0.18186789751052856, 0.05369731783866882, 0.007275817915797234, 0.13059395551681519, 0.11378735303878784, 0.14793680608272552, -0.18620845675468445, -0.11713321506977081, -0.01080650370568037, -0.015525009483098984, -0.08071418106555939, 0.1415499746799469, -0.10380641371011734, 0.14626899361610413, -0.16405434906482697, -0.15865476429462433, 0.17066311836242676, -0.05992232635617256, -0.11487735062837601, -0.13082744181156158], [0.010336549021303654, 0.01906502991914749, 0.08236976712942123, -0.1548624038696289, 0.05810432881116867, -0.0405438095331192, -0.14598259329795837, 0.034709978848695755, -0.07330507785081863, -0.12179430574178696, 0.17875587940216064, 0.011656450107693672, -0.13943766057491302, 0.16158533096313477, 0.2140640765428543, 0.13854828476905823, -0.10579770058393478, 0.027808351442217827, -0.09609955549240112, -0.1648245006799698, -0.08269064128398895, 0.05227723717689514, 0.11078103631734848, -0.13756027817726135, 0.16989177465438843, -0.05055580288171768, 0.04755907878279686, 0.07816986739635468, 0.13589350879192352, -0.1639040857553482], [0.1521243453025818, -0.05190674588084221, -0.2318231165409088, -0.03953494876623154, -0.1329527497291565, -0.1889965534210205, 0.162999227643013, -0.11529124528169632, 0.21797452867031097, 0.21902403235435486, -0.04602164030075073, 0.07681125402450562, -0.01486212108284235, -0.07926441729068756, -0.07659827172756195, -0.07415000349283218, 0.02798549085855484, -0.12186865508556366, -0.09720470756292343, 0.09119962155818939, 0.17691555619239807, 0.22418856620788574, 0.20642520487308502, 0.0879160612821579, -0.2506476044654846, -0.024123288691043854, -0.06988977640867233, -0.12624910473823547, -0.021095283329486847, -0.024631667882204056], [-0.08551499992609024, 0.2010679543018341, 0.036817751824855804, -0.11504004150629044, -0.07993537187576294, 0.04505858197808266, 0.062027059495449066, 0.11622533947229385, 0.08528662472963333, -0.03169247880578041, -0.11897563189268112, -0.11333015561103821, 0.038573771715164185, 0.2216481864452362, 0.15014179050922394, -0.015010988339781761, 0.04939689114689827, 0.013457286171615124, -0.07208668440580368, 0.17790760099887848, -0.1415734440088272, 0.14827482402324677, -0.024505143985152245, 0.07796696573495865, -0.056265030056238174, 0.20198726654052734, -0.1787523776292801, 0.09531714767217636, 0.18431617319583893, -0.17100030183792114], [-0.14953702688217163, 0.16696536540985107, 0.1385090947151184, -0.1446448117494583, 0.005740682128816843, -0.07880917936563492, 0.003075198270380497, 0.10950098931789398, -0.041456740349531174, 0.18838398158550262, 0.03509633243083954, 0.16601376235485077, 0.15019230544567108, -0.11339153349399567, -0.0388866551220417, -0.04247003048658371, 0.04392806813120842, 0.2110724151134491, 0.14878275990486145, 0.17212307453155518, -0.15225474536418915, -0.12035050988197327, -0.020183829590678215, -0.1440519243478775, -0.14103920757770538, -0.14861837029457092, 0.27430909872055054, 0.09571943432092667, -0.13888297975063324, 0.1762266606092453], [-0.010528032667934895, 0.11763758212327957, -0.09679028391838074, 0.0500330813229084, 0.11773385107517242, 0.18511205911636353, 0.1284342259168625, -0.12307770550251007, -0.12051428109407425, 0.07272015511989594, -0.07109738886356354, 0.023586133494973183, 0.12069500982761383, 0.20768588781356812, 0.09836048632860184, 0.15200284123420715, 0.149903804063797, -0.08075883984565735, 0.16680575907230377, 0.05351167544722557, 0.07961002737283707, -0.12470389157533646, 0.16826015710830688, 0.15923239290714264, -0.12878817319869995, 0.07831346243619919, -0.1265624612569809, 0.02250569500029087, 0.14642085134983063, -0.16840386390686035], [-0.008739469572901726, 0.1170429065823555, 0.16872715950012207, 0.06506913900375366, 0.14571519196033478, -0.054949987679719925, 0.06083187088370323, -0.0917172059416771, 0.08784618973731995, -0.02501085214316845, 0.0697726160287857, -0.08841358125209808, -0.0347636416554451, -0.12533310055732727, 0.087459035217762, -0.13955803215503693, 0.06958557665348053, 0.07144308090209961, -0.12672372162342072, 0.014494417235255241, 0.07164137065410614, 0.1596306711435318, 0.07643303275108337, 0.027610523626208305, 0.03901509940624237, 0.1809891015291214, 0.2642938792705536, -0.0994379073381424, 0.03305365890264511, 0.17028237879276276], [-0.05592368543148041, 0.07906480878591537, 0.12251020967960358, 0.14723017811775208, -0.09363558888435364, -0.08935808390378952, -0.1198752224445343, 0.20535612106323242, 0.038805391639471054, -0.011210518889129162, 0.09065067768096924, 0.1554291546344757, 0.07614213973283768, -0.02337384782731533, -0.01813787780702114, 0.1692090481519699, 0.015028000809252262, 0.06985227018594742, 0.20446252822875977, -0.03395916521549225, 0.03813721612095833, -0.1578371375799179, -0.14194093644618988, 0.1620030701160431, -0.07842705398797989, 0.06623336672782898, 0.0706247016787529, -0.10064705461263657, 0.10540325939655304, -0.1571136713027954], [-0.20244938135147095, -0.08940795063972473, -0.035634011030197144, 0.13336335122585297, 0.17023789882659912, 0.15334516763687134, 0.1361575871706009, -0.15217310190200806, 0.1149505153298378, 0.07538824528455734, 0.17181512713432312, 0.008646678179502487, 0.03119867667555809, -0.013343905098736286, -0.11291198432445526, -0.03576932102441788, -0.06112748384475708, -0.09661798179149628, -0.09231089055538177, 0.05606706067919731, 0.08211004734039307, -0.1543145328760147, -0.07384631782770157, 0.14605551958084106, -0.20362231135368347, -0.0837799608707428, 0.014463738538324833, 0.08823728561401367, -0.09807537496089935, 0.0025097776670008898], [-0.06734901666641235, 0.034245576709508896, -0.09430062770843506, -0.04610186070203781, 0.1457376927137375, -0.016208071261644363, 0.14066161215305328, 0.025485165417194366, 0.17873603105545044, -0.041480716317892075, -0.10074608027935028, 0.17404396831989288, 0.020657407119870186, 0.14483442902565002, 0.1583775132894516, 0.007403024006634951, -0.14177891612052917, -0.06933794170618057, -0.1576443463563919, 0.14074058830738068, 0.09188687801361084, -0.01898290030658245, -0.05149467661976814, 0.02105652540922165, 0.18580956757068634, 0.05708413943648338, 0.020263060927391052, 0.09042668342590332, 0.03905906900763512, -0.00196535955183208], [-0.07874800264835358, 0.12906257808208466, 0.149455726146698, 0.19270366430282593, -0.06405927985906601, -0.06329035758972168, -0.0800328478217125, -0.05324283987283707, -0.06397517025470734, -0.1415334939956665, -0.1336018443107605, 0.18976394832134247, -0.15588657557964325, 0.14819303154945374, 0.05510912463068962, 0.13639959692955017, -0.07887815684080124, 0.16856782138347626, 0.139307901263237, 0.1670307219028473, -0.01728314347565174, -0.12580101191997528, 0.07229791581630707, 0.004201910924166441, 0.22016137838363647, 0.06030097231268883, 0.07195430248975754, -0.047963760793209076, -0.03136536851525307, 0.16364739835262299], [-0.07298800349235535, -0.16768646240234375, -0.08382875472307205, 0.16131499409675598, 0.10827314108610153, -0.018400439992547035, 0.14408372342586517, -0.12035014480352402, 0.09160187840461731, -0.1300131231546402, 0.014510317705571651, -0.05881115049123764, -0.07901785522699356, 0.16070325672626495, -0.16509366035461426, 0.06456121057271957, -0.11627216637134552, -0.07424922287464142, 0.097177654504776, 0.061299704015254974, 0.07580309361219406, 0.1403740644454956, 0.15048407018184662, -0.11078253388404846, 0.03564075008034706, -0.025076474994421005, -0.04807800427079201, -0.06541067361831665, -0.13664312660694122, -0.14443905651569366], [-0.23001998662948608, -0.08674211800098419, 0.244992196559906, -0.04686303436756134, 0.12900206446647644, -0.05493425205349922, -0.010346212424337864, 0.10441036522388458, 0.08699682354927063, 0.09988215565681458, 0.12011190503835678, -0.009228323586285114, 0.05810979753732681, -0.011931405402719975, -0.012470908463001251, 0.19571711122989655, -0.058202389627695084, -0.15856938064098358, -0.16636046767234802, -0.1394844353199005, -0.1418331116437912, 0.10293679684400558, -0.17530277371406555, -0.016992975026369095, 0.19743205606937408, -0.10428577661514282, 0.010092660784721375, -0.1399909406900406, -0.04447668045759201, -0.152720108628273], [-0.03949115425348282, -0.0094820661470294, 0.060562923550605774, -0.15035486221313477, -0.07521481812000275, 0.06853442639112473, -0.10424929857254028, 0.01077211182564497, 0.0870637446641922, 0.07884784787893295, 0.059096235781908035, -0.07992143929004669, -0.08364391326904297, 0.08897137641906738, 0.04949207603931427, 0.16498932242393494, -0.008034823462367058, 0.048028796911239624, 0.1945439577102661, 0.13596758246421814, 0.021985450759530067, 0.11609720438718796, -0.18119530379772186, 0.016865214332938194, -0.1143302470445633, 0.09643182903528214, 0.06944619119167328, 0.12024445831775665, 0.06611640751361847, 0.15880845487117767], [0.02082643285393715, -0.13979880511760712, -0.0017579311970621347, 0.05121219530701637, 0.12995624542236328, -0.04315924271941185, 0.039914101362228394, 0.2099897712469101, 0.05572870746254921, 0.1038624718785286, -0.1286773383617401, 0.15753261744976044, -0.12394212931394577, -0.1024886891245842, -0.0363854318857193, 0.15946422517299652, -0.05734265223145485, 0.03229976445436478, 0.12346432358026505, 0.1872910112142563, -0.09962908923625946, 0.1117403581738472, -0.09155476093292236, -0.1622413545846939, -0.03665630519390106, -0.062192827463150024, 0.044568825513124466, -0.11053590476512909, 0.12203651666641235, 0.17799648642539978], [0.07724890112876892, -0.11446642875671387, 0.1853044480085373, -0.04281364753842354, -0.012077594175934792, 0.05902931094169617, -0.15782923996448517, -0.08530465513467789, -0.09948772937059402, 0.13578949868679047, 0.12640628218650818, -0.04109909385442734, -0.03642096370458603, 0.02652605064213276, 0.10989870876073837, -0.11934271454811096, 0.08889969438314438, -0.025983136147260666, -0.0011608966160565615, 0.13854944705963135, 0.17326299846172333, -0.12651729583740234, 0.10566478222608566, -0.0027379838284105062, -0.14596551656723022, -0.010314665734767914, -0.19508583843708038, 0.08744839578866959, 0.12064307928085327, -0.047769222408533096], [0.04657319560647011, 0.022128701210021973, 0.0623956173658371, 0.135917529463768, 0.10561434924602509, -0.06618461012840271, -0.1742268055677414, -0.16952718794345856, -0.08248801529407501, -0.021222973242402077, 0.0868133008480072, 0.18278247117996216, 0.15420366823673248, -0.014366652816534042, 0.15028847754001617, 0.026140181347727776, -0.15536656975746155, -0.12544600665569305, -0.1800551861524582, -0.06397984176874161, -0.10854052007198334, 0.13914068043231964, -0.03901044279336929, -0.13260740041732788, 0.08698733896017075, 0.05217548459768295, -0.10204558819532394, 0.09567663073539734, 0.18012630939483643, 0.0977911427617073], [-0.06346524506807327, -0.05739293619990349, 0.07997480034828186, -0.11047898232936859, 0.2184511125087738, 0.1451173573732376, 0.15175782144069672, 0.12890419363975525, 0.20306746661663055, -0.15288910269737244, -0.0987941101193428, -0.1364109218120575, 0.2052503526210785, -0.1755170077085495, -0.12311279028654099, 0.11046607047319412, 0.017857728525996208, 0.19032828509807587, -0.11334577202796936, 0.16342554986476898, 0.029470035806298256, 0.06915336102247238, -0.03540503606200218, -0.03718637675046921, -0.005937091540545225, 0.19275617599487305, 0.20769506692886353, -0.13046970963478088, -0.04738017916679382, -0.176206573843956], [-0.08592122048139572, 0.0870569720864296, -0.09114599972963333, -0.09582743048667908, 0.20057928562164307, -0.126993790268898, 0.09833885729312897, -0.08461874723434448, -0.1206541433930397, 0.006375366821885109, 0.1020217090845108, 0.08278078585863113, -0.14495830237865448, -0.01361167524009943, -0.012379723601043224, -0.048883870244026184, 0.021021729335188866, -0.13252511620521545, -0.17220033705234528, -0.13159197568893433, 0.116333968937397, 0.08835712820291519, 0.07707412540912628, -0.1574384570121765, 0.2278948277235031, 0.18815281987190247, -0.003811061382293701, -0.11566184461116791, -0.06695149838924408, -0.004175396170467138], [-0.0542183592915535, -0.09185423702001572, -0.018491357564926147, 0.16531284153461456, 0.029389725998044014, -0.016783561557531357, 0.17964403331279755, 0.04747423529624939, -0.01829078607261181, 0.18853244185447693, 0.09201967716217041, 0.16165852546691895, 0.10996396094560623, -0.037595175206661224, 0.023718658834695816, -0.10641999542713165, -0.014046444557607174, -0.044003985822200775, -0.0679120421409607, -0.08056870847940445, 0.13603490591049194, -0.03883979097008705, -0.05401018634438515, -0.08746004849672318, -0.03378629311919212, -0.026079967617988586, 0.21649128198623657, -0.016575535759329796, -0.08763949573040009, -0.08575306832790375], [-0.08990947157144547, 0.02341204695403576, 0.03667560592293739, 0.01950574293732643, -0.05528131127357483, 0.0018594656139612198, 0.019030602648854256, -0.08052722364664078, -0.16678974032402039, -0.007363846059888601, 0.0018146842485293746, -0.014078261330723763, 0.006970984861254692, 0.20751816034317017, 0.023164013400673866, -0.1562623530626297, -0.15747106075286865, 0.026360509917140007, -0.19161325693130493, -0.0723181888461113, -0.004341698717325926, 0.008673613891005516, -0.057994864881038666, -0.008877203799784184, -0.08340764790773392, 0.09539417922496796, 0.11564894765615463, -0.011357144452631474, -0.11439698934555054, -0.18076176941394806], [-0.1165381371974945, 0.10230579227209091, 0.07903983443975449, -0.1304808109998703, 0.08143213391304016, -0.03670642152428627, -0.0171838216483593, 0.05054810270667076, -0.04781145602464676, 0.05590901896357536, 0.022222056984901428, -0.013579107820987701, 0.005622358061373234, 0.16027116775512695, -0.1733909249305725, 0.08273676037788391, 0.060933951288461685, 0.15793079137802124, -0.011895284987986088, -0.11275163292884827, -0.10623415559530258, -0.08548589050769806, 0.06405463069677353, -0.09267958253622055, -0.16802313923835754, 0.11635755002498627, 0.21466295421123505, 0.2062171846628189, 0.08556731790304184, 0.04748145118355751], [-0.006613601464778185, 0.036266762763261795, -0.13785406947135925, 0.1271783858537674, -0.08951618522405624, -0.18493542075157166, -0.00568920373916626, 0.12792596220970154, 0.012274849228560925, 0.12254523485898972, 0.17515355348587036, 0.053643882274627686, -0.09293250739574432, 0.032354533672332764, 0.04645129293203354, 0.10964038223028183, 0.10245069861412048, -0.020800866186618805, -0.175276517868042, -0.10848205536603928, -0.04956983029842377, 0.11623410135507584, -0.19588318467140198, 0.08287414908409119, -0.22646509110927582, -0.13447900116443634, -0.168856680393219, -0.03598898649215698, 0.09088195115327835, -0.11811750382184982], [0.07797746360301971, -0.04568786174058914, 0.11149633675813675, 0.11253911256790161, -0.07032214850187302, 0.07887465506792068, -0.11630843579769135, -0.18496312201023102, 0.011404948309063911, -0.13344915211200714, 0.08450933545827866, -0.10838641971349716, 0.09973890334367752, -0.06821414083242416, -0.013200121000409126, 0.14066766202449799, -0.029702939093112946, -0.07718891650438309, 0.15835022926330566, 0.15322859585285187, 0.1666761040687561, -0.04827653989195824, -0.0002680573670659214, 0.04578378051519394, 0.19609875977039337, 0.11009567230939865, -0.23562800884246826, 0.0991443544626236, -0.10414991527795792, -0.10833603888750076], [0.14786399900913239, 0.19287002086639404, 0.054515235126018524, -0.0469890795648098, 0.013806060887873173, -0.02575192227959633, -0.055680032819509506, 0.13814744353294373, 0.1964571624994278, 0.01930985227227211, -0.04011526331305504, -0.07430979609489441, 0.1565599888563156, 0.13820341229438782, -0.17137566208839417, 0.08757605403661728, 0.18267983198165894, -0.019038867205381393, 0.1415289044380188, -0.17588083446025848, -0.1314183622598648, -0.0843953862786293, -0.07937851548194885, -0.07837500423192978, -0.016317280009388924, 0.039836470037698746, 0.26108959317207336, -0.01280832476913929, -0.06298714131116867, 0.07163271307945251], [-0.17457649111747742, 0.11389635503292084, 0.13984395563602448, 0.13450774550437927, 0.01522404421120882, 0.1742187738418579, 0.17006704211235046, -0.04065340757369995, 0.15279145538806915, 0.03739941492676735, 0.07955439388751984, -0.14534702897071838, 0.12000424414873123, -0.056606460362672806, 0.15525029599666595, -0.05663016811013222, 0.032606083899736404, 0.06883630901575089, 0.2049095630645752, -0.06448908895254135, 0.1647787094116211, -0.03644837066531181, 0.15691962838172913, -0.03380708768963814, 0.011283558793365955, -0.1051831915974617, 0.04889130964875221, 0.07462228089570999, -0.08842833340167999, 0.04237420856952667], [-0.15856818854808807, -0.09156179428100586, 0.046185363084077835, -0.04590107500553131, -0.07063380628824234, 0.13744841516017914, -0.05020162835717201, 0.10136387497186661, 0.21164685487747192, -0.015394258312880993, -0.02895096130669117, 0.16948974132537842, 0.01631336286664009, -0.02841641753911972, -0.15398789942264557, -0.10836717486381531, -0.07335523515939713, 0.05153771489858627, 0.22556346654891968, -0.04111386463046074, 0.17171543836593628, 0.03377259522676468, 0.1742536872625351, -0.07090391218662262, 0.07815229147672653, -0.07455185800790787, 0.20511271059513092, -0.14543470740318298, 0.0841454565525055, -0.14271549880504608], [0.07443158328533173, 0.13035868108272552, -0.00808245874941349, -0.06339173763990402, -0.07362242788076401, 0.13930897414684296, 0.045238249003887177, 0.11477777361869812, 0.03535831347107887, 0.08083885163068771, -0.13819776475429535, -0.032634709030389786, -0.0477198027074337, 0.1260603815317154, 0.13324718177318573, -0.12190430611371994, 0.15074403584003448, 0.19194863736629486, -0.058320432901382446, 0.03517071157693863, 0.03395961970090866, -0.004206942860037088, -0.14907734096050262, 0.18478858470916748, -0.026648540049791336, 0.11126047372817993, -0.22280438244342804, 0.07484062761068344, 0.1768166571855545, -0.07990532368421555], [0.04043477401137352, -0.09813963621854782, -0.10723903030157089, 0.14456917345523834, 0.12847396731376648, -0.15026141703128815, 0.07054051011800766, -0.09214635193347931, 0.024895699694752693, 0.005457052029669285, -0.04962727054953575, -0.13797371089458466, -0.1372680962085724, -0.10007299482822418, -0.06886672228574753, 0.12540169060230255, 0.1145331859588623, 0.1380835622549057, 0.13982713222503662, 0.14491353929042816, 0.17662350833415985, -0.0382193960249424, 0.028079494833946228, 0.03927729278802872, 0.1530710607767105, 0.05165794491767883, 0.0978531762957573, -0.06052469462156296, -0.0243782177567482, 0.12197448313236237], [-0.1511767953634262, -0.13159094750881195, -0.010279354639351368, 0.04949169233441353, -0.11015325784683228, -0.020013222470879555, -0.14315252006053925, 0.0019698592368513346, -0.09876924753189087, 0.06301301717758179, 0.1367572844028473, -0.0029472429305315018, -0.09154049307107925, -0.14762447774410248, 0.1378059834241867, -0.050747472792863846, 0.17344114184379578, 0.12694348394870758, 0.2163657695055008, 0.03606363758444786, 0.017625244334340096, 0.06831281632184982, -0.09981483221054077, -0.04795745760202408, -0.1319122314453125, -0.08470232039690018, 0.11491499841213226, 0.08386538922786713, 0.16985169053077698, 0.009669331833720207], [0.15073350071907043, -0.15767474472522736, 0.026724794879555702, -0.04605516418814659, 0.08334782719612122, 0.17316344380378723, 0.06521379202604294, -0.1395331472158432, -0.06927675008773804, -0.05454133450984955, 0.029718860983848572, -0.06498266011476517, -0.005455062258988619, 0.2192855030298233, 0.12580418586730957, -0.04699687287211418, 0.029995327815413475, -0.12308654934167862, -0.1590423732995987, 0.06355471909046173, 0.20867463946342468, 0.13709624111652374, -0.11144492030143738, -0.10647910833358765, -0.17493662238121033, 0.09582804143428802, -0.14151351153850555, 0.11333923041820526, -0.10846885293722153, -0.04686960577964783], [0.10725795477628708, 0.15841123461723328, 0.1140858456492424, 0.02725950814783573, -0.12065567821264267, -0.06882046908140182, 0.18731074035167694, 0.10011570155620575, 0.04502508416771889, -0.09130976349115372, 0.08863938599824905, 0.02912907302379608, 0.09131409972906113, -0.067973792552948, -0.2045581191778183, 0.07024708390235901, 0.10843642801046371, 0.1890261471271515, 0.029473738744854927, -0.1422962248325348, -0.07421513646841049, -0.13230334222316742, 0.04878109320998192, 0.13209199905395508, 0.026600297540426254, 0.0672946497797966, 0.1945156753063202, -0.14626720547676086, 0.17886577546596527, -0.16847415268421173], [-0.06515739858150482, 0.11368606239557266, 0.024343173950910568, -0.032003551721572876, 0.12254247814416885, 0.05397852882742882, 0.0021204755175858736, -0.07390652596950531, 0.038034938275814056, 0.0680130124092102, -0.16097991168498993, -0.005551767535507679, 0.198253333568573, 0.06776981055736542, 0.06527207046747208, -0.12670175731182098, 0.083110012114048, 0.10326234251260757, 0.18465134501457214, -0.12732835114002228, -0.057412371039390564, -0.08318469673395157, 0.08707677572965622, -0.16616886854171753, 0.18988315761089325, 0.0882122740149498, 0.1271018236875534, -0.048499248921871185, 0.12928719818592072, -0.05799942836165428], [0.1132434606552124, 0.08778021484613419, 0.046584103256464005, 0.12706930935382843, 0.028553418815135956, -0.015567430295050144, 0.09837274998426437, -0.057960789650678635, -0.12513622641563416, -0.08875191956758499, 0.14236405491828918, 0.18049809336662292, -0.06139054894447327, 0.03275535628199577, 0.010417153127491474, -0.01682380400598049, 0.10600098967552185, -0.13814660906791687, 0.20618842542171478, 0.09481577575206757, 0.053095731884241104, -0.138265460729599, 0.1297612488269806, 0.07349050045013428, 0.05222398415207863, -0.12712179124355316, 0.19136051833629608, -0.1016087681055069, -0.015504528768360615, 0.04640907049179077], [-0.02618667297065258, 0.04798996075987816, 0.09219381958246231, -0.11971621960401535, -0.005753014236688614, 0.1146712526679039, 0.2043900191783905, -0.11317785084247589, 0.06159591302275658, 0.15414360165596008, -0.13120755553245544, -0.06712567061185837, -0.15412582457065582, 0.10168765485286713, -0.001631455379538238, -0.12189183384180069, 0.10697289556264877, -0.03639063984155655, 0.23196662962436676, -0.1637767106294632, -0.14049047231674194, -0.09079085290431976, 0.16649053990840912, -0.16101780533790588, 0.1560361683368683, 0.09886105358600616, 0.15226571261882782, 0.04094414412975311, 0.07699482142925262, 0.14956122636795044], [-0.10444170236587524, 0.032863546162843704, -0.12797382473945618, -0.20269767940044403, -0.11533033102750778, -0.06741686910390854, -0.08057508617639542, 0.09763864427804947, 0.021527834236621857, 0.025367198511958122, 0.15977323055267334, 0.1882251501083374, 0.13256847858428955, 0.043162181973457336, 0.11856846511363983, -0.05539247766137123, -0.004433297086507082, -0.086868055164814, 0.18125280737876892, -0.03745686262845993, -0.14014756679534912, -0.1279703974723816, 0.06712814420461655, -0.13562464714050293, 0.10767614841461182, 0.07058145850896835, 0.10968286544084549, -0.04105725884437561, 0.08528441935777664, -0.1306062489748001], [-0.01870376244187355, 0.20424948632717133, -0.0453842394053936, -0.1176922619342804, 0.089996337890625, -0.1416696161031723, -0.11256294697523117, -0.09863153845071793, 0.17276443541049957, -0.05503015220165253, 0.0969921201467514, -0.044126830995082855, -0.009548157453536987, -0.06105527654290199, -0.1081928163766861, -0.012872058898210526, 0.03388514742255211, -0.07853204756975174, 0.1683811992406845, -0.10594797879457474, -0.11587438732385635, 0.07086770236492157, -0.1756422370672226, -0.062224749475717545, -0.18318898975849152, 0.1688314974308014, 0.16431614756584167, 0.06865978986024857, 0.1062600240111351, 0.08691788464784622], [-0.01102791354060173, -0.09379993379116058, 0.13421617448329926, -0.19015255570411682, 0.11976388841867447, 0.05337328836321831, -0.08305249363183975, 0.13613636791706085, 0.11409822106361389, 0.0256660096347332, 0.08593529462814331, 0.1622224599123001, -0.0720188245177269, -0.03744145482778549, 0.0960865393280983, 0.0857263132929802, 0.06975296139717102, 0.02551415003836155, -0.06565343588590622, 0.13708895444869995, -0.17294497787952423, 0.035463497042655945, -0.11571753770112991, 0.08718948066234589, -0.08473274856805801, -0.13923031091690063, 0.18827489018440247, 0.1659441888332367, -0.06839404255151749, -0.021886223927140236], [-0.06132115051150322, 0.18321579694747925, -0.16735707223415375, 0.13788004219532013, 0.1702655851840973, -0.11550979316234589, -0.02783430553972721, 0.08333930373191833, 0.17593525350093842, 0.014423091895878315, 0.09624801576137543, 0.17145764827728271, 0.0433051772415638, 0.13234621286392212, 0.009592428803443909, -0.125054731965065, -0.17467792332172394, -0.06300369650125504, 0.13899336755275726, 0.11819227039813995, -0.09822036325931549, 0.019178377464413643, -0.025529202073812485, 0.033363666385412216, -0.17874564230442047, -0.0968800038099289, -0.0559111125767231, 0.15609553456306458, 0.06423995643854141, 0.14324809610843658], [-0.19600920379161835, -0.029478909447789192, -0.21577520668506622, -0.16466957330703735, -0.12142960727214813, 0.16394351422786713, 0.13083036243915558, -0.08845476806163788, 0.12644562125205994, 0.16521932184696198, 0.14313896000385284, -0.044647037982940674, 0.0969255268573761, -0.14576296508312225, 0.07632240653038025, 0.17246483266353607, 0.09753313660621643, 0.08469587564468384, 0.11958011239767075, -0.13804420828819275, -0.16098535060882568, 0.12057404220104218, -0.04236406087875366, 0.15627336502075195, -0.041865505278110504, 0.09290394186973572, -0.15363174676895142, 0.07578014582395554, 0.029320165514945984, 0.018680503591895103], [-0.14614048600196838, -0.09033586084842682, -0.03702950105071068, -0.14183863997459412, -0.011339068412780762, 0.20088012516498566, -0.0825861468911171, -0.17018213868141174, -0.033203039318323135, 0.13220928609371185, -0.15243016183376312, -0.14596126973628998, -0.0665566548705101, -0.05846269056200981, 0.13869519531726837, -0.06357336789369583, 0.10015885531902313, 0.15988385677337646, -0.12656241655349731, -0.12870261073112488, -0.10364808887243271, 0.09682352095842361, 0.18734167516231537, 0.003673757193610072, 0.016356924548745155, 0.037966903299093246, -0.1480119377374649, 0.006243273615837097, -0.09666571766138077, -0.04055014252662659], [-0.07375583052635193, 0.03931843489408493, 0.19615550339221954, 0.135502889752388, 0.17023272812366486, -0.06911595910787582, 0.00876497570425272, -0.05544234439730644, -0.07730110734701157, -0.028202632442116737, -0.018616655841469765, -0.030237531289458275, 0.11069181561470032, 0.21297740936279297, 0.19600872695446014, -0.11964470148086548, -0.018298041075468063, 0.19355283677577972, -0.03986099362373352, -0.13178908824920654, 0.10641242563724518, -0.08394352346658707, 0.08001545071601868, 0.10097954422235489, 0.08093969523906708, -0.11541106551885605, -0.019105376675724983, 0.1975410133600235, 0.13357923924922943, 0.0663812980055809], [0.07208779454231262, -0.1269969642162323, 0.125627800822258, 0.047527462244033813, 0.20246680080890656, 0.047104597091674805, 0.04873404651880264, 0.0863116905093193, 0.1827772855758667, 0.028385063633322716, 0.14113560318946838, 0.19878420233726501, -0.03419441357254982, 0.06621597707271576, -0.18483111262321472, 0.11690022796392441, 0.1900983452796936, 0.05461528152227402, 0.02179906889796257, -0.14340859651565552, -0.14428405463695526, -0.15083502233028412, -0.061075951904058456, 0.1388269066810608, 0.16628126800060272, -0.02757083810865879, 0.17925316095352173, -0.02763303741812706, -0.02049263007938862, 0.1241074949502945], [0.1006544977426529, 0.05108648166060448, -0.05841977894306183, -0.11408822983503342, -0.09185601025819778, 0.15613354742527008, 0.1148238331079483, -0.0030357844661921263, -0.09345675259828568, -0.10221993178129196, -0.05138741061091423, 0.07600532472133636, -0.11844825744628906, -0.19105520844459534, 0.2237396538257599, -0.139752596616745, -0.00035223551094532013, 0.1055149957537651, -0.13895827531814575, -0.08481735736131668, -0.045365892350673676, -0.13846363127231598, -0.10285601764917374, 0.13964910805225372, -0.09763237833976746, -0.12119466811418533, 0.004033186472952366, 0.17190423607826233, -0.03092956356704235, -0.024813292548060417], [-0.17449958622455597, 0.023651115596294403, -0.21902425587177277, 