{"metadata": {"algorithm": "reinforce_gpu_self_play", "num_players": 2, "game": "imposter_zero_match", "game_version": "3.0-match", "input_size": 43, "hidden_size": 256, "num_layers": 3, "output_size": 36, "abstract_actions": ["L", "M", "H", "D", "LL", "LH", "HH", "K0", "K1", "K2", "SK_C", "SK_T", "EM", "BR", "RC_P", "RC_N", "DS0", "DS1", "DS2", "DS3", "DS4", "DS5", "DS6", "DS7", "DS8", "DO_F", "DO_S", "DP0", "DP1", "DP2", "DP3", "DP4", "DP5", "DP6", "DP7", "DP8"], "episodes": 60096, "win_rate_vs_random": 0.915, "exported_at": "2026-03-11T15:26:32Z"}, "weights": {"w1": [[0.7176072001457214, -0.7647068500518799, 0.04855911433696747, -0.5966892838478088, 0.5948801636695862, 0.2600458860397339, -0.12969328463077545, -0.3126962184906006, -0.4328654110431671, -0.29654228687286377, 0.19255058467388153, -0.043004900217056274, 0.008449172601103783, -0.23177163302898407, -0.170640230178833, 0.038943100720644, 0.21713480353355408, 0.14783941209316254, 0.4680432975292206, 0.7868087291717529, 1.0585050582885742, 0.2564198076725006, 0.21525520086288452, -0.11153469979763031, 0.45923304557800293, 0.32531461119651794, 0.39882391691207886, 0.17069830000400543, 0.08090771734714508, 0.3605895936489105, -0.7891952991485596, -0.14334987103939056, 0.03862806409597397, 0.2754734754562378, 0.07433779537677765, 0.7111396193504333, -0.582446813583374, 0.27898168563842773, 0.4701402485370636, -0.5844740271568298, 0.6748292446136475, -0.6230146288871765, -0.611009955406189], [0.8873307704925537, -0.5956294536590576, 0.017539501190185547, -0.6953375935554504, 0.8099234104156494, 0.43433910608291626, -0.15622800588607788, -0.37060341238975525, -0.2969485819339752, -0.33073678612709045, 0.1329549252986908, -0.09885343909263611, 0.005384546704590321, -0.2650260329246521, -0.21234317123889923, 0.017132773995399475, 0.19227811694145203, 0.20849980413913727, 0.39092326164245605, 0.9952728152275085, 0.8488820195198059, 0.3103936016559601, 0.24242949485778809, -0.2789953351020813, 0.4287438988685608, 0.3566599190235138, 0.3741733431816101, 0.13281850516796112, -0.05931960791349411, 0.5019120573997498, -1.0356276035308838, -0.25126534700393677, 0.14386263489723206, 0.3168046176433563, 0.010745243169367313, 0.6778299808502197, -0.6376954913139343, 0.4675600528717041, 0.4327371120452881, -0.5829736590385437, 0.6164842844009399, -0.6553714871406555, -0.619379460811615], [-0.6016964316368103, 0.8092082142829895, 0.00847945548593998, 0.7217367887496948, -0.6921514272689819, 0.41384997963905334, 0.8294351696968079, 0.6758956909179688, 0.3035930395126343, 0.5636841058731079, 0.28221675753593445, 0.5903453230857849, 0.6518893837928772, 0.8373002409934998, 0.5752210021018982, 0.5369614958763123, 0.40507519245147705, 0.37474313378334045, -0.31455469131469727, -0.5999802947044373, -0.6975228786468506, 0.45560604333877563, 0.355820894241333, 0.6942669749259949, 0.5479632019996643, 0.7101362347602844, 0.5738967657089233, 0.6470588445663452, 0.0320136696100235, 0.35936012864112854, 0.7536969780921936, 0.3512713611125946, -0.0862903743982315, 0.5409054756164551, 0.030466599389910698, -0.6501917839050293, 0.6908539533615112, 0.44920939207077026, 0.22644484043121338, 0.6443495154380798, -0.7211703062057495, 0.5664215087890625, 0.7183992862701416], [0.8263998627662659, -0.8256198167800903, -0.04755410924553871, -0.8517823815345764, 0.9187705516815186, 0.5044379234313965, -0.10121449828147888, -0.3315959572792053, -0.31526216864585876, -0.31010353565216064, 0.11009860783815384, -0.07816483825445175, 0.000858444080222398, -0.25247693061828613, -0.22600893676280975, -0.010408579371869564, 0.13494466245174408, 0.2160690277814865, 0.3772844672203064, 1.037104606628418, 0.9565881490707397, 0.3333079516887665, 0.20491787791252136, -0.2130977362394333, 0.4977658689022064, 0.4437432289123535, 0.2936481237411499, 0.04270068183541298, 0.054143015295267105, 0.5703123211860657, -0.9964199662208557, -0.2270701825618744, 0.012825694866478443, 0.252214640378952, -0.1414031833410263, 0.708310604095459, -0.750058114528656, 0.3769317865371704, 0.44289645552635193, -0.4595572352409363, 0.6901389956474304, -0.5602331757545471, -0.7194659113883972], [0.9834635853767395, -0.8250218629837036, -0.08458099514245987, -0.7004125118255615, 0.7763535976409912, 0.4157123565673828, -0.2347250133752823, -0.30907148122787476, -0.2726143002510071, -0.22829078137874603, 0.15816204249858856, -0.051134053617715836, 0.0021762128453701735, -0.2941552400588989, -0.27493488788604736, 0.0361563004553318, 0.23785288631916046, 0.2728709578514099, 0.5351614952087402, 1.1349846124649048, 1.1646579504013062, 0.2755846381187439, 0.328081876039505, -0.1529349535703659, 0.5192562341690063, 0.2705123722553253, 0.35723063349723816, 0.05276629328727722, 0.06970085203647614, 0.5962174534797668, -0.9884428977966309, -0.35751256346702576, -0.12676779925823212, 0.34494534134864807, -0.0023067828733474016, 0.7661840319633484, -0.7181253433227539, 0.5004396438598633, 0.5335552096366882, -0.5977664589881897, 0.6482182145118713, -0.5531429052352905, -0.6213751435279846], [0.7856409549713135, -0.6917384266853333, 0.05398241803050041, -0.7488558292388916, 0.7615978717803955, 0.30704009532928467, -0.17239944636821747, -0.6421375274658203, -0.41616082191467285, -0.6186696887016296, 0.09344050288200378, -0.07356882095336914, -0.018877893686294556, -0.32288041710853577, -0.26401740312576294, -0.021238816902041435, 0.1878184974193573, 0.2649754583835602, 0.49830392003059387, 1.1146076917648315, 1.0535552501678467, 0.3624517321586609, 0.1319197565317154, -0.12086308747529984, 0.43130815029144287, 0.22788234055042267, 0.2681717574596405, -0.04708406329154968, -0.11753133684396744, 0.457894504070282, -0.8198560476303101, -0.3510127365589142, -0.13844674825668335, 0.206405371427536, 0.13818494975566864, 0.6902928948402405, -0.6336780786514282, 0.3205033838748932, 0.6636518836021423, -0.673011064529419, 0.7449912428855896, -0.5573300123214722, -0.508861243724823], [-0.8294336795806885, 0.7074761986732483, -0.0640881136059761, 0.7706578969955444, -0.5796648263931274, 0.3214742839336395, 0.8148950934410095, 0.6896021366119385, 0.4468856155872345, 0.5728508830070496, 0.2452586591243744, 0.634156346321106, 0.4585723280906677, 0.6947638988494873, 0.6920042634010315, 0.8009411096572876, 0.3876357078552246, 0.2942754328250885, -0.4022204279899597, -0.5802174210548401, -0.6717304587364197, 0.5602366924285889, 0.518625795841217, 0.7361261248588562, 0.4648505449295044, 0.5994037985801697, 0.4045722484588623, 0.6299471259117126, -0.13033829629421234, 0.31190577149391174, 0.9436101317405701, 0.3811037540435791, -0.012150535359978676, 0.4243466854095459, -0.12095440179109573, -0.6646138429641724, 0.661076545715332, 0.6596891283988953, 0.10890308767557144, 0.8685721755027771, -0.6787204146385193, 0.7900834679603577, 0.8331381678581238], [-0.7881639003753662, 0.7663209438323975, 0.11280640959739685, 0.605528712272644, -0.9641889929771423, 0.6461726427078247, 0.7303237915039062, 0.7379721999168396, 0.3360837697982788, 0.8429995179176331, 0.36743101477622986, 0.47642406821250916, 0.7376429438591003, 0.9067813754081726, 0.9533562660217285, 0.6936253905296326, 0.8069251775741577, 0.6310179829597473, -0.3996511399745941, -0.4673005938529968, -0.9405857920646667, 0.7432321310043335, 0.5459721684455872, 0.6645427346229553, 0.682723343372345, 0.7540102005004883, 0.6988409161567688, 0.7777956128120422, -0.09008749574422836, 0.7043867707252502, 1.041017770767212, 0.3773309588432312, -0.14135393500328064, 0.6286135911941528, 0.042421597987413406, -0.8224769830703735, 0.7048531770706177, 0.7268105149269104, 0.26456815004348755, 0.9223002195358276, -0.5830045938491821, 0.8677669763565063, 0.719029426574707], [-0.9945492148399353, 0.9761074185371399, 0.08919729292392731, 0.8094035983085632, -0.1759638786315918, 0.9768790602684021, 0.7978057861328125, 0.8458622694015503, 0.5492125749588013, 0.9761808514595032, 0.6427045464515686, 0.7027271389961243, 0.7910569310188293, 0.9741611480712891, 0.8239063620567322, 0.9642214775085449, 1.0297640562057495, 0.8817270398139954, 0.2141793817281723, 0.22875866293907166, -0.5753542184829712, 0.8246849179267883, 0.717057466506958, 0.9959288835525513, 0.788877010345459, 0.7599779367446899, 0.84969562292099, 0.9221022725105286, 0.11110704392194748, 0.7663124203681946, 1.0476359128952026, 0.863462507724762, -0.09468422085046768, 1.0198686122894287, 0.15004466474056244, -0.645313560962677, 0.8357937335968018, 0.763966977596283, 0.7227900624275208, 0.923694372177124, -0.324115127325058, 0.8968504071235657, 0.8858474493026733], [-0.7799971103668213, 0.9664672613143921, 0.08686349540948868, 0.6577355861663818, -0.4739173352718353, 0.7389947772026062, 0.7622246742248535, 0.987642228603363, 0.523883044719696, 0.813700258731842, 0.6881828308105469, 0.7479647397994995, 0.907013475894928, 0.87839275598526, 0.9334178566932678, 0.9566973447799683, 0.7381770610809326, 0.8979160189628601, 0.15956184267997742, 0.014474901370704174, -0.677878201007843, 0.838068425655365, 0.9077379107475281, 0.9010241627693176, 0.721057653427124, 0.7287625074386597, 0.8851636052131653, 0.7946990132331848, -0.1340319961309433, 0.6257973313331604, 0.8355896472930908, 0.8194143176078796, 0.017629215493798256, 0.7660607695579529, -0.0344504714012146, -0.7671390175819397, 0.8749611377716064, 0.8608266711235046, 0.5687839388847351, 0.9539417028427124, -0.3550247251987457, 0.6976107954978943, 0.9645752906799316], [-0.9256992340087891, 0.7255104184150696, 0.030108358711004257, 0.6546621322631836, -0.5339629054069519, 0.7562174201011658, 0.9352577328681946, 0.7798621654510498, 0.38032910227775574, 0.7886322140693665, 0.6889420747756958, 0.5765978097915649, 0.600879430770874, 0.7271586060523987, 0.8362315893173218, 0.9685995578765869, 0.8058025240898132, 0.5560970306396484, -0.28262555599212646, -0.19001750648021698, -0.8460890054702759, 0.7348658442497253, 0.8324898481369019, 0.8381019234657288, 0.8790608048439026, 0.9265748858451843, 0.6705332398414612, 0.8166041374206543, -0.11441586911678314, 0.8219601511955261, 0.8296573162078857, 0.7505744695663452, 0.1396239697933197, 0.7788003087043762, -0.13184893131256104, -0.6954935789108276, 0.6606254577636719, 0.7861642837524414, 0.5856295228004456, 0.854356050491333, -0.5631396770477295, 0.634679913520813, 0.6416979432106018], [0.8890514969825745, -0.8622057437896729, 0.07127339392900467, -0.6074684858322144, 0.9418151378631592, 0.3124147653579712, -0.15170232951641083, -0.2310628890991211, -0.33051779866218567, -0.21750348806381226, 0.12059289962053299, -0.026592683047056198, 0.03068830445408821, -0.21085022389888763, -0.185026153922081, 0.02889203652739525, 0.17455469071865082, 0.2606774568557739, 0.6172823905944824, 0.9425942897796631, 0.9767065644264221, 0.26322081685066223, 0.39495402574539185, 0.002715855138376355, 0.38631635904312134, 0.2161019742488861, 0.3542017936706543, 0.10195786505937576, -0.12478101998567581, 0.5376878976821899, -0.9191799163818359, -0.08761126548051834, 0.06059684604406357, 0.43243566155433655, 0.09060540050268173, 0.6521099209785461, -0.8938400149345398, 0.5703973770141602, 0.4443689286708832, -0.5335065126419067, 0.6174816489219666, -0.550757884979248, -0.5891765356063843], [-0.8726493716239929, 0.690487265586853, -0.06686243414878845, 0.5622137784957886, -0.7556092739105225, 0.8734659552574158, 0.8861367702484131, 0.7843651175498962, 0.4692288935184479, 0.8427847623825073, 0.6394170522689819, 0.6214472651481628, 0.8747907280921936, 0.9332354068756104, 0.8270412683486938, 0.9421671628952026, 0.7815309762954712, 0.5881410241127014, -0.0719437450170517, -0.13238480687141418, -0.7513372302055359, 0.6358934044837952, 0.8270965814590454, 0.7999319434165955, 0.7164463996887207, 0.6648535132408142, 0.6368907690048218, 0.956751823425293, 0.07563735544681549, 0.6221482157707214, 1.0590453147888184, 0.7329162955284119, 0.07579636573791504, 0.7446429133415222, 0.14291106164455414, -0.6890512704849243, 0.6433375477790833, 0.8216915726661682, 0.4673003852367401, 0.8830837607383728, -0.6743838787078857, 0.8012471199035645, 0.6524674892425537], [-0.9572464823722839, 0.896568238735199, 0.12021037936210632, 0.7025551795959473, -0.7671756148338318, 0.928159773349762, 0.8860471844673157, 0.7101600766181946, 0.5337586402893066, 0.8035219311714172, 0.7535691261291504, 0.8329158425331116, 0.7928357124328613, 0.8347395658493042, 0.9990884065628052, 0.7775575518608093, 0.960402250289917, 0.847550630569458, -0.14905087649822235, -0.47007042169570923, -0.7621667385101318, 0.7662084698677063, 0.9377937316894531, 0.8235459327697754, 0.9331253170967102, 0.9048393964767456, 0.6834054589271545, 0.782299280166626, -0.035971276462078094, 0.8702811002731323, 0.9988085627555847, 0.5901136994361877, -0.09468573331832886, 0.7367748022079468, -0.012381793931126595, -0.8148328065872192, 0.8756415247917175, 1.006304383277893, 0.5054249167442322, 0.7788991332054138, -0.628289520740509, 0.6976494789123535, 0.8226258158683777], [-0.9529335498809814, 1.0478579998016357, -0.016975853592157364, 0.9500623941421509, 0.32117465138435364, 0.7961198687553406, 0.8785719275474548, 1.0591884851455688, 0.6964260339736938, 0.9330702424049377, 1.0153175592422485, 0.9695148468017578, 0.8343459367752075, 0.914341926574707, 1.0144076347351074, 0.8593599796295166, 0.8458476066589355, 0.870848536491394, 0.3236324191093445, 0.5402857661247253, -0.6418848037719727, 0.7758255004882812, 0.8774465322494507, 1.05891752243042, 0.8475365042686462, 0.8474112153053284, 0.8675428032875061, 0.8723083734512329, -0.1422625482082367, 0.9926599860191345, 0.9640113115310669, 0.9573360681533813, -0.03170573338866234, 1.0260242223739624, -0.06293264031410217, -0.5220999121665955, 0.7447519302368164, 0.8648250102996826, 0.9405999779701233, 0.9161158204078674, -0.31970933079719543, 0.808714747428894, 0.9429406523704529], [-0.9436231851577759, 0.857241690158844, 0.09340565651655197, 0.5848836898803711, -0.8151994943618774, 0.6099556684494019, 0.7085489630699158, 0.7113572955131531, 0.3341759443283081, 0.6532564163208008, 0.5799276828765869, 0.6062577962875366, 0.6350861191749573, 0.9679698348045349, 0.7100520730018616, 0.8579132556915283, 0.5689893960952759, 0.3754523992538452, -0.35126999020576477, -0.4619205594062805, -0.905539870262146, 0.6059066653251648, 0.7847557663917542, 0.7884129881858826, 0.7467328906059265, 0.9128350019454956, 0.8354770541191101, 0.7647889256477356, 0.009965353645384312, 0.6572885513305664, 1.0294861793518066, 0.446136474609375, -0.08813203871250153, 0.8117726445198059, 0.11523186415433884, -0.6143336296081543, 0.8962636590003967, 0.8089843392372131, 0.3997459411621094, 0.7628939747810364, -0.7099915146827698, 0.852969229221344, 0.8318119049072266], [0.744772732257843, -0.9428397417068481, 0.07067213207483292, -0.5904029011726379, 1.0709277391433716, 0.4733648896217346, -0.043497100472450256, -0.09107838571071625, -0.21278223395347595, -0.06470009684562683, 0.18750149011611938, -0.04465144872665405, 0.027452955022454262, -0.25324711203575134, -0.2079615294933319, 0.03234480693936348, 0.18690311908721924, 0.2761266231536865, 0.6523858308792114, 0.9357315301895142, 0.8661684393882751, 0.24738991260528564, 0.3048821687698364, -0.19105109572410583, 0.4406110346317291, 0.2502474784851074, 0.42662397027015686, 0.11810130625963211, 0.0895572230219841, 0.4940371811389923, -1.000264286994934, -0.08220630884170532, -0.10022331029176712, 0.4006328582763672, 0.12639524042606354, 0.8646426200866699, -0.6950963735580444, 0.3929058909416199, 0.6954829096794128, -0.6395841836929321, 0.614739179611206, -0.7776049971580505, -0.6892518997192383], [0.9382501840591431, -0.8287258148193359, 0.05536147952079773, -0.5867283344268799, 0.8959985971450806, 0.2942454218864441, -0.16510294377803802, -0.25289011001586914, -0.343227356672287, -0.20643143355846405, 0.18761426210403442, -0.004278579726815224, 0.03057362698018551, -0.2770327925682068, -0.20689956843852997, -0.006000119261443615, 0.26960885524749756, 0.2994101345539093, 0.5393164157867432, 0.9612793922424316, 0.8299756646156311, 0.3115132451057434, 0.24166657030582428, -0.031110819429159164, 0.565848708152771, 0.37263375520706177, 0.3496875464916229, 0.06380771100521088, -0.08829774707555771, 0.5581717491149902, -1.0287154912948608, -0.3346121311187744, 0.06334078311920166, 0.37761834263801575, -0.07855910807847977, 0.6396917104721069, -0.8517703413963318, 0.4542382061481476, 0.4425438940525055, -0.6653426289558411, 0.7907935380935669, -0.7749035954475403, -0.5207428932189941], [-0.4136175811290741, 0.7846255898475647, -0.025004426017403603, 1.1704963445663452, 0.3308553695678711, 0.9354870319366455, 0.9178575873374939, 1.0082361698150635, 0.44476091861724854, 1.016357660293579, 0.8405235409736633, 0.7753291130065918, 0.9237824082374573, 0.9868819713592529, 0.9825796484947205, 0.9245904684066772, 0.909605860710144, 0.9067254066467285, 0.45171549916267395, 0.6587765216827393, -0.30064842104911804, 0.9438784122467041, 1.0511140823364258, 1.0056178569793701, 0.8937342762947083, 1.1246075630187988, 0.9156650900840759, 1.1209250688552856, -0.14516261219978333, 1.0010206699371338, 0.9289791584014893, 0.7197351455688477, -0.05510122328996658, 0.8228511214256287, -0.09576594084501266, 0.032946374267339706, 0.650435209274292, 1.0421150922775269, 0.9106448888778687, 0.8488356471061707, 0.2976197898387909, 0.6237785220146179, 0.7610457539558411], [-0.628494381904602, 0.7800461053848267, 0.026664555072784424, 0.680273711681366, 0.12471136450767517, 0.796293318271637, 0.9670889377593994, 0.7943697571754456, 0.4849958121776581, 0.9485946297645569, 0.6304696798324585, 0.84270840883255, 0.7007496953010559, 0.7625515460968018, 0.9421775341033936, 0.961528480052948, 0.7751411199569702, 0.9176045656204224, 0.11308954656124115, 0.17208608984947205, -0.7081594467163086, 0.836186945438385, 0.6353693008422852, 0.8069665431976318, 0.8646963238716125, 0.9403679370880127, 0.8538151979446411, 0.7751728296279907, 0.07236505299806595, 0.7867230772972107, 0.9047634601593018, 0.5811319947242737, 0.0432942770421505, 0.9640013575553894, -0.12839461863040924, -0.5445265173912048, 0.7634009718894958, 0.782157301902771, 0.8066319227218628, 0.750642716884613, -0.43719837069511414, 0.6200840473175049, 0.677323579788208], [-0.7692918181419373, 0.8614456057548523, 0.015793366357684135, 0.64989173412323, -0.5768014192581177, 0.5555871725082397, 0.71514493227005, 0.6202548146247864, 0.4959369897842407, 0.5875293612480164, 0.4519716501235962, 0.5880628824234009, 0.6367562413215637, 0.6489265561103821, 0.6838020086288452, 0.6153151988983154, 0.5986298322677612, 0.26727917790412903, -0.4089653491973877, -0.41927629709243774, -0.8125064373016357, 0.5857328176498413, 0.41131311655044556, 0.580162763595581, 0.5703443288803101, 0.7242787480354309, 0.5462345480918884, 0.5832459926605225, 0.03730248659849167, 0.5289185047149658, 0.8216618299484253, 0.4404159486293793, -0.02700868807733059, 0.30505287647247314, 0.14262518286705017, -0.778218686580658, 0.7157502770423889, 0.6841152906417847, 0.1749076396226883, 0.7198505997657776, -0.4646882712841034, 0.8423728942871094, 0.7143831253051758], [-0.3261012136936188, 0.5908164978027344, 0.12512116134166718, 0.7718237042427063, 0.4453696608543396, 1.0017892122268677, 1.078578233718872, 0.9206418395042419, 0.6342138051986694, 0.8370537161827087, 0.7818400263786316, 0.8377049565315247, 0.7782367467880249, 0.8392475247383118, 1.0572752952575684, 1.034346342086792, 0.8961703777313232, 0.7600886225700378, 0.5387682914733887, 0.7499930262565613, -0.15137025713920593, 0.8963450789451599, 0.8462375402450562, 1.1021544933319092, 1.039206624031067, 1.1017670631408691, 0.9313204884529114, 1.0764042139053345, -0.06751026958227158, 0.8322571516036987, 1.1054599285125732, 0.9452768564224243, -0.09514826536178589, 1.0261070728302002, -0.0640944391489029, -0.11979643255472183, 0.5855776071548462, 1.1051596403121948, 0.9699931144714355, 1.0294899940490723, 0.47077009081840515, 0.8832738995552063, 0.9778428077697754], [-0.7592023611068726, 0.7767869830131531, 0.10002057999372482, 0.561916172504425, 0.14559946954250336, 0.8864697217941284, 0.9903189539909363, 0.9832906126976013, 0.5244697332382202, 0.7701809406280518, 0.8689385652542114, 0.7607442736625671, 0.8857558369636536, 0.7772749662399292, 0.8998957276344299, 0.8439579606056213, 0.9737253189086914, 0.9010547399520874, 0.20238877832889557, 0.41782787442207336, -0.41946133971214294, 0.6974124908447266, 0.9190633893013, 0.9405138492584229, 0.9284440279006958, 0.836177408695221, 0.684383749961853, 0.762021541595459, -0.019721737131476402, 0.6419641971588135, 0.952717661857605, 0.8965556025505066, -0.03178590536117554, 0.9548056721687317, 0.0517236664891243, -0.44066521525382996, 0.8444951176643372, 0.7335899472236633, 0.5546603202819824, 0.6813575625419617, -0.03447316214442253, 0.6671544313430786, 0.799280047416687], [0.8927223682403564, -0.828734278678894, 0.08769072592258453, -0.8434738516807556, 0.929057240486145, 0.40114521980285645, -0.13730868697166443, -0.15961851179599762, -0.26114368438720703, -0.07189206779003143, 0.22198927402496338, 0.0037590968422591686, 0.043068502098321915, -0.24777831137180328, -0.1909482479095459, 0.05594434216618538, 0.2561866044998169, 0.18892298638820648, 0.4191572368144989, 0.7919702529907227, 1.0139473676681519, 0.3112820088863373, 0.2249433398246765, -0.1781124323606491, 0.3967408239841461, 0.1697656214237213, 0.36815884709358215, 0.08640133589506149, -0.07815100252628326, 0.5964667797088623, -1.0369787216186523, -0.3509397506713867, -0.11692208051681519, 0.2428266704082489, 0.1206931471824646, 0.6659547090530396, -0.8220468759536743, 0.5031664967536926, 0.6430100798606873, -0.5170644521713257, 0.6869833469390869, -0.6275724768638611, -0.5834988951683044], [1.1188251972198486, -0.8815858364105225, -0.11883460730314255, -0.904259443283081, 0.885251522064209, 0.32620421051979065, -0.13441312313079834, -0.7246429920196533, -0.42326781153678894, -0.5865647792816162, 0.23338909447193146, -0.12106508016586304, 0.021920539438724518, -0.3511148989200592, -0.28130555152893066, -0.03627638891339302, 0.14232230186462402, 0.3551144003868103, 0.5728551745414734, 1.0061434507369995, 1.0193002223968506, 0.27034029364585876, 0.19252602756023407, -0.26348280906677246, 0.43283551931381226, 0.3302568197250366, 0.5171186923980713, 0.16614799201488495, -0.08637110888957977, 0.5245461463928223, -0.721023678779602, -0.2970646321773529, -0.13604366779327393, 0.34146013855934143, 0.04901966452598572, 0.9013671875, -0.8575696349143982, 0.32807502150535583, 0.687641441822052, -0.8287662863731384, 0.8126115798950195, -0.7949937582015991, -0.6769137978553772], [0.8832129836082458, -0.6088637113571167, -0.022007068619132042, -0.6035522222518921, 0.7810285687446594, 0.43453651666641235, -0.017799511551856995, -0.3420105278491974, -0.5130550265312195, -0.32392367720603943, 0.11219710111618042, -0.0038661824073642492, -0.002328924834728241, -0.2181040644645691, -0.20360015332698822, 0.039674099534749985, 0.18548555672168732, 0.17800584435462952, 0.3867344856262207, 0.7688243985176086, 0.9364014863967896, 0.2401515692472458, 0.1226143091917038, -0.09530679136514664, 0.5261424779891968, 0.3232210874557495, 0.3066083490848541, 0.06029682233929634, -0.08007042109966278, 0.4003518223762512, -1.0433253049850464, -0.2513798773288727, 0.11315643042325974, 0.17473919689655304, 0.02926509641110897, 0.7051368355751038, -0.6978718042373657, 0.44187861680984497, 0.4798213541507721, -0.47918981313705444, 0.7857807874679565, -0.5739274621009827, -0.6839345693588257], [-0.8194926381111145, 0.8592759966850281, -0.04468522593379021, 0.7502092719078064, -0.8980389833450317, 0.36205628514289856, 0.9705991148948669, 0.66558837890625, 0.34461215138435364, 0.6726306080818176, 0.3650778532028198, 0.3352293074131012, 0.6472768187522888, 0.8112596273422241, 0.7244149446487427, 0.5816807150840759, 0.46865856647491455, 0.39736106991767883, -0.35863423347473145, -0.4254264831542969, -0.8379690051078796, 0.4097851514816284, 0.5269560217857361, 0.5510562658309937, 0.6810044646263123, 0.4994671046733856, 0.7232849597930908, 0.5277884006500244, 0.0014329428086057305, 0.5666159987449646, 0.9149150252342224, 0.3585250675678253, 0.08862246572971344, 0.359203964471817, 0.0700853243470192, -0.6746642589569092, 0.6347583532333374, 0.4833739995956421, 0.2529223561286926, 0.8348270058631897, -0.5787506103515625, 0.8187385201454163, 0.7481120824813843], [-0.7823944091796875, 0.6069660782814026, -0.010660219006240368, 0.42653584480285645, -0.7459484934806824, 0.7156832218170166, 0.6409194469451904, 0.6279476881027222, 0.283862829208374, 0.7112209796905518, 0.40390101075172424, 0.5717679858207703, 0.5164147019386292, 0.5442395210266113, 0.8331103324890137, 0.868316113948822, 0.44456779956817627, 0.330455482006073, -0.2709824740886688, -0.5579841136932373, -0.9499640464782715, 0.6872873306274414, 0.580656886100769, 0.7078537344932556, 0.5052394270896912, 0.6201981902122498, 0.6738382577896118, 0.7530612945556641, -0.03685518726706505, 0.5092281103134155, 0.9058825969696045, 0.533941388130188, 0.1419728845357895, 0.6859388947486877, 0.13584212958812714, -0.5940176844596863, 0.6963924765586853, 0.5805296301841736, 0.2388988882303238, 0.7954744696617126, -0.555659830570221, 0.6634600162506104, 0.6314507126808167], [-0.9853084683418274, 0.7659863233566284, 0.13510175049304962, 0.7452160120010376, -0.026033597066998482, 0.706249475479126, 0.9678561091423035, 0.9120528697967529, 0.6153542995452881, 0.7441239356994629, 0.781286895275116, 0.7224802374839783, 0.8918916583061218, 0.9416674375534058, 0.9036269187927246, 0.8619226813316345, 0.8995107412338257, 0.8840082287788391, 0.40733885765075684, 0.33137813210487366, -0.5978527665138245, 0.848199725151062, 0.7353959679603577, 0.942579984664917, 0.7117995619773865, 0.933824896812439, 0.8402518630027771, 0.6891103386878967, -0.1380602866411209, 0.7229773998260498, 0.9721152782440186, 1.0030494928359985, -0.13070088624954224, 0.7704284191131592, 0.03747435286641121, -0.8283377885818481, 0.6572553515434265, 0.7977389693260193, 0.7018084526062012, 0.7870305776596069, -0.24411238729953766, 0.8142300844192505, 0.941141664981842], [-0.597115159034729, 0.7107163667678833, -0.02872340939939022, 0.4665628969669342, -0.7048090100288391, 0.7231509685516357, 0.8630466461181641, 0.5222570300102234, 0.4979037344455719, 0.7669698596000671, 0.36431556940078735, 0.3462798297405243, 0.5402772426605225, 0.7965479493141174, 0.7803736925125122, 0.699647068977356, 0.5369353890419006, 0.31768497824668884, -0.35284534096717834, -0.4042447805404663, -0.844667911529541, 0.4511379599571228, 0.5151936411857605, 0.7083803415298462, 0.5574231743812561, 0.6842318177223206, 0.4499989151954651, 0.76324462890625, 0.02147928811609745, 0.6195268034934998, 0.8192213177680969, 0.5248551964759827, -0.14326773583889008, 0.48597073554992676, -0.10974740236997604, -0.6054041385650635, 0.6548153162002563, 0.7002768516540527, 0.4247458279132843, 0.7154199481010437, -0.5789278149604797, 0.592922031879425, 0.4875425100326538], [0.8740748167037964, -0.7163907289505005, -0.006931982934474945, -0.6269274353981018, 0.6980523467063904, 0.228290393948555, -0.028991350904107094, -0.29613196849823, -0.2984888553619385, -0.28849712014198303, 0.21334584057331085, 0.007054033689200878, 0.004874941892921925, -0.19533385336399078, -0.16329382359981537, 0.06491737067699432, 0.14238063991069794, 0.21400898694992065, 0.46239572763442993, 0.7828571200370789, 0.8981043696403503, 0.25593310594558716, 0.3623355031013489, -0.03700651973485947, 0.38671234250068665, 0.2915203273296356, 0.3001137971878052, 0.06849519163370132, 0.06766641139984131, 0.3597477376461029, -0.857923686504364, -0.2753428816795349, 0.036478277295827866, 0.38840600848197937, -0.02901327796280384, 0.6826240420341492, -0.6400904059410095, 0.22938932478427887, 0.33979159593582153, -0.5294352769851685, 0.7147419452667236, -0.483672559261322, -0.6450427770614624], [-0.6556554436683655, 0.8406223654747009, -0.12081863731145859, 0.39511364698410034, -0.9212489724159241, 0.6805974245071411, 0.6336807608604431, 0.5207533240318298, 0.45810866355895996, 0.7381585240364075, 0.466826856136322, 0.3343048393726349, 0.7488419413566589, 0.8264244198799133, 0.6609499454498291, 0.611575186252594, 0.4682142734527588, 0.2885412275791168, -0.3803851008415222, -0.42350924015045166, -0.73654705286026, 0.6476337313652039, 0.5741603374481201, 0.5456132292747498, 0.7491633296012878, 0.7953784465789795, 0.6636266112327576, 0.8173568248748779, -0.06636306643486023, 0.5869876146316528, 0.7956981658935547, 0.3714488744735718, 0.14722749590873718, 0.5220395922660828, 0.006651840638369322, -0.5372690558433533, 0.5923302173614502, 0.5332599878311157, 0.39243003726005554, 0.797747015953064, -0.6518241167068481, 0.5049037933349609, 0.6132776141166687], [-0.8674450516700745, 0.8919580578804016, -0.051525894552469254, 0.7796340584754944, -0.6069868803024292, 0.4246484935283661, 0.7013543844223022, 0.7000893950462341, 0.3467998504638672, 0.6645488739013672, 0.2784182131290436, 0.41175776720046997, 0.5337967276573181, 0.8453664183616638, 0.6584424376487732, 0.9011650085449219, 0.4369277060031891, 0.2910443842411041, -0.2621610164642334, -0.503865659236908, -0.6371586918830872, 0.4440796971321106, 0.5424094200134277, 0.7175097465515137, 0.49604523181915283, 0.5248768925666809, 0.7469103932380676, 0.7461429834365845, -0.006190742366015911, 0.5949006080627441, 0.7767704725265503, 0.6036826968193054, -0.044523466378450394, 0.5389919877052307, -0.04044844210147858, -0.8533467650413513, 0.670013964176178, 0.5402166843414307, 0.19354796409606934, 0.8050895929336548, -0.6806001663208008, 0.6702973246574402, 0.7004719972610474], [0.8073152899742126, -0.860824465751648, 0.12850907444953918, -0.8767132759094238, 1.009311318397522, 0.40330320596694946, -0.13291695713996887, -0.29770538210868835, -0.35911574959754944, -0.2824370265007019, 0.12863019108772278, -0.04037800431251526, -0.005601921118795872, -0.2625837028026581, -0.21008552610874176, 0.007840088568627834, 0.13498134911060333, 0.20324763655662537, 0.4204096794128418, 1.0790866613388062, 0.984805703163147, 0.3405427038669586, 0.2376554161310196, -0.2085486501455307, 0.47461479902267456, 0.3758109211921692, 0.3791067898273468, 0.1350373774766922, -0.072393998503685, 0.46332812309265137, -0.8397692441940308, -0.16905659437179565, -0.13135677576065063, 0.36407074332237244, 0.12444665282964706, 0.8123959302902222, -0.6035234928131104, 0.23386132717132568, 0.5769093036651611, -0.5894345045089722, 0.5819450616836548, -0.7314074039459229, -0.6445368528366089], [-0.5513280630111694, 0.7858343124389648, 0.013220148161053658, 0.6278553009033203, -0.9374833703041077, 0.8131515979766846, 0.853150486946106, 0.6474767923355103, 0.32153794169425964, 0.6490246653556824, 0.5790695548057556, 0.6097091436386108, 0.713899552822113, 0.7480409145355225, 0.8387845754623413, 0.7035309076309204, 0.8058178424835205, 0.5030554533004761, -0.23905082046985626, -0.3751406669616699, -0.7536554336547852, 0.6510492563247681, 0.7336747050285339, 0.8203915953636169, 0.7693880200386047, 0.8581729531288147, 0.777403712272644, 0.8444532752037048, -0.11760210990905762, 0.6180145740509033, 0.8685877323150635, 0.5887078642845154, -0.05890457704663277, 0.7354575395584106, 0.060677435249090195, -0.444782555103302, 0.7537878155708313, 0.6800854802131653, 0.3727900981903076, 0.5973826050758362, -0.5550907850265503, 0.7885995507240295, 0.6746436357498169], [-0.16869571805000305, 0.3169935643672943, -0.08599798381328583, 0.5722771286964417, 0.5809139609336853, 0.9691049456596375, 0.9274678826332092, 0.8401175141334534, 0.31879112124443054, 0.8511263132095337, 0.9009395241737366, 0.8962460160255432, 0.9352428317070007, 1.0457385778427124, 1.1278412342071533, 1.1472861766815186, 0.8793037533760071, 0.7780070900917053, 0.5317388772964478, 0.7602512836456299, -0.04253702610731125, 1.1328341960906982, 1.082951545715332, 1.0196709632873535, 1.0933867692947388, 1.120113730430603, 0.8349929451942444, 0.8684239983558655, -0.005036414600908756, 0.9483707547187805, 1.0352815389633179, 0.6413335204124451, 0.09774389863014221, 0.8903850317001343, -0.08443983644247055, 0.21597546339035034, 0.42365971207618713, 1.012170672416687, 0.8272985816001892, 0.8685528039932251, 0.5426872372627258, 0.6138423085212708, 0.6563573479652405], [-0.683786153793335, 0.8557897806167603, 0.12257736921310425, 0.6651783585548401, -0.9289768934249878, 0.6258397102355957, 0.8080411553382874, 0.5712554454803467, 0.32269465923309326, 0.6292330026626587, 0.393426775932312, 0.5546185374259949, 0.4908250570297241, 0.6706123948097229, 0.8717141151428223, 0.7836847901344299, 0.46377649903297424, 0.45584699511528015, -0.31800562143325806, -0.6064300537109375, -0.9055910706520081, 0.5415512919425964, 0.4639286398887634, 0.7162100672721863, 0.793985903263092, 0.8005659580230713, 0.7957428693771362, 0.8502764701843262, -0.08067624270915985, 0.6842832565307617, 0.8536496758460999, 0.5179626941680908, -0.07162854075431824, 0.7183889150619507, -0.01079300045967102, -0.5270982384681702, 0.7422785758972168, 0.6223716735839844, 0.36920392513275146, 0.7563743591308594, -0.6445088982582092, 0.6899064183235168, 0.8158297538757324], [-0.8416317105293274, 1.0083454847335815, 0.07586245238780975, 0.7322303056716919, -0.25935569405555725, 0.7892842888832092, 0.9371448159217834, 0.8957009315490723, 0.6153476238250732, 0.9705036878585815, 0.7960640788078308, 0.7917603254318237, 0.7109292149543762, 0.8840254545211792, 0.8247204422950745, 0.953120231628418, 0.9120674729347229, 0.7450273633003235, 0.26955971121788025, 0.11638796329498291, -0.597785472869873, 0.7545425295829773, 0.6952434182167053, 0.9282087087631226, 0.8985324501991272, 0.949732780456543, 0.8360358476638794, 0.9140011072158813, 0.08042296767234802, 0.7911462187767029, 0.8747598528862, 0.9109225869178772, -0.11742286384105682, 0.7561057806015015, 0.13955320417881012, -0.7334346771240234, 0.8717730045318604, 0.77093106508255, 0.49211812019348145, 0.7690991759300232, -0.4785687029361725, 0.7428686022758484, 0.8711331486701965], [-0.9968927502632141, 0.8524165153503418, -0.03268510475754738, 0.6017638444900513, -0.13620537519454956, 0.8371790051460266, 0.8500358462333679, 0.8314998149871826, 0.4909626543521881, 0.996231734752655, 0.8650280237197876, 0.814189076423645, 0.7170794010162354, 0.8035068511962891, 0.9397822022438049, 0.8729224801063538, 0.899263858795166, 0.8463804721832275, 0.14086000621318817, 0.12465577572584152, -0.5571613311767578, 0.956653892993927, 0.9256410002708435, 0.7723963856697083, 0.8464348912239075, 0.7288580536842346, 0.6708170771598816, 0.7749637961387634, 0.04617121443152428, 0.6511937975883484, 1.0828343629837036, 1.0263749361038208, -0.01308445818722248, 0.8911794424057007, 0.05301177501678467, -0.7013859152793884, 0.881533682346344, 0.9574348330497742, 0.744920551776886, 0.7970111966133118, -0.32863083481788635, 0.8680599927902222, 0.9301444888114929], [-0.8101729154586792, 0.8125196695327759, 0.13806307315826416, 0.7120840549468994, -0.3920586407184601, 0.8773022890090942, 0.7975521087646484, 0.9052826166152954, 0.3312572240829468, 0.9278900623321533, 0.8644474148750305, 0.6854944229125977, 0.9046832919120789, 0.9252907037734985, 0.8521397709846497, 1.0497195720672607, 0.9198918342590332, 0.7681825160980225, -0.17769409716129303, 0.12283244729042053, -0.8897780776023865, 0.7004064321517944, 0.7337751984596252, 0.9483115673065186, 0.8226321339607239, 0.8106878995895386, 0.7121683359146118, 0.9394770264625549, -0.03699396550655365, 0.6909914016723633, 0.9086191654205322, 0.584150493144989, 0.03264787420630455, 0.8069851994514465, 0.13049593567848206, -0.6821728944778442, 0.8528424501419067, 0.9920276403427124, 0.7684421539306641, 0.7549763321876526, -0.39161553978919983, 0.7404239177703857, 0.744824230670929], [-0.6990082859992981, 0.9674575328826904, 0.08662943542003632, 0.636223316192627, -0.7777456641197205, 0.7270289659500122, 0.8696567416191101, 0.7465221881866455, 0.4927421510219574, 0.717367947101593, 0.4461436867713928, 0.678041398525238, 0.7191538214683533, 0.8106890320777893, 0.8012608885765076, 0.8253080248832703, 0.8146839141845703, 0.6094366312026978, -0.49767324328422546, -0.6583753228187561, -0.9716066718101501, 0.641838014125824, 0.6610302925109863, 0.6458465456962585, 0.8251449465751648, 0.6107285022735596, 0.8043461441993713, 0.7477549314498901, 0.04769274592399597, 0.7201452851295471, 0.97428959608078, 0.44998931884765625, -0.04260662570595741, 0.7653579115867615, -0.031109871342778206, -0.7380229830741882, 0.6124167442321777, 0.591984212398529, 0.32066279649734497, 0.8160415887832642, -0.7948940396308899, 0.7675241827964783, 0.9050757884979248], [-0.700266420841217, 0.8776256442070007, 0.1513158679008484, 0.8690596222877502, -0.07749037444591522, 1.0062816143035889, 0.9184197783470154, 0.8047009110450745, 0.6673721075057983, 0.957751452922821, 0.8148461580276489, 0.7556712031364441, 0.8148964643478394, 0.7679228186607361, 0.8050426840782166, 0.7967449426651001, 0.9053760170936584, 0.9733912348747253, 0.0662166178226471, 0.2422797828912735, -0.7643277645111084, 0.8235341906547546, 0.9088888168334961, 0.9532920122146606, 1.021336317062378, 0.8607805371284485, 0.9070020318031311, 0.7996889352798462, 0.020099356770515442, 0.8264622092247009, 1.1018656492233276, 0.8445762991905212, -0.07973681390285492, 0.9695913791656494, 0.0012151553528383374, -0.8126490116119385, 0.6946859359741211, 0.7402423024177551, 0.8634439706802368, 0.9585930705070496, -0.6054291725158691, 0.8963381052017212, 0.9790219664573669], [-0.7670905590057373, 1.0250816345214844, 0.1175554096698761, 0.9764321446418762, 0.15299294888973236, 1.0484997034072876, 0.9775015711784363, 1.0089750289916992, 0.4800224304199219, 0.9891171455383301, 0.9396081566810608, 0.7645346522331238, 0.7763292789459229, 0.8771082162857056, 1.0032002925872803, 0.8757146000862122, 0.9231117367744446, 0.7737358808517456, 0.3734045922756195, 0.389699786901474, -0.7178199291229248, 0.9824639558792114, 0.9432775974273682, 0.8117088079452515, 0.9987202882766724, 1.0400193929672241, 0.7322296500205994, 0.9012887477874756, -0.06763574481010437, 0.8553246855735779, 1.044889211654663, 0.9653092622756958, 0.12085821479558945, 0.7950487732887268, 0.14132104814052582, -0.46922069787979126, 0.6744711399078369, 0.9897121787071228, 0.9222801327705383, 0.8350290656089783, -0.1669982373714447, 0.9344016909599304, 0.800725519657135], [-1.0137900114059448, 0.911315381526947, -0.0030835638754069805, 0.8330387473106384, 0.10814285278320312, 0.9344272613525391, 0.8727366924285889, 0.8256887197494507, 0.5126634836196899, 1.0109275579452515, 0.8577900528907776, 0.9108582735061646, 0.8544661402702332, 0.921211838722229, 0.7583503723144531, 0.8737906217575073, 0.8505367636680603, 0.7680877447128296, 0.4758129119873047, 0.3992469906806946, -0.4849424362182617, 1.0053647756576538, 0.9800904393196106, 0.8285437226295471, 1.0171754360198975, 0.7762142419815063, 0.8344631195068359, 0.8121623396873474, 0.09114154428243637, 0.8180252313613892, 1.106034278869629, 0.9301981925964355, 0.10318318754434586, 0.8692575693130493, -0.12404083460569382, -0.901822566986084, 0.724456250667572, 0.7807939052581787, 0.8896921277046204, 0.8976160883903503, -0.2978851795196533, 0.9506015777587891, 0.7816373705863953], [-0.7452999353408813, 0.8752562403678894, -0.14858677983283997, 0.5379605293273926, -0.6961222887039185, 0.5881935358047485, 0.6505775451660156, 0.8141520619392395, 0.46566063165664673, 0.7792019248008728, 0.460589200258255, 0.6130320429801941, 0.779540479183197, 0.8487638235092163, 0.6551582217216492, 0.8714569807052612, 0.4984626770019531, 0.5059629082679749, -0.4694782495498657, -0.6052262187004089, -0.870084285736084, 0.6454723477363586, 0.6589643359184265, 0.6161708831787109, 0.5922446250915527, 0.8281561732292175, 0.5487797260284424, 0.6228266358375549, -0.03908209130167961, 0.5131736397743225, 0.8150314688682556, 0.45579424500465393, 0.045381397008895874, 0.7537188529968262, 0.04507342353463173, -0.6294919848442078, 0.7126151919364929, 0.5821819305419922, 0.2603747844696045, 0.7419794201850891, -0.6084471940994263, 0.8276351690292358, 0.8773588538169861], [-0.7901548147201538, 0.7645376920700073, 0.018344640731811523, 0.5665333867073059, -0.5119103193283081, 0.6642903089523315, 0.7579137682914734, 0.6268328428268433, 0.5276033878326416, 0.7776100039482117, 0.3385823965072632, 0.41543903946876526, 0.7577753067016602, 0.6040534377098083, 0.7424269318580627, 0.7384982109069824, 0.5252875685691833, 0.2964167296886444, -0.3882191777229309, -0.6075003743171692, -0.7868272662162781, 0.6488112807273865, 0.39831921458244324, 0.7956933379173279, 0.7164581418037415, 0.6329848766326904, 0.7144105434417725, 0.6415477991104126, -0.05332881957292557, 0.3758157193660736, 0.8218835592269897, 0.3855290412902832, 0.061246808618307114, 0.39152470231056213, 0.1396339386701584, -0.6299565434455872, 0.665469229221344, 0.555080235004425, 0.18877209722995758, 0.622850239276886, -0.6224846243858337, 0.7996989488601685, 0.7446572184562683], [-0.795083224773407, 0.761547863483429, 0.07446342706680298, 0.6424336433410645, -0.9601683020591736, 0.5506917238235474, 0.721820056438446, 0.7085394263267517, 0.628993034362793, 0.6964379549026489, 0.4178650975227356, 0.6927291750907898, 0.6263750791549683, 0.8661842942237854, 0.9212972521781921, 0.8766701817512512, 0.6673463582992554, 0.545104444026947, -0.41080963611602783, -0.7298412322998047, -0.9727739095687866, 0.6288033127784729, 0.6134368777275085, 0.7763575911521912, 0.7949916124343872, 0.7272481918334961, 0.7225452661514282, 0.6207468509674072, -0.004989094100892544, 0.4440814256668091, 1.0355312824249268, 0.6208965182304382, -0.05660344660282135, 0.5680282115936279, 0.06700102984905243, -0.8627867698669434, 0.849692165851593, 0.5593295693397522, 0.2658458352088928, 0.7980718612670898, -0.8794360756874084, 0.7771230340003967, 0.7931540608406067], [-0.001208374509587884, 0.14419196546077728, -0.023604242131114006, 0.08880043774843216, -0.044408537447452545, -0.08110038191080093, -0.016374683007597923, -0.08939728140830994, -0.0666285902261734, -0.03954638913273811, 0.010372732765972614, -0.08472909033298492, -0.08048948645591736, -0.11112293601036072, -0.09110435098409653, -0.13466320931911469, -0.10522404313087463, -0.04408854618668556, -0.020978396758437157, 0.09967393428087234, -0.006273603532463312, -0.08288298547267914, -0.12396713346242905, -0.05691585689783096, 0.0039054658263921738, -0.12070279568433762, -0.06027847155928612, 0.011759700253605843, 0.1390252411365509, 0.00036963861202821136, -0.14525029063224792, -0.11007646471261978, -0.11444731801748276, 0.1017657145857811, 0.0938391461968422, 0.0035161934792995453, -0.09173453599214554, -0.0646158754825592, -0.08736123889684677, 0.14123156666755676, -0.1200483962893486, 0.027269015088677406, 0.06703530251979828], [-0.8128083944320679, 0.770488977432251, 0.07587406784296036, 0.5985864400863647, -0.6730430126190186, 0.5132953524589539, 0.6648604869842529, 0.566335916519165, 0.26425701379776, 0.6908944249153137, 0.43446969985961914, 0.40594807267189026, 0.5502830743789673, 0.8015661835670471, 0.7126533389091492, 0.8576914668083191, 0.5038918852806091, 0.3857097029685974, -0.2044268101453781, -0.5665517449378967, -0.7521856427192688, 0.5399516224861145, 0.5568616390228271, 0.5167527794837952, 0.7201265096664429, 0.7915574908256531, 0.4630987048149109, 0.8535401821136475, 0.011440654285252094, 0.6777640581130981, 0.9676381945610046, 0.49384647607803345, -0.00758287264034152, 0.580211341381073, 0.049854837357997894, -0.6583322286605835, 0.6515671610832214, 0.7510269284248352, 0.23479902744293213, 0.5798546075820923, -0.43876415491104126, 0.7945832014083862, 0.676662266254425], [-0.8813028931617737, 0.7807526588439941, -0.0010583047987893224, 0.7001283168792725, -0.9558314085006714, 0.5666909217834473, 0.8069630861282349, 0.672690212726593, 0.4482952356338501, 0.8322842717170715, 0.577342689037323, 0.6989879608154297, 0.5258239507675171, 0.9236084222793579, 0.668500542640686, 0.7456727027893066, 0.7171875834465027, 0.3900311291217804, -0.37834951281547546, -0.5177508592605591, -0.7077122330665588, 0.6556242108345032, 0.4615880250930786, 0.6867690682411194, 0.6118854284286499, 0.7522444725036621, 0.7953943610191345, 0.8651123642921448, 0.027094677090644836, 0.4777810573577881, 0.8463485836982727, 0.536895215511322, 0.06310652941465378, 0.5175997614860535, 0.03906065598130226, -0.714300274848938, 0.5701703429222107, 0.8313116431236267, 0.38915154337882996, 0.7004860639572144, -0.5647482872009277, 0.6321391463279724, 0.8158767819404602], [0.8455610871315002, -0.8001829385757446, -0.07769277691841125, -0.6432468295097351, 0.9730809330940247, 0.4020577371120453, -0.19562102854251862, -0.27481335401535034, -0.4192827343940735, -0.2484986037015915, 0.20229382812976837, -0.01723233424127102, 0.0387604646384716, -0.2664855420589447, -0.23766347765922546, 0.014467870816588402, 0.2024085372686386, 0.3182704746723175, 0.469169557094574, 1.036816120147705, 1.0201905965805054, 0.2593039870262146, 0.22028110921382904, -0.24330385029315948, 0.3914331793785095, 0.4126412272453308, 0.43407681584358215, 0.14513276517391205, -0.09400379657745361, 0.4600599706172943, -1.0566174983978271, -0.3369823098182678, 0.035472363233566284, 0.3771032392978668, 0.05884584039449692, 0.8210638761520386, -0.534354031085968, 0.2804661691188812, 0.6429142951965332, -0.7246187329292297, 0.7856900095939636, -0.763282299041748, -0.6661351323127747], [0.8134189248085022, -0.7130289077758789, -0.11120150238275528, -0.6467153429985046, 0.8488864302635193, 0.3472118377685547, -0.12203367799520493, -0.5252107381820679, -0.3378879725933075, -0.517985999584198, 0.11294162273406982, -0.07992377132177353, -0.0457037128508091, -0.25521063804626465, -0.24256038665771484, -0.012918432243168354, 0.09790036082267761, 0.22732223570346832, 0.43260496854782104, 1.0804190635681152, 1.079772710800171, 0.16359944641590118, 0.2591845691204071, -0.10500544309616089, 0.5054798722267151, 0.3396911025047302, 0.3785087764263153, 0.1404103934764862, 0.016441820189356804, 0.31840789318084717, -0.8643674850463867, -0.30279740691185, 0.1326492726802826, 0.3101620674133301, -0.055121149867773056, 0.7307617664337158, -0.5792374014854431, 0.19510383903980255, 0.5974128842353821, -0.3709010183811188, 0.7321493625640869, -0.4691958427429199, -0.43729299306869507], [-0.8410940766334534, 1.0140061378479004, -0.1307271420955658, 0.6122326254844666, -0.012430479750037193, 0.9512419104576111, 0.8272464871406555, 0.9632615447044373, 0.42474427819252014, 0.8253585696220398, 0.8069470524787903, 0.7973092198371887, 0.8164133429527283, 0.8802353739738464, 0.9418630599975586, 0.835605800151825, 0.9781153798103333, 1.0194488763809204, 0.2998517155647278, 0.11887624859809875, -0.5779943466186523, 0.9005096554756165, 0.8918050527572632, 0.7115818858146667, 0.8066338896751404, 0.8290148377418518, 0.8172127604484558, 0.8270915150642395, 0.12515640258789062, 0.7220813035964966, 1.0476574897766113, 0.7892602682113647, 0.15023399889469147, 0.853672444820404, -0.0785672664642334, -0.7554585337638855, 0.7902913689613342, 0.7058124542236328, 0.6014665365219116, 0.9777470231056213, -0.1948324739933014, 0.8509909510612488, 0.8356420397758484], [-0.39185720682144165, 0.6089816689491272, -0.1472601741552353, 0.8106160163879395, 0.4161035716533661, 1.0888521671295166, 1.0094935894012451, 0.7749186158180237, 0.5127571821212769, 1.0017224550247192, 0.8900418877601624, 0.9289491176605225, 0.8160240054130554, 0.9492918252944946, 1.129244327545166, 0.9415019750595093, 0.8983523845672607, 0.7937572002410889, 0.5269078016281128, 0.6691357493400574, -0.36012333631515503, 1.0844783782958984, 1.061484694480896, 1.0802899599075317, 1.0830717086791992, 0.9963432550430298, 0.847412645816803, 0.9300799369812012, 0.01906493864953518, 0.8825452923774719, 1.0437108278274536, 0.6989016532897949, 0.05201428011059761, 1.002264380455017, -0.09581335633993149, 0.01033114269375801, 0.6150330305099487, 1.1035065650939941, 0.9911120533943176, 0.9705009460449219, 0.4264882504940033, 0.8607556819915771, 0.9884245991706848], [-0.8571616411209106, 0.9758620858192444, 0.11582061648368835, 0.9979608058929443, 0.12466409802436829, 0.9056977033615112, 1.0723671913146973, 0.9815665483474731, 0.7029687166213989, 1.056861162185669, 0.8839938640594482, 0.8517221808433533, 0.8291947245597839, 0.8873881101608276, 0.8885946273803711, 0.856480598449707, 0.8749503493309021, 0.8577691912651062, 0.3803271949291229, 0.44106367230415344, -0.5779431462287903, 0.8251091241836548, 1.0452848672866821, 1.072570562362671, 1.1052182912826538, 0.9421387910842896, 0.8667135238647461, 1.0308408737182617, -0.060012854635715485, 1.02202570438385, 1.0125072002410889, 0.6583029627799988, -0.04175518453121185, 1.059613823890686, 0.06849182397127151, -0.2855490446090698, 0.723818838596344, 1.0086283683776855, 0.8946590423583984, 0.7330343723297119, -0.038141585886478424, 0.7408000230789185, 0.7365822196006775], [-0.821301281452179, 0.6982594132423401, -0.14379379153251648, 0.41530829668045044, -0.7071016430854797, 0.6594991683959961, 0.7888544201850891, 0.5689859390258789, 0.45635849237442017, 0.8154253959655762, 0.6130290031433105, 0.3853912353515625, 0.5867121815681458, 0.8580556511878967, 0.8645780086517334, 0.9029240608215332, 0.5101877450942993, 0.32242056727409363, -0.3063443601131439, -0.3448639214038849, -0.942211389541626, 0.6730749607086182, 0.6621634364128113, 0.7099209427833557, 0.6776441931724548, 0.7947399020195007, 0.6576329469680786, 0.8178460597991943, -0.09739960730075836, 0.6748916506767273, 0.8942245841026306, 0.3362114131450653, 0.0422777459025383, 0.4907441735267639, 0.13237935304641724, -0.5312402844429016, 0.4808272123336792, 0.653117299079895, 0.34886935353279114, 0.638979434967041, -0.7029297947883606, 0.5733407139778137, 0.550045371055603], [0.804658830165863, -0.7566787600517273, 0.01887814700603485, -0.8744561672210693, 0.6827493906021118, 0.3057815134525299, -0.19092358648777008, -0.6014073491096497, -0.31832337379455566, -0.5921948552131653, 0.15131396055221558, -0.01041677687317133, -0.009576711803674698, -0.21304672956466675, -0.23095251619815826, 0.03081725910305977, 0.1307457536458969, 0.22327157855033875, 0.5125376582145691, 1.0682638883590698, 0.9939113855361938, 0.32959967851638794, 0.3300366997718811, -0.2654946744441986, 0.5630188584327698, 0.2204533815383911, 0.34017685055732727, 0.13353152573108673, -0.1137595996260643, 0.3670879602432251, -0.9410722255706787, -0.2002008706331253, 0.01182327326387167, 0.2724436819553375, -0.05555397644639015, 0.7992191910743713, -0.5249789953231812, 0.2452235370874405, 0.545120358467102, -0.7048024535179138, 0.7569417953491211, -0.6257893443107605, -0.6877915859222412], [-0.6324900984764099, 0.918917715549469, -0.02510223165154457, 0.6510744094848633, -0.7852159142494202, 0.5904317498207092, 0.8313788175582886, 0.6531611680984497, 0.3456822633743286, 0.7861236333847046, 0.37293606996536255, 0.5333238244056702, 0.5984563827514648, 0.8525792360305786, 0.907615065574646, 0.8710617423057556, 0.5638114213943481, 0.42951497435569763, -0.504122793674469, -0.7503578066825867, -0.9282886385917664, 0.570458173751831, 0.647198498249054, 0.9383999705314636, 0.6662840843200684, 0.6933184862136841, 0.7875961065292358, 0.7116632461547852, 0.05788442865014076, 0.5637112855911255, 0.8661240339279175, 0.5360860228538513, -0.04129264876246452, 0.5532357692718506, 0.11422782391309738, -0.7473194599151611, 0.8249453902244568, 0.7204468250274658, 0.20485784113407135, 0.808161199092865, -0.5781446099281311, 0.7830696105957031, 0.8216978907585144], [-0.5770706534385681, 0.7797738909721375, 0.006116916425526142, 0.5194538831710815, -0.8957708477973938, 0.4249750077724457, 0.7257593274116516, 0.5967108011245728, 0.2913069725036621, 0.6351984143257141, 0.27318447828292847, 0.46013423800468445, 0.6048450469970703, 0.8008547425270081, 0.675942599773407, 0.8040516376495361, 0.3991817831993103, 0.30138111114501953, -0.27770644426345825, -0.536693274974823, -0.8734434843063354, 0.34932348132133484, 0.30093857645988464, 0.7198944091796875, 0.5282734632492065, 0.6869372725486755, 0.5980594754219055, 0.6617333292961121, 0.028186412528157234, 0.4621395766735077, 0.7715465426445007, 0.40745511651039124, -0.1414870023727417, 0.5658646821975708, -0.013164246454834938, -0.6245582699775696, 0.6841888427734375, 0.4292883574962616, 0.1795266717672348, 0.6686596870422363, -0.41538169980049133, 0.6061096787452698, 0.6064751148223877], [-0.5675187110900879, 0.8379765152931213, -0.009759782813489437, 0.4457851052284241, -0.9173867702484131, 0.697574257850647, 0.689458429813385, 0.7386744618415833, 0.40974077582359314, 0.7417333126068115, 0.3617798984050751, 0.3746323585510254, 0.5643563270568848, 0.6624286770820618, 0.8699502348899841, 0.7439683675765991, 0.62028968334198, 0.4018055200576782, -0.24807094037532806, -0.3054344952106476, -0.8777386546134949, 0.7639617919921875, 0.4610143005847931, 0.5260905027389526, 0.775104820728302, 0.781700074672699, 0.7837936878204346, 0.5773627161979675, 0.021244866773486137, 0.6125568151473999, 0.8331900238990784, 0.424931138753891, 0.048119138926267624, 0.6330363750457764, 0.008479037322103977, -0.49888551235198975, 0.6854841709136963, 0.6377969980239868, 0.4497893452644348, 0.6515974998474121, -0.5133782029151917, 0.7660807371139526, 0.7233074903488159], [-0.8634033799171448, 0.6724756956100464, -0.0290050245821476, 0.8061050176620483, -0.7963763475418091, 0.7211886644363403, 0.8978578448295593, 0.676419734954834, 0.3934660255908966, 0.7562810778617859, 0.5781095027923584, 0.7396661043167114, 0.802197277545929, 0.6854474544525146, 0.9270193576812744, 0.8326156139373779, 0.5643181204795837, 0.33883142471313477, -0.2643391191959381, -0.7028954029083252, -0.8827311992645264, 0.8433901071548462, 0.5517451167106628, 0.8094514012336731, 0.6758912205696106, 0.7505286931991577, 0.8151378631591797, 0.872360348701477, 0.04340836778283119, 0.5411742925643921, 1.1072791814804077, 0.40814700722694397, 0.10806532949209213, 0.5253952741622925, -0.11689329892396927, -0.6114974617958069, 0.8189254403114319, 0.6218575239181519, 0.4446582496166229, 0.8000467419624329, -0.6376281976699829, 0.7865604162216187, 0.7786611914634705], [1.010912299156189, -1.01738440990448, 0.08092440664768219, -0.7483575940132141, 0.8715584874153137, 0.4689066708087921, -0.08571899682283401, -0.4372271001338959, -0.2888037860393524, -0.4418710470199585, 0.18932098150253296, 0.03202952817082405, 0.031347665935754776, -0.1701178103685379, -0.2130737155675888, 0.08783789724111557, 0.22265733778476715, 0.2594543397426605, 0.5438011884689331, 1.0550458431243896, 1.204405426979065, 0.41588085889816284, 0.19983333349227905, -0.06987324357032776, 0.45780977606773376, 0.13868524134159088, 0.4131540358066559, 0.0901181697845459, 0.11071855574846268, 0.4201928377151489, -0.8365483283996582, -0.16347774863243103, -0.014914654195308685, 0.3062542974948883, -0.1297392100095749, 0.906497597694397, -0.819230318069458, 0.5028889179229736, 0.6059786677360535, -0.6504724025726318, 0.8596854209899902, -0.8155319690704346, -0.9013853669166565], [0.8575217723846436, -1.0615639686584473, -0.09687924385070801, -0.8553724884986877, 0.8982416391372681, 0.46238279342651367, -0.040670134127140045, -0.3499370515346527, -0.3152041733264923, -0.34126150608062744, 0.18884584307670593, -0.08069799840450287, 0.02505924180150032, -0.2515212893486023, -0.19423460960388184, 0.0365360789000988, 0.2028876096010208, 0.2321396917104721, 0.6444574594497681, 0.9295133352279663, 1.16679048538208, 0.31108149886131287, 0.22260190546512604, -0.18095149099826813, 0.5148109197616577, 0.2625512480735779, 0.4518909156322479, 0.17164483666419983, -0.13416357338428497, 0.5415077805519104, -0.8002514243125916, -0.15151873230934143, 0.13906995952129364, 0.4574120342731476, -0.14116767048835754, 0.7844829559326172, -0.8453916907310486, 0.460143119096756, 0.6481940746307373, -0.827368974685669, 0.8078516721725464, -0.8647012710571289, -0.7698974013328552], [-1.0074703693389893, 0.8837836384773254, 0.06475409120321274, 0.6805064678192139, 0.06927382200956345, 0.7723779082298279, 0.9652986526489258, 0.8699361681938171, 0.5946087837219238, 0.8290011286735535, 0.8283090591430664, 0.7807654738426208, 0.8222460150718689, 0.9371328353881836, 0.8076997399330139, 0.7074183225631714, 0.8158577084541321, 0.8001932501792908, 0.4149218499660492, 0.2705566883087158, -0.5268487334251404, 0.9127702116966248, 0.7928828001022339, 0.8446222543716431, 0.9461299180984497, 0.9739959239959717, 0.7509776949882507, 0.9892781376838684, 0.043189071118831635, 0.9135637879371643, 0.9322465062141418, 0.9832338690757751, 0.06641782075166702, 0.9406337738037109, 0.07637876272201538, -0.6253649592399597, 0.8522331118583679, 0.7643705606460571, 0.5999394059181213, 0.7956887483596802, -0.24999873340129852, 0.6850040555000305, 0.9824051260948181], [0.9229260087013245, -0.6787323355674744, 0.01662166602909565, -0.778037428855896, 0.8512211441993713, 0.3425193130970001, -0.11932345479726791, -0.15916699171066284, -0.2402087301015854, -0.14542871713638306, 0.18915437161922455, -0.11468160152435303, 0.030575642362236977, -0.22004759311676025, -0.1640964299440384, 0.020603038370609283, 0.2436029464006424, 0.19408303499221802, 0.4548323452472687, 0.8127883076667786, 1.0991185903549194, 0.23119626939296722, 0.3419496715068817, -0.049862105399370193, 0.5380246639251709, 0.19062191247940063, 0.2766305208206177, 0.04138714075088501, 0.0006104227504692972, 0.45808881521224976, -0.9179178476333618, -0.18707941472530365, -0.05838872119784355, 0.22927850484848022, 0.07922141253948212, 0.7754998207092285, -0.7130900025367737, 0.436742901802063, 0.49758172035217285, -0.43980610370635986, 0.6899839639663696, -0.5300540924072266, -0.5862499475479126], [0.8309661149978638, -0.6763062477111816, -0.08382054418325424, -0.6645479798316956, 0.9789716005325317, 0.30913159251213074, 0.019841689616441727, -0.5561667680740356, -0.3448597192764282, -0.5420171022415161, 0.14168114960193634, -0.019016165286302567, 0.03648703172802925, -0.23803821206092834, -0.19396743178367615, 0.04029858112335205, 0.18332691490650177, 0.1663399487733841, 0.5168156027793884, 1.0465054512023926, 0.8441030383110046, 0.4824010133743286, 0.3104422092437744, -0.07827543467283249, 0.34949344396591187, 0.30227941274642944, 0.22912892699241638, -0.02628224901854992, -0.1021750345826149, 0.32017314434051514, -0.8583158850669861, -0.217560812830925, -0.07778666913509369, 0.3170992136001587, 0.11833146214485168, 0.7000765800476074, -0.7147828936576843, 0.5176893472671509, 0.4229579567909241, -0.7180993556976318, 0.7588461637496948, -0.7811571955680847, -0.7427278757095337], [-0.5586110949516296, 0.8572251796722412, 0.11682276427745819, 0.49648141860961914, -0.9439083337783813, 0.8238135576248169, 0.6742137670516968, 0.6634932160377502, 0.5044658780097961, 0.6718708872795105, 0.5737995505332947, 0.6655306816101074, 0.6544740200042725, 0.8290205001831055, 0.8813169598579407, 0.7754470705986023, 0.5782315135002136, 0.4877447485923767, -0.25733357667922974, -0.302569180727005, -0.8256285786628723, 0.8004535436630249, 0.5297988653182983, 0.582165002822876, 0.6372643709182739, 0.8289312720298767, 0.5644847750663757, 0.8086951971054077, 0.10229851305484772, 0.5584275126457214, 0.8894700407981873, 0.3941000699996948, 0.1450970619916916, 0.6593518257141113, -0.12554815411567688, -0.6483809947967529, 0.5167052745819092, 0.7815789580345154, 0.31176307797431946, 0.6760909557342529, -0.6594781279563904, 0.5775102972984314, 0.5571051836013794], [0.8951689004898071, -0.8442184329032898, -0.13433879613876343, -0.725180983543396, 0.6842702627182007, 0.23211349546909332, -0.08243395388126373, -0.3288537561893463, -0.5398863554000854, -0.31816062331199646, 0.1001286581158638, -0.01989564299583435, 0.033218707889318466, -0.2269580364227295, -0.1519515961408615, 0.03681793808937073, 0.22989775240421295, 0.1648588329553604, 0.3575134575366974, 0.8093955516815186, 0.7749003767967224, 0.4314618706703186, 0.23376767337322235, 0.009707021526992321, 0.5273949503898621, 0.3145696222782135, 0.3861883878707886, 0.10218982398509979, 0.09403026103973389, 0.5500493049621582, -0.8471528887748718, -0.20350904762744904, -0.029190579429268837, 0.22144246101379395, 0.0747223049402237, 0.728536069393158, -0.8060709834098816, 0.4835229218006134, 0.4467655122280121, -0.6645626425743103, 0.7543572783470154, -0.7886552214622498, -0.8259698152542114], [0.6729087829589844, -0.8677666187286377, 0.12290596216917038, -0.7674602270126343, 0.8987297415733337, 0.28151175379753113, -0.05776827409863472, -0.3637666404247284, -0.3289695084095001, -0.360935777425766, 0.1345684826374054, -0.08675586432218552, 0.010154890827834606, -0.2569308280944824, -0.18397855758666992, 0.02069897949695587, 0.1989351511001587, 0.18642665445804596, 0.5235133767127991, 0.9934808015823364, 1.1350948810577393, 0.48839637637138367, 0.17902454733848572, -0.32702070474624634, 0.6049221754074097, 0.26296234130859375, 0.31293508410453796, 0.044904645532369614, 0.040008578449487686, 0.3487979471683502, -0.9806495904922485, -0.09677290916442871, -0.07879838347434998, 0.3863838016986847, 0.10285286605358124, 0.7128823399543762, -0.6742286682128906, 0.43234920501708984, 0.5317046046257019, -0.7557728290557861, 0.7872295379638672, -0.686552107334137, -0.5067213177680969], [-0.6681749224662781, 0.8111990690231323, 0.10406378656625748, 0.6860194206237793, -0.7530105710029602, 0.6327455639839172, 1.0126066207885742, 0.8638415336608887, 0.3527746796607971, 0.858879804611206, 0.5274422764778137, 0.75005042552948, 0.7689070701599121, 0.8158241510391235, 0.8318188190460205, 0.8329854011535645, 0.6908414959907532, 0.513806939125061, -0.337755024433136, -0.42866262793540955, -0.9791468977928162, 0.8845305442810059, 0.7101244926452637, 0.9284431338310242, 0.7439660429954529, 0.907331645488739, 0.7675529718399048, 0.8117602467536926, -0.06268300861120224, 0.7459115386009216, 0.8883265852928162, 0.3950427770614624, 0.08078688383102417, 0.8831608295440674, 0.06884564459323883, -0.8375753164291382, 0.7433767318725586, 0.7853530049324036, 0.6154891848564148, 0.7010607719421387, -0.665759801864624, 0.782981276512146, 0.894408643245697], [-0.9633950591087341, 0.9438521265983582, 0.08558554947376251, 0.8413130044937134, -0.6318894028663635, 0.7210537195205688, 0.8074366450309753, 0.7392846345901489, 0.5016212463378906, 0.7898861169815063, 0.5266150236129761, 0.5459778904914856, 0.7458919286727905, 0.7063160538673401, 0.8137644529342651, 0.8461611270904541, 0.8111658096313477, 0.5743892788887024, -0.1659751534461975, -0.36775097250938416, -0.7715885043144226, 0.7791814208030701, 0.9068232774734497, 0.9808135628700256, 0.7404822707176208, 0.8816052079200745, 0.6521391868591309, 0.7443686127662659, -0.0636800080537796, 0.6511574387550354, 1.1128497123718262, 0.7429155707359314, -0.05486765503883362, 0.889436662197113, 0.14908383786678314, -0.6605897545814514, 0.8675907254219055, 0.9048369526863098, 0.6187775135040283, 0.8312450051307678, -0.537693202495575, 0.918362021446228, 0.7931188344955444], [0.7502298951148987, -0.7988749742507935, -0.0970379114151001, -0.7324637174606323, 0.8013381958007812, 0.2902313768863678, -0.10436194390058517, -0.5424206256866455, -0.324333131313324, -0.5688696503639221, 0.15290525555610657, -0.06509864330291748, -0.034121256321668625, -0.3058309853076935, -0.2990773618221283, 0.011523157358169556, 0.1583860069513321, 0.193946972489357, 0.5151306390762329, 1.128986120223999, 1.0986242294311523, 0.40717586874961853, 0.3089441657066345, -0.16399958729743958, 0.5564793348312378, 0.36155274510383606, 0.44066187739372253, 0.11988969147205353, -0.12156142294406891, 0.5538842082023621, -0.9745789766311646, -0.12612059712409973, -0.07120292633771896, 0.2718304693698883, 0.1255614012479782, 0.7766063809394836, -0.75009685754776, 0.31631919741630554, 0.5079085230827332, -0.5465927720069885, 0.8402391076087952, -0.5300863981246948, -0.7058767080307007], [-0.7922719120979309, 0.8100053668022156, -0.015557872131466866, 0.6837957501411438, -0.7313745617866516, 0.4089854955673218, 0.6915456056594849, 0.6014127135276794, 0.3849075436592102, 0.580660879611969, 0.22701424360275269, 0.41420701146125793, 0.36150062084198, 0.6257572770118713, 0.6102384328842163, 0.6608884930610657, 0.5726298093795776, 0.27642107009887695, -0.27158403396606445, -0.6064385175704956, -0.6457533836364746, 0.2194543182849884, 0.3732163906097412, 0.36530354619026184, 0.3224853575229645, 0.4319611191749573, 0.6218834519386292, 0.5610426664352417, 0.1349186897277832, 0.40669408440589905, 0.7125175595283508, 0.4417905807495117, -0.0958649143576622, 0.4756069779396057, 0.14057385921478271, -0.6941027045249939, 0.7338159680366516, 0.3817465901374817, 0.18019069731235504, 0.6312914490699768, -0.6409135460853577, 0.696225643157959, 0.7049432396888733], [0.9139049053192139, -0.8910449147224426, 0.13035273551940918, -0.7698055505752563, 0.9479514360427856, 0.4036467969417572, -0.060949526727199554, -0.3180631101131439, -0.45099732279777527, -0.30247268080711365, 0.13149920105934143, -0.05371099337935448, 0.0068894680589437485, -0.24246366322040558, -0.16685371100902557, 0.05307163670659065, 0.17666496336460114, 0.30702558159828186, 0.522315502166748, 0.9750675559043884, 0.9828662872314453, 0.48801714181900024, 0.15600325167179108, -0.17667828500270844, 0.5639026165008545, 0.30894431471824646, 0.3667166233062744, 0.07260991632938385, 0.06790690124034882, 0.4943184554576874, -1.0323631763458252, -0.23440538346767426, 0.14336688816547394, 0.35933396220207214, -0.10648613423109055, 0.8676471710205078, -0.723496675491333, 0.3336707055568695, 0.522949755191803, -0.6024243235588074, 0.8827347755432129, -0.7862027287483215, -0.814079761505127], [0.8795506954193115, -0.8173999190330505, 0.00404411880299449, -0.8192353844642639, 0.7289381623268127, 0.2141827791929245, -0.03879328444600105, -0.4020293056964874, -0.5042318105697632, -0.39456164836883545, 0.13784641027450562, 0.025876125320792198, 0.0005519503611139953, -0.21247802674770355, -0.15673667192459106, 0.028608588501811028, 0.1642259657382965, 0.1685543805360794, 0.3744838237762451, 0.8395596146583557, 0.8264185190200806, 0.3689339756965637, 0.3392358720302582, -0.11394891142845154, 0.2911778390407562, 0.42490875720977783, 0.30948972702026367, 0.05456499010324478, 0.08894789218902588, 0.29939907789230347, -0.643633246421814, -0.08837532997131348, 0.03135807439684868, 0.1858876794576645, -0.09338831901550293, 0.7718383073806763, -0.7327671647071838, 0.21778738498687744, 0.3061378300189972, -0.5439704060554504, 0.6637963652610779, -0.6792153120040894, -0.4868724048137665], [0.8307823538780212, -0.7892264127731323, -0.07870583236217499, -0.5588447451591492, 0.8293227553367615, 0.34020254015922546, 0.013797945342957973, -0.26910409331321716, -0.3737982213497162, -0.22875617444515228, 0.07858240604400635, -0.1206783875823021, -0.007330464664846659, -0.239361971616745, -0.18147367238998413, 0.005504235625267029, 0.21600034832954407, 0.15700575709342957, 0.3876754939556122, 0.7540557384490967, 0.8947029113769531, 0.2129250317811966, 0.2752685546875, -0.3253908157348633, 0.391339510679245, 0.38328123092651367, 0.3836512565612793, 0.17448031902313232, -0.0752834752202034, 0.3501492142677307, -0.7968194484710693, -0.12824556231498718, 0.06291844695806503, 0.3012616038322449, 0.021259356290102005, 0.6697815656661987, -0.6490480303764343, 0.33072367310523987, 0.6075905561447144, -0.6456561088562012, 0.6113830208778381, -0.6998549103736877, -0.47626328468322754], [-0.5636207461357117, 0.8466876745223999, 0.04048818349838257, 0.4887542724609375, -0.8902695178985596, 0.5566972494125366, 0.8650506138801575, 0.8085742592811584, 0.4272925853729248, 0.7033994197845459, 0.5625183582305908, 0.4690556824207306, 0.8116968274116516, 0.7871817350387573, 0.7092957496643066, 0.8503929972648621, 0.7187917232513428, 0.4719805121421814, -0.09536419808864594, -0.5824229717254639, -0.7138716578483582, 0.5662394762039185, 0.6327425241470337, 0.6789553165435791, 0.7421508431434631, 0.7462241053581238, 0.7791357636451721, 0.7029807567596436, 0.09524136036634445, 0.6206012964248657, 0.9241585731506348, 0.5027562975883484, 0.03753994405269623, 0.6741867661476135, -0.1464681327342987, -0.701610267162323, 0.7219943404197693, 0.7852491736412048, 0.4564252197742462, 0.7308780550956726, -0.6237818002700806, 0.8159074783325195, 0.8310081362724304], [-0.6406089067459106, 0.7095401287078857, 0.05863334238529205, 0.5882945656776428, 0.18942472338676453, 0.9040752053260803, 1.003872275352478, 0.9109600186347961, 0.6147024631500244, 0.7583019733428955, 0.8129642605781555, 0.7352556586265564, 0.9173583984375, 0.8494119048118591, 0.9676427245140076, 0.8470739126205444, 0.9111803770065308, 0.9684897065162659, 0.21308228373527527, 0.4804760217666626, -0.760689377784729, 0.7049103379249573, 0.6578128337860107, 0.7389107346534729, 0.9776728749275208, 0.9578067064285278, 0.7835536003112793, 0.828478991985321, 0.06480434536933899, 0.8249534964561462, 0.7532393932342529, 0.6959718465805054, 0.08363024145364761, 0.7711391448974609, -0.14636345207691193, -0.5454299449920654, 0.7921602725982666, 0.7410256266593933, 0.5721593499183655, 0.896675705909729, -0.2304108887910843, 0.7638664841651917, 0.7687913775444031], [-0.7745465040206909, 0.7700756192207336, -0.14566510915756226, 0.6928403377532959, -0.5521711111068726, 0.6917844414710999, 1.0384230613708496, 0.7108818292617798, 0.2537631392478943, 0.8838537931442261, 0.6857340931892395, 0.6961578130722046, 0.6998786926269531, 0.979473352432251, 0.7880969047546387, 0.8737602829933167, 0.9958949685096741, 0.9264916777610779, 0.05876566097140312, -0.1653754860162735, -0.6928934454917908, 0.7601853013038635, 0.6760345101356506, 0.8283578753471375, 0.9037208557128906, 0.9825893640518188, 0.6722534894943237, 0.8778567910194397, 0.010577303357422352, 0.6891981959342957, 1.1051709651947021, 0.5657285451889038, -0.1455191671848297, 0.7754683494567871, 0.030345307663083076, -0.8530580401420593, 0.9298064112663269, 0.907906711101532, 0.5680132508277893, 0.7466115355491638, -0.6196984648704529, 0.9159448742866516, 0.804802417755127], [-0.5821462869644165, 0.6310994625091553, -0.003046896308660507, 0.6730552315711975, -0.693419337272644, 0.7847260236740112, 0.7563139200210571, 0.7613555192947388, 0.5717074871063232, 0.7027627825737, 0.4922814667224884, 0.6923081874847412, 0.6693956851959229, 0.8972042798995972, 0.7820820808410645, 0.8547242283821106, 0.7889975309371948, 0.7594451904296875, -0.20292407274246216, -0.0704277977347374, -0.8690715432167053, 0.8442695140838623, 0.7808755040168762, 0.8207324743270874, 0.8193195462226868, 0.8970903158187866, 0.6747754216194153, 0.7296996712684631, 0.02370499260723591, 0.613090455532074, 0.9456557035446167, 0.47192835807800293, -0.14087335765361786, 0.7346184253692627, 0.11818880587816238, -0.5809667706489563, 0.692791759967804, 0.6236552596092224, 0.43091079592704773, 0.7607065439224243, -0.445763498544693, 0.6368166208267212, 0.8142237663269043], [-0.7585045695304871, 0.8337104320526123, -0.0005596480914391577, 0.7109773755073547, -0.9357776045799255, 0.44330963492393494, 0.8626553416252136, 0.7194023132324219, 0.390198290348053, 0.68765789270401, 0.47823184728622437, 0.5648111701011658, 0.5757659077644348, 0.862858235836029, 0.704844057559967, 0.7868970632553101, 0.534950852394104, 0.43260377645492554, -0.24035218358039856, -0.49627023935317993, -0.7773621082305908, 0.5890134572982788, 0.430479496717453, 0.46631261706352234, 0.7052323818206787, 0.5431531667709351, 0.4428193271160126, 0.551463782787323, -0.13765709102153778, 0.41503748297691345, 0.8632312417030334, 0.42560091614723206, -0.067055843770504, 0.3112938106060028, 0.08393372595310211, -0.630101203918457, 0.6714540719985962, 0.4735337197780609, 0.04390199854969978, 0.6022205352783203, -0.6004393100738525, 0.7335577011108398, 0.728573739528656], [-0.8080859780311584, 0.9174317717552185, -0.12342604994773865, 0.5896020531654358, -0.77569979429245, 0.720276951789856, 0.7630064487457275, 0.8143730759620667, 0.35816890001296997, 0.7826475501060486, 0.5967515110969543, 0.5285283327102661, 0.5434041619300842, 0.8671329021453857, 0.7118481397628784, 0.822657585144043, 0.562376081943512, 0.569627046585083, -0.4049891531467438, -0.578608512878418, -0.8703933358192444, 0.6758579611778259, 0.5636287927627563, 0.8548113703727722, 0.7859914898872375, 0.7759590148925781, 0.6650340557098389, 0.7378419041633606, -4.3757445382652804e-05, 0.6723692417144775, 0.7853935360908508, 0.4143814444541931, -0.004285357426851988, 0.6227988004684448, 0.10654027760028839, -0.7229154109954834, 0.7393674254417419, 0.747596800327301, 0.4082499146461487, 0.7817712426185608, -0.7260250449180603, 0.8524523377418518, 0.800078272819519], [0.8904616832733154, -0.8653077483177185, -0.0703587532043457, -0.8316110968589783, 0.7331311106681824, 0.20248520374298096, -0.08866556733846664, -0.14866265654563904, -0.22085852921009064, -0.08267135173082352, 0.10803738981485367, -0.005780377425253391, 0.0556563101708889, -0.16445189714431763, -0.10497498512268066, 0.07111161947250366, 0.20351295173168182, 0.15681584179401398, 0.44729721546173096, 0.7209994792938232, 0.9171769022941589, 0.16825541853904724, 0.24980929493904114, 0.08765808492898941, 0.26262494921684265, 0.40887075662612915, 0.32100269198417664, 0.15250785648822784, 0.024011513218283653, 0.2940311133861542, -0.7896699905395508, -0.07744096964597702, 0.03099759668111801, 0.35298117995262146, -0.10460799932479858, 0.5400317907333374, -0.7765712738037109, 0.21538113057613373, 0.4574202299118042, -0.6355155110359192, 0.46009379625320435, -0.6112449765205383, -0.6866971254348755], [-0.6762474179267883, 0.8654997944831848, -0.1343853920698166, 0.5871336460113525, -0.8333024382591248, 0.5594915747642517, 0.9022868871688843, 0.730908215045929, 0.44510361552238464, 0.6954721808433533, 0.3866003155708313, 0.4268032908439636, 0.7170433402061462, 0.6882216334342957, 0.8451296091079712, 0.8964728116989136, 0.5028219819068909, 0.3615930378437042, -0.20888011157512665, -0.7056680917739868, -0.954262912273407, 0.6912996172904968, 0.576948344707489, 0.8009763360023499, 0.8035131692886353, 0.8431501388549805, 0.5744672417640686, 0.6366477608680725, -0.0978778824210167, 0.428256094455719, 0.8618870377540588, 0.3071068525314331, 0.05783843621611595, 0.3931877017021179, -0.08199761807918549, -0.6976748108863831, 0.5895131826400757, 0.7791573405265808, 0.27046459913253784, 0.6045896410942078, -0.661636471748352, 0.6179664731025696, 0.5282149910926819], [-0.6475614309310913, 0.9476674199104309, -0.10068366676568985, 0.6843810677528381, -0.43971729278564453, 0.6868016719818115, 0.9598516225814819, 0.6918096542358398, 0.42991721630096436, 0.7098670601844788, 0.7465300559997559, 0.7456698417663574, 0.7486634850502014, 0.6738041043281555, 0.7079439163208008, 0.7329978942871094, 0.832055389881134, 0.7252352237701416, -0.06330234557390213, 0.1300068497657776, -0.6631450653076172, 0.710716187953949, 0.8664567470550537, 0.8647211790084839, 0.9183019995689392, 0.9047430157661438, 0.8440933227539062, 0.8131997585296631, -0.11559879034757614, 0.6707574725151062, 1.0593172311782837, 0.7881277203559875, 0.010344808921217918, 0.8447200059890747, -0.10960618406534195, -0.5118755102157593, 0.846839964389801, 0.6657487154006958, 0.6490331888198853, 0.9152948260307312, -0.43803372979164124, 0.6115740537643433, 0.6854450702667236], [0.7998003959655762, -0.8265044689178467, 0.035667408257722855, -0.5495263338088989, 0.8026255369186401, 0.3967845141887665, -0.12056510150432587, -0.08777778595685959, -0.14037339389324188, -0.07250978797674179, 0.13178308308124542, -0.029745925217866898, 0.027352165430784225, -0.2616810202598572, -0.17440131306648254, 0.04400526359677315, 0.21770775318145752, 0.2098248302936554, 0.491653710603714, 0.9974948167800903, 1.1179280281066895, 0.3899047076702118, 0.30106642842292786, -0.23194679617881775, 0.4372347295284271, 0.18692225217819214, 0.38436180353164673, 0.17401066422462463, 0.06194918230175972, 0.44333574175834656, -1.0555509328842163, -0.22343187034130096, -0.0930640697479248, 0.22238963842391968, -0.062116269022226334, 0.5834000706672668, -0.7277958989143372, 0.29560068249702454, 0.6651145219802856, -0.5955113172531128, 0.4645366966724396, -0.6629812717437744, -0.5365452170372009], [-0.693969190120697, 0.7471991777420044, -0.07362913340330124, 0.546009361743927, -0.8179259300231934, 0.7824271321296692, 0.8761314153671265, 0.7263966202735901, 0.3223937749862671, 0.7123454213142395, 0.46204739809036255, 0.606855034828186, 0.6816828846931458, 0.8004676103591919, 0.7765957117080688, 0.6526578068733215, 0.6451541185379028, 0.5136951804161072, -0.3036585748195648, -0.376150518655777, -0.802785336971283, 0.7656058073043823, 0.5876432061195374, 0.8256525993347168, 0.601464033126831, 0.806949257850647, 0.7713290452957153, 0.734401524066925, 0.06435046344995499, 0.6553627848625183, 0.8112237453460693, 0.5475364923477173, -0.1422012597322464, 0.5615591406822205, -0.06424187868833542, -0.5019130110740662, 0.6938620209693909, 0.5491409301757812, 0.3457877039909363, 0.8134676218032837, -0.6604505777359009, 0.7099432349205017, 0.6783055067062378], [-0.8422209024429321, 0.6988600492477417, 0.10119861364364624, 0.6573384404182434, -0.6982583403587341, 0.6691511869430542, 0.6717337965965271, 0.7539921402931213, 0.49228397011756897, 0.6456255316734314, 0.2954357862472534, 0.5962430834770203, 0.5285905599594116, 0.8886275887489319, 0.8639209866523743, 0.8043879866600037, 0.5416576862335205, 0.45358482003211975, -0.1883113831281662, -0.45213598012924194, -0.9022771120071411, 0.7175256013870239, 0.6869521737098694, 0.7388612627983093, 0.833158016204834, 0.6276600360870361, 0.7063630223274231, 0.749189555644989, -0.061412274837493896, 0.4987422823905945, 1.0338422060012817, 0.4451071619987488, -0.14061656594276428, 0.7082762122154236, -0.0236334390938282, -0.7264071702957153, 0.4674685001373291, 0.7094100713729858, 0.45087650418281555, 0.7862573862075806, -0.7444906830787659, 0.7506847381591797, 0.7155331969261169], [-0.7391881942749023, 0.6793147921562195, -0.13799110054969788, 0.5019709467887878, -0.6762042045593262, 0.6740556955337524, 0.6855599880218506, 0.8032602071762085, 0.24062083661556244, 0.6789858937263489, 0.42851874232292175, 0.42580679059028625, 0.525628924369812, 0.7351654171943665, 0.820289134979248, 0.5717732310295105, 0.40337270498275757, 0.43507441878318787, -0.3695571720600128, -0.439998984336853, -0.729618489742279, 0.4573565423488617, 0.38060519099235535, 0.5899220108985901, 0.6487679481506348, 0.7681089043617249, 0.6672196388244629, 0.7607590556144714, 0.08454178273677826, 0.6074326038360596, 0.7977860569953918, 0.2498345822095871, 0.07466500252485275, 0.501312792301178, 0.019059358164668083, -0.5793806910514832, 0.6022418141365051, 0.6245383620262146, 0.17288745939731598, 0.5427037477493286, -0.4087408781051636, 0.7503597140312195, 0.6789464354515076], [-0.5374261736869812, 0.6894888877868652, 0.0445995107293129, 0.6181093454360962, -0.848760187625885, 0.5916376113891602, 0.6803587675094604, 0.6267889738082886, 0.31161874532699585, 0.8139897584915161, 0.3351212441921234, 0.46448591351509094, 0.6195266842842102, 0.8576592206954956, 0.6493260264396667, 0.8796955943107605, 0.678525984287262, 0.29490578174591064, -0.18910691142082214, -0.3158722221851349, -0.8162163496017456, 0.7733429670333862, 0.43110302090644836, 0.769137442111969, 0.6806986331939697, 0.744346559047699, 0.5610718131065369, 0.7889830470085144, 0.10069453716278076, 0.6262252330780029, 0.9248190522193909, 0.3427380323410034, 0.04767550900578499, 0.5230448246002197, 0.040732983499765396, -0.5867269039154053, 0.6805069446563721, 0.7421364784240723, 0.30457255244255066, 0.7553961277008057, -0.3940272033214569, 0.770064115524292, 0.7008223533630371], [0.7306370139122009, -0.8357672095298767, 0.1104651391506195, -0.6330756545066833, 0.6624937653541565, 0.354506254196167, -0.012524795718491077, -0.11641596257686615, -0.1937839388847351, -0.061117857694625854, 0.16657333076000214, -0.0570366345345974, -0.013503355905413628, -0.22391414642333984, -0.20747257769107819, 0.017326723784208298, 0.1512148231267929, 0.14591902494430542, 0.440906286239624, 0.9115004539489746, 1.0229339599609375, 0.39876213669776917, 0.23608174920082092, -0.14371128380298615, 0.3913673758506775, 0.42645326256752014, 0.26994723081588745, 0.05190989747643471, -0.1076035276055336, 0.5242743492126465, -0.7964766025543213, -0.1595858335494995, 0.13848115503787994, 0.30622729659080505, 0.11050122231245041, 0.6515657305717468, -0.7453863024711609, 0.4906550347805023, 0.5403390526771545, -0.38192325830459595, 0.5218343734741211, -0.5977172255516052, -0.6794346570968628], [-0.6889972686767578, 0.9477450251579285, 0.03727130964398384, 0.7638982534408569, -0.747138500213623, 0.6199636459350586, 0.8065371513366699, 0.6320472955703735, 0.38626641035079956, 0.6367388367652893, 0.46814587712287903, 0.6472960710525513, 0.5856029391288757, 0.8520175218582153, 0.8699276447296143, 0.7908543944358826, 0.5848994851112366, 0.30399519205093384, -0.26446786522865295, -0.556770920753479, -0.860990047454834, 0.5021820068359375, 0.5741929411888123, 0.618081271648407, 0.710600733757019, 0.6375880241394043, 0.8063569068908691, 0.6640912890434265, -0.14913730323314667, 0.5925249457359314, 0.8089081048965454, 0.6336280107498169, 0.13486319780349731, 0.4220554530620575, 0.11670498549938202, -0.8767784833908081, 0.6234437823295593, 0.5593124628067017, 0.10618802905082703, 0.6822540760040283, -0.6335234642028809, 0.9013195633888245, 0.6736547946929932], [0.7357969880104065, -0.7790303826332092, 0.10907565802335739, -0.7162189483642578, 0.7005506753921509, 0.4328993856906891, -0.15867727994918823, -0.3244335949420929, -0.38932281732559204, -0.32381150126457214, 0.17662449181079865, -0.11456348747015, 0.00028594036120921373, -0.2976243197917938, -0.2484574168920517, 0.01550004631280899, 0.22770622372627258, 0.2550060451030731, 0.46771103143692017, 0.970554769039154, 1.1385422945022583, 0.2942274510860443, 0.303494930267334, -0.23207755386829376, 0.6155577301979065, 0.2288936972618103, 0.3001904785633087, 0.031001392751932144, 0.053967129439115524, 0.5769137144088745, -0.8769432902336121, -0.38910210132598877, 0.028551742434501648, 0.23153649270534515, -0.09219201654195786, 0.6854852437973022, -0.6954941749572754, 0.5624106526374817, 0.45917508006095886, -0.43105483055114746, 0.5454190969467163, -0.7349807024002075, -0.759636402130127], [-0.8199761509895325, 0.7098535299301147, -0.0382186658680439, 0.5230644941329956, -0.7523395419120789, 0.532310962677002, 0.6974641680717468, 0.827802300453186, 0.5813814401626587, 0.8388573527336121, 0.2907154858112335, 0.3400956690311432, 0.6791417598724365, 0.6745844483375549, 0.6563977003097534, 0.9012758135795593, 0.6695688962936401, 0.344922810792923, -0.4344143867492676, -0.6296486854553223, -0.6987045407295227, 0.597856342792511, 0.48319289088249207, 0.6711419820785522, 0.7229990363121033, 0.756230354309082, 0.4896497130393982, 0.7145776152610779, -0.11350692808628082, 0.6479056477546692, 0.754605770111084, 0.5580210089683533, -0.1391475647687912, 0.6930277347564697, 0.04206063225865364, -0.7209526896476746, 0.5856077671051025, 0.5252510905265808, 0.36078089475631714, 0.7122923135757446, -0.7279910445213318, 0.6863565444946289, 0.790034830570221], [0.9934727549552917, -0.9171459674835205, -0.07152028381824493, -0.5760055184364319, 1.0070725679397583, 0.381034255027771, -0.13517963886260986, -0.2111535221338272, -0.28676238656044006, -0.18647269904613495, 0.2065923660993576, -0.020345771685242653, 0.023571887984871864, -0.16321977972984314, -0.09265142679214478, 0.10002800077199936, 0.23446395993232727, 0.27366340160369873, 0.5504965782165527, 0.8451899886131287, 0.9025488495826721, 0.30610209703445435, 0.33102545142173767, -0.21119606494903564, 0.5109512209892273, 0.1245749220252037, 0.3086562752723694, 0.05459137260913849, 0.0836571678519249, 0.3557033836841583, -0.9060322046279907, -0.36759456992149353, 0.10343329608440399, 0.4134830832481384, -0.09562045335769653, 1.0075647830963135, -0.7846183180809021, 0.2715400159358978, 0.553499698638916, -0.6529190540313721, 0.7709274291992188, -0.773421585559845, -0.7886366248130798], [-0.8048653602600098, 0.7280377745628357, 0.13150815665721893, 0.6898941993713379, -0.8785985112190247, 0.6417983174324036, 0.8429343104362488, 0.5969606041908264, 0.453260600566864, 0.7904347777366638, 0.48702993988990784, 0.7093270421028137, 0.5854662656784058, 0.6979885697364807, 0.7653151154518127, 0.7827995419502258, 0.5625582337379456, 0.3633512556552887, -0.3823447525501251, -0.4844709038734436, -1.000656008720398, 0.535029411315918, 0.5896647572517395, 0.7528254985809326, 0.8698556423187256, 0.7805171608924866, 0.7924949526786804, 0.9173750281333923, 0.14284874498844147, 0.5602468252182007, 0.9720427393913269, 0.47337767481803894, 0.05862930789589882, 0.7623066902160645, 0.13935290277004242, -0.74263995885849, 0.8533130884170532, 0.7391451597213745, 0.181484654545784, 0.7946423292160034, -0.6388063430786133, 0.7941480875015259, 0.8358650207519531], [0.7452428340911865, -0.8974427580833435, 0.12444305419921875, -0.7697279453277588, 0.649692952632904, 0.23918384313583374, -0.21417948603630066, -0.12235861271619797, -0.18971194326877594, -0.1046396940946579, 0.13847830891609192, -0.06658890843391418, 0.016643596813082695, -0.2209768444299698, -0.22336158156394958, 0.037842221558094025, 0.16388031840324402, 0.2777864336967468, 0.5091003775596619, 0.9298964738845825, 0.9844583868980408, 0.4190751612186432, 0.25683993101119995, -0.24707096815109253, 0.4047960937023163, 0.36248502135276794, 0.40864813327789307, 0.17462210357189178, 0.06939796358346939, 0.5023828744888306, -1.023454189300537, -0.12397441267967224, 0.033106479793787, 0.26214322447776794, -0.016884993761777878, 0.7438015341758728, -0.65643310546875, 0.4513128399848938, 0.541387140750885, -0.5340507626533508, 0.5697435736656189, -0.6176072359085083, -0.5302587747573853], [0.8600066900253296, -0.6896936893463135, -0.00587276928126812, -0.720128059387207, 0.9366900324821472, 0.4212959110736847, -0.23755070567131042, -0.1184149757027626, -0.16087119281291962, -0.06229487061500549, 0.10461012274026871, -0.06850015372037888, -0.014555259607732296, -0.2688286006450653, -0.20981499552726746, 0.012129723094403744, 0.16411136090755463, 0.17847366631031036, 0.35302191972732544, 1.0494548082351685, 0.8335143327713013, 0.25979286432266235, 0.17993280291557312, -0.30124133825302124, 0.5046984553337097, 0.40328681468963623, 0.25314459204673767, 0.05066930875182152, 0.10264257341623306, 0.4027937352657318, -0.9624166488647461, -0.09593753516674042, 0.12158522009849548, 0.2629578113555908, 0.03971681743860245, 0.7440288066864014, -0.5931808948516846, 0.36314207315444946, 0.6201333999633789, -0.400333434343338, 0.4671509563922882, -0.45714980363845825, -0.46879327297210693], [-0.7159518003463745, 0.7298225164413452, 0.01920720934867859, 0.40234798192977905, -0.7045775651931763, 0.6617175340652466, 0.8843002915382385, 0.5444779992103577, 0.4727056324481964, 0.7816880941390991, 0.5717783570289612, 0.360085666179657, 0.637703001499176, 0.690509557723999, 0.7947900295257568, 0.8589739799499512, 0.6001362800598145, 0.3727370798587799, -0.2744166851043701, -0.2913248836994171, -0.8551439642906189, 0.7205383777618408, 0.47567614912986755, 0.5159133672714233, 0.5564650297164917, 0.7741101384162903, 0.47497108578681946, 0.6731431484222412, -0.013067224062979221, 0.4675543010234833, 0.8625272512435913, 0.38796690106391907, -0.08567464351654053, 0.5983374118804932, -0.08412951976060867, -0.5557661056518555, 0.6463578343391418, 0.63450688123703, 0.4645577669143677, 0.7789540886878967, -0.5325201153755188, 0.723289430141449, 0.6782457828521729], [-0.8201044201850891, 0.6497150659561157, -0.0029402023646980524, 0.6430708765983582, -0.8291565179824829, 0.4662054479122162, 0.8013292551040649, 0.8387746214866638, 0.498418927192688, 0.7781185507774353, 0.40654274821281433, 0.6605561971664429, 0.5810304284095764, 0.87693852186203, 0.6635938286781311, 0.8327697515487671, 0.6645549535751343, 0.5746012330055237, -0.2006346732378006, -0.446016401052475, -0.846744954586029, 0.5055975914001465, 0.3999086916446686, 0.6052938103675842, 0.6817522048950195, 0.7219484448432922, 0.7554550766944885, 0.7814378142356873, -0.018820900470018387, 0.6979079246520996, 1.0112473964691162, 0.3966354429721832, -0.11860854923725128, 0.5267853140830994, -0.048741649836301804, -0.7005727887153625, 0.7187942266464233, 0.7477400898933411, 0.3299572467803955, 0.7427402138710022, -0.6925985813140869, 0.77054363489151, 0.5978648066520691], [-0.8211619853973389, 0.8374951481819153, 0.11160724610090256, 0.7331486940383911, -0.774266242980957, 0.487289160490036, 0.7448682188987732, 0.7382000684738159, 0.5861538648605347, 0.8360157012939453, 0.5144761204719543, 0.5919840931892395, 0.6991369724273682, 0.6377542018890381, 0.7687211632728577, 0.7119603157043457, 0.38274946808815, 0.3311927318572998, -0.21492597460746765, -0.6313097476959229, -0.6478842496871948, 0.3270491659641266, 0.5517115592956543, 0.482774019241333, 0.6689587235450745, 0.5751646757125854, 0.6148640513420105, 0.5927689075469971, -0.07925187796354294, 0.36797305941581726, 0.7133805751800537, 0.5217162370681763, -0.05572093650698662, 0.20747685432434082, -0.15128281712532043, -0.7586355805397034, 0.5975096821784973, 0.4347151517868042, 0.10263711214065552, 0.5561292767524719, -0.6748493909835815, 0.7473434805870056, 0.6418288946151733], [0.7862746119499207, -0.7109141945838928, 0.14963781833648682, -0.6304416060447693, 0.9732542037963867, 0.37376630306243896, -0.02940978854894638, -0.34013181924819946, -0.29330188035964966, -0.31922805309295654, 0.18643271923065186, 0.0008191733504645526, 0.00030062455334700644, -0.19367364048957825, -0.19864413142204285, 0.05157417431473732, 0.2029111236333847, 0.2854554057121277, 0.468247652053833, 0.8811843991279602, 0.875921905040741, 0.3141041398048401, 0.25193434953689575, -0.0788838192820549, 0.544870138168335, 0.1524115949869156, 0.25259387493133545, 0.03470560908317566, 0.1367696225643158, 0.3609863221645355, -0.9186722636222839, -0.07946553826332092, 0.11028037965297699, 0.3263394832611084, -0.12661144137382507, 0.6933496594429016, -0.5999992489814758, 0.37621915340423584, 0.41390261054039, -0.4972422420978546, 0.7426535487174988, -0.729707658290863, -0.5955778956413269], [0.8002853989601135, -0.8173447251319885, -0.11183340102434158, -0.9324204921722412, 0.7321535348892212, 0.29322367906570435, -0.1561787873506546, -0.3843402862548828, -0.51863032579422, -0.37721914052963257, 0.17175935208797455, -0.06999651342630386, 0.013155643828213215, -0.24770012497901917, -0.21026478707790375, 0.031132247298955917, 0.19298118352890015, 0.2739412784576416, 0.40433773398399353, 0.9401178956031799, 1.0358288288116455, 0.41600850224494934, 0.18730732798576355, -0.2439156025648117, 0.5221160650253296, 0.28181809186935425, 0.37239325046539307, 0.10023394227027893, 0.04705730825662613, 0.5146774649620056, -0.9086652398109436, -0.32340049743652344, 0.022884981706738472, 0.4279444217681885, 0.017931045964360237, 0.7856928706169128, -0.8107450008392334, 0.5132423043251038, 0.465573787689209, -0.5697676539421082, 0.8122330904006958, -0.5722917318344116, -0.6020944714546204], [0.7140740752220154, -0.758184552192688, 0.02792726829648018, -0.5963335037231445, 0.7492825388908386, 0.401698499917984, -0.1724320948123932, -0.4752007722854614, -0.31047797203063965, -0.4686644971370697, 0.2110995054244995, 0.005564299412071705, 0.0006121398764662445, -0.2437208890914917, -0.2252577394247055, 0.03672980144619942, 0.183792382478714, 0.2917322516441345, 0.441784530878067, 1.0380494594573975, 0.9057996273040771, 0.29631832242012024, 0.17491339147090912, -0.1165999248623848, 0.5212739109992981, 0.14708702266216278, 0.44790875911712646, 0.18685486912727356, -0.10920322686433792, 0.34249988198280334, -0.8589567542076111, -0.2819827198982239, 0.06854655593633652, 0.2604333162307739, 0.09422407299280167, 0.7559795379638672, -0.6625667810440063, 0.46831774711608887, 0.49249181151390076, -0.5396472215652466, 0.6367985606193542, -0.6498823761940002, -0.6454697251319885], [-0.6582958698272705, 0.8539118766784668, -0.08215472102165222, 0.42592787742614746, -0.7169598937034607, 0.6691088080406189, 0.8838322758674622, 0.8185158967971802, 0.40394020080566406, 0.5385280251502991, 0.37006035447120667, 0.47363272309303284, 0.6668769717216492, 0.843609094619751, 0.8371109962463379, 0.6855302453041077, 0.5071200728416443, 0.24264539778232574, -0.2562553882598877, -0.6494172811508179, -0.9566494226455688, 0.6992508769035339, 0.45530223846435547, 0.5622511506080627, 0.6154517531394958, 0.6334145665168762, 0.5000136494636536, 0.6120318174362183, -0.09582298994064331, 0.585644543170929, 0.9690610766410828, 0.49163076281547546, -0.1349678933620453, 0.45224595069885254, 0.06644143909215927, -0.5650925636291504, 0.6005929112434387, 0.6773806810379028, 0.23805095255374908, 0.7658974528312683, -0.4572242796421051, 0.6825029253959656, 0.561838686466217], [-0.7319564819335938, 1.0118776559829712, 0.06085915490984917, 0.8107959628105164, -0.6894525289535522, 0.9086362719535828, 0.9281560182571411, 0.9521636962890625, 0.6285189986228943, 0.7078789472579956, 0.6022456288337708, 0.769230306148529, 0.6581167578697205, 0.7364064455032349, 0.8428685069084167, 0.7296255230903625, 0.6740487813949585, 0.650833785533905, -0.13194510340690613, -0.43396031856536865, -0.8495365977287292, 0.8551653027534485, 0.6429179310798645, 0.8128253221511841, 0.9391684532165527, 0.9137294292449951, 0.6798747777938843, 0.8317726850509644, -0.009857078082859516, 0.7615422010421753, 1.0873926877975464, 0.5586183071136475, 0.024998880922794342, 0.8741007447242737, 0.018604276701807976, -0.6865555644035339, 0.8033668398857117, 0.8824816942214966, 0.3319484293460846, 0.6665797233581543, -0.7740734815597534, 0.6969049572944641, 0.6949062347412109], [-0.6114416122436523, 0.8025127053260803, -0.14856693148612976, 0.6610530614852905, -0.7238926887512207, 0.510883092880249, 0.9435452222824097, 0.6862391829490662, 0.5483682751655579, 0.5897203087806702, 0.419911652803421, 0.5860235691070557, 0.5901574492454529, 0.8428285121917725, 0.9014652967453003, 0.9254235625267029, 0.5780629515647888, 0.36026307940483093, -0.31155163049697876, -0.4269164502620697, -0.89107745885849, 0.6782897114753723, 0.43961259722709656, 0.7061656713485718, 0.6195133328437805, 0.7503777146339417, 0.5518484115600586, 0.8170536160469055, -0.006179980468004942, 0.5496492385864258, 0.9718281626701355, 0.3434685170650482, -0.12841810286045074, 0.5474036931991577, 0.15075239539146423, -0.5753753781318665, 0.7799174189567566, 0.749582827091217, 0.18607378005981445, 0.6750306487083435, -0.635408341884613, 0.6301532983779907, 0.6317886710166931], [0.802394449710846, -0.6237006187438965, 0.062322329729795456, -0.850924551486969, 0.8067463636398315, 0.26125216484069824, -0.22695276141166687, -0.5095345973968506, -0.4971904754638672, -0.49875614047050476, 0.2008698731660843, -0.0968698263168335, -0.006928714923560619, -0.2185203582048416, -0.23171070218086243, 0.001515475451014936, 0.2584640681743622, 0.2999846637248993, 0.2750338315963745, 1.068294644355774, 1.093908667564392, 0.24853357672691345, 0.24830932915210724, -0.021889103576540947, 0.5755223035812378, 0.2342432290315628, 0.39266905188560486, 0.13670377433300018, -0.06142956390976906, 0.3232148587703705, -0.9915146231651306, -0.08384133130311966, 0.055255528539419174, 0.2543245553970337, -0.11918845027685165, 0.7220090627670288, -0.7021375894546509, 0.4882720112800598, 0.5624949336051941, -0.44653165340423584, 0.7528688311576843, -0.5964120626449585, -0.5783812403678894], [-0.6086757779121399, 0.8128960132598877, -0.0964311733841896, 0.4642065465450287, -0.6800609827041626, 0.4427419602870941, 0.9478721618652344, 0.797042191028595, 0.5600985884666443, 0.7557447552680969, 0.45178988575935364, 0.6036497950553894, 0.5590659976005554, 0.7328587174415588, 0.7833117246627808, 0.8621935844421387, 0.4293833374977112, 0.44292348623275757, -0.2533946931362152, -0.44434842467308044, -0.8564296960830688, 0.4570741355419159, 0.5191052556037903, 0.5456822514533997, 0.683789074420929, 0.5865922570228577, 0.4321579039096832, 0.8041537404060364, -0.06508490443229675, 0.6351421475410461, 0.9919508695602417, 0.3566319942474365, -0.040750544518232346, 0.31750181317329407, -0.0975714921951294, -0.7079511880874634, 0.5968752503395081, 0.5689883828163147, 0.21156936883926392, 0.660241425037384, -0.5883655548095703, 0.6771621704101562, 0.6220576167106628], [-0.7248768210411072, 0.774749755859375, 0.0597052276134491, 0.504443883895874, -0.8223710656166077, 0.4142746925354004, 0.9335752725601196, 0.5998630523681641, 0.4515872895717621, 0.6685853600502014, 0.2738507091999054, 0.38237300515174866, 0.6422573328018188, 0.7637461423873901, 0.8630064725875854, 0.7804250121116638, 0.6924025416374207, 0.40955570340156555, -0.34873196482658386, -0.4366523027420044, -0.9664265513420105, 0.47572171688079834, 0.5245987176895142, 0.6884070038795471, 0.6737138628959656, 0.6003804802894592, 0.6005495190620422, 0.7426873445510864, 0.07225301861763, 0.5944759249687195, 0.9213934540748596, 0.4750572144985199, 0.013548356480896473, 0.4139287769794464, -0.05108390003442764, -0.8097572326660156, 0.6835505366325378, 0.7304942011833191, 0.1286221444606781, 0.6149906516075134, -0.6790086627006531, 0.6590821743011475, 0.6225836873054504], [-0.6644090414047241, 0.6071117520332336, -0.08909614384174347, 0.4570276737213135, -0.5656329393386841, 0.7799382209777832, 0.9757605195045471, 0.6850175261497498, 0.45539045333862305, 0.8952066898345947, 0.7347231507301331, 0.7465462684631348, 0.8277873992919922, 0.66610187292099, 0.7674775123596191, 0.8653868436813354, 0.9199914336204529, 0.5781769156455994, -0.15300174057483673, -0.20287084579467773, -0.6938299536705017, 0.8461835384368896, 0.54464191198349, 0.836550772190094, 0.7874901294708252, 0.8752349615097046, 0.7168586254119873, 0.6871549487113953, -0.015555418096482754, 0.8335273265838623, 0.9997150897979736, 0.5038778185844421, -0.014400053769350052, 0.8497219681739807, 0.03701387345790863, -0.6765421032905579, 0.6509411334991455, 0.865553617477417, 0.5464794635772705, 0.7181990146636963, -0.41559359431266785, 0.611672580242157, 0.667725145816803], [-0.6597577929496765, 0.6299527883529663, 0.06751875579357147, 0.6552204489707947, -0.6821311712265015, 0.6302008628845215, 0.9512553811073303, 0.674557626247406, 0.5916268229484558, 0.8008546233177185, 0.5048714876174927, 0.5337632298469543, 0.7557101845741272, 0.803047239780426, 0.8838624954223633, 0.8449426889419556, 0.8110295534133911, 0.452957421541214, -0.1986364722251892, -0.2665618360042572, -0.8868951797485352, 0.6663510203361511, 0.6287060976028442, 0.6859662532806396, 0.7856885194778442, 0.6823938488960266, 0.5208687782287598, 0.9299106597900391, -0.03431827202439308, 0.7371633648872375, 0.9751781821250916, 0.3850158751010895, -0.09579959511756897, 0.6015366911888123, -0.06060558930039406, -0.682676374912262, 0.5500607490539551, 0.7390770316123962, 0.42030197381973267, 0.7725728154182434, -0.4945129454135895, 0.6992312073707581, 0.6882563829421997], [0.8882459998130798, -0.9334123134613037, -0.09861595928668976, -0.6651841402053833, 0.8606100082397461, 0.28500425815582275, -0.18455222249031067, -0.23317262530326843, -0.2968892455101013, -0.21672481298446655, 0.10910613089799881, 0.012579039670526981, 0.005746275652199984, -0.24573855102062225, -0.24249348044395447, 0.04056293144822121, 0.2507164776325226, 0.2975972890853882, 0.4264828562736511, 1.0889601707458496, 1.0014004707336426, 0.40375930070877075, 0.28470146656036377, -0.07299591600894928, 0.5035287737846375, 0.37972503900527954, 0.46479687094688416, 0.21479225158691406, -0.11433515697717667, 