{"metadata": {"algorithm": "reinforce_self_play", "num_players": 3, "input_size": 30, "hidden_size": 128, "num_layers": 2, "output_size": 10, "abstract_actions": ["L", "M", "H", "D", "LL", "LH", "HH", "K0", "K1", "K2"], "episodes": 320000, "win_rate_vs_random": 0.5107, "exported_at": "2026-03-05T16:42:15Z"}, "weights": {"w1": [[0.13289116322994232, 0.25427374243736267, -0.146864116191864, 0.21758028864860535, -0.07100988179445267, 0.038708172738552094, -0.08419676125049591, 0.12495643645524979, 0.18365329504013062, -0.08800070732831955, 0.16598376631736755, 0.07465291768312454, 0.15515650808811188, 0.07827921211719513, 0.12302646785974503, -0.007870825007557869, 0.14261001348495483, 0.028852388262748718, -0.16749903559684753, 0.014728661626577377, -0.054320067167282104, 0.011211355216801167, -0.07328423112630844, 0.22435687482357025, -0.2437729388475418, -0.05162741616368294, -0.06887251138687134, -0.07333511859178543, 0.042669083923101425, -0.1803247034549713], [0.12909036874771118, -0.11949735879898071, 0.0739051029086113, 0.008877547457814217, -0.07878009974956512, 0.09471917152404785, 0.02620224840939045, 0.1809045821428299, 0.03858676925301552, -0.05025891959667206, 0.08017607033252716, -0.009678797796368599, 0.10005676746368408, 0.0740431621670723, -0.06272251158952713, -0.10222247987985611, 0.08729107677936554, 0.01456426177173853, 0.16087090969085693, -0.1559060662984848, -0.21600401401519775, -0.10281107574701309, -0.12397043406963348, 0.16536837816238403, -0.040941741317510605, 0.02632138319313526, 0.19731691479682922, -0.023262985050678253, 0.14316987991333008, -0.12972143292427063], [0.08337612450122833, -0.11114668846130371, 0.09948486089706421, -0.05406272038817406, 0.16779667139053345, 0.01269782055169344, 0.2024347484111786, -0.02575901336967945, -0.014455941505730152, 0.00781949795782566, 0.26588669419288635, 0.16670098900794983, 0.24845586717128754, -0.1705082505941391, -0.3095338046550751, -0.05091030150651932, -0.07207992672920227, 0.12468557804822922, 0.21423545479774475, 0.17340782284736633, -0.03798707202076912, -0.058994244784116745, 0.18930450081825256, -0.05855792760848999, 0.1279306411743164, 0.0047434186562895775, 0.38028424978256226, -0.07076089084148407, 0.003795055905357003, 0.05566256865859032], [0.024604979902505875, -0.04954390600323677, 0.10964075475931168, 0.10648582875728607, -0.10914361476898193, -0.10093636065721512, 0.16025879979133606, -0.06348671019077301, -0.07864024490118027, -0.18215778470039368, -0.09947970509529114, 0.035127244889736176, -0.029556499794125557, -0.13579587638378143, 0.0009477705461904407, -0.13269838690757751, -0.15836061537265778, -0.10400258749723434, -0.15368621051311493, -0.11614930629730225, 0.17908160388469696, 0.027101371437311172, 0.05628400668501854, -0.17782078683376312, -0.13153231143951416, -0.07041571289300919, 0.020676644518971443, -0.17014440894126892, -0.08663121610879898, -0.10930142551660538], [-0.02158152498304844, -0.1541437953710556, 0.09537407755851746, -0.07934297621250153, -0.16508613526821136, -0.097187340259552, -0.0522829107940197, -0.16441336274147034, 0.15284816920757294, -0.02511768229305744, 0.16943630576133728, 0.05097941681742668, -0.13599653542041779, 0.10680405050516129, -0.02838028036057949, -0.05128386989235878, -0.14222262799739838, -0.17218126356601715, 0.08246700465679169, -0.020347511395812035, 0.08138854801654816, -0.13254515826702118, 0.1055946946144104, -0.21764710545539856, 0.08067729324102402, 0.06160110980272293, 0.11350295692682266, 0.16822591423988342, 0.18538933992385864, -0.14476710557937622], [0.06822440028190613, -0.05862530693411827, -0.007149928715080023, -0.1398298591375351, 0.262416809797287, -0.15147164463996887, 0.13037113845348358, 0.13324318826198578, 0.1293330192565918, -0.011831293813884258, 0.25877436995506287, 0.14505013823509216, 0.10111888498067856, -0.1646571308374405, -0.08446944504976273, 0.0191786028444767, -0.10111265629529953, 0.13935023546218872, 0.09825906157493591, -0.162709042429924, -0.06499240547418594, 0.02284877374768257, 0.1356639564037323, -0.023089539259672165, -0.1059969812631607, -0.040291815996170044, 0.10698048025369644, 0.1186353787779808, 0.1976252645254135, -0.17188270390033722], [0.16953639686107635, 0.1259162724018097, 0.041168246418237686, -0.07100050151348114, 0.1815258115530014, 0.18762998282909393, 0.026748478412628174, -0.0939798504114151, -0.08461357653141022, -0.011914882808923721, -0.06630111485719681, -0.06005148962140083, 0.11529286950826645, 0.30331459641456604, 0.2422928363084793, 0.028581202030181885, 0.09434962272644043, 0.08078421652317047, 0.008454559370875359, 0.16694077849388123, -0.06817097216844559, 0.025951437652111053, 0.2437664270401001, 0.09459787607192993, 0.04666783660650253, -0.0036977333948016167, -0.3489079177379608, -0.11666148900985718, -0.04487164691090584, 0.06165606528520584], [0.09598802775144577, 0.0777505412697792, -0.09490197896957397, -0.10010933876037598, -0.022530222311615944, 0.18995548784732819, 0.06639191508293152, 0.012778745032846928, 0.13349880278110504, 0.006532711908221245, -0.026554325595498085, 0.2083778977394104, -0.021916603669524193, -0.1074000671505928, -0.3641074597835541, 0.15923503041267395, 0.15166698396205902, 0.07988076657056808, -0.02368864230811596, -0.18757827579975128, -0.14335690438747406, 0.1500527262687683, 0.09664548188447952, 0.1448003351688385, 0.13527518510818481, 0.046783413738012314, 0.24021859467029572, -0.10141512751579285, -0.100800059735775, -0.17077051103115082], [0.1300194263458252, -0.0635637566447258, -0.10915693640708923, -0.07450567930936813, -0.005996463820338249, -0.10500439256429672, -0.11132016777992249, 0.09083094447851181, -0.020188434049487114, 0.14218494296073914, -0.03879696503281593, -0.10450853407382965, -0.01485076267272234, -0.08555009216070175, -0.050884343683719635, -0.14415399730205536, 0.1256461888551712, -0.10361131280660629, 0.110132597386837, 0.13750562071800232, 0.15452124178409576, -0.10942454636096954, 0.18911296129226685, -0.09233032166957855, 0.001757157500833273, 0.2004062831401825, -0.011337690986692905, 0.02228643000125885, -0.01669171079993248, -0.15244662761688232], [0.08294052630662918, -0.1812446564435959, 0.11865125596523285, 0.13608233630657196, 0.1642247587442398, -0.04133721441030502, -0.15021520853042603, 0.04597863182425499, 0.10620318353176117, -0.18734955787658691, -0.03870652616024017, -0.10753801465034485, -0.017900852486491203, -0.10481682419776917, -0.08055809885263443, -0.058113280683755875, -0.17177237570285797, 0.1515320986509323, 0.145209401845932, -0.0282441396266222, -0.020157668739557266, -0.07234292477369308, -0.16487595438957214, -0.17767104506492615, 0.07002446800470352, -0.09638421982526779, -0.12251368165016174, -0.007710862439125776, -0.061794672161340714, -0.059066541492938995], [-0.06682078540325165, 0.17361989617347717, -0.05394574999809265, -0.09832650423049927, -0.019128460437059402, 0.21169349551200867, -0.04072882607579231, 0.10715614259243011, 0.007704246323555708, 0.08013492077589035, 0.22728610038757324, 0.14315165579319, -0.0893484354019165, 0.14906153082847595, 0.2546018660068512, 0.11377543210983276, 0.18100598454475403, 0.23860132694244385, -0.009929249994456768, 0.059148918837308884, -0.05164826661348343, 0.03629313036799431, 0.08401302993297577, 0.31018921732902527, -0.12678615748882294, -0.08037026971578598, -0.08453356474637985, -0.09841646254062653, -0.06013016030192375, -0.04515012353658676], [0.10003910958766937, 0.14158134162425995, -0.11692945659160614, -0.14544335007667542, 0.18518339097499847, -0.11147914081811905, 0.03752896189689636, 0.19478996098041534, 0.01607592962682247, 0.07425152510404587, 0.08119406551122665, 0.043151043355464935, -0.007555132731795311, -0.17190298438072205, -0.2504940927028656, -0.018760090693831444, 0.2006641924381256, -0.06385877728462219, 0.00927562266588211, 0.057113222777843475, 0.09833315014839172, 0.15439832210540771, 0.14103849232196808, 0.21812674403190613, -0.1863226592540741, 0.050318650901317596, 0.35195401310920715, 0.05667171627283096, -0.01675022393465042, 0.17405523359775543], [-0.10335780680179596, -0.055409692227840424, -0.13626930117607117, 0.008889206685125828, 0.12152032554149628, 0.05801275745034218, 0.07512985914945602, -0.06487160921096802, -0.08236519992351532, 0.08308428525924683, 0.25484612584114075, 0.18910430371761322, -0.02576155960559845, -0.08640803396701813, -0.2924578785896301, -0.038027141243219376, 0.05066162347793579, 0.11701615154743195, 0.25566792488098145, -0.1918756663799286, 0.1341785341501236, -0.10559999942779541, 0.05949750542640686, 0.20576581358909607, 0.004200928378850222, 0.17265233397483826, 0.10872951149940491, -0.015249932184815407, 0.17055220901966095, -0.03977704420685768], [-0.02515878900885582, -0.0882846862077713, 0.09342457354068756, 0.07163452357053757, 0.027691498398780823, -0.11112174391746521, -0.16317881643772125, 0.015531664714217186, 0.03670521453022957, -0.11004181206226349, -0.05260246992111206, 0.09606979787349701, -0.006085447501391172, -0.014474348165094852, -0.07992780953645706, -0.19275182485580444, -0.18018722534179688, -0.09579488635063171, -0.10657905787229538, 0.04656317085027695, -0.07702437043190002, -0.09959030896425247, 0.17154192924499512, 0.05398670211434364, 0.10256557166576385, -0.11516565829515457, -0.10172119736671448, 0.03855596482753754, -0.14916792511940002, -0.11934947967529297], [-0.03503828123211861, 0.03105987049639225, -0.03273402526974678, 0.10564872622489929, 0.24142563343048096, 0.07123709470033646, 0.006762104574590921, -0.13522867858409882, -0.030751198530197144, 0.09421420842409134, 0.12124639749526978, -0.003170367330312729, -0.028661059215664864, 0.20922280848026276, 0.03738992661237717, 0.18636901676654816, -0.029211146757006645, 0.04441380128264427, -0.059832263737916946, 0.10529818385839462, 0.033480461686849594, 0.21739503741264343, -0.025199059396982193, 0.23949041962623596, 0.27183136343955994, -0.0038847497198730707, -0.17767667770385742, 0.22273723781108856, 0.21241189539432526, -0.1394040286540985], [-0.06331323832273483, -0.19652032852172852, -0.15520428121089935, 0.0183063093572855, 0.053003378212451935, -0.006892608478665352, -0.06428242474794388, 0.13991975784301758, 0.004565748386085033, -0.1282353401184082, -0.04039478674530983, 0.01550410594791174, 0.03333213925361633, -0.1383141428232193, 0.032400622963905334, -0.12574759125709534, -0.1973029226064682, -0.145317941904068, 0.1485326886177063, 0.09758903831243515, 0.1205046996474266, 0.06160246208310127, 0.0961584597826004, -0.0427745021879673, -0.11336170136928558, 0.05605626478791237, -0.11506208777427673, -0.15523017942905426, -0.08278796821832657, 0.038314882665872574], [0.21805697679519653, -0.10590767860412598, -0.04442969337105751, 0.028323328122496605, -0.016868729144334793, -0.05654666945338249, 0.0801888033747673, -0.06528922915458679, 0.14821495115756989, 0.17262165248394012, 0.03672380372881889, 0.04846322536468506, 0.054179757833480835, 0.1374685913324356, 0.1980985403060913, 0.05923290550708771, 0.1304982602596283, 0.2320728451013565, -0.07876557856798172, 0.015062314458191395, 0.03349771723151207, -0.012477547861635685, 0.1361686736345291, 0.08896513283252716, 0.22551248967647552, 0.17981097102165222, -0.3301022946834564, -0.05785739794373512, -0.02078116685152054, -0.03365283086895943], [0.07815350592136383, -0.161241352558136, 0.09430834650993347, -0.1284768283367157, -0.13597120344638824, -0.055762846022844315, 0.15201601386070251, -0.1952456533908844, 0.11889279633760452, 0.021636908873915672, -0.007936125621199608, 0.10221561044454575, 0.04520754516124725, 0.18192926049232483, 0.24165867269039154, -0.14233621954917908, 0.16627849638462067, 0.13049264252185822, 0.030629798769950867, 0.10684558004140854, 0.10473601520061493, -0.027938829734921455, 0.037943750619888306, 0.18383415043354034, 0.15662790834903717, 0.05542357265949249, -0.2822358310222626, 0.04347175359725952, -0.1157117635011673, 0.1484677791595459], [-0.1580737680196762, 0.16871458292007446, -0.10162058472633362, 0.050497349351644516, 0.15400415658950806, 0.08004912734031677, 0.10540603846311569, 0.1594899445772171, 0.16706503927707672, -0.02632134035229683, -0.012700802646577358, 0.12473840266466141, -0.0015022123698145151, 0.143441304564476, -0.008075366728007793, -0.07897349447011948, 0.13701720535755157, 0.09069308638572693, 0.10004894435405731, 0.2197059690952301, 0.17405962944030762, 0.22885553538799286, -0.02427220344543457, 0.025944693014025688, -0.1910131275653839, -0.07722912728786469, -0.17020845413208008, -0.04189816862344742, -0.12093653529882431, -0.16844573616981506], [-0.05987062305212021, -0.12731075286865234, -0.02933465875685215, 0.07629987597465515, 0.24400024116039276, -0.004343831446021795, -0.03262612596154213, 0.10409454256296158, -0.07322230190038681, -0.05979597941040993, 0.11106164753437042, -0.15354305505752563, 0.044908761978149414, 0.29720720648765564, 0.2621733248233795, 0.11786626279354095, -0.05636425316333771, 0.04744642972946167, -0.04437176510691643, 0.13814811408519745, 0.1634482890367508, 0.24668358266353607, -0.09904888272285461, 0.049163542687892914, 0.003424124326556921, -0.045502178370952606, -0.14753903448581696, -0.09311962127685547, 0.17182843387126923, 0.021144794300198555], [-0.08561724424362183, 0.21964384615421295, -0.17069751024246216, -0.05255449190735817, -0.006091444753110409, -0.03749052435159683, -0.10431093722581863, -0.036990102380514145, 0.13169223070144653, 0.16012637317180634, 0.09689611196517944, -0.0860992968082428, -0.07316350191831589, 0.30577653646469116, 0.2858734130859375, 0.07898681610822678, 0.14236009120941162, -0.02908228524029255, -0.06122501194477081, 0.2712928354740143, 0.05110027268528938, 0.08531736582517624, -0.16032665967941284, 0.0241419468075037, 0.03181661665439606, -0.026478836312890053, -0.16324050724506378, 0.14215466380119324, -0.14003431797027588, 0.05422674119472504], [-0.17251893877983093, -0.09050536900758743, 0.04046480730175972, 0.10834450274705887, -0.0747438445687294, -0.10553668439388275, -0.1935104876756668, -0.10243090987205505, -0.17919692397117615, -0.07358001172542572, 0.001338539645075798, -0.19795086979866028, 0.11537323147058487, 0.0674404427409172, -0.2084195762872696, -0.12865649163722992, 0.028970392420887947, -0.06808887422084808, -0.04889019951224327, -0.12014084309339523, 0.09969388693571091, -0.14534272253513336, 0.09949037432670593, 0.0010711783543229103, 0.01779208704829216, 0.09931918978691101, -0.07226568460464478, -0.14528127014636993, -0.07163219153881073, 0.14807741343975067], [-0.08034935593605042, 0.10143899917602539, -0.11764808744192123, 0.09524238854646683, 0.16006426513195038, 0.07448574155569077, 0.0905676782131195, 0.00035352821578271687, 0.10743765532970428, -0.12630364298820496, -0.03295743465423584, 0.07950834929943085, 0.20102451741695404, 0.23352570831775665, 0.09950534999370575, 0.20323368906974792, 0.026032309979200363, 0.027763821184635162, -0.1919415295124054, 0.07197048515081406, 0.2157355397939682, 0.10766596347093582, -0.06360048800706863, 0.10657855868339539, 0.014095237478613853, 0.260914146900177, -0.31308823823928833, 0.003087648656219244, -0.13741663098335266, -0.07190322130918503], [0.006486000958830118, 0.1849672496318817, 0.07752865552902222, 0.163286492228508, 0.08638206869363785, 0.10120857506990433, 0.1794070452451706, 0.20900960266590118, -0.03640216588973999, 0.23244254291057587, 0.200807124376297, -0.004906652960926294, -0.03271249681711197, -0.2230035811662674, -0.1378367692232132, -0.11559262126684189, 0.07288926094770432, 0.053422264754772186, -0.06585407257080078, 0.0025299652479588985, -0.020042577758431435, 0.08726169914007187, 0.076542928814888, -0.14873814582824707, 0.17341192066669464, 0.14443925023078918, 0.32666781544685364, -0.12986646592617035, -0.007214097771793604, -0.05291161686182022], [0.0487496554851532, 0.18598522245883942, 0.03028082102537155, 0.15850676596164703, -0.016490556299686432, 0.18594004213809967, 0.047678813338279724, -0.17025402188301086, -0.18109019100666046, -0.12508541345596313, 0.08587057888507843, -0.1748017966747284, -0.14018714427947998, 0.23914842307567596, 0.30295032262802124, 0.21154314279556274, -0.013335644267499447, -0.009129283018410206, 0.09536539763212204, 0.31105995178222656, 0.19332781434059143, 0.11034645140171051, 0.12916214764118195, 0.24315986037254333, -0.11989221721887589, -0.005775639321655035, -0.06757606565952301, -0.08735068142414093, -0.07942194491624832, 0.1332775205373764], [0.01600792445242405, 0.1640818566083908, 0.0027046198956668377, -0.024154797196388245, 0.27894100546836853, -0.07186207175254822, 0.08212821930646896, 0.2056180089712143, -0.02101306803524494, 0.2750929296016693, 0.02219276688992977, 0.04996923357248306, 0.04009262099862099, -0.13386423885822296, -0.27762141823768616, 0.19143445789813995, 0.08622786402702332, -0.13327592611312866, 0.013035512529313564, 0.23175187408924103, 0.12731832265853882, 0.13619761168956757, -0.11580803245306015, 0.030242586508393288, 0.022440174594521523, 0.00474280072376132, 0.12782055139541626, 0.0954655259847641, 0.10914702713489532, -0.023117726668715477], [-0.04157112166285515, -0.033837947994470596, 0.11828453093767166, 0.09298582375049591, -0.09128911048173904, -0.15571634471416473, 0.12619610130786896, 0.07378852367401123, -0.06491266936063766, 0.18126557767391205, -0.061081621795892715, 0.099394790828228, 0.07087644189596176, -0.190682053565979, 0.23552323877811432, -0.14913852512836456, -0.07582823932170868, -0.005117311142385006, -0.12024058401584625, 0.2314767688512802, -0.00262748752720654, 0.1023334488272667, -0.2400749921798706, 0.15067820250988007, 0.007340164855122566, -0.1094212755560875, -0.030475981533527374, 0.1123805120587349, 0.18776459991931915, -0.11151496320962906], [-0.06196751445531845, 0.03690076246857643, 0.1591697782278061, 0.05866353213787079, 0.19461646676063538, -0.0023219401482492685, 0.14701175689697266, 0.18707311153411865, -0.0015130320098251104, 0.18879510462284088, 0.17235784232616425, 0.2214101403951645, -0.03560257330536842, -0.0843057855963707, -0.09136499464511871, 0.08753766119480133, 0.14865784347057343, -0.06514737755060196, 0.196659654378891, 0.026877718046307564, 0.15854579210281372, 0.04671118035912514, -0.11278081685304642, -0.10140996426343918, -0.03300124779343605, 0.135724738240242, 0.037806954234838486, 0.04065277799963951, 0.10560707002878189, -0.10012271255254745], [-0.014202343299984932, -0.12227742373943329, -0.12451893091201782, -0.21373865008354187, -0.09864781051874161, -0.0059723444283008575, 0.026902541518211365, -0.01948859728872776, 0.09533675760030746, 0.16432714462280273, 0.09667889028787613, -0.00967754889279604, -0.13530348241329193, -0.042704902589321136, -0.2215825915336609, 0.10816971957683563, 0.18258698284626007, 0.1309618353843689, 0.30451101064682007, 0.21384082734584808, 0.023789193481206894, -0.13708125054836273, 0.10525662451982498, -0.048934776335954666, -0.0682942196726799, 0.10702899098396301, 0.3231291174888611, 0.05263731628656387, 0.026011673733592033, -0.15357518196105957], [0.014344963245093822, 0.29814404249191284, 0.04147102311253548, 0.00046604653471149504, 0.054023418575525284, -0.028470726683735847, 0.10767855495214462, 0.018384208902716637, 0.13558988273143768, -0.015167498029768467, 0.08721868693828583, 0.09396981447935104, 0.06944263726472855, 0.25660794973373413, 0.33044710755348206, 0.2315613180398941, 0.17556653916835785, -0.011475658975541592, -0.21134518086910248, 0.11633162945508957, 0.08500038832426071, 0.03265003114938736, 0.0009163249051198363, 0.13303649425506592, 0.12904363870620728, 0.14006422460079193, -0.1920267790555954, -0.012946328148245811, 0.0033520555589348078, -0.07056546956300735], [0.2791958153247833, 0.04465543106198311, 0.28104692697525024, 0.023104185238480568, 0.14419959485530853, 0.13872624933719635, -0.15518192946910858, 0.01075682882219553, 0.003695430001243949, -0.06795237213373184, -0.12310605496168137, 0.16200219094753265, 0.16998547315597534, 0.21308094263076782, 0.3676031529903412, -0.0018066802294924855, 0.043880660086870193, 0.14454205334186554, -0.05550980940461159, 0.07683216780424118, -0.06073400005698204, 0.13977402448654175, -0.005841532722115517, -0.06103232875466347, 0.3124724328517914, 0.05092959851026535, -0.1815912276506424, 0.17070329189300537, -0.02001728117465973, -0.015678999945521355], [0.1704765409231186, -0.07485061883926392, -0.1306154429912567, -0.10217650234699249, -0.050617896020412445, -0.08663122355937958, -0.09474354237318039, 0.0737498328089714, 0.031026242300868034, -0.05843497812747955, -0.14184395968914032, -0.05748528242111206, -0.07705345004796982, -0.05941309779882431, -0.164704367518425, 0.03933178633451462, -0.13414154946804047, -0.14218862354755402, -0.1491691619157791, 0.07620348036289215, -0.10991453379392624, -0.07535764575004578, 0.14310906827449799, 0.09694036841392517, 0.1046864315867424, -0.173355370759964, -0.13092391192913055, -0.06892376393079758, 0.15082409977912903, 0.01867741346359253], [-0.19128340482711792, 0.1645018309354782, -0.18801124393939972, -0.048315420746803284, 0.017374496906995773, 0.18966369330883026, 0.0893658921122551, 0.0490950271487236, 0.09959539026021957, 0.010058254934847355, 0.1379782110452652, 0.1386149525642395, 0.11500871926546097, -0.058119531720876694, 0.0769796371459961, 0.027010049670934677, -0.03946280851960182, 0.14596496522426605, 0.2468782216310501, 0.2051374912261963, 0.08736469596624374, -0.0228929053992033, 0.06782285869121552, 0.32340043783187866, -0.24941018223762512, 0.0016067306278273463, 0.013448906131088734, 0.08906985074281693, 0.14344315230846405, -0.03771761804819107], [0.10678362846374512, 0.19669783115386963, -0.0025920856278389692, -0.17042472958564758, 0.2776157259941101, 0.016335558146238327, 0.001007875776849687, 0.054315757006406784, 0.04376964271068573, -0.1170739084482193, 0.12040307372808456, -0.026505380868911743, -0.017082741484045982, 0.2191619724035263, 0.14394083619117737, 0.024913741275668144, 0.04670944809913635, 0.039638739079236984, -0.053300004452466965, 0.08692000061273575, 0.17894166707992554, -0.018710171803832054, 0.01948676072061062, 0.10830693691968918, 0.052576206624507904, 0.23373758792877197, -0.2230599820613861, 0.15614721179008484, 0.19404436647891998, 0.10137617588043213], [-0.16248676180839539, -0.07164794951677322, -0.1259545236825943, -0.10583464056253433, 0.11247925460338593, -0.013698789291083813, 0.08002858608961105, -0.10261256247758865, 0.0243935976177454, -0.08365113288164139, 0.09253761917352676, -0.0377114862203598, -0.027723854407668114, -0.2236587256193161, 0.1029297411441803, 0.1898423433303833, 0.10218066722154617, -0.08384766429662704, 0.0029009501449763775, -0.09333527833223343, -0.13304102420806885, 0.1607460081577301, 0.004716928116977215, 0.05201733857393265, -0.05701626464724541, -0.04702850803732872, 0.0018787195440381765, 0.08927783370018005, 0.08465024828910828, -0.08799072355031967], [0.23215121030807495, 0.05274690315127373, -0.08656486123800278, -0.10196251422166824, 0.2832653522491455, 0.07510168850421906, -0.03711714968085289, -0.0990295261144638, -0.05795443803071976, -0.15569154918193817, -0.16902700066566467, 0.09652271866798401, 0.17338380217552185, 0.3184282183647156, 0.09459985792636871, 0.16163428127765656, -0.03791455551981926, 0.18400907516479492, 0.1179070770740509, 0.24111442267894745, 0.21690642833709717, 0.1950666606426239, 0.04461982846260071, 0.1565169394016266, -0.024775614961981773, 0.16867440938949585, -0.2567412555217743, 0.04913754761219025, -0.1276019662618637, -0.047738514840602875], [-0.03702925890684128, -0.008273931220173836, -0.11827559024095535, -0.11550921201705933, 0.0741739273071289, 0.15862827003002167, 0.13128329813480377, 0.04750882834196091, -0.12786990404129028, -0.19878725707530975, 0.02748136594891548, 0.07860609143972397, -0.1485632061958313, 0.19705252349376678, 0.38497084379196167, 0.0480329655110836, -0.06985218822956085, 0.1898297667503357, 0.009700481779873371, 0.19941069185733795, -0.056115467101335526, 0.16832879185676575, -0.08985629677772522, 0.2222345918416977, -0.04996727406978607, 0.1906597763299942, -0.18151022493839264, 0.08610102534294128, -0.02381582371890545, 0.0749896764755249], [-0.1410723477602005, -0.20890305936336517, -0.04452945291996002, 0.1777462512254715, -0.10196985304355621, 0.00670961756259203, -0.050318971276283264, 0.14139051735401154, 0.10307666659355164, 0.0666193962097168, -0.07544676959514618, -0.15331237018108368, 0.009447602555155754, -0.1194038912653923, 0.12412726134061813, -0.1895553171634674, 0.03090965934097767, 0.13133327662944794, 0.0641101822257042, 0.0014674704289063811, -0.18588042259216309, 0.16676321625709534, -0.07851853966712952, -0.19950340688228607, 0.1888650804758072, -0.07500974833965302, 0.00853754859417677, 0.17050081491470337, -0.11524021625518799, -0.12916940450668335], [-0.01997547782957554, -0.05570921301841736, 0.09466835111379623, -0.18457958102226257, -0.02350318618118763, -0.06444337218999863, -0.0629887729883194, -0.11778993159532547, 0.1203337237238884, 0.05437041074037552, -0.10250823944807053, 0.16642068326473236, 0.06075810268521309, -0.06296989321708679, -0.2692663371562958, 0.038140397518873215, 0.19267630577087402, 0.1419835388660431, -0.04437559098005295, 0.14710381627082825, -0.013763384893536568, 0.07062845677137375, 0.10768766701221466, 0.11484365910291672, -0.08946768194437027, 0.12157484143972397, 0.069161556661129, 0.009013761766254902, -0.10407856106758118, -0.040026336908340454], [0.11619023978710175, 0.08138979971408844, -0.03415924683213234, 0.0013192308833822608, 0.30097922682762146, 0.1985592395067215, 0.10402847826480865, 0.0933070033788681, 0.17718173563480377, 0.02985789254307747, 0.05725311115384102, 0.09387139976024628, -0.08028297871351242, 0.024499695748090744, 0.2289218157529831, 0.020127901807427406, 0.0891311913728714, 0.05058862641453743, 0.02933659590780735, 0.2416694015264511, 0.05033905431628227, 0.2562009394168854, 0.26263490319252014, -0.03438432514667511, -0.15018855035305023, -0.03807441145181656, -0.18706494569778442, 0.00938775110989809, 0.06068594381213188, -0.044400617480278015], [-0.11899230629205704, -0.06985272467136383, -0.07072048634290695, 0.16211581230163574, -0.10654450207948685, -0.12502437829971313, 0.0748530775308609, 0.02192400023341179, 0.14995811879634857, 0.13585391640663147, 0.20943833887577057, -0.04571610689163208, 0.13454380631446838, 0.023529333993792534, -0.26753249764442444, 0.16373156011104584, 0.14256489276885986, 0.007698286324739456, 0.17981235682964325, -0.0656767338514328, -0.18100295960903168, 0.030507778748869896, 0.019445007666945457, -0.08859442174434662, 0.054128941148519516, -0.20124615728855133, 0.3498847782611847, 0.16601905226707458, 0.05793936550617218, -0.11455229669809341], [0.13612844049930573, -0.02257147617638111, -0.002385823056101799, 0.0768246054649353, 0.10049111396074295, -0.07142636179924011, -0.05159637704491615, 0.020522892475128174, 0.008197321556508541, 0.13593825697898865, -0.09342939406633377, 0.0005153290694579482, 0.03454156965017319, -0.05896075814962387, 0.1090727150440216, 0.00946489442139864, -0.16168977320194244, -0.012728368863463402, -0.07015865296125412, 0.032841797918081284, -0.03660634532570839, -0.1915685534477234, 0.016480591148138046, -0.07103902101516724, -0.10611838847398758, 0.15924446284770966, -0.0506632998585701, 0.10233163833618164, 0.034868497401475906, -0.1541169136762619], [0.04341937229037285, 0.08872248977422714, -0.040910299867391586, -0.111817367374897, 0.23079122602939606, 0.14455880224704742, -0.06524409353733063, 0.14895585179328918, 0.025782886892557144, -0.09303320199251175, 0.09578763693571091, 0.13472744822502136, -0.004820074420422316, -0.02120058238506317, -0.34713950753211975, 0.1535731852054596, 0.15350937843322754, 0.09854210913181305, 0.12794438004493713, 0.018174411728978157, -0.1373322457075119, -0.0429716631770134, 0.01400323398411274, -0.15807612240314484, -0.09630845487117767, 0.12339845299720764, 0.3724154233932495, -0.13502638041973114, 0.10779532790184021, 0.07427157461643219], [0.11274923384189606, 0.17991964519023895, 0.11192503571510315, -0.07883074134588242, 0.12735188007354736, 0.15339958667755127, -0.1554398387670517, -0.1035364493727684, 0.06592242419719696, 0.11245070397853851, -0.06681738048791885, 0.03957653418183327, 0.012067305855453014, -0.015095441602170467, -0.22407521307468414, 0.10803238302469254, 0.12630704045295715, -0.12178754061460495, 0.09491852670907974, -0.021151620894670486, 0.035414330661296844, 0.15149857103824615, 0.012122261337935925, 0.03087104670703411, 0.10000322759151459, -0.1088467538356781, 0.08033029735088348, 0.0065689426846802235, -0.12161138653755188, 0.01986723765730858], [-0.0908190980553627, -0.0006393897347152233, 0.025268640369176865, 0.0010099599603563547, -0.169620543718338, -0.13823385536670685, 0.05135221406817436, 0.10638746619224548, -0.15393328666687012, 0.024041078984737396, -0.10353297740221024, 0.016671275720000267, 0.12664255499839783, 0.2419428825378418, -0.20546391606330872, 0.08925864845514297, 0.13053394854068756, 0.03489234298467636, 0.10853174328804016, -0.05068128556013107, -0.02122795209288597, -0.07982642203569412, 0.0605466291308403, 0.0019475753651931882, 0.040943797677755356, -0.09882929921150208, -0.12285313755273819, 0.05879746377468109, -0.20886476337909698, -0.02843310683965683], [-0.059448178857564926, -0.10954071581363678, 0.07687418907880783, 0.03536662831902504, 0.07142335176467896, -0.03628100827336311, -0.11988440901041031, 0.0904320627450943, -0.011065004393458366, -0.07367654144763947, -0.128875732421875, 0.014560367912054062, -0.16026149690151215, 0.039264995604753494, 0.10933519154787064, -0.16839337348937988, -0.13959243893623352, -0.15132343769073486, 0.1277480572462082, 0.11104423552751541, 0.003933711443096399, 0.16037261486053467, -0.12438955903053284, -0.20869755744934082, 0.07637787610292435, 0.0560457743704319, 0.16661493480205536, -0.007244205567985773, 0.13073641061782837, 0.1119113638997078], [0.25989964604377747, -0.16837076842784882, 0.1597524732351303, -0.1180821880698204, 0.17464111745357513, 0.08404886722564697, -0.16790089011192322, 0.054400358349084854, 0.007051499560475349, -0.09909756481647491, 0.011741322465240955, 0.070160411298275, 0.17143474519252777, -0.017466222867369652, 0.2519676089286804, 0.09250576049089432, 0.09776903688907623, 0.12654997408390045, -0.11567378789186478, -0.04695521295070648, 0.04061884433031082, -0.07430033385753632, 0.04454633966088295, 0.016054760664701462, -0.09969792515039444, 0.02581358142197132, -0.09060976654291153, 0.05199570581316948, -0.0508100725710392, 0.008772872388362885], [0.06530584394931793, -0.004459819756448269, 0.05320051312446594, -0.0967346727848053, 0.030888905748724937, 0.016053101047873497, -0.0939757376909256, 0.05444803088903427, 0.03509732335805893, 0.12796518206596375, 0.12839941680431366, 0.21418946981430054, 0.057161372154951096, -0.15334175527095795, -0.019286643713712692, -0.07066641002893448, -0.006937748286873102, -0.040960244834423065, 0.053435131907463074, -0.057093363255262375, 0.19070610404014587, 0.13790027797222137, 0.15862758457660675, 0.11840392649173737, -0.14393703639507294, 0.06035246327519417, 0.29137030243873596, 0.15614327788352966, -0.08698070794343948, 0.06497624516487122], [-0.11877931654453278, -0.03610171377658844, 0.09864182770252228, -0.1472741961479187, -0.08310473710298538, -0.0928051695227623, 0.13000239431858063, 0.1305285394191742, -0.09369654208421707, 0.01976747252047062, 0.10257895290851593, -0.07181861996650696, 0.16519267857074738, 0.11229289323091507, -0.09677029401063919, -0.07362298667430878, 0.06988384574651718, 0.09358692914247513, 0.2549769878387451, -0.07470864802598953, -0.13226531445980072, 0.12155931442975998, 0.014222925528883934, -0.08530070632696152, 0.04448343813419342, -0.058661434799432755, 0.3731365203857422, 0.028400499373674393, 0.20245930552482605, 0.1629747748374939], [0.09813988208770752, 0.06731045246124268, -0.003887335304170847, 0.16977784037590027, 0.02222047559916973, 0.1347968876361847, -0.05048932507634163, 0.03285139799118042, -0.035644784569740295, -0.07974135875701904, -0.037319667637348175, 0.08855811506509781, -0.07787872850894928, -0.03167104721069336, 0.2085239738225937, -0.0560765415430069, 0.13391254842281342, 0.18505717813968658, -0.03221403807401657, 0.2300775796175003, -0.009982266463339329, -0.03678680211305618, -0.0427715890109539, -0.08554801344871521, -0.09364884346723557, -0.07958436012268066, -0.41458046436309814, 0.07541796565055847, 0.15145933628082275, 0.17140927910804749], [0.09167520701885223, 0.004445078782737255, 0.15072819590568542, -0.10526783019304276, 0.13769379258155823, -0.16695289313793182, 0.1542588770389557, 0.11457216739654541, 0.1244136169552803, 0.15014247596263885, -0.005730259232223034, 0.2095813900232315, 0.1364920437335968, 0.07211977988481522, -0.0947282537817955, 0.16503611207008362, 0.13097935914993286, 0.09085600078105927, 0.23311161994934082, -0.04638301208615303, 0.14477141201496124, 0.07180769741535187, 0.0714891105890274, 0.19260990619659424, 0.1389980912208557, -0.04358462989330292, 0.18735811114311218, 0.10726175457239151, 0.0950966328382492, -0.04987381026148796], [0.05292348563671112, 0.2692604660987854, -0.09146011620759964, -0.023461533710360527, 0.08836790919303894, -0.11726491153240204, 0.061926186084747314, -0.007626090664416552, -0.049360811710357666, -0.016616182401776314, -0.04730917885899544, 0.19874513149261475, 0.0947619155049324, 0.25831735134124756, 0.17577798664569855, 0.0753798708319664, 0.07221537828445435, 0.028495756909251213, -0.240731343626976, -0.1495123952627182, 0.015688031911849976, 0.0547122023999691, -0.009743902832269669, 0.2355595976114273, 0.14886131882667542, 0.08987785875797272, -0.09353182464838028, -0.07859893888235092, -0.08988504856824875, -0.10905840247869492], [0.005171588156372309, 0.2639974057674408, 0.13453282415866852, -0.04816827178001404, -0.027232659980654716, 0.01494219433516264, -0.0069498224183917046, 0.036236755549907684, -0.025085635483264923, -0.002178311115130782, 0.005809286143630743, 0.0593937523663044, -0.02926642820239067, -0.022359436377882957, 0.16246020793914795, 0.0223563052713871, -0.013551169075071812, 0.1458350569009781, 0.0027490677312016487, 0.05765942484140396, -0.030958347022533417, 0.03134194016456604, -0.22343431413173676, 0.20503807067871094, -0.00202925899066031, 0.14028754830360413, -0.11265906691551208, 0.04035060480237007, 0.06421645730733871, 0.13892754912376404], [-0.13980722427368164, 0.2323945164680481, 0.05724029615521431, -0.1322602480649948, 0.1464093178510666, -0.10592348128557205, 0.00600220775231719, 0.011968215927481651, -0.04366215318441391, 0.21813364326953888, -0.07491608709096909, 0.16449472308158875, -0.08965121954679489, -0.045425280928611755, -0.0887841284275055, 0.18450985848903656, -0.06250014156103134, 0.056122127920389175, 0.11937510967254639, 0.0846419557929039, 0.04488489031791687, 0.10623745620250702, -0.14597906172275543, 0.010421798564493656, 0.15057750046253204, -0.11438148468732834, 0.16186673939228058, 0.03571488708257675, 0.24222037196159363, -0.03945675864815712], [-0.11073760688304901, -0.017311304807662964, 0.15216980874538422, 0.03189734369516373, 0.22782939672470093, -0.038753487169742584, 0.14989471435546875, -0.048085663467645645, 0.14434237778186798, 0.16268056631088257, 0.18292725086212158, -0.01334947720170021, 0.017548542469739914, 0.007228714879602194, -0.18314498662948608, -0.05551471933722496, -0.17702199518680573, 0.008814376778900623, 0.1909150332212448, 0.09490464627742767, 0.06548235565423965, 0.12713375687599182, -0.08542429655790329, 0.05059957504272461, 0.016291577368974686, -0.046165913343429565, 0.36686423420906067, -0.07216188311576843, 0.09658009558916092, -0.16043022274971008], [-0.07390538603067398, 0.026363026350736618, 0.13296492397785187, -0.10954398661851883, 0.20365595817565918, -0.16811013221740723, 0.1788850575685501, -0.0349561907351017, 0.17664097249507904, 0.016149133443832397, 0.08611207455396652, 0.03380914032459259, 0.17373554408550262, 0.02991686761379242, -0.22266489267349243, 0.09069521725177765, -0.14590826630592346, 0.11652865260839462, 0.1159653291106224, -0.048341408371925354, -0.04239687696099281, 0.1180911660194397, -0.1458362489938736, 0.19814752042293549, 0.14667750895023346, 0.14225932955741882, 0.25828519463539124, -0.09079825133085251, 0.20483432710170746, -0.056638795882463455], [-0.04059913009405136, 0.016415849328041077, 0.14478221535682678, 0.1289869099855423, 0.12192006409168243, 0.10027701407670975, -0.18280377984046936, -0.057191696017980576, -0.20101116597652435, 0.03338370472192764, -0.16752387583255768, -0.10192621499300003, 0.11134472489356995, 0.3048321008682251, 0.051413051784038544, -0.07757417112588882, 0.035772841423749924, 0.08493224531412125, -0.12727580964565277, -0.03296399489045143, -0.07323930412530899, 0.11012861877679825, 0.20981283485889435, -0.1016039177775383, 0.12503881752490997, 0.13949888944625854, -0.00507100997492671, 0.004209068138152361, -0.011207153089344501, 0.13413704931735992], [0.0773320347070694, 0.205876886844635, 0.01333741657435894, 0.0572386160492897, 0.08479112386703491, -0.06867936253547668, 0.07513903081417084, 0.03139259293675423, 0.1581864058971405, -0.0067320456728339195, 0.06904967874288559, 0.1491556316614151, -0.1064450591802597, -0.20144447684288025, -0.24961061775684357, 0.16258826851844788, 0.17767608165740967, -0.06943783164024353, 0.14425627887248993, -0.07490300387144089, -0.06596456468105316, 0.1850423365831375, 0.049336060881614685, 0.014694904908537865, 0.058665040880441666, 0.03027299791574478, 0.3018803894519806, -0.020987965166568756, -0.05784009397029877, 0.1208757609128952], [-0.05442148447036743, 0.1080450713634491, 0.012262243777513504, 0.08641038089990616, 0.12163274735212326, 0.13243742287158966, 0.08271590620279312, 0.21102385222911835, 0.029521247372031212, 0.08999557048082352, 0.24219638109207153, 0.23021304607391357, -0.028061550110578537, 0.09016825258731842, -0.09739671647548676, 0.016797570511698723, 0.18081457912921906, -0.0731784850358963, 0.22412660717964172, 0.20784899592399597, -0.12133443355560303, -0.09313029050827026, -0.23835976421833038, -0.0012071345699951053, -0.10021104663610458, -0.07219475507736206, 0.2610538601875305, 0.15913020074367523, 0.1447400152683258, 0.10134343802928925], [0.17763850092887878, -0.07203571498394012, -0.1451440006494522, 0.0203880425542593, 0.28141680359840393, 0.08391322195529938, -0.021077362820506096, -0.136727437376976, -0.07286587357521057, -0.1254996359348297, 0.16745632886886597, 0.013674428686499596, -0.08470510691404343, 0.14705316722393036, 0.19523578882217407, 0.03715337812900543, 0.13898888230323792, 0.1718188226222992, -0.18956823647022247, -0.09798923134803772, 0.08221530169248581, -0.0819932371377945, -0.06555389612913132, 0.19582465291023254, 0.009691165760159492, 0.01116986759006977, -0.13835477828979492, -0.07426055520772934, 0.19908346235752106, -0.03958917409181595], [-0.040325384587049484, -0.05628499016165733, 0.10714958608150482, -0.044555339962244034, 0.07048433274030685, -0.028681429103016853, -0.08052660524845123, 0.045637860894203186, 0.15696601569652557, -0.09511371701955795, -0.002872999059036374, -0.14497308433055878, -0.07371973246335983, 0.3084331154823303, 0.2445179969072342, 0.2357475608587265, -0.013084298931062222, -0.08060755580663681, -0.19423863291740417, 0.20978336036205292, -0.055959466844797134, 0.17217980325222015, 0.09998354315757751, 0.12223640084266663, 0.12094726413488388, 0.04680325463414192, -0.04382196441292763, -0.08576816320419312, -0.02434595115482807, 0.13365185260772705], [0.04027567431330681, 0.005402229260653257, 0.050656914710998535, -0.1464586853981018, 0.215335875749588, -0.005371077451854944, 0.06216772645711899, 0.14960815012454987, 0.2265695035457611, 0.026070866733789444, 0.05536920577287674, 0.20826101303100586, 0.17834176123142242, -0.11763212084770203, -0.2945600748062134, 0.11110841482877731, 0.09644928574562073, 0.044043973088264465, 0.23849135637283325, -0.18694458901882172, 0.13404402136802673, -0.062072765082120895, 0.12114225327968597, 0.1683879792690277, 0.1177758276462555, 0.18784721195697784, 0.14967095851898193, -0.08633307367563248, -0.0806845873594284, 0.11462581902742386], [0.08329231292009354, -0.24149708449840546, 0.22572319209575653, 0.17292414605617523, -0.09164945781230927, 0.07711376249790192, 0.07705813646316528, 0.06498739123344421, 0.21994099020957947, 0.23783911764621735, 0.15553896129131317, 0.19164450466632843, 0.11679878830909729, -0.016510790213942528, -0.24810975790023804, 0.07205915451049805, -0.18522019684314728, 0.0008791045402176678, 0.06684395670890808, -0.0692228451371193, -0.11075988411903381, -0.08858712017536163, 0.17088428139686584, -0.013590740039944649, 0.2136491984128952, -0.01769479177892208, 0.16273988783359528, -0.002552730729803443, 0.18168021738529205, -0.0788150504231453], [0.19660387933254242, 0.1271345019340515, -0.1484883576631546, 0.02722368761897087, -0.041423238813877106, -0.00480989133939147, 0.06408952921628952, -0.047934383153915405, 0.14839603006839752, -0.09843020886182785, 0.07708971202373505, -0.10389140993356705, -0.0499052032828331, 0.11082913726568222, 0.3135157525539398, 0.15506911277770996, -0.05378777161240578, 0.11634407937526703, -0.10685401409864426, 0.01103378925472498, -0.09657589346170425, 0.011876288801431656, 0.23244528472423553, -0.20760931074619293, -0.15537960827350616, 0.118671715259552, -0.04111342877149582, 0.022233210504055023, 0.21083079278469086, -0.10992589592933655], [-0.022232359275221825, -0.20173710584640503, 0.081792451441288, -0.034697163850069046, 0.21410968899726868, 0.002569410018622875, 0.11664263904094696, -0.0028686930891126394, 0.2190137654542923, 0.2379031479358673, -0.03710225224494934, 0.05478210374712944, -0.057318057864904404, 0.06253970414400101, -0.22142837941646576, -0.007925390265882015, 0.19524389505386353, -0.16152280569076538, 0.22884325683116913, -0.02499675378203392, 0.19380636513233185, -0.03298201784491539, 0.2229975312948227, -0.04048338532447815, 0.10988296568393707, 0.19241610169410706, 0.04239197447896004, -0.07368394732475281, 0.2671794593334198, -0.10963516682386398], [-0.03418921306729317, 0.05472738668322563, -0.06438617408275604, 0.009071762673556805, -0.1429106742143631, 0.14678451418876648, -0.19563445448875427, -0.03550177812576294, 0.0641099363565445, 0.000945764419157058, -0.026015711948275566, 0.0015083764446899295, -0.03779051452875137, 0.10688648372888565, 0.18000344932079315, -0.061202969402074814, -0.015756938606500626, 0.2613934278488159, -0.05100329965353012, 0.18613477051258087, 0.20832619071006775, 0.0692935660481453, -0.0401136688888073, -0.05777483433485031, -0.04220040887594223, 0.15453292429447174, -0.44327858090400696, 0.01157290767878294, 0.07547404617071152, 0.1489540934562683], [0.09300690144300461, 0.02855069190263748, 0.17330026626586914, 0.08198437094688416, 0.15818290412425995, 0.006797265261411667, -0.07300295680761337, 0.039074815809726715, 0.05847812071442604, 0.10778329521417618, 0.10042675584554672, 0.16390222311019897, 0.19281671941280365, -0.11960237473249435, -0.30798354744911194, -0.02418806590139866, -0.023953694850206375, 0.16689452528953552, 0.054568011313676834, -0.010680019855499268, -0.000359048048267141, -0.06603424996137619, 0.1355498731136322, -0.0756087377667427, 0.0034788085613399744, -0.10095001012086868, 0.2832038402557373, 0.08742374181747437, 0.0774267166852951, -0.0682184249162674], [0.029784081503748894, -0.06123873218894005, -0.11356627196073532, -0.15538817644119263, -0.05192225053906441, -0.17461542785167694, 0.12930265069007874, -0.09239134937524796, -0.09253143519163132, -0.00024096340348478407, 0.027800217270851135, -0.033492445945739746, 0.10060489922761917, -0.1343293935060501, 0.038227204233407974, -0.0248066745698452, -0.15066035091876984, -0.07285141199827194, 0.04531886801123619, 0.03815383464097977, 0.10722814500331879, 0.09765015542507172, -0.11591248959302902, -0.09407547861337662, -0.05041693150997162, -0.1565990447998047, -0.07380323857069016, -0.1749427169561386, 0.04485747963190079, 0.12918207049369812], [-0.045183852314949036, -0.11425096541643143, -0.06266622245311737, -0.05029882863163948, 0.01030524168163538, 0.035206545144319534, 0.06838115304708481, 0.21275594830513, 0.11302509903907776, 0.09727697819471359, 0.05830372869968414, 0.14991682767868042, 0.11555399745702744, -0.2549208700656891, -0.3245977759361267, 0.04124528169631958, 0.10002958029508591, 0.11957613378763199, 0.01737726479768753, -0.15299972891807556, -0.009662886150181293, -0.0058937277644872665, 0.018282590433955193, -0.024205829948186874, 0.1842002421617508, -0.011150803416967392, 0.37942981719970703, -0.10143090784549713, 0.10979864001274109, 0.021754831075668335], [-0.09588199108839035, 0.11657202988862991, -0.11954636126756668, 0.12854689359664917, 0.12864111363887787, 0.03819730505347252, 0.140747532248497, 0.10374921560287476, 0.1545533984899521, 0.20043550431728363, -0.035647325217723846, 0.20591339468955994, 0.043540820479393005, -0.08863687515258789, -0.12356912344694138, 0.19415971636772156, -0.07868034392595291, -0.102472685277462, 0.2209979146718979, -0.055885523557662964, 0.08269020169973373, 0.0039034688379615545, 0.07236646115779877, 0.16363996267318726, -0.052011240273714066, -0.0755467563867569, 0.3262985050678253, 0.05705266445875168, 0.04087899625301361, -0.16037100553512573], [0.12447141855955124, 0.0036764489486813545, 0.092180036008358, -0.0715988278388977, 0.030893761664628983, 0.11398610472679138, 0.05861346051096916, 0.2291625589132309, 0.054906051605939865, 0.050594307482242584, 0.1794830560684204, 0.04485182464122772, 0.019550858065485954, 0.041064660996198654, 0.06145051121711731, 0.10866264998912811, 0.1523778736591339, 0.1435631513595581, 0.1463538259267807, 0.09697442501783371, 0.0968540608882904, 0.06272192299365997, 0.14579907059669495, 0.17646925151348114, 0.17816516757011414, 0.029900234192609787, 0.34190645813941956, -0.08180258423089981, 0.20347048342227936, 0.09673246741294861], [0.014009272679686546, 0.05703900381922722, -0.22615447640419006, 0.10678345710039139, -0.11291717737913132, 0.010100031271576881, 0.07358809560537338, -0.19190716743469238, -0.009378176182508469, -0.10217737406492233, 0.08645450323820114, -0.15189838409423828, 0.07423245161771774, 0.06172837316989899, 0.04552719369530678, 0.12501981854438782, -0.010286428034305573, -0.20341908931732178, 0.09078758209943771, -0.04455425217747688, -0.038397639989852905, -0.22338317334651947, -0.1407366693019867, -0.0025840008165687323, 0.08410028368234634, 0.07394152134656906, 0.09152011573314667, 0.08205358684062958, -0.15964259207248688, -0.0784100592136383], [0.0628468245267868, -0.21708102524280548, 0.31827935576438904, 0.06900155544281006, 0.2659766376018524, 0.01664438657462597, -0.10654941201210022, 0.0003172231081407517, 0.18766924738883972, 0.18346427381038666, 0.1459987461566925, 0.020239748060703278, -0.10000518709421158, -0.04153688997030258, 0.12347623705863953, 0.01052655279636383, 0.11251714825630188, 0.07503511011600494, -0.04220781847834587, 0.12683677673339844, 0.018382864072918892, 0.07808300852775574, 0.09569454938173294, -0.3244711458683014, 0.18593080341815948, 0.15240859985351562, 0.011180484667420387, 0.19065919518470764, -0.07674683630466461, -0.17599724233150482], [-0.06769324094057083, -0.08351501077413559, 0.08298856019973755, -0.036794621497392654, 0.15579700469970703, -0.12335442751646042, 0.08333924412727356, 0.08027391880750656, 0.12267584353685379, 0.26009663939476013, 0.19375091791152954, -0.04324417561292648, -0.08367432653903961, -0.041597262024879456, -0.1600334495306015, 0.14909882843494415, 0.038551341742277145, 0.18372532725334167, 0.1929730772972107, 0.020712880417704582, 0.05723320320248604, 0.10326525568962097, 0.03539063036441803, 0.12529383599758148, -0.042565420269966125, 0.1413259208202362, 0.07724761962890625, -0.09608107805252075, 0.04926704242825508, 0.08896929770708084], [0.11567078530788422, 0.03021443635225296, -0.0322430245578289, 0.0003998894535470754, -0.09662096947431564, -0.044558584690093994, -0.002581304404884577, 0.16696017980575562, 0.11010237783193588, -0.14977070689201355, 0.006383407860994339, -0.10757032036781311, -0.036052316427230835, -0.13723771274089813, -0.001393356709741056, -0.15336516499519348, 0.15206579864025116, 0.10970542579889297, -0.14479868113994598, -0.21775071322917938, -0.012403910048305988, -0.07553238421678543, 0.05362668260931969, -0.15083788335323334, 0.04763205721974373, -0.17384637892246246, -0.03861736133694649, -0.10098504275083542, 0.0849384143948555, -0.004780014976859093], [-0.1879318803548813, -0.13137659430503845, -0.09404238313436508, -0.16450916230678558, 0.006978201679885387, 0.03730427473783493, -0.0503217838704586, -0.07931651175022125, -0.006670670583844185, -0.1519612967967987, -0.12437144666910172, -0.02724534645676613, 0.14122748374938965, -0.06553955376148224, 0.05446021631360054, -0.09402768313884735, -0.07635489851236343, -0.20155470073223114, 0.13827046751976013, 0.14799289405345917, -0.02572723850607872, 0.08772529661655426, 0.1259162724018097, 0.08022043853998184, 0.07818502187728882, -0.1996772289276123, -0.1761518269777298, -0.16513268649578094, 0.03873903304338455, -0.1579224020242691], [-0.20681506395339966, -0.03622487187385559, -0.10342416912317276, 0.008582623675465584, 0.09571928530931473, -0.07741126418113708, 0.1437322050333023, -0.0496235117316246, -0.0362345352768898, 0.16326875984668732, 0.19979579746723175, 0.009651996195316315, -0.11918333917856216, -0.06739860028028488, 0.014393914490938187, 0.15016129612922668, 0.12032482028007507, -0.0511903278529644, -0.17395251989364624, -0.10050751268863678, -0.027451327070593834, 0.04293753579258919, -0.1481160968542099, -0.09056869149208069, 0.08861630409955978, -0.11493858695030212, -0.09817028045654297, -0.10856981575489044, -0.020313341170549393, 0.16126012802124023], [0.16585879027843475, -0.04203758388757706, 0.05985042825341225, 0.05614852532744408, -0.02281104400753975, -0.05950251966714859, -0.11074735224246979, -0.164792001247406, -0.019430579617619514, -0.15332840383052826, -0.04236574098467827, -0.053876765072345734, 0.17431458830833435, 0.24424542486667633, 0.17680855095386505, 0.0399964414536953, 0.028644610196352005, 0.13432611525058746, -0.1497461199760437, -0.012213475070893764, 0.015347309410572052, 0.00820667203515768, -0.10282015800476074, 0.04197416082024574, 0.21192117035388947, -0.051623161882162094, 0.0011816740734502673, 0.0042770192958414555, 0.007329637184739113, 0.010642250068485737], [0.29535695910453796, 0.03949800133705139, -0.1355692744255066, -0.0193011611700058, 0.04577658697962761, 0.13669998943805695, -0.02235485054552555, -0.06450384855270386, -0.08281353861093521, -0.07024736702442169, -0.08957082778215408, 0.05104156956076622, 0.07819752395153046, 0.24552784860134125, 0.10409703105688095, 0.07285767793655396, 0.19772274792194366, 0.1591450423002243, 0.016989033669233322, 0.1495111882686615, 0.08036724478006363, -0.07844711095094681, 0.14044004678726196, -0.03396347165107727, 0.1588948518037796, 0.23927418887615204, -0.12402088940143585, 0.19721022248268127, -0.07010211795568466, 0.15868866443634033], [0.19501462578773499, 0.0038920806255191565, -0.09128274768590927, -0.02654588408768177, -0.04622962698340416, 0.04921216517686844, -0.15173794329166412, 0.06938724219799042, -0.024003831669688225, -0.0034895993303507566, -0.0012325476855039597, 0.02418113686144352, -0.09444485604763031, -0.13218526542186737, -0.08465372771024704, 0.1734486073255539, 0.21211104094982147, -0.09191259741783142, 0.179805725812912, 0.022343754768371582, -0.0863383412361145, 0.044485174119472504, -0.04655572772026062, -0.1727963238954544, -0.11545182764530182, -0.10628380626440048, 0.33895084261894226, 0.1412382870912552, -0.029074320569634438, -0.12220068275928497], [-0.0654248371720314, -0.14654383063316345, -0.13028334081172943, 0.11212927103042603, 0.034193575382232666, -0.07276429980993271, 0.11364420503377914, -0.12168911844491959, -0.17677265405654907, 0.03152872622013092, -0.09650786966085434, 0.04574461281299591, 0.14297045767307281, -0.0958983302116394, -0.153307244181633, 0.05195000767707825, -0.16729623079299927, 0.160483717918396, -0.07934199273586273, 0.12067761272192001, -0.1606188267469406, -0.13955239951610565, 0.09737814962863922, 0.03136787191033363, 0.08512690663337708, 0.1385774314403534, -0.02809895947575569, -0.04485337436199188, 0.013433380052447319, -0.042410336434841156], [-0.05886836349964142, -0.03139759600162506, -0.06469769775867462, 0.1150369867682457, -0.011329920962452888, 0.188065305352211, 0.07731204479932785, 0.12018958479166031, 0.2212139517068863, -0.03191859647631645, 0.03636651858687401, 0.0840914249420166, 0.12205646932125092, -0.14099480211734772, 0.09335430711507797, -0.028840361163020134, 0.06827180832624435, 0.1678112894296646, 0.07918883115053177, 0.08288991451263428, 0.04852864146232605, 0.21657317876815796, 0.05867735296487808, 0.17084211111068726, -0.0386366993188858, -0.0490838922560215, 0.25889670848846436, 0.2027459740638733, 0.1792818307876587, -0.1423562467098236], [0.24660977721214294, -0.09939049184322357, 0.30540838837623596, 0.15671518445014954, 0.12115369737148285, -0.028828214854002, 0.22695401310920715, -0.022614460438489914, 0.1929136961698532, -0.07984022796154022, 0.045852676033973694, -0.08136575669050217, 0.0003210526192560792, 0.1112876608967781, -0.14074628055095673, -0.0647844672203064, 0.17769204080104828, 0.14460687339305878, 0.10690677165985107, -0.07031574845314026, 0.02809736505150795, 0.025031598284840584, 0.24013906717300415, -0.14528252184391022, 0.09671762585639954, -0.03658274933695793, 0.0698239803314209, 0.18437020480632782, 0.21723178029060364, 0.02652570605278015], [-0.07923798263072968, 0.17729130387306213, 0.08866017311811447, -0.07322140783071518, -0.10522398352622986, 0.04204587638378143, 0.1315319538116455, 0.13358639180660248, 0.17962966859340668, 0.0668710246682167, 0.21366815268993378, 0.013915009796619415, -0.01650896482169628, -0.16118775308132172, -0.3370988965034485, -0.0713774710893631, -0.09760953485965729, 0.05680759996175766, 0.14333601295948029, -0.02977842278778553, -0.10868265479803085, 0.19016225636005402, -0.054502371698617935, 0.1036931574344635, 0.15315544605255127, -0.1266094595193863, 0.26854485273361206, 0.14680661261081696, 0.21692556142807007, -0.023033758625388145], [0.1975584477186203, -0.06401536613702774, -0.10461249947547913, 0.13512545824050903, 0.06574887782335281, 0.20983834564685822, 0.017017992213368416, -0.06988033652305603, 0.1853674054145813, 0.16994960606098175, 0.01017396803945303, -0.10512705892324448, 0.016228433698415756, 0.0579012893140316, 0.3575197458267212, 0.06738440692424774, 0.06790517270565033, 0.14019407331943512, -0.009816015139222145, -0.038565054535865784, 0.23704853653907776, 0.1915549635887146, -0.058380793780088425, 0.21329694986343384, 0.07541617006063461, 0.054594170302152634, -0.2853361666202545, 0.02858670987188816, -0.14201653003692627, 0.10420621931552887], [0.09540349990129471, 0.03482705354690552, 0.14322133362293243, -0.07595747709274292, 0.07886556535959244, -0.11830154806375504, 0.036587975919246674, 0.15728972852230072, 0.15263912081718445, 0.06178112328052521, -0.013116451911628246, 0.1999061107635498, 0.16961172223091125, -0.021550942212343216, -0.24977265298366547, 0.07678957283496857, 0.009421595372259617, 0.17573364078998566, 0.12964439392089844, 0.002459739800542593, 0.020935337990522385, 0.11091484874486923, -0.01044376939535141, 0.2399873584508896, 0.04852733761072159, -0.1468583047389984, 0.22492393851280212, -0.12032267451286316, -0.09141477942466736, 0.03547291085124016], [0.071731336414814, 0.04588016867637634, 0.10335752367973328, -0.0861351490020752, -0.07421406358480453, -0.013973909430205822, -0.019793344661593437, -0.028307510539889336, 0.14503918588161469, -0.0984300896525383, -0.119181327521801, 0.011054467409849167, 0.10808798670768738, 0.12020015716552734, 0.2259112298488617, 0.02651563100516796, 0.170870840549469, 0.12492303550243378, 0.04286948963999748, -0.021396217867732048, -0.1279119998216629, -0.06727627664804459, 0.08516300469636917, 0.1631147265434265, -0.11604311317205429, 0.18056143820285797, -0.1313564032316208, 0.009768253192305565, -0.005904624704271555, -0.03225585073232651], [0.17066745460033417, 0.03075321391224861, 0.1236255094408989, -0.1399582326412201, -0.10412847995758057, 0.046161849051713943, 0.16150100529193878, 0.1530657559633255, 0.0707596093416214, -0.10035695135593414, 0.07017853111028671, -0.04338819906115532, -0.09261658042669296, -0.06815550476312637, -0.24515247344970703, 0.1993848979473114, -0.07360268384218216, 0.08447184413671494, 0.2171812802553177, -0.09005224704742432, 0.10132265836000443, -0.0024764551781117916, 0.11382921785116196, 0.16851942241191864, -0.044465433806180954, -0.0884801521897316, 0.35959741473197937, 0.04256116598844528, 0.029342569410800934, 0.1385132521390915], [-0.08831321448087692, -0.02325795777142048, 0.11015781760215759, 0.06495159864425659, -0.10765563696622849, 0.03710154816508293, -0.14332933723926544, -0.11739036440849304, 0.10245602577924728, -0.04957040399312973, -0.10319001972675323, -0.00954753253608942, 0.028410939499735832, -0.10189560800790787, -0.12329413741827011, -0.18020285665988922, 0.036821652203798294, -0.1281544268131256, 0.0026404361706227064, -0.05116497725248337, -0.12822313606739044, -0.07606930285692215, -0.15101675689220428, -0.10742722451686859, -0.020069707185029984, -0.17205269634723663, -0.1676759421825409, 0.12038062512874603, 0.004212399013340473, -0.08074413239955902], [0.08401484787464142, 0.10993371903896332, -0.13028168678283691, -0.0859481692314148, -0.15106849372386932, 0.03841688111424446, -0.05005444586277008, -0.20081934332847595, 0.06850394606590271, -0.17458446323871613, 0.12794005870819092, -0.11982164531946182, -0.010965284891426563, 0.16331686079502106, 0.10315301269292831, 0.19281980395317078, -0.07418244332075119, 0.04157042130827904, -0.19630099833011627, 0.08176417648792267, 0.2002486288547516, 0.2145366370677948, 0.09381753206253052, -0.1407419592142105, 0.21341095864772797, 0.08072109520435333, -0.03636062517762184, -0.0717027485370636, -0.08415038883686066, -0.1515609174966812], [0.19076696038246155, -0.04316697642207146, 0.04766293615102768, 0.020850157365202904, 0.011617877520620823, 0.003792335744947195, 0.11688047647476196, -0.03544125333428383, 0.08433187752962112, -0.04376289248466492, 0.1191914901137352, -0.1169714629650116, 0.08876103162765503, 0.1951511800289154, 0.17203208804130554, 0.12523840367794037, 0.12901465594768524, 0.17218035459518433, 0.09976839274168015, 0.02935660071671009, 0.07973338663578033, 0.22041666507720947, 0.20835018157958984, -0.1596173495054245, 0.14111237227916718, -0.02112836204469204, 0.17442533373832703, -0.10863365978002548, 0.13273094594478607, -0.050107192248106], [0.06197115406394005, 0.036647118628025055, -0.026379041373729706, 0.08494970947504044, 0.17317207157611847, -0.15344950556755066, 0.2173558473587036, 0.21610213816165924, 0.17497123777866364, 0.058976463973522186, 0.16331404447555542, -0.024085843935608864, -0.0031199671793729067, 0.02482668310403824, -0.0681886225938797, 0.11591413617134094, -0.17238187789916992, 0.15304142236709595, 0.020974060520529747, 0.12919268012046814, 0.15611577033996582, 0.08494333922863007, 0.20449447631835938, 0.0871119350194931, 0.14283032715320587, -0.050199151039123535, 0.3970632553100586, 0.08850894868373871, 0.17164109647274017, -0.041281454265117645], [0.13068358600139618, 0.14819841086864471, -0.13989770412445068, 0.14827749133110046, -0.12066138535737991, -0.14320674538612366, -0.1641966551542282, 0.04668501764535904, -0.14130432903766632, -0.07058696448802948, -0.09130366146564484, 0.03911634162068367, -0.19112956523895264, -0.08150913566350937, -0.0017314441502094269, 0.005261869635432959, -0.09996470808982849, 0.04789991304278374, -0.12467121332883835, -0.16504693031311035, -0.036442626267671585, -0.10984206944704056, 0.10445403307676315, -0.12789788842201233, -0.014766091480851173, 0.06920508295297623, -0.16117814183235168, 0.13373270630836487, -0.082109734416008, -0.0496814101934433], [-0.09150891751050949, -0.06451287120580673, -0.004342077765613794, -0.17055349051952362, 0.16604986786842346, 0.023062819615006447, 0.22603335976600647, 0.20200109481811523, 0.23179149627685547, 0.14695380628108978, 0.21002809703350067, 0.26046228408813477, 0.22752253711223602, -0.18753202259540558, -0.20250675082206726, -0.11642390489578247, 0.03055461123585701, -0.04083571583032608, 0.28084051609039307, 0.04675175994634628, 0.027142822742462158, -0.09755300730466843, -0.0946991816163063, 0.03244112432003021, -0.05206441134214401, -0.06446493417024612, 0.3879854381084442, -0.04488857090473175, -0.00614109868183732, 0.14018183946609497], [0.027529824525117874, -0.1409810483455658, 0.19711536169052124, 0.09949427098035812, -0.05174114555120468, 0.017579862847924232, 0.10125838220119476, 0.05935503914952278, 0.23547816276550293, -0.02737567387521267, 0.18045549094676971, -0.028388608247041702, -0.09760838001966476, 0.053744543343782425, -0.2003510743379593, 0.060979969799518585, 0.07948997616767883, -0.16891323029994965, -0.06762728840112686, 0.012288955971598625, 0.17930667102336884, 0.013266357593238354, 0.1129014790058136, 0.02019221894443035, 0.17653174698352814, -0.08515366166830063, 0.4033249020576477, 0.13867400586605072, 0.09782486408948898, 0.12913547456264496], [-0.24287348985671997, 0.08462419360876083, -0.0771976187825203, -0.0006116039585322142, 0.020263269543647766, 0.08708997815847397, 0.07649701088666916, -0.08179127424955368, -0.07602566480636597, 0.04305249825119972, 0.02123887650668621, -0.08447834104299545, 0.18007473647594452, -0.0883212462067604, -0.2617287039756775, 0.09172782301902771, 0.0855567678809166, -0.08333618193864822, 0.18122802674770355, -0.13134345412254333, 0.050762299448251724, 0.16910576820373535, 0.019834129139780998, 0.1565345674753189, -0.028586862608790398, 0.004727690946310759, 0.2714498043060303, 0.060438573360443115, -0.008825333788990974, 0.02547406405210495], [-0.13626094162464142, 0.04246344044804573, -0.0789867416024208, -0.1321282535791397, -0.03648284822702408, 0.24243304133415222, 0.06793621182441711, -0.1359397917985916, -0.057212334126234055, 0.08123958110809326, -0.003868344472721219, -0.009493392892181873, -0.010427743196487427, 0.03667593002319336, 0.13319431245326996, 0.07382123172283173, 0.18521280586719513, 0.1847493201494217, 0.16087204217910767, 0.06173181161284447, -0.0021080649457871914, 0.07681135088205338, -0.16748826205730438, 0.2132873833179474, 0.06406830251216888, 0.014110133983194828, -0.16682098805904388, 0.1656838059425354, 0.16575805842876434, 0.16654908657073975], [-0.10213876515626907, 0.13283884525299072, -0.011634228751063347, -0.11932852119207382, -0.002204140881076455, 0.0924612358212471, -0.06910871714353561, 0.1693011373281479, 0.0782923549413681, 0.09683354943990707, 0.1418522149324417, 0.12194882333278656, 0.10133227705955505, 0.07670997083187103, -0.13530777394771576, -0.057683154940605164, -0.034480296075344086, 0.10032712668180466, 0.18541540205478668, 0.21016129851341248, -0.039696160703897476, -0.0036980786826461554, -0.16198021173477173, 0.18937571346759796, -0.14039860665798187, -0.08104821294546127, 0.23931439220905304, 0.06269694864749908, -0.07229335606098175, -0.1229403018951416], [-0.189075767993927, 0.3334940969944, -0.3289089798927307, 0.18883103132247925, 0.08612552285194397, 0.05756107345223427, -0.0046588522382080555, 0.17142310738563538, 0.09058056771755219, 0.17514842748641968, 0.15883895754814148, -0.07586590200662613, 0.1478673815727234, 0.0820278599858284, -0.13037152588367462, 0.12472127377986908, -0.04858284816145897, -0.06252773106098175, 0.11327452212572098, 0.06489145010709763, -0.0240253284573555, -0.09288523346185684, 0.037228137254714966, 0.36083874106407166, -0.18755574524402618, -0.13103099167346954, 0.03627308830618858, -0.1391891986131668, -0.12682680785655975, -0.06081952154636383], [0.2594606578350067, -0.320703387260437, 0.029296666383743286, -0.02049528807401657, -0.17279571294784546, -0.034893523901700974, 0.010065767914056778, -0.02863607183098793, 0.12862129509449005, 0.10727272182703018, 0.14472796022891998, 0.11516828835010529, 0.0728234350681305, 0.15544064342975616, -0.06649945676326752, 0.13573358952999115, 0.09316838532686234, -0.07127992063760757, -0.07941630482673645, -0.05562904477119446, -0.10907905548810959, 0.05100115016102791, 0.1782808005809784, -0.20789389312267303, 0.1106531023979187, -0.07863849401473999, -0.09321357309818268, 0.16504403948783875, -0.1492597907781601, 0.028668055310845375], [0.14482541382312775, 0.13774296641349792, 0.10697272419929504, -0.16576555371284485, -0.009164135903120041, -0.035275015980005264, -0.0022382810711860657, 0.20071451365947723, 0.02542729862034321, -0.04473403841257095, -0.046934645622968674, 0.17454570531845093, 0.06325288116931915, 0.11061673611402512, -0.09748446196317673, -0.120536208152771, 0.07409849017858505, 0.19599184393882751, 0.2339344024658203, 0.06915302574634552, -0.12329363822937012, -0.08452927321195602, 0.1387041062116623, -0.10314688831567764, 0.062209274619817734, -0.015149115584790707, 0.2804407477378845, 0.050890468060970306, -0.07110851258039474, -0.07277552783489227], [0.20874589681625366, 0.11406759172677994, 0.07571052014827728, -0.1092291995882988, 0.15125806629657745, 0.03299352899193764, -0.060353171080350876, 0.04701032489538193, -0.05656720697879791, -0.07978887856006622, -0.04619036242365837, -0.0160346832126379, -0.08623135089874268, 0.18546852469444275, -0.01824343204498291, 0.16190311312675476, 0.24140648543834686, 0.10161362588405609, -0.044087182730436325, -0.08235502988100052, 0.16296714544296265, 0.22119030356407166, 0.19747258722782135, 0.10420869290828705, 0.062201179563999176, 0.23974724113941193, -0.12870194017887115, -0.04965481534600258, -0.14912571012973785, 0.07982342690229416], [-0.011995487846434116, 0.20473316311836243, 0.048072200268507004, 0.0817459225654602, 0.028836702927947044, -0.025316765531897545, 0.17222867906093597, -0.09892138093709946, 0.18877795338630676, 0.16047999262809753, -0.028660627081990242, 0.14333206415176392, 0.007928375154733658, -0.00913028884679079, -0.10797310620546341, -0.11778613179922104, 0.001150426222011447, 0.10914094001054764, 0.08990760892629623, -0.0716007798910141, 0.044600583612918854, 0.07571900635957718, -0.11055383086204529, -0.09717851132154465, 0.02415202185511589, 0.004793589469045401, 0.24212734401226044, 0.22364093363285065, 0.07053443789482117, 0.06536924839019775], [0.18625077605247498, 0.018877394497394562, -0.11508870869874954, 0.12426229566335678, 0.2407703846693039, 0.09471050649881363, -0.12729039788246155, 0.14555723965168, -0.09746187180280685, 0.13258951902389526, 0.08720320463180542, 0.14045660197734833, -0.09682522714138031, -0.013410363346338272, 0.06897199153900146, 0.19172021746635437, -0.0008214898989535868, 0.21425731480121613, 0.00922794733196497, -0.08027832955121994, -0.03188589587807655, 0.06209103390574455, 0.07088745385408401, 0.19204947352409363, -0.17451772093772888, -0.005877568386495113, -0.1086377501487732, 0.1968754231929779, 0.028409821912646294, -0.14392542839050293], [0.011781571432948112, -0.01882624439895153, 0.11532668769359589, -0.022664874792099, 0.15863722562789917, -0.046136751770973206, -0.001300658332183957, 0.037960365414619446, 0.09367401152849197, 0.20556871592998505, 0.05534939840435982, 0.17231419682502747, 0.17175385355949402, -0.1307167410850525, -0.1360909342765808, -0.03087901882827282, 0.09280165284872055, -0.047331735491752625, 0.17267125844955444, 0.058713801205158234, -0.09330683946609497, -0.09184730798006058, -0.14665037393569946, -0.1201544851064682, 0.10468164086341858, 0.025754092261195183, 0.3272235095500946, -0.12544554471969604, 0.04128209501504898, -0.16370511054992676], [0.03230292350053787, 0.008318392559885979, -0.07039228081703186, 0.16887958347797394, 0.0023803766816854477, 0.18131417036056519, -0.04952430725097656, 0.047935158014297485, 0.13179369270801544, -0.0738406553864479, -0.0609968937933445, 0.06955954432487488, -0.15535753965377808, 0.19052354991436005, 0.05632392689585686, 0.18612201511859894, -0.10010609775781631, -0.055584825575351715, 0.06658726930618286, -0.04501151293516159, 0.18894095718860626, 0.1591554880142212, 0.19587549567222595, -0.2452428936958313, 0.10187524557113647, -0.0035929111763834953, -0.09644883126020432, -0.11633733659982681, 0.0821579098701477, -0.00864922720938921], [-0.20166873931884766, -0.02336135320365429, 0.03715238347649574, -0.06054195016622543, 0.11093870550394058, 0.05321178957819939, 0.07968077063560486, 0.02019362524151802, -0.0009937373688444495, -0.041490137577056885, -0.1379052847623825, 0.1088288202881813, -0.09987698495388031, 0.026642052456736565, -0.16948606073856354, 0.11570713669061661, 0.17718087136745453, -0.0909525528550148, 0.2653101980686188, 0.024957915768027306, -0.14808019995689392, 0.06516625732183456, -0.01491818018257618, 0.2820869982242584, -0.20951519906520844, 0.12562532722949982, 0.24894551932811737, 0.17945581674575806, 0.10254475474357605, -0.08875169605016708], [0.1299627423286438, 0.13010263442993164, -0.02536279335618019, -0.02950013056397438, 0.236517071723938, 0.10312186181545258, 0.1539956033229828, 0.2112005352973938, -0.019246812909841537, 0.04466458782553673, 0.012227339670062065, 0.15582990646362305, 0.08329523354768753, -0.20373046398162842, -0.18303744494915009, -0.12852801382541656, -0.2156708836555481, 0.12259270995855331, -0.044482115656137466, 0.0027795694768428802, -0.05123406648635864, -0.041646458208560944, 0.025839785113930702, 0.11498557776212692, -0.02932637371122837, 0.1553337275981903, 0.3503514528274536, 0.157364159822464, -0.1000378206372261, -0.08537083864212036], [-0.13685089349746704, -0.07563766092061996, 0.07722926884889603, 0.04324736446142197, 0.24237899482250214, 0.1195550262928009, -0.06184263154864311, -0.0418226383626461, 0.19761255383491516, 0.1147739514708519, 0.1559394896030426, 0.016401443630456924, 0.05107904598116875, -0.02318688854575157, -0.2913389205932617, 0.1805010586977005, 0.12858116626739502, -0.06887555122375488, 0.061667464673519135, -0.021793391555547714, 0.055455420166254044, -0.023273153230547905, 0.18142566084861755, -0.1933407187461853, -0.003797940444201231, -0.08004811406135559, 0.32279208302497864, 0.0844101533293724, 0.02823946438729763, 0.15581940114498138], [-0.07558552920818329, 0.1282178908586502, -0.11922088265419006, -0.003461071290075779, -0.04375222697854042, -0.0727711021900177, -0.16819000244140625, 0.03995275869965553, -0.09428577870130539, 0.05469382181763649, -0.13725832104682922, -0.0666554719209671, 0.019541746005415916, 0.2883863151073456, 0.1901101917028427, 0.15051044523715973, 0.11388880014419556, 0.174564391374588, 0.0677633062005043, 0.176691472530365, 0.026933912187814713, 0.0219266340136528, 0.11167936027050018, 0.15709488093852997, 0.017312809824943542, 0.17407484352588654, -0.3413587808609009, 0.13997410237789154, -0.020308295264840126, -0.12564241886138916], [-0.13033203780651093, -0.008155753836035728, 0.08209235966205597, -0.12212129682302475, 0.04345584288239479, -0.0005067420424893498, -0.04545491188764572, 0.10650117695331573, 0.05899367481470108, 0.14081928133964539, 0.21105682849884033, -0.037041306495666504, 0.1697486937046051, 0.014268009923398495, -0.12903204560279846, 0.002662431448698044, 0.05740474537014961, 0.04894685000181198, 0.11232079565525055, -0.06530512124300003, 0.1512131690979004, 0.091621033847332, -0.1899956911802292, 0.10660019516944885, -0.02960517443716526, -0.03232885152101517, 0.07885098457336426, -0.07178211957216263, 0.26398107409477234, -0.16676592826843262], [0.14747518301010132, -0.13566994667053223, -0.012876521795988083, -0.08165672421455383, -0.047371190041303635, 0.07791942358016968, 0.1408800184726715, -0.04906345158815384, -0.011592627502977848, 0.1623149812221527, 0.07992120832204819, 0.13292354345321655, 0.14802275598049164, -0.1515248566865921, -0.2977546751499176, 0.09883394837379456, -0.053850315511226654, -0.10852113366127014, 0.01707427203655243, -0.10934427380561829, 0.17617449164390564, 0.04289614036679268, 0.09376532584428787, 0.014838747680187225, -0.1106690764427185, 0.12001495808362961, 0.2312767505645752, -0.014647502452135086, 0.19651086628437042, -0.0930052250623703], [0.021723702549934387, -0.10024739056825638, 0.09061386436223984, 0.05907992273569107, -0.12748704850673676, 0.12833818793296814, 0.042026106268167496, -0.04028811678290367, 0.20576098561286926, 0.13500183820724487, 0.14117659628391266, 0.024823535233736038, -0.02669881470501423, -0.14140109717845917, -0.10022056847810745, 0.08965648710727692, -0.08283331245183945, 0.19257044792175293, 0.21904437243938446, -0.06578941643238068, 0.10358111560344696, -0.056344229727983475, 0.0619337372481823, 0.19421160221099854, -0.16961900889873505, -0.09461617469787598, 0.21537898480892181, 0.062132880091667175, -0.09256231784820557, -0.12011585384607315], [-0.022286374121904373, -0.005953059531748295, 0.04280440881848335, 0.00821238849312067, 0.07509263604879379, 0.025560839101672173, 0.0010842432966455817, -0.02463911660015583, 0.07129570841789246, 0.08017392456531525, -0.01660187914967537, -0.02748994156718254, 0.04469895362854004, -0.25355100631713867, 0.2635880410671234, 0.09321216493844986, 0.039863552898168564, -0.06580571830272675, 0.019186319783329964, -0.20027296245098114, -0.15232136845588684, 0.18010126054286957, -0.13187557458877563, -0.12456075847148895, -0.11319003254175186, 0.04311324656009674, -0.0633806586265564, -0.08702100813388824, 0.04248560592532158, -0.040770597755908966], [0.06271649152040482, 0.2902974486351013, 0.08358810096979141, -0.01190952118486166, 0.2035202533006668, -0.13224419951438904, 0.13112811744213104, -0.0034995509777218103, 0.21463945508003235, -0.08459923416376114, 0.129495769739151, -0.088892862200737, 0.15603198111057281, -0.003743922570720315, 0.05084807053208351, -0.08840729296207428, 0.13266943395137787, -0.10667994618415833, 0.008965042419731617, 0.07087533921003342, -0.0017290333053097129, -0.11404126137495041, -0.22188900411128998, 0.09037180244922638, 0.03851362690329552, 0.16918347775936127, 0.32222574949264526, 0.054169848561286926, -0.048799917101860046, -0.16277474164962769], [0.2389901578426361, -0.04748089239001274, -0.04667006433010101, -0.15207186341285706, -0.18277789652347565, 0.142027348279953, -0.09985052794218063, -0.06638486683368683, -0.059878841042518616, -0.04968083277344704, -0.10447634756565094, -0.039820846170186996, 0.0630924180150032, 0.26527974009513855, 0.377271443605423, -0.10861488431692123, -0.04773036763072014, 0.07931463420391083, -0.03304635360836983, 0.23584309220314026, 0.23377910256385803, 0.11155378818511963, -0.027777990326285362, 0.00874764658510685, 0.12160436809062958, 0.13416098058223724, -0.3824152946472168, 0.027197817340493202, -0.18229353427886963, -0.07356995344161987], [0.05293208360671997, 0.0254372525960207, 0.16711477935314178, -0.14348916709423065, 0.221897691488266, 0.12444446235895157, 0.16562014818191528, 0.14557676017284393, 0.08744814991950989, 0.02366393804550171, 0.01485105324536562, -0.044495031237602234, 0.20262077450752258, -0.10279474407434464, -0.12784911692142487, -0.10173173248767853, 0.08635613322257996, -0.0248813945800066, 0.009795870631933212, 0.06354450434446335, -0.11706509441137314, 0.033810246735811234, -0.16270126402378082, 0.1783563792705536, -0.09875582158565521, 0.050333403050899506, 0.350311279296875, -0.07270907610654831, 0.193155437707901, 0.14869089424610138], [-0.018157871440052986, 0.03648166358470917, 0.08406147360801697, 0.17529258131980896, 0.17681516706943512, -0.08751005679368973, -0.13409413397312164, -0.11214929074048996, -0.059816159307956696, -0.030728301033377647, -0.01831287145614624, 0.10879547148942947, -0.059277258813381195, -0.19674639403820038, 0.04092938080430031, -0.12262419611215591, 0.24446028470993042, 0.08869115263223648, -0.0003543156781233847, 0.058122821152210236, -0.07070569694042206, 0.006138072814792395, 0.1386646032333374, 0.15750542283058167, 0.17118732631206512, 0.06874517351388931, -0.28879040479660034, -0.09079799801111221, 0.20463916659355164, -0.16479142010211945], [-0.023739300668239594, 0.15567123889923096, 0.09397958964109421, 0.10865788906812668, -0.00318623473867774, -0.13931074738502502, 0.04572431743144989, -0.07802778482437134, 0.013332211412489414, 0.05643961951136589, 0.07474392652511597, -0.04714854434132576, -0.08393839001655579, -0.11527641117572784, -0.1064026951789856, 0.02588292397558689, -0.09894029796123505, 0.018803002312779427, -0.08044209331274033, -0.06088532507419586, 0.1536838859319687, 0.13058756291866302, 0.06393101811408997, 0.3507160246372223, -0.25908026099205017, -0.08882509917020798, -0.1725870966911316, 0.1429862380027771, 0.11946337670087814, 0.1480018049478531], [-0.03480100631713867, -0.0021007172763347626, 0.12845245003700256, -0.12233822792768478, -0.11961935460567474, 0.15749694406986237, -0.17397411167621613, -0.08754599839448929, 0.05122169479727745, 0.11493609845638275, -0.038051728159189224, -0.11767927557229996, 0.11633926630020142, 0.34664857387542725, -0.03978570178151131, 0.019714483991265297, -0.04178795963525772, -0.002943950006738305, 0.023442640900611877, 0.19108432531356812, 0.14693495631217957, -0.10817968100309372, 0.027500927448272705, 0.1378469616174698, -0.031062044203281403, 0.0003356448432896286, -0.26588860154151917, 0.20386387407779694, -0.1582811325788498, -0.14381693303585052], [0.20415128767490387, -0.03152616694569588, 0.12082871794700623, -0.13051143288612366, 0.07638265937566757, -0.0009472439996898174, 0.11099394410848618, 0.0631355419754982, -0.03299791365861893, -0.03729329630732536, -0.1133972555398941, -0.11250653117895126, -0.056971658021211624, 0.20400357246398926, 0.2224642038345337, 0.178336501121521, 0.11355327069759369, 0.08928179740905762, -0.13411232829093933, 0.19906893372535706, -0.07585974037647247, 0.12733705341815948, 0.12162617594003677, 0.08516710251569748, 0.17427648603916168, 0.12820109724998474, -0.27409860491752625, -0.09005600214004517, -0.15704849362373352, 0.09214197844266891], [0.286657452583313, -0.26471659541130066, 0.09888478368520737, -0.06703810393810272, 0.23659110069274902, 0.007170455530285835, 0.1562354564666748, 0.1430647224187851, 0.1267777681350708, 0.1536666750907898, 0.09955918043851852, 0.10378262400627136, -0.10296497493982315, 0.03158745542168617, 0.027995670214295387, 0.15627649426460266, -0.0006472046370618045, 0.15375640988349915, 0.16903530061244965, 0.18000106513500214, 0.1535741537809372, 0.04297751933336258, 0.281589537858963, -0.19342759251594543, 0.21060031652450562, 0.06539775431156158, -0.009813176468014717, -0.12437594681978226, 0.21847891807556152, -0.025544386357069016], [0.20026245713233948, -0.11565599590539932, -0.1593562364578247, -0.02534354291856289, -0.08356991410255432, 0.051763661205768585, 0.022531425580382347, -0.020563969388604164, 0.15294872224330902, 0.15202271938323975, -0.09879268705844879, -0.06067121773958206, 0.15742313861846924, -0.09834128618240356, -0.061549361795186996, -0.0028058073949068785, 0.0493290051817894, -0.08406922221183777, 0.09711239486932755, -0.023529015481472015, -0.05257159471511841, -0.05126456171274185, 0.1377784013748169, 0.09846904128789902, -0.019453687593340874, 0.02063838019967079, 0.3012760877609253, 0.17911291122436523, 0.021779604256153107, -0.14950072765350342], [-0.04020151495933533, 0.23844794929027557, -0.11831621080636978, -0.1592232882976532, 0.14541076123714447, 0.21471253037452698, -0.09758943319320679, -0.002516333479434252, 0.018259944394230843, -0.06723038852214813, -0.015136413276195526, 0.22123146057128906, 0.21283750236034393, -0.13191059231758118, -0.07446825504302979, -0.07483763992786407, 0.11226069927215576, -0.08827055990695953, 0.020952196791768074, -0.029901793226599693, 0.07845057547092438, 0.17894096672534943, -0.13632136583328247, 0.2242233008146286, 0.14246363937854767, 0.025273816660046577, 0.21120622754096985, 0.09102261811494827, 0.0789986327290535, 0.10961207002401352], [0.1836940348148346, -0.12780386209487915, 0.1919429898262024, 0.1221352070569992, 0.04026499763131142, 0.21008001267910004, 0.02961658127605915, 0.15436993539333344, -0.0839192196726799, 0.211984783411026, 0.2374497354030609, -0.03684462606906891, -0.06887726485729218, -0.07514113187789917, -0.2261972725391388, 0.11665607243776321, 0.13239385187625885, 0.027861248701810837, 0.25063037872314453, 0.010257241316139698, -0.016088927164673805, -0.10904845595359802, 0.16333536803722382, -0.2033465951681137, 0.001517864759080112, 0.061583515256643295, 0.11712177842855453, 0.10315074771642685, 0.10323157161474228, 0.12218274921178818], [0.10200005024671555, 0.042712967842817307, -0.2150924652814865, -0.08014766126871109, -0.04098895192146301, 0.12616577744483948, -0.11506574600934982, -0.11513444036245346, 0.07988470792770386, 0.128492072224617, -0.034256450831890106, -0.1427672952413559, 0.07471820712089539, 0.17741738259792328, 0.23027510941028595, 0.06562499701976776, 0.19567067921161652, -0.09432422369718552, 0.19141440093517303, -0.045511916279792786, -0.066312775015831, 0.18698205053806305, -0.046564411371946335, 0.3032678961753845, -0.19831672310829163, 0.17625544965267181, 0.13614647090435028, 0.0982225313782692, 0.18985401093959808, -0.1303810179233551], [0.09379664808511734, 0.1185586079955101, 0.10007784515619278, -0.043721020221710205, 0.058984339237213135, 0.0511469766497612, -0.13656070828437805, -0.013617062009871006, -0.17573517560958862, -0.13860923051834106, 0.022427214309573174, 0.05968690663576126, 0.07898837327957153, 0.12417077273130417, 0.08766835182905197, -0.07859890162944794, 0.2859410345554352, -0.04704330861568451, 0.010021386668086052, 0.28767263889312744, 0.23399226367473602, -0.012633129023015499, 0.0256729107350111, -0.1006029024720192, 0.16994544863700867, -0.06620095670223236, -0.45082393288612366, -0.07839755713939667, 0.16171163320541382, 0.11834226548671722], [0.25205937027931213, 0.14518947899341583, -0.08991459012031555, -0.10190567374229431, -0.07891524583101273, 0.14593730866909027, 0.033394813537597656, 0.011902336031198502, -0.1573641449213028, -0.013554536737501621, -0.13521374762058258, -0.05517326295375824, -0.027997475117444992, 0.15269997715950012, 0.05539381131529808, 0.20384812355041504, 0.008006289601325989, 0.14274121820926666, 0.10710597783327103, 0.20434324443340302, 0.2000376582145691, 0.17363587021827698, 0.25483083724975586, 0.03249126300215721, 0.12668649852275848, -0.0019399748416617513, -0.3061043620109558, 0.11027036607265472, 0.0575873926281929, -0.0068464926443994045]], "b1": [-0.12138085067272186, 0.02738703228533268, 0.18373240530490875, -0.028461333364248276, 0.0592324435710907, 0.11284589767456055, -0.08697809278964996, -0.016131646931171417, -0.03710920736193657, -0.09114778786897659, 0.18550805747509003, 0.23538416624069214, 0.05229942873120308, 0.08546797186136246, -0.05080880597233772, -0.01340589951723814, 0.05211590975522995, -0.05271315202116966, 0.09321360290050507, 0.1461576372385025, 0.08565770834684372, 0.034244801849126816, 0.1698620766401291, 0.16946105659008026, 0.0923294723033905, 0.06944485753774643, 0.02720353566110134, 0.0805753767490387, -0.12243489921092987, 0.05779707431793213, -0.06366761028766632, -0.12806284427642822, -0.11616916209459305, 0.2644294798374176, -0.08733385801315308, 0.06611903756856918, 0.08159920573234558, 0.15239877998828888, 0.06567608565092087, -0.02003227360546589, 0.16292807459831238, -0.1833987832069397, 0.02638663910329342, 0.1482342928647995, 0.17078657448291779, -0.05334557965397835, -0.026010820642113686, 0.11355234682559967, 0.18208476901054382, -0.031663816422224045, 0.0008518709219060838, -0.059065189212560654, 0.12508511543273926, 0.07673445343971252, 0.15402105450630188, -0.00774369714781642, -0.14404898881912231, -0.04930088669061661, -0.12818215787410736, 0.043294746428728104, 0.14271725714206696, -0.10045981407165527, 0.013566735200583935, -0.11318895220756531, -0.06970848888158798, -0.04427123814821243, -0.017388135194778442, -0.11699698865413666, 0.043080393224954605, 0.14241038262844086, 0.1814495325088501, 0.008060135878622532, 0.08294059336185455, 0.027006017044186592, 0.09940190613269806, -0.13284245133399963, 0.1726130247116089, -0.12468156963586807, -0.05810438469052315, 0.10095536708831787, -0.09117044508457184, 0.0982808768749237, 0.24322257936000824, 0.10790205746889114, 0.2580898702144623, -0.06354918330907822, -0.06785429269075394, -0.0012121991021558642, -0.0545804388821125, -0.035125501453876495, 0.047443557530641556, 0.18221257627010345, -0.1112130805850029, 0.1370430290699005, 0.11739976704120636, 0.10140868276357651, 0.12544362246990204, -0.04797796905040741, 0.10219907760620117, -0.03478894755244255, -0.08711867034435272, 0.242262065410614, 0.1937345564365387, -0.08121687173843384, 0.1791926622390747, 0.07139953225851059, 0.0374361127614975, 0.17130202054977417, 0.034112103283405304, 0.01510180626064539, 0.17914825677871704, -0.03937862440943718, -0.02278035320341587, -0.06545387953519821, 0.20981286466121674, 0.1517859399318695, 0.022201191633939743, 0.06443957984447479, 0.04004345461726189, -0.04444560408592224, 0.1365177035331726, -0.07438880950212479, 0.029983773827552795, 0.022682329639792442, -0.027756981551647186, 0.22481419146060944, 0.15361247956752777, 0.1584910750389099], "w2": [[-0.10077743977308273, 0.06953490525484085, 0.24761977791786194, 0.050648510456085205, 0.026414500549435616, 0.09604177623987198, -0.29806971549987793, 0.16397880017757416, 0.02813686430454254, 0.054604995995759964, 0.018545053899288177, 0.18877816200256348, 0.1977747678756714, 0.019353171810507774, 0.03455864265561104, 0.0035536857321858406, -0.09708109498023987, -0.189968079328537, -0.008690119720995426, -0.14294306933879852, -0.1603800505399704, -0.06334715336561203, -0.11120563000440598, 0.1723557710647583, -0.04050974175333977, 0.08943508565425873, -0.03505327180027962, 0.05187293514609337, 0.18548591434955597, -0.04999115318059921, -0.11465922743082047, -0.03718813508749008, 0.11203977465629578, -0.026736414059996605, -0.11017513275146484, -0.040518783032894135, -0.20431411266326904, -0.02365572564303875, 0.10780145972967148, -0.021557286381721497, 0.18481037020683289, -0.09231369942426682, 0.12737974524497986, 0.09553325176239014, -0.1866007000207901, -0.01905456744134426, -0.04624495282769203, 0.10694155097007751, 0.11986464262008667, -0.31922248005867004, 0.10374027490615845, -0.10412100702524185, 0.013909204863011837, 0.14174874126911163, 0.15550309419631958, 0.17212679982185364, -0.1370043009519577, 0.307891309261322, 0.11426956951618195, -0.1116413027048111, -0.10835734754800797, 0.17523597180843353, 0.10278606414794922, -0.11972822993993759, 0.1429474949836731, -0.2830161154270172, 0.19425256550312042, 0.024041490629315376, 0.2646988034248352, 0.10694173723459244, 0.11144376546144485, -0.0360133983194828, 0.02386239729821682, 0.12432463467121124, -0.04520246386528015, 0.04438169673085213, 0.08260487020015717, -0.06135480850934982, -0.07670754939317703, 0.23908394575119019, -0.07027294486761093, 0.08421570807695389, 0.04150526598095894, 0.29443153738975525, -0.12383019179105759, 0.13420531153678894, -0.12158609181642532, 0.22517859935760498, 0.028696333989501, -0.13216616213321686, -0.012674590572714806, 0.08935287594795227, 0.026683801785111427, 0.31461697816848755, 0.15694041550159454, 0.1608675718307495, 0.03230678290128708, 0.030526015907526016, 0.1315034180879593, -0.009105863980948925, 0.0944501981139183, 0.012604760006070137, 0.07421773672103882, 0.034459251910448074, 0.14175045490264893, 0.01843738928437233, 0.12361050397157669, 0.14368301630020142, 0.20543716847896576, -0.23067235946655273, 0.021998533979058266, 0.2040807455778122, 0.1525868922472, -0.2211420089006424, 0.07123264670372009, -0.2795175611972809, 0.22775650024414062, -0.19232915341854095, -0.010586913675069809, -0.19514286518096924, -0.25122204422950745, 0.033463962376117706, 0.033160727471113205, 0.12516333162784576, 0.0749828889966011, 0.04042883962392807, -0.2556664049625397, -0.0437128022313118], [-0.03932298719882965, 0.0664694681763649, 0.10023538768291473, 0.06958728283643723, -0.04330854490399361, 0.05474649369716644, -0.08962369710206985, 0.0765281468629837, 0.003170774318277836, -0.073245108127594, -0.06530024111270905, -0.04455956071615219, 0.03290107473731041, -0.03769690915942192, -0.042388539761304855, 0.08311241120100021, -0.03128780797123909, 0.03188328444957733, 0.014637080952525139, 0.03610432893037796, 0.0036407846491783857, 0.06257634609937668, 0.036252595484256744, -0.012567364610731602, 0.06606912612915039, 0.009371249936521053, -0.06475114077329636, 0.03747904300689697, -0.006177738308906555, -0.0642085149884224, 0.005640138406306505, -0.020536957308650017, -0.027560172602534294, -0.042993880808353424, -0.06635570526123047, -0.025164471939206123, 0.0032698926515877247, 0.06037606671452522, -0.016543153673410416, -0.03284970670938492, -0.05303249880671501, -0.01686447486281395, 0.036581359803676605, -0.04294787719845772, 0.0581839494407177, -0.08433984220027924, 0.0666317343711853, 0.035356875509023666, -0.004959921818226576, -0.055818166583776474, 0.049724142998456955, 0.07386519759893417, -0.06359551846981049, -0.019810160622000694, 0.06535816192626953, -0.009574594907462597, -0.07018329203128815, 0.010686910711228848, 0.0189619492739439, -0.06378166377544403, -0.06792555749416351, -0.02153037115931511, 0.03198970854282379, -0.0010859905742108822, 0.0801403820514679, -0.03135447949171066, 0.05140213295817375, -0.070120669901371, 0.0671781599521637, 0.10577170550823212, 0.04989722743630409, -0.034487154334783554, 0.06459281593561172, -0.08144915103912354, -0.016993381083011627, -0.018022768199443817, -0.09617039561271667, -0.08272770792245865, -0.0597802959382534, 0.022540127858519554, 0.03848179057240486, 0.04592449963092804, -0.015439370647072792, 0.08365783095359802, 0.0038174281362444162, 0.1037227064371109, 0.05217473953962326, -0.0732182040810585, -0.059912778437137604, 0.03319361060857773, 0.08217870444059372, -0.06675522029399872, 0.0012936447747051716, -0.001838156022131443, 0.09631787985563278, 0.09368395805358887, 0.05922010913491249, 0.0736527219414711, 0.03719468042254448, 0.08693555742502213, -0.012253738939762115, 0.016219161450862885, -0.005463648587465286, -0.06729935854673386, -0.03219570592045784, 0.024279072880744934, 0.008749594911932945, -0.016000330448150635, 0.010156160220503807, 0.004377793520689011, -0.06721027195453644, 0.06877350062131882, -0.062157947570085526, -0.04715372622013092, -0.06605739891529083, -0.10070949792861938, -0.01892249472439289, 0.08894185721874237, 0.08703166246414185, 0.02411474846303463, 0.05832550302147865, -0.05010588839650154, 0.04270736873149872, 0.06745253503322601, -0.09026503562927246, -0.0725507065653801, 0.01089733187109232, 0.013397296890616417], [0.00357189797796309, -0.09129364043474197, -0.13740749657154083, 0.004862912464886904, -0.04431198164820671, -0.1713338941335678, 0.34108126163482666, -0.12912911176681519, 0.07272593677043915, -0.022916756570339203, 0.08361993730068207, -0.05795229226350784, -0.09762530773878098, -0.013814921490848064, 0.12364015728235245, -0.026607688516378403, 0.13699080049991608, 0.19686587154865265, 0.058961011469364166, 0.18477188050746918, 0.17604966461658478, -0.061824534088373184, 0.1911444514989853, -0.11803267896175385, 0.22969533503055573, -0.08380448073148727, 0.16169880330562592, -0.005649690981954336, -0.15961191058158875, 0.11910450458526611, 0.11140676587820053, -0.04383917897939682, 0.07541567832231522, 0.14162826538085938, 0.06130257993936539, 0.19157510995864868, 0.1621876060962677, 0.010100312530994415, -0.04437756538391113, 0.13030606508255005, -0.18251657485961914, 0.06682171672582626, -0.19458560645580292, 0.008051901124417782, 0.09135136753320694, 0.012328164651989937, 0.17585036158561707, -0.014290058985352516, -0.07083272933959961, 0.17129753530025482, -0.0449858084321022, 0.06681054085493088, 0.12692487239837646, -0.074795201420784, -0.19495177268981934, -0.042250312864780426, 0.12217757850885391, -0.314217746257782, -0.06459786742925644, 0.12316778302192688, 0.1634390503168106, -0.10267293453216553, -0.12911272048950195, 0.22763049602508545, -0.007054876070469618, 0.30191799998283386, -0.2388642430305481, 0.05423128977417946, -0.2282341867685318, -0.09326040744781494, 0.026310201734304428, -0.02689054235816002, 0.041092921048402786, 0.003149742726236582, -0.03440537676215172, -0.017417801544070244, 0.04383271932601929, 0.117945097386837, 0.10467244684696198, -0.144755020737648, -0.012427053414285183, 0.05247019976377487, 0.01250920444726944, -0.2482338398694992, 0.1514918953180313, -0.1505642682313919, 0.09353486448526382, -0.1588006317615509, -0.025249512866139412, 0.1531841903924942, -0.017345424741506577, -0.05290395766496658, -0.02899424359202385, -0.13820254802703857, -0.05956549197435379, -0.17593125998973846, 0.11002428084611893, -0.08974424004554749, 0.025953510776162148, 0.07342588901519775, -0.06654196977615356, 0.14480628073215485, -0.06154482066631317, 0.054334159940481186, -0.14916135370731354, 0.12950335443019867, -0.03547227382659912, -0.24105258285999298, -0.17415964603424072, 0.2822440564632416, -0.05174366757273674, -0.17119956016540527, -0.14206187427043915, 0.1093171164393425, -0.06175984814763069, 0.33028990030288696, -0.09361924231052399, 0.2049945741891861, 0.07047440856695175, 0.17999395728111267, 0.29397615790367126, 0.040608614683151245, -0.17662052810192108, 0.02862662635743618, -0.12993109226226807, 0.101571224629879, 0.1970183551311493, 0.12501567602157593], [-0.05253514647483826, -0.017880644649267197, -0.11252053827047348, -0.06137971580028534, -0.007710705511271954, -0.028190448880195618, -0.19023577868938446, -0.14298851788043976, -0.12109527736902237, -0.046302083879709244, -0.10735367983579636, -0.11562097072601318, -0.09155172854661942, -0.02620049938559532, -0.05634184926748276, -0.02178621105849743, -0.14021125435829163, -0.09184737503528595, -0.1709241271018982, -0.15080644190311432, -0.1770978718996048, -0.020319707691669464, -0.18208439648151398, -0.036856088787317276, -0.057832520455121994, -0.19950538873672485, -0.08120813220739365, -0.1641300916671753, -0.03334864228963852, -0.07710973173379898, -0.1459398716688156, 0.05339370295405388, -0.06584915518760681, -0.23750519752502441, -0.031428758054971695, -0.14243941009044647, -0.09660514444112778, -0.004343882668763399, -0.09083790332078934, -0.19646984338760376, -0.0008450044551864266, -0.09829021990299225, -0.1168987900018692, -0.0483982227742672, 0.011701751500368118, -0.013019449077546597, -0.04158960282802582, -0.05254879221320152, -0.17680132389068604, -0.14078596234321594, -0.1109234020113945, -0.06385862827301025, -0.14936845004558563, -0.07439251244068146, -0.028108978644013405, -0.03221817687153816, -0.09427325427532196, 0.013034654781222343, -0.1605803668498993, -0.10960530489683151, -0.07524722069501877, -0.09530337154865265, -0.02722914144396782, -0.0969780832529068, -0.055453620851039886, -0.23124513030052185, -0.19548389315605164, -0.007831261493265629, -0.15702694654464722, -0.17101089656352997, -0.16185469925403595, 0.021536702290177345, -0.08537840843200684, -0.13399723172187805, -0.051293227821588516, -0.1251392960548401, -0.12251262366771698, -0.11111259460449219, -0.18557848036289215, 0.027841387316584587, -0.04543653875589371, -0.11618907749652863, -0.2056620866060257, -0.07553872466087341, -0.09809601306915283, -0.15480709075927734, -0.006753727328032255, 0.010325204581022263, -0.06689608097076416, -0.030928926542401314, -0.10682057589292526, -0.08440898358821869, 0.029167942702770233, -0.10525752604007721, -0.007536603137850761, -0.018971385434269905, -0.1647694855928421, -0.13069766759872437, -0.16086089611053467, -0.03110726922750473, -0.1583109349012375, -0.169497549533844, -0.14715419709682465, -0.18536852300167084, -0.15209200978279114, -0.0002477928646840155, -0.018584905192255974, 0.015069627203047276, -0.15244299173355103, -0.14120090007781982, -0.14626061916351318, -0.08380626887083054, -0.14239317178726196, -0.02530653588473797, -0.14582975208759308, -0.0901101753115654, 0.011768508702516556, -0.0661974772810936, 0.005355664994567633, -0.16105464100837708, -0.1370636373758316, -0.146645188331604, -0.06164915859699249, -0.14658516645431519, -0.1361195594072342, -0.17033758759498596, -0.19494207203388214, -0.09173818677663803], [0.01714664325118065, -0.03313683718442917, 0.10794857144355774, 0.08214264363050461, -0.008706849999725819, 0.08488757163286209, 0.1268332600593567, -0.042551834136247635, -0.1052580252289772, 0.04796144738793373, 0.09092488139867783, 0.11450653523206711, 0.014546596445143223, -0.022036129608750343, 0.1421680599451065, 0.039194777607917786, 0.046259842813014984, -0.011892457492649555, 0.06998062133789062, 0.15505778789520264, -0.002280628541484475, 0.006238716188818216, 0.14553110301494598, 0.03793793544173241, 0.039600919932127, 0.05543825402855873, 0.015300660394132137, 0.08454746007919312, -0.05004623904824257, 0.11607068032026291, 0.06466753780841827, -0.011253471486270428, 0.0730644166469574, 0.1640503853559494, -0.01937795616686344, -0.0013726119650527835, 0.009266478940844536, 0.0011702710762619972, 0.0032656893599778414, 0.17252641916275024, -0.01695907860994339, -0.02092854306101799, -0.011411581188440323, 0.01447297167032957, 0.006277208682149649, 0.0010665941517800093, 0.0482892170548439, 0.10216419398784637, 0.0780102014541626, 0.32074254751205444, 0.09101603925228119, 0.1655898541212082, 0.06257867813110352, 0.15285569429397583, 0.14899958670139313, 0.12082438915967941, 0.12323331087827682, -0.02524477243423462, 0.0066965436562895775, 0.08180923014879227, 0.13881200551986694, 0.1578376740217209, 0.056367356330156326, 0.05718642473220825, 0.15184526145458221, 0.017763568088412285, 0.1240934431552887, -0.03475966304540634, 0.01737377420067787, 0.07634053379297256, 0.12208011001348495, -0.04444039240479469, 0.07497736066579819, 0.1509178876876831, -0.012706367298960686, 0.07176145911216736, 0.0015989155508577824, -0.023956647142767906, 0.0029459695797413588, -0.07602187246084213, -0.05510978400707245, 0.12897081673145294, 0.12679404020309448, -0.0020448702853173018, 0.1619623452425003, 0.10017898678779602, 0.09099171310663223, 0.012811418622732162, 0.04803072661161423, -0.01630062609910965, 0.1534503549337387, 0.022747782990336418, 0.037541713565588, 0.03653967007994652, 0.14177240431308746, -0.033282823860645294, 0.055549610406160355, 0.03820222243666649, 0.001485277316533029, -0.006533073727041483, 0.027516089379787445, 0.09333638846874237, 0.13681578636169434, 0.06836716830730438, 0.1508093625307083, 0.02923608385026455, 0.012494413182139397, 0.060099415481090546, 0.06878970563411713, 0.11458727717399597, 0.17560209333896637, 0.09102040529251099, -0.004019168671220541, 0.031107956543564796, 0.0648403912782669, -0.03147664666175842, 0.1033366248011589, 0.07016787678003311, 0.09375277906656265, 0.08116837590932846, 0.1077081561088562, 0.03226397931575775, 0.051162779331207275, 0.138519287109375, 0.009327227249741554, 0.09385838359594345, -0.032257065176963806, 0.05912034213542938], [0.007270828355103731, -0.07297300547361374, 0.057961657643318176, -0.09060446918010712, -0.04650994390249252, 0.05080531910061836, 0.06063432991504669, -0.013772563077509403, -0.02884526178240776, -0.07087837159633636, -0.028904534876346588, -0.0760870948433876, 0.09217879921197891, -0.026681991294026375, 0.03782923147082329, -0.02768651396036148, -0.0512775219976902, 0.04946482926607132, -0.0002059459511656314, -0.02672874927520752, -0.09818018227815628, 