{"metadata": {"algorithm": "reinforce_self_play", "num_players": 3, "input_size": 30, "hidden_size": 256, "num_layers": 3, "output_size": 10, "abstract_actions": ["L", "M", "H", "D", "LL", "LH", "HH", "K0", "K1", "K2"], "episodes": 520064, "win_rate_vs_random": 0.529, "exported_at": "2026-03-05T16:07:04Z"}, "weights": {"b1": [0.1439695805311203, -0.13864107429981232, 0.014125730842351913, 0.10258904844522476, -0.13166262209415436, -0.0862087532877922, -0.05637024715542793, -0.0013090820284560323, -0.06447163224220276, 0.11046870797872543, -0.13008375465869904, 0.18309195339679718, 0.09220041334629059, 0.18278567492961884, 0.11680114269256592, 0.1862700879573822, 0.09434022009372711, -0.05511696636676788, 0.08112433552742004, 0.17769336700439453, -0.1224975436925888, 0.07286666333675385, 0.05772745609283447, 0.08584171533584595, -0.12752576172351837, 0.03988013043999672, 0.1161952018737793, 0.025069791823625565, -0.0927572250366211, 0.02490205690264702, 0.20373980700969696, 0.18104632198810577, 0.09477698057889938, -0.028347745537757874, -0.1440323293209076, -0.08536700159311295, 0.08496292680501938, 0.17014731466770172, 0.011312233284115791, 0.057328302413225174, -0.09807848930358887, 0.1628941148519516, -0.04235685616731644, 0.14742812514305115, -0.09410983324050903, -0.06399591267108917, 0.16308018565177917, 0.06588922441005707, 0.1565151959657669, -0.06314275413751602, -0.06616154313087463, 0.11980711668729782, 0.08161688596010208, -0.006454077549278736, 0.13972097635269165, 0.17490997910499573, 0.007832979783415794, 0.19803166389465332, -0.01814461313188076, 0.05221499130129814, 0.0200320016592741, -0.10776778310537338, 0.1290668547153473, 0.19508495926856995, 0.05220889300107956, 0.07130108773708344, 0.05949920788407326, -0.042127545922994614, -0.09673283249139786, 0.009205526672303677, -0.1329578310251236, -0.05241569131612778, 0.09875321388244629, -0.03660682588815689, -0.08191058039665222, 0.09392821043729782, 0.015872148796916008, 0.1468532532453537, -0.06972363591194153, 0.22144372761249542, -0.07040564715862274, 0.0052686454728245735, 0.0865449383854866, -0.09374796599149704, 0.001768014277331531, -0.0943833664059639, 0.06659532338380814, -0.07293667644262314, -0.034453436732292175, -0.07667718827724457, -0.10222526639699936, -0.0996297225356102, -0.021931074559688568, -0.07483892887830734, 0.016192726790905, 0.13876262307167053, -0.10736079514026642, 0.14546672999858856, 0.1699010133743286, 0.16083447635173798, 0.16346120834350586, 0.17319054901599884, 0.0540325827896595, -0.10585331916809082, -0.123179592192173, 0.2154737412929535, -0.01894286274909973, -0.16233056783676147, -0.10600613802671432, 0.11118897795677185, -0.08220105618238449, 0.17989104986190796, 0.07500715553760529, 0.05180288851261139, 0.20000581443309784, -0.14769494533538818, -0.14024394750595093, 0.16940130293369293, -0.011869972571730614, -0.129632830619812, 0.013946150429546833, -0.08821839094161987, 0.08824609220027924, -0.12541502714157104, 0.18556466698646545, 0.18707363307476044, -0.022935258224606514, 0.11920969933271408, 0.14927975833415985, 0.04443524777889252, 0.07968717068433762, -0.09468073397874832, 0.17726938426494598, -0.08447649329900742, 0.20436865091323853, 0.20283249020576477, 0.12783309817314148, 0.128583624958992, 0.0045942883007228374, 0.13031098246574402, 0.16754312813282013, -0.1205589547753334, -0.01697816513478756, 0.11222583800554276, 0.08988887071609497, 0.1755601018667221, 0.013236933387815952, 0.06378543376922607, -0.017822492867708206, 0.09140388667583466, -0.14669214189052582, -0.07780011743307114, -0.1345674991607666, -0.08177337795495987, -0.03607408329844475, 0.11420165002346039, -0.13003847002983093, -0.047931570559740067, -0.028896471485495567, 0.06440259516239166, 0.124514639377594, 0.06989514082670212, 0.07771671563386917, 0.09216673672199249, 0.10616527497768402, 0.2040405124425888, -0.06590889394283295, -0.10956358164548874, 0.1379537433385849, -0.06683208793401718, -0.016591183841228485, -0.03567875176668167, 0.2006397694349289, 0.1174948439002037, 0.1266552358865738, 0.06170513853430748, -0.11076037585735321, 0.16146956384181976, 0.15084466338157654, 0.0328616239130497, -0.07244758307933807, -0.11215344816446304, 0.029354942962527275, -0.022982614114880562, 0.10943740606307983, -0.08148679882287979, -0.0637659877538681, 0.13956767320632935, 0.18078897893428802, 0.009804152883589268, 0.07164070010185242, 0.04600154981017113, 0.07325407862663269, 0.18285438418388367, 0.02887524664402008, -0.016025764867663383, 0.046822186559438705, -6.126260268501937e-05, 0.17411866784095764, -8.080015686573461e-05, 0.0758589506149292, 0.04101409763097763, 0.07349955290555954, -0.07705982774496078, -0.1231677457690239, -0.1377357840538025, -0.07024376094341278, 0.14407768845558167, 0.032217301428318024, -0.03961627930402756, 0.020549120381474495, 0.1504889875650406, -0.035865090787410736, -0.012532594613730907, -0.0464010052382946, -0.05454576388001442, -0.1170385405421257, 0.08672251552343369, 0.1637842059135437, -0.08516769856214523, -0.0024897276889532804, 0.014922728762030602, 0.037792447954416275, -0.042309410870075226, -0.09884144365787506, -0.10381866991519928, 0.163831427693367, -0.1258067935705185, 0.034656841307878494, 0.17868474125862122, -0.07097098976373672, -0.04805014282464981, -0.03368347883224487, 0.08775366097688675, 0.06553514301776886, -0.0632176324725151, 0.1323690563440323, 0.08715970814228058, -0.01437001395970583, 0.002356734126806259, -0.07637867331504822, 0.12417041510343552, 0.11826218664646149, 0.04109768941998482, -0.12061785906553268, -0.029180528596043587, 0.05956800654530525, 0.10679718106985092, -0.019099920988082886, 0.053182318806648254, -0.07641518861055374, 0.10565611720085144, -0.09563127905130386, -0.10441924631595612, -0.049474332481622696, 0.10459776967763901], "w2": [[0.11271888762712479, 0.12555181980133057, -0.1165725588798523, 0.15114864706993103, 0.14287783205509186, 0.03250192105770111, -0.13004733622074127, -0.16350530087947845, 0.11847363412380219, -0.015660472214221954, -0.13442111015319824, 0.17037257552146912, 0.06141196936368942, 0.06734481453895569, 0.10955358296632767, -0.09533032029867172, -0.12333019822835922, -0.005025277379900217, 0.05742968991398811, 0.16738122701644897, 0.06603576242923737, -0.03634949028491974, 0.0033782406244426966, 0.2040441930294037, -0.06593829393386841, 0.007631606888025999, -0.16203005611896515, -0.03391706943511963, 0.041408322751522064, 0.14443626999855042], [0.025440605357289314, 0.0014109035255387425, -0.13463367521762848, -0.1520421802997589, -0.07605495303869247, -0.10125420987606049, -0.009555836208164692, 0.08866684883832932, 0.16979266703128815, -0.03604152798652649, 0.03694552183151245, 0.17584916949272156, 0.02691449597477913, 0.22588956356048584, 0.05219078063964844, 0.1989867389202118, -0.10230416059494019, 0.15592309832572937, 0.003337535075843334, -0.1491835117340088, 0.1956600546836853, -0.07044709473848343, 0.20965133607387543, -0.09728541225194931, -0.09690356999635696, -0.12789136171340942, -0.041746824979782104, 0.14176329970359802, -0.13698334991931915, -0.11590121686458588], [-0.061660196632146835, -0.07414783537387848, 0.034077808260917664, -0.0919182300567627, 0.012372703291475773, -0.08326864242553711, -0.07429510354995728, -0.06018320098519325, -0.016966156661510468, -0.13853004574775696, -0.012969497591257095, 0.04762979969382286, 0.005145454779267311, 0.08988671004772186, 0.21349698305130005, 0.07496533542871475, 0.16570794582366943, -0.1401291787624359, -0.1708815097808838, 0.023405617102980614, 0.00017149574705399573, 0.04334090277552605, -0.15700764954090118, 0.16550977528095245, -0.15285895764827728, 0.10331327468156815, 0.12041142582893372, -0.12116122245788574, -0.024723786860704422, 0.14399603009223938], [-0.1781352162361145, 0.11461267620325089, -0.15760678052902222, -0.10399936884641647, 0.0937570184469223, -0.1578097641468048, 0.015320401638746262, 0.12617447972297668, 0.0825410857796669, -0.06693968921899796, -0.10500407218933105, 0.1376582235097885, 0.10098496824502945, 0.16558977961540222, 0.10501313209533691, 0.060367099940776825, -0.064487025141716, 0.11217879503965378, -0.0748310387134552, 0.1618157923221588, 0.12920154631137848, -0.09289344400167465, -0.10713400691747665, -0.03949374333024025, -0.1555183082818985, 0.020726097747683525, 0.22387240827083588, 0.010551678016781807, 0.07591500133275986, -0.13527074456214905], [-0.12194512039422989, 0.10902274399995804, 0.08268458396196365, 0.10083049535751343, 0.08711107075214386, 0.16324885189533234, -0.14691725373268127, 0.14130884408950806, 0.18975570797920227, 0.05489347130060196, -0.11243241280317307, -0.11256589740514755, 0.06768187880516052, 0.0646253302693367, 0.13057787716388702, 0.1978980302810669, 0.2016649842262268, -0.1090870201587677, -0.06905434280633926, -0.1511189043521881, 0.11977434158325195, 0.10930686444044113, 0.04315159469842911, 0.09489373862743378, -0.0057571385987102985, -0.05176202952861786, -0.04624266177415848, 0.15609978139400482, -0.13882817327976227, 0.0409911572933197], [0.16282714903354645, -0.15136338770389557, 0.07072361558675766, 0.0896313339471817, -0.15407469868659973, 0.14699245989322662, -0.054835204035043716, -0.00063420768128708, 0.005062771961092949, 0.1487097591161728, 0.15065047144889832, -0.08425839990377426, -0.10771395266056061, 0.11246930062770844, -0.19089993834495544, 0.004023670218884945, 0.17306701838970184, 0.13515277206897736, 0.14469127357006073, -0.12688270211219788, -0.048659034073352814, -0.026173384860157967, -0.09778975695371628, 0.10005497932434082, -0.07229380309581757, 0.06933104991912842, 0.06305356323719025, 0.18756455183029175, 0.07181111723184586, -0.1813143491744995], [0.07064034044742584, 0.18199308216571808, -0.029213931411504745, -0.038178347051143646, 0.1447761356830597, -0.026381447911262512, 0.08507207036018372, 0.14131128787994385, 0.09579749405384064, -0.019899506121873856, -0.09096267819404602, -0.11319838464260101, 0.030425600707530975, 0.08755616098642349, 0.15763986110687256, 0.13171084225177765, 0.13137556612491608, -0.0524166077375412, -0.14426307380199432, -0.1131577342748642, -0.14837408065795898, 0.16991759836673737, 0.10217468440532684, 0.02235531061887741, 0.11164039373397827, 0.02789985202252865, 0.12223779410123825, 0.02076367661356926, -0.04327712953090668, -0.07508707046508789], [-0.1659611314535141, -0.13547301292419434, -0.0537591278553009, -0.16189837455749512, 0.13663464784622192, -0.02697700820863247, -0.13031038641929626, -0.07451317459344864, 0.20366248488426208, 0.04905327409505844, -0.05685226246714592, -0.09930753707885742, 0.13562077283859253, -0.14738717675209045, 0.05977143719792366, 0.1944614052772522, 0.1617811769247055, -0.044247664511203766, 0.1662122756242752, -0.15692539513111115, 0.17783626914024353, 0.15179871022701263, 0.034662876278162, -0.02401617169380188, 0.2124306857585907, -0.001733932993374765, 0.052920904010534286, -0.1358257234096527, 0.14207357168197632, 0.013159427791833878], [-0.07667338848114014, -0.03600640594959259, -0.028968799859285355, -0.05077705532312393, 0.08860135823488235, -0.10590429604053497, -0.05387692525982857, -0.00663598719984293, -0.028851889073848724, 0.07596942782402039, 0.07732024043798447, 0.13729897141456604, 0.06173892319202423, -0.03760385140776634, -0.07760884612798691, -0.12110132724046707, -0.12854351103305817, -0.10489770770072937, 0.029011694714426994, -0.1315779983997345, 0.09725280851125717, 0.02547208033502102, -0.15313023328781128, 0.27048060297966003, -0.22674702107906342, 0.03925762325525284, 0.1586107760667801, 0.09255078434944153, 0.055128809064626694, -0.06864774972200394], [-0.10768374055624008, -0.035832419991493225, -0.12452615797519684, 0.15115895867347717, -0.09429638832807541, -0.03815126791596413, 0.2033645510673523, 0.031807612627744675, -0.010773107409477234, -0.07809127867221832, 0.04658850282430649, 0.1849929690361023, 0.15336571633815765, -0.13362230360507965, -0.15503941476345062, 0.0592658706009388, 0.011061504483222961, -0.00888977013528347, 0.09898262470960617, -0.02327582612633705, 0.13239769637584686, -0.10027552396059036, -0.019657831639051437, -0.11875712126493454, 0.04492418095469475, -0.01720242202281952, 0.2048620730638504, 0.12168198823928833, 0.048687372356653214, -0.11391409486532211], [-0.011111533269286156, 0.14541864395141602, 0.1948091983795166, -0.121542789041996, 0.07590162754058838, -0.12363171577453613, 0.01271429006010294, -0.11590797454118729, -0.04551630839705467, -0.057109128683805466, 0.12339412420988083, 0.09424154460430145, -0.05649460852146149, -0.11004135757684708, 0.18989022076129913, 0.22618062794208527, -0.03973622992634773, -0.11578544229269028, 0.09983134269714355, -0.17440152168273926, 0.08783750981092453, -0.12979428470134735, 0.003594944952055812, 0.006453727837651968, -0.014902768656611443, 0.07514189928770065, -0.06260427832603455, -0.12025380879640579, 0.09529045969247818, -0.09879374504089355], [0.11337362229824066, -0.16044387221336365, -0.16994349658489227, 0.11226751655340195, 0.11774834245443344, 0.06997436285018921, -0.12741988897323608, 0.07521684467792511, -0.07824163883924484, -0.06331951916217804, 0.1853075474500656, 0.15672621130943298, -0.028138769790530205, 0.18863344192504883, -0.15997211635112762, 0.00037932262057438493, 0.11349546164274216, -0.07307419180870056, 0.10229901224374771, -0.024979006499052048, 0.11943764239549637, -0.04619954898953438, -0.013305744156241417, -0.017364682629704475, -0.1689501404762268, 0.11066511273384094, -0.16453255712985992, -0.1383349895477295, 0.14039169251918793, -0.1660318523645401], [0.10944189131259918, -0.1516905575990677, -0.13066324591636658, -0.12878261506557465, -0.14005306363105774, 0.1807670146226883, -0.046965256333351135, -0.13342727720737457, 0.18315349519252777, 0.07185789197683334, 0.13213267922401428, 0.11213666945695877, 0.14945144951343536, 0.12837888300418854, 0.02213687263429165, 0.13408106565475464, 0.1439642459154129, 0.05666911602020264, -0.17674507200717926, -0.07752572000026703, 0.09585057944059372, 0.11142539978027344, 0.0447608157992363, -0.09070596843957901, -0.11782822012901306, -0.11854751408100128, -0.12195978313684464, 0.03339403495192528, -0.09073007106781006, -0.07067165523767471], [0.05806238576769829, 0.013811508193612099, -0.057695258408784866, 0.08720556646585464, 0.06966681033372879, 0.032806381583213806, 0.03419781103730202, -0.12810048460960388, 0.027803894132375717, 0.05928928777575493, -0.06908610463142395, -0.05263381823897362, -0.03390883281826973, -0.11530712991952896, -0.14714902639389038, 0.17989082634449005, 0.15522350370883942, -0.028405625373125076, 0.030495552346110344, 0.029678646475076675, 0.21181416511535645, -0.1267266571521759, 0.14632585644721985, -0.13489241898059845, -0.09367860853672028, -0.004698249511420727, -0.16660428047180176, 0.07500876486301422, -0.09696229547262192, 0.11359663307666779], [0.18139469623565674, -0.17277047038078308, -0.06048903986811638, 0.06074121966958046, 0.0043360888957977295, 0.01982206106185913, 0.1705552041530609, 0.06085682287812233, 0.09306500107049942, -0.08362415432929993, -0.08370324224233627, 0.1806313693523407, -0.10070431232452393, 0.056516293436288834, -0.030623730272054672, -0.026504086330533028, 0.006046545226126909, 0.12466181069612503, 0.022477131336927414, 0.07520593702793121, 0.006386786233633757, -0.1509457230567932, -0.020151250064373016, 0.06929200142621994, -0.09547392278909683, 0.12352748215198517, 0.20459391176700592, -0.06001681461930275, -0.00620382372289896, 0.05999055504798889], [0.1494552195072174, 0.17590272426605225, -0.1201157420873642, -0.16572082042694092, -0.042939648032188416, 0.17063255608081818, 0.024064069613814354, 0.15908853709697723, 0.004116430878639221, 0.09062156081199646, 0.0005018174997530878, 0.0658220499753952, -0.10703349858522415, -0.030125277116894722, 0.14282526075839996, -0.03753809258341789, 0.16789092123508453, -0.08377661556005478, -0.04518634453415871, -0.048632971942424774, 0.06093134731054306, 0.1339820921421051, -0.15982133150100708, -0.14803379774093628, 0.1393844038248062, 0.13462954759597778, 0.002730717184022069, -0.02006811834871769, 0.15770915150642395, -0.12890133261680603], [-0.03590192645788193, -0.15780331194400787, 0.09483993053436279, -0.1720072329044342, -0.07444721460342407, 0.05963674932718277, 0.14099572598934174, -0.0655190646648407, 0.13981828093528748, -0.10389471799135208, -0.11419426649808884, 0.1763867884874344, 0.1977366954088211, -0.16501137614250183, -0.13512617349624634, 0.16678506135940552, -0.03583967685699463, -0.09256232529878616, 0.11340495198965073, -0.039840616285800934, 0.16396798193454742, 0.1445946991443634, -0.056967396289110184, 0.0671909749507904, -0.045990027487277985, -0.16609926521778107, 0.06107402592897415, 0.15762723982334137, 0.00033770990557968616, 0.08266238868236542], [-0.007897865027189255, -0.017056316137313843, -0.01775982789695263, 0.03510614112019539, -0.01801312528550625, -0.016950545832514763, 0.15653884410858154, 0.1986054629087448, -0.063388392329216, 0.112991563975811, 0.06100550666451454, -0.1655566394329071, -0.15854361653327942, -0.03360005095601082, -0.09096567332744598, -0.10507510602474213, 0.1090894415974617, 0.022660858929157257, 0.055624812841415405, 0.05342324450612068, 0.14582742750644684, 0.15704984962940216, -0.1389285922050476, -0.0951412245631218, 0.044300589710474014, 0.016603408381342888, 0.05799977853894234, -0.13419204950332642, 0.0014285547658801079, 0.09566748887300491], [-0.17789407074451447, 0.12849977612495422, 0.031490251421928406, 0.0661010891199112, -0.0241676215082407, -0.06906352192163467, -0.10923770815134048, 0.184073343873024, -0.1220877394080162, 0.11837629973888397, -0.01171366311609745, -0.1466241329908371, 0.1300075650215149, 0.04027010500431061, 0.055703066289424896, -0.038691457360982895, 0.014156579971313477, -0.17280952632427216, 0.08049144595861435, 0.12881624698638916, 0.0013945400714874268, -0.05995174124836922, -0.09583389014005661, -0.11675374954938889, 0.20544929802417755, 0.09955562651157379, 0.10330881923437119, -0.03384782746434212, -0.0007601379184052348, -0.12805643677711487], [-0.056123293936252594, -0.04776936396956444, -0.1427924782037735, 0.02914205566048622, 0.15409401059150696, 0.07983279228210449, -0.15019766986370087, 0.16284403204917908, -0.1703578680753708, -0.07160398364067078, 0.13454203307628632, 0.11663368344306946, 0.06926655024290085, -0.06469430774450302, -0.16038647294044495, -0.18549351394176483, 0.0016038891626521945, -0.15027658641338348, 0.015828706324100494, 0.20537208020687103, 0.1528979241847992, 0.11868545413017273, -0.09659279137849808, 0.0013382473262026906, -0.10204970836639404, -0.08142377436161041, -0.15591883659362793, 0.14627499878406525, -0.06707994639873505, 0.06759060174226761], [-0.0215904638171196, -0.05938299745321274, -0.01907036267220974, -0.11450854688882828, 0.0502655953168869, 0.055280812084674835, -0.07526261359453201, 0.039283350110054016, -0.12699520587921143, 0.04948846250772476, 0.09286852926015854, 0.05099218711256981, 0.15918709337711334, 0.0722385048866272, 0.03400640934705734, -0.007954215630888939, 0.17021149396896362, -0.13199776411056519, 0.1915925145149231, 0.11213646084070206, 0.0462014377117157, -0.03215343877673149, 0.17736998200416565, 0.21383988857269287, -0.17422620952129364, -0.025633322075009346, 0.19634808599948883, -0.13707572221755981, 0.191238671541214, 0.17349155247211456], [-0.09584572911262512, 0.01812421903014183, 0.15431861579418182, -0.0744498074054718, -0.14748848974704742, 0.07274811714887619, 0.10949182510375977, 0.10312682390213013, -0.13592755794525146, 0.11852823942899704, 0.08311863243579865, 0.15223750472068787, 0.15272797644138336, -0.16720092296600342, -0.030640581622719765, -0.03371202573180199, -0.008233165368437767, -0.16569268703460693, -0.07945059984922409, 0.045916832983493805, 0.1391325443983078, 0.08209797739982605, 0.02796083875000477, 0.0629754364490509, -0.01151904184371233, -0.044055916368961334, 0.16069234907627106, 0.1328839510679245, 0.03115909919142723, 0.17538078129291534], [0.10118182748556137, 0.22206567227840424, -0.1291525959968567, -0.1339496523141861, 0.18028169870376587, 0.11563859134912491, -0.1691277176141739, 0.02626717835664749, -0.15078002214431763, 0.1616068035364151, 0.1724526733160019, 0.0907895639538765, 0.019742323085665703, -0.03437062352895737, 0.10503760725259781, 0.18478941917419434, 0.02512696199119091, 0.09269367903470993, 0.08067627251148224, 0.08189849555492401, 0.030012711882591248, 0.13647161424160004, -0.16370147466659546, -0.015123517252504826, -0.03190280869603157, -0.041127804666757584, -0.05930420011281967, 0.03126596659421921, -0.16117531061172485, -0.1477501094341278], [0.09215274453163147, -0.15226398408412933, -0.07166223973035812, -0.033820830285549164, 0.02964041754603386, 0.14466655254364014, -0.15150581300258636, -0.03881653770804405, 0.10062705725431442, 0.02443723939359188, -0.0833703950047493, -0.03690266236662865, -0.03147505223751068, -0.04334980994462967, -0.08076003193855286, -0.04744650423526764, 0.0027097745332866907, 0.0898810625076294, 0.034980613738298416, -0.10169916599988937, -0.041532836854457855, 0.12879595160484314, -0.031010333448648453, 0.18720752000808716, 0.1931789368391037, 0.189248725771904, 0.22343957424163818, -0.09803883731365204, 0.09385824203491211, -0.09789319336414337], [0.047895368188619614, 0.09361539036035538, 0.16057510673999786, 0.08360911160707474, 0.07001529633998871, -0.03716954216361046, -0.0482708141207695, -0.07260803133249283, 0.014637571759521961, 0.15727606415748596, 0.17944930493831635, 0.09728380292654037, -0.12532322108745575, 0.040682535618543625, 0.24631954729557037, 0.04728441685438156, -0.1229286715388298, 0.10125219821929932, 0.08810874819755554, 0.11282625794410706, 0.12353549897670746, 0.022175509482622147, 0.10666003823280334, -0.007289639208465815, 0.18723833560943604, -0.06361483037471771, -0.18423710763454437, -0.10663899034261703, -0.08339516073465347, -0.08199043571949005], [-0.16328243911266327, 0.021784663200378418, -0.006527897901833057, -0.08095691353082657, 0.11870327591896057, -0.06852667778730392, 0.04922066256403923, 0.05825676769018173, -0.11528609693050385, -0.13633736968040466, -0.032228194177150726, -0.04416657239198685, 0.126071959733963, -0.12471407651901245, -0.09980160742998123, 0.17002400755882263, 0.0383574403822422, -0.013663023710250854, 0.14395181834697723, 0.07163555175065994, 0.01486513763666153, 0.17185243964195251, -0.020066015422344208, 0.15554849803447723, -0.1386353075504303, 0.05456926301121712, 0.22195445001125336, 0.11951100826263428, 0.0006331972545012832, 0.040591951459646225], [0.07964217662811279, -0.02373628504574299, 0.001926654251292348, 0.00958172045648098, -0.09328129887580872, 0.1311066895723343, -0.025706825777888298, 0.1666998267173767, 0.10770832002162933, 0.15282680094242096, 0.026940805837512016, 0.015943631529808044, -0.1307438611984253, -0.04188407212495804, -0.015749724581837654, 0.1446637511253357, 0.10570511966943741, -0.08311215788125992, 0.0702415481209755, 0.009348093532025814, -0.0765635296702385, -0.07876712083816528, 0.03194575384259224, -0.09929194301366806, -0.07960406690835953, -0.006138358730822802, 0.1406366378068924, 0.12703338265419006, -0.060357216745615005, -0.12261609733104706], [-0.09276268631219864, -0.06293705850839615, -0.008578309789299965, -0.09405548125505447, -0.04937214031815529, 0.01820896565914154, -0.006090655457228422, -0.020072579383850098, 0.012445103377103806, -0.00013245358422864228, -0.016709528863430023, -0.015359015204012394, -0.06938837468624115, -0.17286887764930725, 0.18799182772636414, -0.07510843127965927, 0.09500788897275925, -0.06550507992506027, 0.012716404162347317, -0.19949565827846527, -0.15811088681221008, 0.18357937037944794, 0.01573130674660206, -0.05541429668664932, -0.14357195794582367, 0.009068422019481659, 0.05824271962046623, 0.1486089676618576, -0.053544629365205765, -0.054926905781030655], [0.08830217272043228, -0.05831679701805115, 0.06967969238758087, 0.09237346798181534, 0.001361400936730206, 0.14049048721790314, -0.05712023004889488, -0.006375436205416918, 0.11206705123186111, -0.13605307042598724, -0.07458972930908203, 0.11688589304685593, -0.047211311757564545, -0.1325225830078125, -0.19047437608242035, 0.14743395149707794, 0.17385028302669525, 0.1177414059638977, 0.21086814999580383, -0.1563136875629425, 0.016971785575151443, 0.034010518342256546, -0.04118070751428604, -0.063764289021492, 0.1473042368888855, -0.07252203673124313, 0.0144468629732728, 0.18767742812633514, 0.044751428067684174, 0.17280234396457672], [-0.09153996407985687, 0.0069696540012955666, 0.17736633121967316, 0.15944227576255798, -0.07336816936731339, 0.11487874388694763, -0.008373060263693333, -0.010364576242864132, 0.11901561915874481, 0.0027435647789388895, 0.054250217974185944, 0.13516783714294434, 0.01925796829164028, -0.03307568281888962, -0.039959777146577835, -0.04606292024254799, -0.16225798428058624, -0.012560790404677391, -0.0975315272808075, 0.1610870361328125, -0.07940595597028732, 0.03362969681620598, 0.15633733570575714, -0.024493444710969925, 0.1448984593153, 0.03162528946995735, 0.16552196443080902, -0.11643490940332413, 0.18986834585666656, 0.052785079926252365], [0.2476578652858734, -0.09253232181072235, -0.0637207105755806, 0.05275707691907883, -0.15303117036819458, 0.05438487231731415, 0.12332209199666977, 0.16973064839839935, 0.18471093475818634, -0.010120820254087448, 0.04943326115608215, -0.053642403334379196, -0.0922759622335434, 0.10584169626235962, -0.028444131836295128, -0.033789150416851044, -0.1366376280784607, 0.04009769856929779, -0.16154621541500092, 0.11304944008588791, -0.09172520786523819, -0.08896896243095398, 0.1775309443473816, -0.1943993866443634, -0.187514990568161, -0.10137912631034851, 0.032347843050956726, 0.03050857037305832, 0.10143884271383286, 0.16998057067394257], [-0.03581545874476433, -0.08507177978754044, -0.10068263858556747, 0.161704421043396, 0.15355995297431946, 0.1305084526538849, -0.13212041556835175, 0.027830522507429123, 0.08955418318510056, -0.008658117614686489, -0.1443144828081131, -0.13601751625537872, 0.2004901021718979, -0.07751909643411636, -0.08338962495326996, -0.03769109398126602, -0.11635687947273254, 0.08788660168647766, -0.0014958186075091362, -0.12267819046974182, -0.09224095195531845, -0.12981073558330536, 0.004365526605397463, 0.09508710354566574, -0.00017571976059116423, -0.0957205668091774, 0.013714504428207874, 0.06796325743198395, -0.0633632242679596, -0.0627872571349144], [0.10426798462867737, 0.18011042475700378, -0.08507900685071945, 0.035830605775117874, 0.06284386664628983, 0.16181714832782745, -0.08278960734605789, 0.08400105684995651, 0.15541940927505493, 0.004862425848841667, -0.05808635056018829, -0.0747549831867218, 0.11294641345739365, 0.13576586544513702, 0.01994800753891468, -0.1242976188659668, -0.036327656358480453, 0.11627033352851868, -0.06664357334375381, -0.07740742713212967, 0.11375502496957779, -0.13427141308784485, 0.12247961759567261, 0.08985888212919235, -0.10572201758623123, 0.06996425241231918, -0.10484672337770462, 0.18660591542720795, -0.13480177521705627, -0.17873357236385345], [0.09625653177499771, 0.0633377656340599, 0.08182894438505173, -0.06472080945968628, 0.08849827200174332, -0.07370760291814804, 0.03335205465555191, -0.09746722877025604, -0.14069949090480804, 0.05125878378748894, -0.11322242766618729, 0.007272471208125353, 0.09571424126625061, -0.032889675348997116, -0.09499715268611908, 0.1801413744688034, -0.11365672200918198, 0.1294991672039032, 0.0706961378455162, -0.1264021098613739, 0.1360144317150116, -0.10215868055820465, -0.02870471403002739, 0.0873369351029396, -0.10870568454265594, 0.15397639572620392, 0.19893784821033478, -0.13567735254764557, 0.11885064840316772, 0.06396317481994629], [0.15594863891601562, 0.13501916825771332, 0.10907484591007233, -0.10399717092514038, 0.13302916288375854, 0.02050488255918026, -0.07493133842945099, -0.01891162618994713, 0.02042621746659279, -0.10204852372407913, -0.0785294771194458, -0.11422783136367798, -0.12002893537282944, 0.08501224964857101, -0.15377269685268402, -0.14077460765838623, 0.11019540578126907, -0.08948655426502228, 0.05862293764948845, 0.15686878561973572, 0.09260862320661545, -0.045879777520895004, 0.0249208714812994, -0.07200361043214798, 0.056942541152238846, -0.03984963893890381, -0.014820746146142483, -0.02671242319047451, -0.016428057104349136, -0.04350365698337555], [-0.011956986039876938, 0.0038107605651021004, 0.01329057291150093, -0.05049370974302292, -0.12156819552183151, 0.05036872625350952, 0.12006638199090958, 0.15264132618904114, -0.02225341461598873, -0.012172384187579155, 0.09542202949523926, -0.049646198749542236, -0.14990343153476715, -0.11013507843017578, -0.022179827094078064, 0.00957194808870554, 0.16203108429908752, 0.06645690649747849, 0.17925260961055756, 0.059184473007917404, -0.03497938811779022, 0.16655105352401733, -0.03650260716676712, -0.03417505323886871, -0.00579269602894783, 0.17719914019107819, -0.03021818958222866, 0.19806377589702606, 0.18748970329761505, -0.08640075474977493], [-0.20572426915168762, -0.017707033082842827, 0.12901350855827332, 0.06857876479625702, 0.10740668326616287, 0.02880791574716568, -0.15747042000293732, 0.17137330770492554, -0.02285069040954113, -0.10378462076187134, 0.0695459172129631, 0.08599860221147537, 0.08061587065458298, -0.0673961192369461, 0.03906520828604698, 0.18423958122730255, -0.14691738784313202, -0.13715699315071106, -0.14173480868339539, 0.0871223583817482, -0.03116616979241371, -0.13530753552913666, -0.14190194010734558, 0.2162090241909027, 0.12251394242048264, 0.02689058519899845, 0.07653481513261795, 0.03194498270750046, 0.19135797023773193, -0.020876741036772728], [-0.11008107662200928, 0.03437015041708946, -0.09370863437652588, -0.08936833590269089, 0.05692463740706444, 0.11061925441026688, 0.18060265481472015, 0.06779094785451889, 0.10399634391069412, -0.09892658144235611, 0.14429394900798798, 0.055717725306749344, -0.019819073379039764, -0.035224996507167816, 0.21748098731040955, 0.08261865377426147, 0.06270325183868408, -0.13513995707035065, -0.061181146651506424, 0.08292622119188309, -0.01132812350988388, -0.025188332423567772, -0.08456467092037201, 0.008459565229713917, 0.013258758932352066, -0.11790818721055984, -0.08726675808429718, 0.19553568959236145, 0.042836856096982956, -0.05446654185652733], [-0.16194941103458405, -0.13891072571277618, 0.16806229948997498, -0.04530102759599686, -0.07264427840709686, -0.030919188633561134, 0.026911506429314613, 0.0833437368273735, 0.14008474349975586, 0.06959961354732513, -0.13454581797122955, -0.04964084178209305, 0.16614170372486115, 0.21226142346858978, 0.20390647649765015, 0.0221156794577837, 0.03891526535153389, 0.021141216158866882, 0.0002145261678379029, -0.14305175840854645, -0.10267344862222672, 0.015451722778379917, 0.1594601571559906, 0.048291802406311035, -0.027969080954790115, 0.17793065309524536, -0.09892833232879639, 0.16310958564281464, 0.06097078695893288, 0.01154438965022564], [0.1282285451889038, 0.20301276445388794, -0.029888177290558815, 0.06198509410023689, 0.04455096647143364, 0.17355063557624817, -0.08812626451253891, 0.10531269758939743, 0.07845628261566162, 0.02648816630244255, 0.1553964912891388, 0.0076392344199121, -0.06781134009361267, 0.10730361938476562, 0.07096917927265167, 0.08555325120687485, -0.11310837417840958, 0.030372925102710724, 0.05231081694364548, -0.1219213455915451, 0.16251029074192047, 0.006766540929675102, -0.05540759861469269, -0.12074220180511475, -0.017979510128498077, 0.159481480717659, 0.19244541227817535, 0.13409383594989777, 0.07655000686645508, 0.12927813827991486], [0.19730955362319946, 0.00827839970588684, -0.06340441107749939, 0.10958858579397202, -0.09195270389318466, 0.16766248643398285, -0.04461604729294777, -0.0726659744977951, 0.05288618803024292, 0.040523454546928406, -0.147738978266716, 0.05076094716787338, -0.06362932175397873, 0.15017038583755493, 0.23757773637771606, -0.012739730067551136, 0.16500481963157654, 0.2205498069524765, -0.1519664078950882, 0.18190623819828033, 0.12435522675514221, -0.08285941183567047, -0.105795718729496, -0.10984325408935547, -0.007253947202116251, -0.09269509464502335, -0.22157804667949677, -0.09216964244842529, 0.028219392523169518, 0.1621650904417038], [-0.22099635004997253, -0.008394919335842133, -0.134881854057312, 0.18335004150867462, -0.09927494078874588, 0.0015535096172243357, 0.08453653752803802, -0.03222917392849922, 0.02027846872806549, 0.12898825109004974, 0.18026573956012726, 0.004871789366006851, 0.14024242758750916, -0.044772982597351074, 0.13510210812091827, -0.05075940117239952, -0.12988470494747162, 0.051169317215681076, -0.1388627141714096, -0.1071271002292633, 0.005898290313780308, 0.0017908437876030803, 0.06000431999564171, -0.10461832582950592, 0.18147078156471252, -0.14344610273838043, -0.06604883074760437, -0.11867517977952957, 0.11866995692253113, 0.13719938695430756], [0.1507442593574524, 0.014723914675414562, -0.1195545420050621, -0.16863444447517395, -0.09266640990972519, -0.0663435086607933, -0.0221968162804842, 0.16600804030895233, -0.026826096698641777, 0.11892618238925934, -0.01407578308135271, 0.06002865731716156, 0.18605342507362366, 0.09410331398248672, -0.19268915057182312, 0.08963952213525772, -0.13479530811309814, 0.169367253780365, 0.221892848610878, 0.16743259131908417, -0.07036735117435455, 0.15246333181858063, 0.008825569413602352, 0.0973002165555954, 0.13768748939037323, 0.030914640054106712, 0.08765801042318344, 0.0846247673034668, -0.0584530308842659, -0.11624226719141006], [0.00946976337581873, -0.14079603552818298, 0.08777283132076263, 0.017250429838895798, 0.05537095293402672, 0.0743204727768898, -0.08615341782569885, 0.016054792329669, -0.1304689198732376, -0.02293434925377369, -0.14183305203914642, 0.09372644871473312, -0.009298516437411308, 0.029294906184077263, 0.06565146148204803, 0.19676144421100616, 0.054002270102500916, 0.05182751268148422, -0.02978195808827877, -0.15037308633327484, 0.05609610676765442, 0.21326160430908203, 0.0317896343767643, -0.1804370880126953, 0.11302162706851959, 0.020371129736304283, 0.05655539408326149, -0.07472933083772659, -0.10576996207237244, -0.1485571265220642], [0.00565257528796792, 0.11583387106657028, 0.09425948560237885, 0.1378156989812851, -0.1407562792301178, 0.08560267835855484, -0.024274587631225586, 0.10138774663209915, -0.0859377533197403, -0.1032535657286644, 0.017395447939634323, 0.1269044727087021, 0.07770109921693802, 0.09891951829195023, -0.1522778570652008, -0.04137226566672325, 0.09286046028137207, 0.006242417264729738, -0.0673217698931694, -0.12651196122169495, 0.17039160430431366, -0.05898628011345863, -0.062347933650016785, -0.06608681380748749, -0.09802720695734024, 0.14587371051311493, 0.09670335799455643, 0.028439415618777275, 0.046846840530633926, 0.11444582045078278], [-0.06727111339569092, 0.10118826478719711, -0.15420037508010864, -0.03350958228111267, 0.03988545387983322, -0.037439532577991486, -0.07615383714437485, -0.13479821383953094, 0.187418133020401, 0.09513751417398453, -0.12240387499332428, -0.06434530764818192, 0.0016572545282542706, -0.13106822967529297, 0.07782554626464844, -0.049013178795576096, 0.010377470403909683, -0.15022017061710358, 0.0195910707116127, 0.013921791687607765, -0.013695338740944862, 0.2102571427822113, -0.1467617005109787, 0.054596055299043655, -0.1584506630897522, 0.04420527443289757, 0.04983561486005783, 0.08286330103874207, 0.12588246166706085, 0.15505631268024445], [-0.11828694492578506, -0.028487470000982285, 0.051307301968336105, -0.11981983482837677, 0.12984009087085724, -0.0547950379550457, -0.13957779109477997, 0.035908639430999756, -0.09554418176412582, 0.12104683369398117, 0.03043362870812416, 0.13000667095184326, 0.0037116266321390867, 0.06872521340847015, -0.17031945288181305, 0.12741319835186005, -0.1454138308763504, 0.14955611526966095, 0.07940762490034103, 0.17907193303108215, 0.18064835667610168, 0.12255094945430756, -0.09926724433898926, -0.1429377645254135, -0.10566504299640656, 0.14891113340854645, -0.022258052602410316, 0.04908321052789688, 0.08748190104961395, 0.11004453152418137], [-0.15367549657821655, 0.11930494755506516, -0.05674457550048828, -0.1404542177915573, 0.07828780263662338, -0.11947159469127655, -0.0612974613904953, 0.14977462589740753, 0.04338965192437172, -0.13634605705738068, -0.03317231684923172, 0.10488327592611313, 0.1721808910369873, 0.23049579560756683, -0.06741068512201309, 0.1721249222755432, -0.014303810894489288, 0.09359028935432434, 0.1656966358423233, -0.03467050939798355, -0.06758124381303787, -0.07048707455396652, 0.0399470329284668, 0.03968594968318939, -0.13918811082839966, -0.04595952853560448, -0.07852502912282944, 0.1636427640914917, -0.12933804094791412, 0.020164432004094124], [-0.09540504217147827, 0.1033579483628273, -0.005003124475479126, -0.07889395952224731, 0.18877668678760529, 0.16492530703544617, 0.18793180584907532, 0.06704048812389374, -0.0956302136182785, 0.01507848035544157, 0.04644954577088356, -0.08634880930185318, -0.006776926573365927, 0.16732043027877808, 0.18598878383636475, -0.04770204797387123, -0.03867657482624054, -0.03413534164428711, 0.11095467954874039, 0.1455513834953308, -0.035373326390981674, -0.055944621562957764, -0.05986930429935455, 0.2121734321117401, -0.14538156986236572, -0.06406331807374954, -0.0046928394585847855, 0.19086964428424835, 0.1475241631269455, -0.1474146991968155], [0.17117822170257568, -0.06879795342683792, 0.023046640679240227, -0.015506820753216743, 0.203653484582901, 0.10718685388565063, 0.07156543433666229, -0.10892073065042496, -0.06792116165161133, 0.12101099640130997, 0.1546752154827118, -0.029150795191526413, 0.060571905225515366, 0.032545968890190125, -0.08061619102954865, -0.08105900138616562, 0.10424484312534332, 0.17363174259662628, 0.0747777596116066, 0.07952751964330673, 0.0638052448630333, -0.10948745906352997, -0.015061022713780403, 0.08290771394968033, 0.18199196457862854, -0.0758531391620636, 0.0723743587732315, -0.10460826754570007, -0.03836486488580704, -0.10741831362247467], [-0.10005472600460052, -0.014180597849190235, -0.03432460501790047, 0.14391788840293884, -0.14330077171325684, -0.02891410142183304, 0.010419590398669243, 0.060665056109428406, -0.08483881503343582, -0.0568266361951828, -0.09021968394517899, -0.028592033311724663, 0.1337585300207138, 0.16462165117263794, -0.07764575630426407, -0.007956592366099358, -0.06669618934392929, 0.15564630925655365, -0.03534747287631035, 0.08510518074035645, -0.05870413780212402, 0.1128547340631485, 0.0664248988032341, 0.010948722250759602, 0.19792719185352325, -0.03268134593963623, -0.12169130891561508, -0.021663952618837357, 0.12372701615095139, -0.09464013576507568], [-0.18540123105049133, 0.08516392856836319, 0.20454394817352295, 0.06608086079359055, -0.07632102817296982, -0.11975004523992538, 0.061283741146326065, 0.1490417867898941, 0.18034937977790833, 0.09436412155628204, 0.02691390924155712, 0.05191604793071747, -0.059822533279657364, 0.05767758935689926, -0.06973704695701599, 0.06041978672146797, 0.048989128321409225, 0.18041568994522095, -0.1725512146949768, 0.17556144297122955, 0.11273802071809769, 0.08016016334295273, -0.18522067368030548, 0.2115931659936905, 0.11804888397455215, 0.06536637991666794, -0.18744640052318573, 0.008628083392977715, 0.1780984252691269, 0.003377225250005722], [0.0021910073701292276, -0.11201198399066925, -0.13453909754753113, 0.18633002042770386, -0.13067901134490967, -0.038970474153757095, -0.102154441177845, -0.10289139300584793, -0.030111784115433693, 0.026771990582346916, 0.17093582451343536, -0.12738046050071716, 0.009499270468950272, 0.029483074322342873, 0.13234885036945343, -0.104526586830616, 0.1078924611210823, 0.04722397401928902, 0.05413779243826866, 0.09144996851682663, -0.1220400407910347, -0.0011809768620878458, -0.09211478382349014, 0.11968778818845749, 0.006761361379176378, 0.19836212694644928, -0.19021113216876984, 0.07963237911462784, 0.17710396647453308, 0.061892252415418625], [0.12294623255729675, 0.028174838051199913, 0.06366802752017975, 0.040173374116420746, -0.1703803539276123, 0.14491412043571472, 0.17003202438354492, 0.07137003540992737, 0.0841912031173706, 0.1304606944322586, -0.019842809066176414, 0.10091765969991684, -0.13969732820987701, -0.08132515847682953, -0.09739557653665543, -0.14544206857681274, -0.0032584797590970993, 0.09003664553165436, -0.04703966900706291, 0.0582171194255352, -0.09378911554813385, -0.004177146125584841, 0.07672462612390518, -0.13609081506729126, 0.09862646460533142, -0.12209846079349518, 0.176270991563797, 0.13144569098949432, 0.16715438663959503, 0.13632458448410034], [-0.04577188566327095, -0.17825986444950104, 0.06164158880710602, 0.06308875232934952, 0.044496238231658936, -0.15092423558235168, 0.03131203353404999, 0.05186577886343002, -0.1273009479045868, 0.08901803940534592, 0.13619430363178253, 0.10536371171474457, 0.1382051706314087, 0.15827378630638123, -0.017568308860063553, -0.15296992659568787, 0.17174139618873596, 0.03667265549302101, -0.020003296434879303, -0.15534143149852753, -0.056493330746889114, 0.15315772593021393, -0.023002898320555687, -0.06042656674981117, 0.05520540848374367, -0.0760420486330986, -0.020110715180635452, 0.1448587030172348, 0.022261815145611763, 0.07977473735809326], [-0.0509147010743618, 0.05502741411328316, 0.11226542294025421, -0.14568550884723663, 0.12421215325593948, 0.10827407985925674, -0.05595238879323006, 0.17155508697032928, 0.021178361028432846, 0.1871493011713028, 0.12823614478111267, -0.10475897043943405, -0.14572563767433167, -0.08548383414745331, -0.0876593068242073, -0.1352386325597763, 0.05131963640451431, -0.04774831235408783, 0.2105516642332077, 0.13595834374427795, 0.047978475689888, -0.10759831219911575, 0.1827915608882904, -0.06774821877479553, 0.1918940246105194, 0.19897429645061493, 0.172340527176857, -0.004201601725071669, -0.05712997168302536, 0.1498504877090454], [-0.03854973241686821, 0.1396595537662506, 0.0093928137794137, -0.03787807375192642, -0.03623258322477341, 0.000307439302559942, -0.1077752560377121, -0.0431489497423172, -0.027375048026442528, -0.11771265417337418, 0.13700103759765625, -0.06496653705835342, -0.00016659271204844117, 0.14486928284168243, 0.20122449100017548, 0.05494372546672821, 0.15027514100074768, 0.03141465783119202, -0.07790195941925049, -0.06054604798555374, 0.033927369862794876, -0.12281031906604767, -0.09387889504432678, 0.012432846240699291, -0.14789779484272003, -0.12591128051280975, -0.14668267965316772, -0.017905207350850105, 0.07457738369703293, 0.0437268503010273], [-0.14980298280715942, -0.18665361404418945, 0.0283826794475317, 0.09622055292129517, -0.033849336206912994, -0.15210086107254028, -0.11795296519994736, 0.012281907722353935, 0.08740431070327759, -0.001688102027401328, 0.09149502962827682, 0.18031463027000427, 0.14019988477230072, 0.19698655605316162, 0.17002980411052704, -0.13710260391235352, 0.040500055998563766, -0.015991581603884697, 0.09673025459051132, 0.02699185349047184, -0.06314527243375778, -0.061245501041412354, -0.17691533267498016, 0.0879674106836319, 0.19206690788269043, 0.12933138012886047, -0.004225370939821005, -0.018693866208195686, -0.13344687223434448, -0.028002602979540825], [-0.13555803894996643, 0.07237299531698227, 0.17066672444343567, -0.1301322877407074, -0.006070178933441639, 0.15979832410812378, 0.10300257056951523, 0.012016141787171364, 0.1289583295583725, -0.012285951524972916, -0.027715282514691353, -0.12901324033737183, 0.07831591367721558, 0.06538569182157516, -0.006641109474003315, 0.008580059744417667, 0.0724603608250618, 0.08581667393445969, -0.02444285713136196, 0.09703028947114944, -0.1483926922082901, 0.15218541026115417, 0.18202675879001617, 0.03174641355872154, -0.010499605908989906, 0.15380769968032837, -0.006627255585044622, -0.10320521891117096, 0.10193540900945663, -0.041017383337020874], [-0.1526557356119156, 0.011652751825749874, -0.1146497130393982, -0.07410673052072525, -0.06030328571796417, -0.12957508862018585, -0.0286631528288126, 0.0679909810423851, -0.07343713939189911, 0.1563807725906372, -0.043081022799015045, -0.10334288328886032, -0.0870530977845192, 0.07336541265249252, 0.0880098044872284, 0.02891429327428341, -0.10301770269870758, 0.17231868207454681, 0.0326254740357399, -0.15271466970443726, 0.05308083817362785, 0.0426706038415432, 0.05560939759016037, 0.16766101121902466, 0.1475910097360611, 0.1339549720287323, 0.037853438407182693, 0.08151666074991226, 0.030622610822319984, -0.03140823170542717], [0.19080877304077148, 0.13138049840927124, -0.005935944616794586, -0.007992945611476898, 0.10330698639154434, 0.05874783918261528, -0.029612505808472633, -0.0653882846236229, 0.11396966874599457, 0.16170069575309753, -0.0794924721121788, 0.10589893907308578, 0.08994478732347488, 0.11638813465833664, -0.06636402010917664, -0.004520633723586798, -0.13303564488887787, 0.04250704124569893, 0.19453734159469604, 0.04218658432364464, -0.10699466615915298, 0.02959299646317959, 0.13849548995494843, -0.1321507692337036, -0.1178945004940033, -0.04135716333985329, 0.22982361912727356, -0.14792631566524506, -0.08997321873903275, 0.033006008714437485], [0.09359006583690643, -0.16357319056987762, -0.15293057262897491, 0.07002198696136475, -0.15408748388290405, -0.09727214276790619, 0.0806117057800293, -0.02531340718269348, 0.11369641125202179, -0.07019658386707306, 0.164512500166893, -0.16777729988098145, 0.08267370611429214, 0.004944768268615007, 0.04550156369805336, -0.026808762922883034, 0.16550734639167786, -0.1667821705341339, -0.14863137900829315, 0.17801973223686218, -0.1479538530111313, 0.12124931067228317, -0.1691979616880417, 0.2033746987581253, 0.09062640368938446, -0.1683999001979828, 0.057795748114585876, 0.1538669914007187, -0.1716991513967514, -0.005740266293287277], [-0.050558023154735565, -0.027095956727862358, -0.027289506047964096, -0.15018576383590698, 0.06563690304756165, -0.1014852374792099, 0.08467152714729309, -0.07184885442256927, 0.025615409016609192, 0.08671466261148453, -0.1226370558142662, 0.18734002113342285, 0.18013782799243927, 0.15254050493240356, 0.08678356558084488, 0.11467180401086807, -0.18729037046432495, 0.16057342290878296, -0.05840859189629555, 0.0004928969428874552, 0.11729871481657028, 0.16201810538768768, -0.09674195200204849, 0.10247371345758438, -0.01689954102039337, 0.10574966669082642, 0.20781582593917847, -0.13629132509231567, 0.12973889708518982, -0.05886014923453331], [-0.10226240754127502, -0.0678839236497879, 0.14115430414676666, -0.10918073356151581, -0.1151268258690834, 0.08507093787193298, 0.1781165450811386, 0.17525392770767212, 0.16931533813476562, -0.1521138697862625, 0.15691794455051422, -0.11752959340810776, 0.07163511961698532, -0.012796341441571712, -0.1488632708787918, 0.06917876750230789, 0.08178249001502991, -0.1483236700296402, -0.033839400857686996, 0.08820270001888275, 0.0929984301328659, -0.12664347887039185, 0.12547694146633148, 0.15641258656978607, 0.16321124136447906, 0.14561814069747925, 0.13730713725090027, -0.033783793449401855, 0.040250714868307114, 0.11365189403295517], [-0.20060597360134125, 0.031732168048620224, 0.10284137725830078, 0.04564118757843971, 0.0016955508617684245, 0.12522782385349274, 0.10675642639398575, 0.11387736350297928, 0.02420077472925186, -0.01779521256685257, -0.003384154988452792, 0.06223062798380852, -0.1293979287147522, 0.14820560812950134, 0.0975000336766243, 0.05959523469209671, -0.0033089052885770798, -0.12260250747203827, 0.170662984251976, -0.1160021722316742, 0.15509581565856934, -0.04497358202934265, -0.09167751669883728, 0.04082651436328888, -0.17503751814365387, 0.15771232545375824, 0.08350377529859543, 0.07695150375366211, 0.05662623047828674, 0.01724204234778881], [-0.10127585381269455, -0.033945195376873016, 0.10658301413059235, 0.14609481394290924, -0.04641515016555786, 0.1778632253408432, -0.11595857888460159, 0.041390322148799896, -0.1439925730228424, -0.04461583495140076, -0.00972998607903719, 0.0332331508398056, 0.10266894102096558, 0.14914479851722717, -0.027858735993504524, 0.010161156766116619, -0.11550511419773102, -0.09765485674142838, 0.1179131492972374, -0.0038223506417125463, 0.06486299633979797, 0.1817997843027115, 0.1693890541791916, 0.13319265842437744, -0.15645788609981537, 0.1485390067100525, -0.1324971616268158, -0.16391073167324066, -0.1347821056842804, 0.10147487372159958], [-0.044056929647922516, -0.11458243429660797, -0.06477902084589005, 0.033389754593372345, -0.13681773841381073, 0.07520636916160583, -0.09925299882888794, -0.13349713385105133, 0.1104063168168068, -0.013010255992412567, 0.09780379384756088, -0.11784233152866364, -0.08782254904508591, 0.11828378587961197, -0.2149995118379593, -0.09458474814891815, 0.10976368188858032, -0.012357593514025211, -0.14867717027664185, 0.09123793244361877, 0.002417199080809951, 0.15515455603599548, 0.060930777341127396, -0.03843557834625244, -0.08754938095808029, 0.028322920203208923, -0.08540811389684677, 0.048598334193229675, 0.1577480137348175, -0.007285048253834248], [-0.09452635049819946, 0.0015247834380716085, 0.11129415780305862, 0.19490742683410645, 0.03314335271716118, -0.04258497804403305, 0.04030773416161537, -0.0736650601029396, -0.09187272936105728, -0.13259272277355194, 0.020787835121154785, 0.055144548416137695, -0.15440446138381958, -0.05658802017569542, -0.022597668692469597, -0.14719578623771667, 0.127158984541893, 0.06833886355161667, 0.1840943545103073, -0.09164891391992569, 0.11212073266506195, 0.11301205307245255, -0.06217065453529358, -0.11298956722021103, 0.1125958263874054, 0.050212837755680084, 0.058587685227394104, -0.033435408025979996, 0.10566306114196777, 0.01131399068981409], [0.10764212161302567, -0.0010213308269158006, -0.02559678815305233, -0.1431395262479782, -0.11527832597494125, 0.19467976689338684, 0.16708725690841675, 0.07448740303516388, 0.10369008034467697, -0.05123639851808548, 0.19548706710338593, 0.11160004138946533, -0.05378981679677963, 0.07313594967126846, -0.11037860065698624, 0.20232953131198883, -0.10021550953388214, -0.10418188571929932, 0.001683262293227017, -0.10587861388921738, -0.08460834622383118, -0.028327148407697678, -0.09709508717060089, -0.1629585325717926, 0.006716511212289333, 0.01953035220503807, 0.2297716587781906, 0.08254685252904892, 0.19589944183826447, 0.05889490619301796], [0.0571666918694973, 0.1319107562303543, -0.0203590989112854, 0.17883974313735962, 0.016835317015647888, -0.15996462106704712, -0.06888053566217422, 0.1869732290506363, -4.663486834033392e-06, 0.0796799585223198, 0.14917555451393127, -0.1047467440366745, 0.18900591135025024, 0.024243678897619247, 0.023733627051115036, 0.10556292533874512, -0.1176765188574791, -0.06947807967662811, 0.15093159675598145, -0.011172646656632423, 0.16104353964328766, -0.1653827428817749, 0.1488250195980072, -0.09000886231660843, -0.11146765202283859, 0.010822409763932228, 0.035164907574653625, 0.021130317822098732, 0.06143196299672127, 0.14014898240566254], [-0.05580904707312584, -0.0725598931312561, -0.05148369446396828, 0.11870075762271881, -0.12000450491905212, 0.17813056707382202, 0.004651261493563652, 0.06715245544910431, 0.14572860300540924, -0.06227366253733635, -0.07510749250650406, 0.03735398128628731, 0.014355634339153767, 0.20340485870838165, -0.15955126285552979, 0.07177233695983887, -0.14183010160923004, 0.10111404210329056, 0.0280931256711483, 0.1301654428243637, 0.03231668099761009, -0.03431379050016403, -0.013056221418082714, 0.0008717374876141548, 0.10428823530673981, -0.03599703684449196, 0.028707355260849, -0.08253039419651031, -0.10342565178871155, -0.1319209784269333], [-0.10311189293861389, -0.12258905917406082, 0.011844415217638016, -0.02457970567047596, -0.06442383676767349, -0.06748250871896744, 0.005629085469990969, 0.023195810616016388, -0.144709974527359, 0.06013467535376549, 0.026498660445213318, -0.04504024237394333, 0.04343875125050545, -0.13862285017967224, -0.06363142281770706, 0.1039489358663559, 0.19139797985553741, -0.11425409466028214, 0.026510626077651978, 0.2140248715877533, 0.1703556925058365, -0.008784087374806404, -0.13365043699741364, 0.17652729153633118, 0.18315623700618744, 0.11412067711353302, -0.2336728870868683, -0.1660240739583969, -0.15149526298046112, 0.13742662966251373], [0.08566378057003021, 0.12508046627044678, 0.06773485243320465, 0.02410486899316311, 0.052733976393938065, -0.10988137125968933, -0.07816533744335175, 0.05115886777639389, 0.057601384818553925, -0.1493200808763504, -0.15023379027843475, -0.020808590576052666, 0.027140075340867043, -0.0981670692563057, 0.04274368658661842, 0.1331920474767685, -0.0868469625711441, 0.006480068434029818, 0.11723075807094574, -0.10359631478786469, -0.021988799795508385, 0.09584741294384003, 0.15688534080982208, -0.14013592898845673, 0.16510581970214844, -0.13950292766094208, -0.011843590065836906, -0.025065381079912186, 0.20023225247859955, -0.054452765733003616], [-0.08996330201625824, 0.09422775357961655, -0.15125487744808197, -0.09136565774679184, 0.15240392088890076, 0.09689769148826599, 0.2057955116033554, -0.1221330389380455, -0.06099853292107582, 0.18413496017456055, -0.10595676302909851, -0.025188451632857323, -0.06047898158431053, 0.09269187599420547, -0.12424150109291077, 0.0651310458779335, -0.03481719270348549, 0.038852814584970474, 0.09543276578187943, -0.005898671690374613, 0.1564396619796753, -0.05977148190140724, 0.05724560469388962, -0.026502912864089012, 0.02462412416934967, -0.14694170653820038, 0.2061396986246109, -0.05720185488462448, 0.1797824501991272, -0.13987335562705994], [0.06699327379465103, -0.13213397562503815, -0.06337141990661621, 0.07782477885484695, 0.14132294058799744, 0.09392062574625015, -0.05712800472974777, -0.08260143548250198, -0.12331777811050415, -0.10531575232744217, 0.07035274803638458, 0.02843482978641987, -0.045746512711048126, -0.02449771948158741, 0.13813407719135284, -0.14185591042041779, 0.1867411583662033, 0.02912476286292076, 0.06259948760271072, -0.10892823338508606, 0.055695854127407074, 0.14367298781871796, 0.03578340634703636, -0.005043132696300745, 0.08721161633729935, 0.15789492428302765, -0.06797640770673752, -0.12504486739635468, 0.1340489238500595, -0.04775899276137352], [0.04233004152774811, -0.15441268682479858, 0.1006009578704834, -0.11229302734136581, -0.06743922829627991, -0.03161012753844261, -0.13171935081481934, -0.12249898165464401, 0.18801438808441162, -0.028640519827604294, -0.10045349597930908, 0.0773778110742569, 0.13463056087493896, 0.08209498226642609, -0.027795273810625076, 0.15829062461853027, -0.006139020435512066, 0.0044587766751646996, 0.17418622970581055, -0.14655360579490662, 0.09825311601161957, 0.047927770763635635, -0.06908781826496124, 0.15990465879440308, 0.052627600729465485, 0.12811334431171417, 0.18719689548015594, 0.021288128569722176, 0.1843404471874237, -0.05309171974658966], [0.08704613894224167, -0.1172037273645401, 0.06815061718225479, -0.04372077062726021, -0.10678312182426453, -0.08339003473520279, -0.012996097095310688, 0.07767228037118912, -0.16346654295921326, -0.0077360873110592365, -0.020050739869475365, -0.07827448099851608, -0.06115658953785896, 0.02622378058731556, -0.05951520800590515, 0.10689432173967361, 0.2295464277267456, 0.003599480725824833, 0.10421711206436157, 0.05722896009683609, -0.05558713153004646, 0.10427359491586685, 0.21152323484420776, 0.19273103773593903, 0.16861562430858612, -0.059093914926052094, -0.21852247416973114, -0.11552362143993378, -0.05178975313901901, -0.060883183032274246], [0.12977145612239838, 0.19054433703422546, -0.012683778069913387, -0.0985618606209755, -0.04422727972269058, -0.04863666370511055, 0.16768504679203033, 0.2004864662885666, -0.045500241219997406, 0.20728114247322083, 0.20267799496650696, 0.197952002286911, -0.05996726080775261, 0.12413406372070312, -0.12371097505092621, -0.052516937255859375, -0.08286295086145401, 0.12208376079797745, 0.11136581748723984, 0.007553805597126484, 0.15633322298526764, 0.05743405222892761, -0.15636926889419556, 0.1559762954711914, 0.10712102055549622, -0.07218477129936218, 0.18306244909763336, 0.03177656978368759, -0.0880591943860054, -0.08567382395267487], [0.12149269133806229, 0.10411065071821213, 0.06612055748701096, -0.05652302876114845, 0.18922124803066254, 0.06986387073993683, 0.07524701952934265, -0.13521699607372284, 0.11618447303771973, 0.14370517432689667, 0.20924817025661469, -0.009857184253633022, -0.16240689158439636, -0.16761285066604614, -0.15400588512420654, -0.10249965637922287, 0.04044928029179573, 0.07303886115550995, 0.0048331283032894135, 0.18566492199897766, 0.03925769403576851, 0.1380164623260498, 0.08571881800889969, 0.18143366277217865, 0.029706234112381935, -0.15012197196483612, 0.09527584165334702, -0.0360688790678978, 0.0029732671100646257, 0.05021277070045471], [0.09888064861297607, 0.198460191488266, -0.015070052817463875, -0.034702807664871216, 0.04517415910959244, -0.11059591174125671, 0.1547217071056366, -0.10592593252658844, -0.17327965795993805, 0.07696781307458878, -0.14579232037067413, -0.14068707823753357, 0.047312017530202866, 0.23884794116020203, -0.028543369844555855, -0.11372363567352295, 0.12346240133047104, 0.11674541234970093, 0.01454757060855627, -0.09800577908754349, -0.09513137489557266, -0.06319259852170944, 0.16203303635120392, -0.09901855140924454, 0.11043940484523773, -0.0310326237231493, -0.17263415455818176, -0.006939859129488468, 0.08000491559505463, -0.13639557361602783], [0.12774384021759033, 0.04891137406229973, 0.07036436349153519, -0.045707397162914276, 0.09782055020332336, 0.07620187848806381, 0.003496886231005192, 0.0372995026409626, -0.05259586498141289, 0.057854220271110535, -0.08040403574705124, -0.07885260879993439, -0.047708749771118164, -0.04463350400328636, -0.17771625518798828, 0.09288789331912994, 0.11346794664859772, 0.16031451523303986, 0.08135886490345001, 0.1409856081008911, 0.12818101048469543, 0.00010360419400967658, -0.019083719700574875, 0.009331873618066311, 0.028527572751045227, -0.13566641509532928, 0.24935178458690643, 0.02028552256524563, -0.05196670815348625, -0.09800047427415848], [-0.02871631272137165, -0.15826056897640228, 0.058585040271282196, 0.0950511172413826, 0.17362341284751892, -0.0525909848511219, 0.1339513212442398, 0.09082125127315521, -0.11446984857320786, 0.03386341780424118, 0.12030655890703201, -0.04431524500250816, 0.18908753991127014, -0.08771339803934097, 0.08026967942714691, -0.137763112783432, 0.16009502112865448, 0.10507179796695709, 0.0004342934407759458, 0.0712052434682846, -0.10368446260690689, 0.06545756757259369, 0.18217067420482635, -0.13242115080356598, 0.1791100949048996, 0.10244301706552505, -0.016932455822825432, 0.10081198066473007, 0.07269734144210815, -0.08020243048667908], [0.0513698011636734, 0.11159639805555344, -0.12614557147026062, -0.1527269035577774, -0.15385213494300842, -0.0011440798407420516, -0.09068363159894943, 0.09214051067829132, 0.07400769740343094, 0.08753734827041626, 0.1351228952407837, 0.0011886174324899912, 0.14102493226528168, 0.10247641056776047, 0.21363332867622375, -0.1488153487443924, 0.1847313493490219, 0.04505026340484619, -0.14466245472431183, 0.13518686592578888, 0.2149004191160202, -0.08670302480459213, -0.14081765711307526, -0.07823386043310165, 0.01983274519443512, 0.009802039712667465, -0.2239028364419937, -0.029940946027636528, -0.13712482154369354, -0.12100360542535782], [0.010559814982116222, -0.16087187826633453, -0.09707044064998627, -0.08827335387468338, -0.135811448097229, 0.16901332139968872, -0.09855718165636063, 0.18144048750400543, -0.0984000414609909, 0.17663989961147308, 0.1412416398525238, 0.17955954372882843, 0.20009678602218628, 0.14857546985149384, -0.0615927092730999, 0.017948469147086143, -0.04805086925625801, 0.181219220161438, -0.0028592506423592567, 0.010702688246965408, 0.12476964294910431, -0.08429429680109024, 0.224542036652565, 0.13255298137664795, 0.04487790912389755, 0.1745724081993103, -0.10087025910615921, 0.08063054084777832, -0.15885232388973236, 0.0663032978773117], [-0.09414355456829071, -0.09252215176820755, 0.16321976482868195, -0.06701479107141495, 0.20062574744224548, -0.16097407042980194, 0.12029252201318741, -0.13695666193962097, -0.06810875982046127, 0.12986405193805695, 0.1857529580593109, 0.0008143257000483572, 0.08624161034822464, 0.020605433732271194, 0.02464066445827484, -0.0459517240524292, -0.04938812181353569, -0.008362212218344212, -0.06688595563173294, -0.0882929116487503, 0.12243252992630005, -0.06917493045330048, 0.12036655098199844, 0.016414666548371315, -0.1558607518672943, 0.13957448303699493, 0.1518547087907791, 0.1159922331571579, 0.18046332895755768, -0.015339167788624763], [0.05484985560178757, -0.16636896133422852, -0.19102250039577484, 0.07619170844554901, -0.10148628056049347, -0.040054768323898315, 0.027819160372018814, 0.15202534198760986, -0.11725254356861115, 0.04279224947094917, -0.13146117329597473, 0.07483269274234772, 0.16621312499046326, 0.09921733289957047, -0.002610772382467985, -0.12715664505958557, -0.16022005677223206, -0.1759195774793625, 0.16821330785751343, 0.05744945630431175, 0.04304444044828415, 0.14690200984477997, 0.11106017231941223, -0.09742855280637741, -0.20900364220142365, -0.009537924081087112, -0.03319576382637024, 0.2124669998884201, -0.022647613659501076, -0.07832171767950058], [0.18898937106132507, -0.07100618630647659, -0.011578012257814407, -0.12481808662414551, -0.0706520527601242, -0.04999823495745659, 0.06169779598712921, -0.1533026546239853, -0.1320745199918747, 0.027478082105517387, 0.0969647467136383, -0.10534443706274033, 0.12727676331996918, 0.18664491176605225, -0.014621918089687824, -0.1182325929403305, 0.1868877410888672, -0.06325484067201614, -0.11896327883005142, -0.17329192161560059, 0.045653242617845535, 0.0531749352812767, -0.11044897139072418, 0.1983240693807602, -0.0910121351480484, 0.19699038565158844, 0.02977900579571724, -0.04817193001508713, -0.13010333478450775, 0.0519104041159153], [-0.087729811668396, 0.0842013731598854, 0.1535245031118393, -0.013756942003965378, 0.0809016302227974, 0.17057645320892334, -0.07951337099075317, -0.06883067637681961, -0.16055473685264587, -0.08803699910640717, 0.020036153495311737, -0.03821178153157234, -0.07084880769252777, -0.02408331073820591, 0.19204379618167877, -0.1121470108628273, 0.04766135662794113, -0.07006649672985077, 0.15065628290176392, -0.015305152162909508, -0.09169574826955795, -0.11517594009637833, -0.1523265838623047, -0.027026956900954247, -0.055532168596982956, 0.14454612135887146, 0.03766367584466934, -0.1194535344839096, 0.05973291024565697, -0.14324870705604553], [-0.001580370357260108, 0.2502134442329407, -0.22355180978775024, 0.07002883404493332, 0.07127517461776733, -0.036141447722911835, -0.09867273271083832, -0.03848264366388321, 0.13239571452140808, 0.04799667000770569, -0.11305207759141922, 0.12998893857002258, -0.007802992127835751, 0.06941218674182892, -0.0480034165084362, -0.08674576878547668, 0.12288260459899902, -0.0032626839820295572, 0.04063338041305542, 0.11350855231285095, 0.09724530577659607, -0.14217732846736908, 0.0877470150589943, 0.1254369020462036, -0.017531974241137505, 0.020901279523968697, 0.03167491406202316, 0.06946305930614471, 0.07803255319595337, 0.126046285033226], [-0.1133938878774643, 0.184540793299675, 0.1020505279302597, -0.15505380928516388, -0.030006639659404755, -0.14999644458293915, -0.13142167031764984, 0.17857857048511505, 0.16846707463264465, 0.07883913815021515, -0.016200579702854156, -0.11156873404979706, -0.02522343397140503, 0.10161660611629486, -0.06386372447013855, -0.07198553532361984, 0.09859100729227066, -0.058412835001945496, -0.012758017517626286, 0.1636667102575302, -0.11249344795942307, 0.16506831347942352, 0.018835684284567833, -0.12392299622297287, -0.11117678135633469, 0.0020181876607239246, 0.019147420302033424, 0.19919952750205994, 0.11136406660079956, 0.0690753161907196], [-0.04568973183631897, 0.11659116297960281, -0.13085976243019104, -0.11326386034488678, 0.015790436416864395, 0.1626846045255661, -0.08540401607751846, 0.18345440924167633, -0.09060923755168915, 0.14663095772266388, 0.07731880992650986, -0.04396681487560272, 0.10184545814990997, 0.07380348443984985, 0.07488313317298889, -0.15604613721370697, -8.03193252068013e-05, 0.13386547565460205, -0.008076511323451996, -0.00904024112969637, 0.1184229627251625, -0.05141826719045639, 0.14049212634563446, 0.06339159607887268, 0.015934566035866737, 0.08170166611671448, -0.01101671066135168, 0.11565355956554413, 0.15450550615787506, 0.17013636231422424], [-0.05159051716327667, -0.11446359753608704, 0.23208969831466675, 0.17125995457172394, 0.14136864244937897, -0.10686149448156357, -0.08991639316082001, 0.09671784937381744, -0.017431804910302162, -0.08842359483242035, 0.1826494038105011, 0.05026279017329216, 0.1213827133178711, 0.22195373475551605, 0.17142799496650696, 0.020709848031401634, -0.11136659234762192, -0.1519223004579544, 0.10962966829538345, -0.13421674072742462, 0.18790508806705475, -0.04428904876112938, -0.04925377666950226, 0.05772628262639046, 0.14994122087955475, -0.1088152751326561, -0.09572195261716843, 0.11343353241682053, -0.028133483603596687, 0.08631182461977005], [-0.026538098230957985, -0.07195734232664108, 0.01614633947610855, -0.09649485349655151, -0.054374344646930695, 0.03934616968035698, 0.10614264756441116, 0.1664939522743225, 0.11218787729740143, 0.09098434448242188, -0.09538724273443222, -0.03727131709456444, 0.032955966889858246, -0.0316118448972702, 0.03528674319386482, -0.14432287216186523, -0.06207629665732384, 0.007214249577373266, -0.04604697227478027, -0.01579144597053528, 0.11296023428440094, 0.10095756500959396, -0.1400594413280487, -0.04761899635195732, 0.21221619844436646, 0.02172349952161312, 0.05715319514274597, 0.06446776539087296, 0.08337093144655228, -0.15712769329547882], [-0.009769279509782791, 0.1472242772579193, 0.15226015448570251, 0.1601155400276184, -0.11307039111852646, -0.04073052108287811, -0.008835173211991787, -0.09641695767641068, 0.0715169608592987, 0.10761114954948425, -0.022859778255224228, -0.0858672633767128, 0.17145967483520508, 0.09881584346294403, -0.017542239278554916, 0.1095832884311676, 0.1566806584596634, 0.1005256250500679, -0.04643205925822258, -0.13985835015773773, -0.17092494666576385, 0.1343243569135666, 0.027315886691212654, -0.12674014270305634, -0.14794400334358215, 0.00556988688185811, -0.03845701739192009, -0.06087270379066467, -0.1385238617658615, 0.11517965793609619], [-0.13490763306617737, 0.09611553698778152, -0.09854842722415924, -0.03179384395480156, 0.03682393208146095, -0.01866559125483036, -0.007214948534965515, -0.11181800067424774, -0.01342579536139965, -0.12901164591312408, 0.11391445994377136, -0.04496840387582779, 0.002383730374276638, 0.15010890364646912, 0.20612584054470062, -0.08006399124860764, 0.11542490124702454, 0.009086641483008862, -0.06116035580635071, -0.10870175808668137, 0.010755717754364014, 0.08821145445108414, -0.14463691413402557, -0.0276239775121212, -0.023503802716732025, 0.11755425482988358, -0.09339721500873566, 0.08694978058338165, -0.015206086449325085, 0.16756249964237213], [0.13255508244037628, 0.20527635514736176, -0.044561419636011124, 0.04224960133433342, -0.15565231442451477, 0.058366477489471436, 0.020888403058052063, 0.0862928107380867, 0.1980559229850769, 0.029188435524702072, 0.1269310712814331, 0.13590911030769348, 0.10368385165929794, 0.050863027572631836, -0.023079171776771545, -0.149634450674057, 0.07361626625061035, -0.018299514427781105, 0.15919920802116394, 0.07391220331192017, -0.13885429501533508, -0.15298914909362793, 0.13276243209838867, 0.0887293741106987, -0.19100551307201385, 0.041216909885406494, 0.1391294002532959, 0.14997954666614532, 0.12417806684970856, 0.1738826483488083], [-0.11118367314338684, 0.06039617210626602, 0.1259741336107254, 0.1527278870344162, 0.04604489356279373, 0.008381695486605167, -0.04627268388867378, 0.003099300665780902, -0.0754084587097168, -0.019191456958651543, -0.16423536837100983, -0.12669634819030762, 0.024855555966496468, -0.18127337098121643, 0.08773361146450043, -0.05719432607293129, -0.005520347040146589, 0.025322310626506805, 0.11118468642234802, -0.17121337354183197, -0.13426180183887482, -0.021578237414360046, 0.006268999073654413, 0.1043601930141449, -0.10938367992639542, -0.11382467299699783, 0.17195825278759003, 0.06566830724477768, 0.15311771631240845, 0.051294729113578796], [0.16299891471862793, -0.14377178251743317, -0.033839695155620575, 0.11829595267772675, -0.13914364576339722, -0.05720331892371178, -0.13024534285068512, 0.02879287116229534, -0.08682328462600708, -0.10386186093091965, 0.08999936282634735, -0.036793578416109085, 0.06888211518526077, 0.1255282312631607, 0.04858149215579033, -0.128007173538208, 0.19748340547084808, -0.05958518013358116, 0.04285532981157303, 0.1891384869813919, -0.08396127820014954, 0.14677999913692474, -0.09148610383272171, -0.054537542164325714, -0.11651841551065445, -0.05273591727018356, -0.08004412055015564, -0.13692589104175568, 0.05840064585208893, -0.02041185088455677], [0.16123145818710327, -0.11224910616874695, -0.07043120265007019, 0.13829632103443146, -0.08715842664241791, -0.03812459856271744, 0.18622708320617676, 0.058667007833719254, 0.02376837655901909, 0.1845070719718933, 0.03473270311951637, -0.07478248327970505, -0.1124129667878151, -0.07470428198575974, -0.1310092806816101, -0.11294766515493393, -0.02877381257712841, 0.11307824403047562, 0.042564019560813904, -0.00442104134708643, -0.11909204721450806, 0.013228090479969978, 0.06702017784118652, 0.047365859150886536, -0.006526532582938671, 0.16521170735359192, 0.18503646552562714, -0.11299259960651398, 0.1747789978981018, -0.16970810294151306], [0.00722252344712615, 0.07164820283651352, 0.13459351658821106, -0.04186563566327095, -0.09404651075601578, -0.14411795139312744, -0.08140537142753601, -0.10550487786531448, 0.053434502333402634, 0.15961113572120667, 0.18299125134944916, 0.08169016242027283, -0.01806308515369892, 0.09249574691057205, -0.0587487630546093, -0.11332546919584274, 0.06394165009260178, 0.008088898845016956, -0.06444821506738663, 0.17610597610473633, -0.13525143265724182, -0.06909786909818649, 0.020065665245056152, -0.12322108447551727, 0.2126116305589676, -0.07635891437530518, 0.19018006324768066, -0.06867644190788269, 0.11330410093069077, -0.1218821331858635], [-0.12466136366128922, 0.0274726040661335, 0.10427843034267426, -0.16830851137638092, -0.05206959322094917, -0.050283368676900864, 0.018878063187003136, 0.0869368314743042, 0.12881574034690857, 0.12457916140556335, 0.07889874279499054, 0.05734715238213539, -0.050056539475917816, -0.027142131701111794, 0.14191590249538422, 0.029603512957692146, -0.07280220836400986, 0.048847708851099014, 0.15352009236812592, -0.029091479256749153, -0.13572683930397034, 0.007960759103298187, -0.03491901233792305, -0.13422870635986328, -0.05463419854640961, -0.11960511654615402, 0.22361290454864502, 0.05679617077112198, -0.13743723928928375, 0.08364099264144897], [0.0009981706971302629, 0.2074737846851349, -0.22584936022758484, 0.11942088603973389, 0.15394985675811768, -0.14078189432621002, -0.09698288142681122, 0.026504993438720703, 0.1204327642917633, 0.1706012785434723, -0.019056370481848717, 0.15211746096611023, -0.08980830758810043, 0.10294696688652039, -0.022372115403413773, -0.12576383352279663, -0.03176363185048103, 0.0406867153942585, -0.03486531972885132, 0.10797486454248428, -0.03234034776687622, 0.08689882606267929, 0.036451343446969986, 0.19671224057674408, -0.23436692357063293, 0.06595415621995926, -0.034643370658159256, -0.13442471623420715, 0.020633824169635773, -0.04120554029941559], [-0.16728664934635162, -0.043337322771549225, 0.10062253475189209, 0.06874393671751022, 0.010995482094585896, 0.07264433801174164, -0.09072019904851913, -0.11382408440113068, -0.0798008143901825, -0.08831161260604858, -0.13644562661647797, 0.06342333555221558, 0.15149866044521332, -0.06665802747011185, -0.15080320835113525, -0.18998213112354279, 0.07790882885456085, -0.0794040784239769, 0.06464099138975143, 0.1752164661884308, 0.054591190069913864, 0.011286580935120583, 0.16749583184719086, -0.12023111432790756, -0.17946016788482666, -0.14379559457302094, -0.03947129845619202, 0.09283541887998581, -0.015037956647574902, -0.15395906567573547], [-0.018505509942770004, 0.08622198551893234, -0.04524901136755943, 0.1631196290254593, 0.07266972959041595, 0.18274354934692383, -0.12952002882957458, -0.01897968351840973, -0.0396435521543026, 0.14689382910728455, -0.04557992145419121, -0.01581759937107563, -0.08428411185741425, -0.05235622078180313, -0.05406217649579048, -0.06740450114011765, -0.011442779563367367, 0.03201071918010712, 0.19149291515350342, 0.0191184114664793, 0.1481059491634369, 0.0081401402130723, 0.13085967302322388, -0.12699858844280243, -0.049968454986810684, 0.03119529038667679, 0.21383807063102722, -0.07648348063230515, 0.08884232491254807, 0.0015546627109870315], [0.12301327288150787, -0.07295486330986023, 0.0322258360683918, -0.1331491321325302, -0.15909086167812347, -0.039547149091959, -0.08419940620660782, -0.10454987734556198, -0.07096680253744125, -0.10198640823364258, -0.12309380620718002, -0.005392325110733509, -0.15520024299621582, 0.05623515322804451, 0.060038045048713684, -0.17239941656589508, -0.1554221659898758, -0.13522355258464813, -0.10934571921825409, -0.14308010041713715, 0.04507840797305107, 0.16041524708271027, -0.0568397231400013, 0.07105986028909683, -0.03580070659518242, -0.08735758066177368, -0.07102139294147491, 0.10098458081483841, -0.16791324317455292, 0.10552758723497391], [0.06266769766807556, 0.02165088802576065, -0.05786486342549324, -0.08389564603567123, 0.10312668979167938, -0.14782112836837769, -0.10652674734592438, -0.14970353245735168, 0.050007376819849014, -0.05876179039478302, -0.12027095258235931, 0.029406404122710228, 0.1435508280992508, 0.16393788158893585, -0.008966062217950821, -0.030055830255150795, -0.15091566741466522, -0.11046727001667023, 0.04995931684970856, 0.026934251189231873, -0.03778017684817314, 0.116673044860363, 0.11842876672744751, 0.2289903163909912, -0.020663738250732422, 0.11561064422130585, -0.0452888160943985, -0.053932368755340576, 0.007495542988181114, -0.11606209725141525], [-0.03733355179429054, 0.19936037063598633, -0.04602211341261864, -0.12464215606451035, 0.08337526023387909, 0.009963867254555225, -0.026514992117881775, 0.1820560246706009, 0.16656215488910675, 0.055256087332963943, 0.13886313140392303, -0.1018744483590126, -0.12381505966186523, 0.02982872538268566, 0.018113793805241585, -0.13686397671699524, 0.0445367656648159, 0.08583156764507294, -0.15446510910987854, 0.1243625357747078, -0.12019576132297516, 0.1589989811182022, 0.014223162084817886, 0.24150697886943817, -0.04701000824570656, 0.16921265423297882, 0.039750825613737106, -0.11341094225645065, 0.13920710980892181, -0.08077497035264969], [0.003302821656689048, 0.11640897393226624, 0.027110299095511436, -0.15031571686267853, 0.02256898768246174, 0.18951961398124695, 0.10516775399446487, -0.13142405450344086, 0.10822686553001404, 0.1807190477848053, -0.005797324702143669, 0.1446797251701355, -0.1032300740480423, -0.13325147330760956, -0.18993501365184784, 0.16429901123046875, -0.14816094934940338, 0.19265523552894592, -0.08151844143867493, 0.1618211269378662, -0.11934541910886765, 0.18793699145317078, 0.11323323100805283, 0.03352923318743706, 0.13665206730365753, 0.13116855919361115, 0.02029258944094181, -0.16902169585227966, 0.1777297556400299, -0.09341355413198471], [-0.08368203043937683, -0.004158225376158953, 0.14273805916309357, 0.1997249871492386, 0.02572670206427574, 0.09591522812843323, -0.08266472816467285, -0.14562466740608215, 0.012650965712964535, -0.03989192098379135, -0.03898708149790764, -0.08731015771627426, 0.04960256814956665, 0.10454389452934265, 0.023082254454493523, 0.07544760406017303, -0.0246114619076252, -0.12454673647880554, 0.12742356956005096, 0.2051193118095398, -0.14620111882686615, 0.004214214161038399, -0.08508957177400589, 0.05151688680052757, 0.0377957746386528, -0.09512105584144592, 0.12274719029664993, -0.0603037029504776, 0.020148545503616333, -0.16948235034942627], [-0.13797527551651, 0.07441440969705582, 0.14471089839935303, -0.0912908986210823, -0.07237429171800613, -0.09705078601837158, -0.03640113025903702, -0.06692638993263245, -0.08854639530181885, 0.01951456069946289, -0.0348723866045475, 0.13874408602714539, 0.06727957725524902, -0.05880812183022499, 0.22647011280059814, -0.008851935155689716, -0.1396476924419403, -0.15490886569023132, -0.16367925703525543, -0.19005230069160461, 0.039768557995557785, -0.12067833542823792, 0.028820009902119637, 0.11052063852548599, -0.09643644094467163, -0.02434650994837284, 0.15115933120250702, 0.07640813291072845, -0.13315173983573914, 0.07168666273355484], [0.010657544247806072, 0.17967918515205383, -0.16406306624412537, 0.11187424510717392, -0.12162374705076218, 0.005013890098780394, 0.05725932493805885, -0.15224049985408783, 0.022482775151729584, -0.10257824510335922, 0.009208610281348228, -0.04421161487698555, -0.06001140922307968, 0.07725030928850174, 0.15525180101394653, 0.06849206238985062, -0.11425650119781494, 0.05745890736579895, -0.1715792715549469, 0.13701122999191284, -0.10045615583658218, 0.0057995556853711605, -0.019276520237326622, -0.15710760653018951, 0.08696667104959488, 0.009058704599738121, 0.14713434875011444, -0.015878355130553246, -0.040049657225608826, -0.16914282739162445], [0.07955832779407501, 0.14490428566932678, 0.0040638926438987255, 0.037714883685112, -0.13495004177093506, -0.11337195336818695, 0.05834769457578659, 0.11168370395898819, -0.14111174643039703, -0.028744952753186226, -0.07818631082773209, -0.1246383935213089, -0.06037680804729462, 0.1342574506998062, 0.1346525102853775, -0.03782462328672409, -0.053029417991638184, 0.11001157760620117, 0.11542771011590958, 0.17548571527004242, -0.020608197897672653, 0.08830425888299942, -0.11777602136135101, 0.1680685132741928, 0.14114566147327423, -0.1444433629512787, -0.08041564375162125, 0.18744659423828125, 0.035375144332647324, 0.033566445112228394], [0.03246162459254265, -0.02327360026538372, -0.1627931445837021, 0.05190393701195717, 0.055901482701301575, -0.03432658314704895, 0.07054691016674042, 0.006552575156092644, 0.03599323704838753, 0.08740969002246857, 0.07137829065322876, -0.026356857270002365, 0.18347880244255066, -0.031738780438899994, 0.19990114867687225, -0.06664606928825378, 0.08043938130140305, 0.19031870365142822, -0.1717243641614914, -0.10511298477649689, -0.014545299112796783, 0.008643101900815964, 0.06134949252009392, -0.10207165032625198, -0.06512320041656494, 0.010363183915615082, -0.15401677787303925, -0.040930651128292084, 0.023521065711975098, -0.12228961288928986], [0.04427085444331169, 0.17874298989772797, 0.0390196219086647, -0.0791655108332634, 0.03759606182575226, 0.02579597197473049, -0.03447340428829193, 0.0664297416806221, -0.05602187290787697, 0.18864980340003967, -0.09598829597234726, 0.1418294757604599, 0.08786111325025558, -0.16045984625816345, 0.11508847028017044, 0.18611682951450348, -0.08958026766777039, -0.06506253033876419, 0.053289879113435745, -0.10536711663007736, -0.14463791251182556, 0.10729755461215973, -0.10747051984071732, -0.050178494304418564, 0.11854469776153564, -0.1095343679189682, 0.1812363564968109, -0.1343652606010437, 0.10792745649814606, -0.028089771047234535], [-0.153462216258049, 0.04136338457465172, 0.10216288268566132, 4.2505642340984195e-05, -0.04787741228938103, -0.14483754336833954, -0.011231396347284317, 0.08329328149557114, -0.15449188649654388, 0.04792395606637001, -0.03301256522536278, 0.1870489865541458, 0.06273743510246277, 0.1140909418463707, -0.10523921251296997, -0.10830990970134735, 0.11074070632457733, -0.03446497768163681, -0.1373971551656723, 0.17409180104732513, -0.025938261300325394, 0.043795276433229446, 0.009656407870352268, -0.1765364557504654, 0.04776209592819214, 0.13365037739276886, -0.07846830785274506, -0.08624143898487091, 0.10031455755233765, 0.16734425723552704], [0.015849940478801727, 0.11816229671239853, 0.12830692529678345, -0.16604013741016388, -0.1679239571094513, 0.020383520051836967, -0.06564970314502716, 0.05975410342216492, 0.11590304225683212, 0.0006798874819651246, -0.13780468702316284, 0.19278088212013245, -0.11262725293636322, -0.1332731992006302, 0.1284799873828888, -0.09907759726047516, -0.11262042075395584, -0.13658231496810913, 0.10213147848844528, -0.025065597146749496, 0.009599873796105385, 0.021387822926044464, 0.15276579558849335, -0.05790793150663376, 0.1785813570022583, 0.018557215109467506, -0.13623036444187164, -0.020170358940958977, -0.0795312151312828, -0.07251112908124924], [-0.08204448223114014, 0.15690433979034424, 0.1600382924079895, -0.03215479105710983, -0.04112108051776886, -0.14277297258377075, 0.04763690382242203, -0.13756346702575684, -0.12402548640966415, 0.08528941869735718, -0.028995145112276077, -0.14465703070163727, -0.03865642845630646, 0.22048728168010712, -0.04559698700904846, 0.1895233392715454, -0.031661998480558395, -0.15247571468353271, 0.07125240564346313, -0.0891149714589119, 0.04065113142132759, -0.1541794240474701, -0.005643536802381277, 0.04773196950554848, 0.196022629737854, -0.048821933567523956, 0.13458897173404694, 0.1633700728416443, 0.11515393108129501, 0.17488424479961395], [0.17350903153419495, -0.04772818833589554, -0.15338747203350067, 0.024920929223299026, -0.1451634168624878, 0.09452561289072037, -0.027261119335889816, 0.01269875094294548, -0.04897701367735863, 0.13462616503238678, -0.02770751342177391, 0.03412782400846481, -0.020425613969564438, -0.12450995296239853, 0.07709810137748718, -0.005541565828025341, 0.1917411983013153, -0.10466862469911575, -0.10979951173067093, 0.04784676060080528, -0.0023169531486928463, -0.1328524351119995, -0.030020199716091156, 0.13690915703773499, -0.10072599351406097, -0.05197063088417053, -0.21154654026031494, 0.17881108820438385, 0.16082757711410522, -0.09800606220960617], [0.11933387070894241, -0.1393156498670578, 0.044893618673086166, -0.09932609647512436, 0.051058847457170486, -0.05817819759249687, -0.0020555611699819565, 0.16300155222415924, -0.008501115255057812, 0.09545883536338806, -0.009271540679037571, 0.06083513796329498, 0.08244631439447403, 0.12121866643428802, -0.15011583268642426, 0.00867424439638853, 0.1358402669429779, 0.16036134958267212, 0.2044612467288971, 0.09341155737638474, -0.08127465099096298, -0.11642478406429291, -0.06254466623067856, -0.010360092855989933, 0.07240752875804901, 0.15018895268440247, 0.2431674301624298, 0.18674905598163605, -0.017478661611676216, -0.05100652202963829], [-0.06426747888326645, -0.09602333605289459, 0.19855661690235138, 0.1166461780667305, -0.01572590135037899, -0.0019592144526541233, -0.07752804458141327, -0.08032949268817902, -0.08730301260948181, 0.027238084003329277, -0.09338445961475372, -0.10693958401679993, 0.1982724964618683, 0.165007546544075, 0.01583944261074066, 0.15493959188461304, -0.06856995075941086, 0.1847040355205536, 0.1604764610528946, -0.007503108121454716, -0.011040163226425648, 0.018080109730362892, -0.005568222608417273, -0.11583991348743439, 0.17087146639823914, 0.05288802087306976, 0.20582501590251923, 0.1797981858253479, -0.1149834468960762, 0.10065983980894089], [-0.05602210387587547, -0.018466953188180923, 0.10982134938240051, -0.15526053309440613, -0.1443394124507904, 0.025153568014502525, 0.1841122806072235, 0.06239928677678108, 0.11773458123207092, -0.0036481015849858522, -0.018796773627400398, -0.015995871275663376, 0.15498477220535278, -0.12719997763633728, 0.09454002976417542, -0.029841262847185135, 0.04824657738208771, 0.08667010068893433, -0.036246661096811295, -0.08680455386638641, -0.05931292474269867, -0.138492152094841, 0.02966979891061783, 0.17804096639156342, -0.0761578381061554, -0.01745283603668213, 0.21828703582286835, -0.039251573383808136, 0.15905354917049408, 0.1446632444858551], [-0.07750152051448822, -0.06366394460201263, 0.025494590401649475, 0.00647573359310627, 0.14005640149116516, -0.11581305414438248, -0.07930118590593338, 0.0632675364613533, -0.0736854150891304, -0.13871531188488007, -0.08103296905755997, -0.1472291350364685, -0.1354741007089615, 0.015770206227898598, -0.0958976149559021, 0.07228902727365494, 0.1719198226928711, -0.15256941318511963, 0.05361810326576233, 0.1724812239408493, 0.1346776932477951, -0.1266857385635376, -0.024475254118442535, 0.14362888038158417, -0.08448155224323273, -0.14084991812705994, 0.03762282058596611, 0.11837465316057205, 0.1307825893163681, 0.13098907470703125], [0.002019813982769847, -0.1746436506509781, -0.11030334234237671, -0.16813194751739502, -0.06267606467008591, 0.04953427240252495, -0.10905521363019943, 0.10953303426504135, 0.20201312005519867, -0.013272138312458992, -0.08519363403320312, 0.07832786440849304, -0.004173741675913334, 0.16445602476596832, -0.0011144556337967515, 0.1737864911556244, -0.14174236357212067, 0.15491293370723724, -0.023576967418193817, -0.12134034186601639, 0.19122666120529175, 0.06674504280090332, 0.04716332256793976, -0.10889650136232376, 0.08102142810821533, -0.03827511891722679, 0.20255684852600098, -0.15279512107372284, -0.016996249556541443, -0.12533271312713623], [0.17699886858463287, 0.024753963574767113, 0.09211114048957825, -0.07863270491361618, -0.05224442854523659, 0.16734382510185242, 0.16677580773830414, -0.1242472380399704, -0.12023160606622696, -0.08358610421419144, 0.0833415538072586, 0.10049672424793243, -0.12380072474479675, 0.2043362855911255, -0.05493265017867088, -0.12494837492704391, 0.10542576014995575, 0.024022266268730164, 0.0403379425406456, -0.08716746419668198, -0.06242275610566139, -0.026626190170645714, 0.1712799072265625, -0.08391528576612473, -0.05905624106526375, -0.10014444589614868, -0.144976407289505, 0.14890103042125702, -0.07383950054645538, -0.04127529263496399], [-0.13401995599269867, 0.17463494837284088, -0.14911243319511414, -0.0017541751731187105, -0.1269965022802353, -0.0938219353556633, 0.02222011238336563, -0.0710250586271286, 0.03210458159446716, 0.17731600999832153, -0.0960020199418068, 0.17719320952892303, -0.059126172214746475, 0.1674053817987442, 0.21690843999385834, 0.016969026997685432, 0.11157647520303726, -0.07651061564683914, 0.08598044514656067, 0.0219340268522501, 0.11545170843601227, -0.1544017493724823, -0.14117899537086487, 0.16003692150115967, 0.08018707484006882, 0.024774868041276932, 0.02466527931392193, 0.0064374166540801525, -0.12585781514644623, -0.07449104636907578], [0.09361481666564941, 0.06044776737689972, -0.034976378083229065, -0.08356136083602905, 0.07766509801149368, -0.0501471683382988, 0.1808256357908249, 0.1790747195482254, 0.05384351685643196, -0.1507248878479004, 0.13235965371131897, 0.12882646918296814, -0.08492059260606766, 0.03796844184398651, 0.12979590892791748, 0.0936046615242958, 0.11994242668151855, -0.16327539086341858, 0.14419034123420715, -0.14150269329547882, -0.10560241341590881, 0.1956205815076828, 0.051935140043497086, 0.2085556536912918, -0.1096271350979805, 0.04450550302863121, 0.1219252422451973, 0.11738232523202896, -0.021042704582214355, 0.17749157547950745], [-0.12172693759202957, -0.007702621631324291, 0.025958649814128876, 0.0619453601539135, -0.14570575952529907, 0.016439342871308327, 0.12370152026414871, 0.08747905492782593, 0.05162434279918671, -0.0012687764829024673, -0.11785203218460083, 0.0844137966632843, 0.015036558732390404, 0.007914011366665363, -0.14833813905715942, 0.1820840835571289, 0.16059327125549316, 0.0054873391054570675, 0.09019900858402252, 0.18057073652744293, 0.1493714600801468, 0.05401605740189552, 0.04991114139556885, -0.1320970356464386, -0.023424683138728142, 0.0626397430896759, 0.1879778355360031, -0.15399399399757385, 0.16201254725456238, 0.15106387436389923], [0.10801465064287186, 0.15070758759975433, 0.21238161623477936, -0.013043624348938465, -0.007670336868613958, 0.01907576061785221, 0.1060807853937149, 0.16903352737426758, -0.06192673370242119, -0.06932635605335236, 0.21934688091278076, 0.18854178488254547, -0.09857264906167984, 0.05869821086525917, -0.12817156314849854, 0.13825711607933044, -0.11322204768657684, -0.016409188508987427, -0.040177252143621445, -0.1460207849740982, 0.11803264170885086, -0.1404750943183899, 0.12472881376743317, 0.05651441216468811, -0.0347258485853672, -0.09808250516653061, 0.1932014375925064, 0.060262907296419144, -0.04383968561887741, -0.01813523657619953], [0.1553141474723816, 0.13847705721855164, 0.09055473655462265, 0.09661068767309189, 0.12297855317592621, -0.07519878447055817, -0.05364250764250755, 0.21592402458190918, 0.046489425003528595, 0.13291999697685242, 0.053064435720443726, 0.18317055702209473, 0.011632640846073627, -0.0503133162856102, -0.077891506254673, -0.06818065047264099, -0.015857858583331108, 0.023231184110045433, -0.1553449034690857, 0.00010338119318475947, -0.1106657013297081, -0.1069478690624237, -0.04156678542494774, -0.0614125020802021, -0.13572919368743896, -0.1467975527048111, -0.019160667434334755, 0.1391797959804535, 0.005727232433855534, 0.0678572803735733], [-0.043044667690992355, 0.1270226687192917, -0.10432272404432297, 0.12013550847768784, 0.20071707665920258, -0.017916249111294746, 0.050923872739076614, 0.18027397990226746, 0.14787337183952332, 0.11634401232004166, 0.010526416823267937, 0.029679585248231888, 0.09966930747032166, 0.026140477508306503, -0.08965175598859787, -0.0012105664936825633, -0.06415888667106628, 0.15269598364830017, 0.22799794375896454, 0.13642708957195282, -0.11805735528469086, -0.04300853610038757, -0.05772075057029724, -0.06246190890669823, 0.07195157557725906, -0.0746452733874321, 0.058479081839323044, -0.08524201065301895, -0.005987571086734533, 0.08551125973463058], [0.19792680442333221, 0.029056010767817497, 0.12005025148391724, -0.105474092066288, -0.11626103520393372, 0.09372609108686447, -0.18034154176712036, 0.10396534949541092, -0.12460323423147202, -0.11985555291175842, -0.02099534682929516, 0.09428487718105316, 0.03527273237705231, 0.11325589567422867, 0.11662445962429047, -0.10517043620347977, -0.07360226660966873, 0.08526808768510818, 0.11221233010292053, 0.12188882380723953, -0.10072042793035507, -0.14462591707706451, -0.18544144928455353, -0.03995872288942337, 0.1834152787923813, -0.040263548493385315, 0.08918515592813492, 0.12738777697086334, -0.17449809610843658, 0.10516811907291412], [0.1396387666463852, 0.011480598710477352, 0.03525824844837189, -0.1519920378923416, -0.0008009708835743368, -0.008586348034441471, 0.041433751583099365, 0.04813190922141075, 0.10083542764186859, -0.12969525158405304, -0.1473749577999115, 0.07341708242893219, 0.0067642610520124435, 0.06608504801988602, 0.17871730029582977, -0.08758462965488434, -0.06657268851995468, 0.20268665254116058, -0.055089134722948074, -0.052562154829502106, 0.214095339179039, 0.12828780710697174, 0.17647725343704224, 0.09881805628538132, 0.11501949280500412, 0.08024860918521881, -0.19452795386314392, -0.05983586981892586, -0.066410593688488, -0.12903954088687897], [0.07591666281223297, -0.00530199334025383, -0.03598159924149513, 0.07680472731590271, 0.12607987225055695, 0.13998383283615112, 0.01409341674298048, -0.1164364367723465, -0.09929613769054413, 0.1444503515958786, -0.0627494752407074, 0.1507762223482132, 0.18999004364013672, -0.11027500033378601, -0.1424688994884491, 0.1496054232120514, 0.044448286294937134, 0.05875340849161148, -0.0883941501379013, -0.13097292184829712, 0.1545126587152481, 0.1384975165128708, 0.19723902642726898, -0.1101963222026825, -0.1535322368144989, -0.09127548336982727, 0.06187606230378151, -0.03683062270283699, 0.05350526422262192, 0.1809297651052475], [0.19258789718151093, -0.1375994086265564, 0.15171264111995697, -0.1765180081129074, -0.11407572031021118, -0.15614745020866394, -0.02246696874499321, 0.1661326289176941, 0.1665380299091339, 0.155483216047287, 0.024926017969846725, 0.03519628942012787, 0.019855812191963196, 0.14374886453151703, 0.03945073112845421, 0.004243304021656513, 0.1798301339149475, 0.07835423201322556, 0.11476191133260727, 0.18257123231887817, -0.058834001421928406, 0.1379413604736328, -0.042750462889671326, -0.07665971666574478, 0.19842158257961273, 0.09705204516649246, 0.20545890927314758, 0.18125499784946442, -0.09381922334432602, -0.08297094702720642], [-0.001290432526730001, -0.15205855667591095, -0.10683418065309525, -0.060607124119997025, 0.06080528348684311, 0.19236624240875244, -0.11203418672084808, -0.10847098380327225, 0.1274961531162262, -0.08652186393737793, 0.039571959525346756, 0.1598539650440216, 0.11953990906476974, -0.12629647552967072, -0.11233418434858322, -0.03577373921871185, -0.0634673535823822, -0.08267077803611755, 0.16294312477111816, 0.15824362635612488, -0.10396844893693924, -0.1289386749267578, 0.1837904006242752, 0.11120188236236572, -0.012796680442988873, -0.04424447566270828, 0.20386463403701782, 0.21201999485492706, -0.008487186394631863, -0.18088752031326294], [-0.13108918070793152, -0.02384515106678009, 0.02387043833732605, 0.06061651185154915, -0.02308402769267559, -0.039446745067834854, -0.06679631024599075, -0.09684387594461441, -0.1158585399389267, 0.148037388920784, 0.03721541538834572, 0.061506181955337524, -0.00103216920979321, 0.178871750831604, 0.20850983262062073, -0.0738801434636116, -0.08523105829954147, -0.09361270815134048, 0.0793769434094429, 0.16503898799419403, 0.02957027778029442, 0.1383984386920929, -0.005691243801265955, 0.029052499681711197, 0.03932594135403633, 0.021917972713708878, -0.20385339856147766, 0.03638314828276634, -0.06333423405885696, -0.1479862630367279], [-0.05322321876883507, 0.07405570149421692, 0.17528696358203888, -0.06881272792816162, 0.04141736403107643, 0.08193282037973404, 0.18299272656440735, 0.21034708619117737, -0.13895028829574585, -0.06810300797224045, -0.08875695616006851, 0.19334860146045685, 0.15012842416763306, -0.14997215569019318, -0.1398250013589859, -0.07313702255487442, 0.005370710976421833, 0.029163789004087448, 0.02240114100277424, 0.00986627209931612, -0.08020203560590744, -0.018673423677682877, 0.17530593276023865, 0.14228923618793488, 0.01991117373108864, -0.04426940530538559, 0.134877547621727, 0.20133383572101593, -0.10915687680244446, 0.13352318108081818], [-0.12631651759147644, 0.16892443597316742, -0.17652712762355804, 0.20206552743911743, 0.1855594664812088, -0.033117834478616714, -0.03455755487084389, -0.016407253220677376, -0.013642637990415096, 0.17550206184387207, -0.049502935260534286, 0.09789621829986572, -0.007361539173871279, -0.13310475647449493, -0.1529417186975479, 0.12977683544158936, 0.18713060021400452, 0.04096415638923645, 0.1115284413099289, -0.15108808875083923, -0.07912713289260864, -0.04117785394191742, 0.019210657104849815, -0.047922562807798386, -0.0894041359424591, -0.12024460732936859, -0.0765903890132904, 0.0629168227314949, -0.08668208867311478, -0.0850808247923851], [0.09221494942903519, -0.05054711923003197, 0.11318343132734299, -0.09879393875598907, 0.17393584549427032, 0.11426950246095657, 0.15636229515075684, 0.1523788720369339, 0.13602465391159058, 0.09477858990430832, 0.016846513375639915, 0.1768103986978531, -0.06735320389270782, -0.12344811111688614, 0.035823192447423935, 0.01178616750985384, 0.13325269520282745, 0.17903435230255127, -0.03997368738055229, 0.11817028373479843, -0.0016567764105275273, -0.12307100743055344, 0.05448116362094879, 0.08124812692403793, -0.16762138903141022, 0.06828846782445908, 0.1862424910068512, -0.07027225941419601, -0.03252234309911728, -0.09469955414533615], [-0.09614722430706024, -0.04213275387883186, -0.0035575362853705883, -0.07092516124248505, 0.09467346221208572, 0.10404185205698013, 0.14732231199741364, -0.14632435142993927, 0.09092297405004501, -0.05894822999835014, 0.15689879655838013, -0.10991908609867096, -0.15773259103298187, -0.1413910835981369, 0.002163521246984601, 0.19316668808460236, 0.1614581197500229, -0.0700826421380043, -0.14210323989391327, -0.010597205720841885, -0.09332539141178131, -0.029463600367307663, -0.013287197798490524, -0.03733570873737335, -0.11307656764984131, -0.06136941537261009, 0.12677107751369476, 0.1401328146457672, -0.11736775934696198, 0.13357621431350708], [-0.07748439908027649, -0.10376106202602386, -0.11559919267892838, -0.008380791172385216, -0.023966193199157715, -0.041987672448158264, 0.164601132273674, -0.015028947964310646, -0.13886483013629913, -0.05448189750313759, -0.031326599419116974, 0.02551201917231083, 0.034253742545843124, -0.11581616848707199, -0.18092496693134308, -0.010316621512174606, 0.09544882923364639, 0.050101324915885925, -0.06243486702442169, 0.04676862433552742, 0.11636357009410858, 0.11384765058755875, -0.13177910447120667, 0.15067121386528015, 0.07858472317457199, -0.03488876298069954, 0.24086500704288483, -0.10068736225366592, 0.13452613353729248, -0.06320160627365112], [-0.07295148074626923, 0.01200513169169426, 0.0271674282848835, 0.16216406226158142, 0.09009429812431335, 0.16285598278045654, -0.13490113615989685, 0.09558983147144318, -0.04733964800834656, 0.08972369134426117, 0.13589629530906677, 0.18030841648578644, -0.006966990418732166, -0.09444036334753036, -0.060335684567689896, 0.0175651703029871, -0.08738827705383301, -0.026613781228661537, -0.022636516019701958, 0.07142579555511475, 0.11269017308950424, -0.06133772432804108, -0.07340413331985474, 0.13605496287345886, 0.012692514806985855, 0.008054956793785095, 0.23162293434143066, 0.01474657654762268, -0.05117522552609444, -0.1714915931224823], [-0.13895083963871002, 0.109284907579422, -0.11908859014511108, 0.008725200779736042, -0.1349656879901886, -0.153961643576622, -0.02034720778465271, 0.011820128187537193, 0.18646593391895294, 0.03867923468351364, 0.17333000898361206, 0.19399139285087585, -0.1495698094367981, -0.02099432609975338, 0.0564282089471817, -0.11883021146059036, -0.03260364755988121, 0.10654716938734055, 0.18212682008743286, 0.0022811759263277054, -0.16860529780387878, 0.16470929980278015, -0.14467968046665192, -0.0988420620560646, 0.09160242974758148, 0.11962739378213882, 0.1523582637310028, -0.14463385939598083, 0.152695432305336, 0.17208126187324524], [-0.14629198610782623, -0.1285257786512375, 0.1883072555065155, 0.04315134510397911, -0.08388960361480713, -0.09826966375112534, -0.1468283236026764, 0.03628220409154892, 0.018263675272464752, 0.09139224141836166, 0.019025934860110283, -0.02463872916996479, 0.12421184033155441, 0.02573295682668686, -0.04873831570148468, 0.15603984892368317, 0.17147473990917206, -0.12629221379756927, -0.0906495675444603, 0.10395567864179611, -0.005518220830708742, -0.08151628822088242, -0.08805257827043533, 0.06619901210069656, -0.12375220656394958, 0.10575209558010101, 0.2418471872806549, 0.19562743604183197, -0.03150556609034538, -0.027783282101154327], [-0.16589553654193878, 0.09676029533147812, 0.15730735659599304, -0.19040530920028687, 0.1528960019350052, -0.01808871515095234, -0.07492170482873917, 0.0007988638244569302, 0.09661423414945602, 0.10812795907258987, 0.17599618434906006, 0.12807102501392365, -0.021932335570454597, -0.1279071867465973, -0.10348328948020935, -0.11378373205661774, 0.0020854955073446035, 0.1509179174900055, -0.08078788220882416, -0.013269379734992981, 0.16995251178741455, -0.0453830286860466, 0.13195177912712097, 0.023534288629889488, -0.06045728176832199, 0.180445596575737, 0.14920657873153687, -0.0794195681810379, 0.010533089749515057, 0.07678768783807755], [0.1448720544576645, -0.10921354591846466, 0.09125000238418579, 0.14576463401317596, -0.14387647807598114, -0.057697463780641556, 0.1545800119638443, 0.028333203867077827, -0.09334246069192886, -0.015282515436410904, -0.011643795296549797, -0.054680660367012024, -0.10197662562131882, 0.17168310284614563, -0.12602713704109192, -0.14880944788455963, -0.05207478627562523, 0.0921488106250763, 