{"metadata": {"algorithm": "reinforce_self_play", "num_players": 3, "input_size": 30, "hidden_size": 128, "output_size": 10, "abstract_actions": ["L", "M", "H", "D", "LL", "LH", "HH", "K0", "K1", "K2"], "episodes": 200000, "win_rate_vs_random": 0.505, "exported_at": "2026-03-05T14:29:12Z"}, "weights": {"w1": [[0.1295495480298996, 0.20808690786361694, -0.10579744726419449, 0.20792903006076813, -0.06711731851100922, 0.03241614252328873, -0.10632600635290146, 0.11165647208690643, 0.1770789921283722, -0.11240227520465851, 0.16651728749275208, 0.060571473091840744, 0.15398892760276794, 0.06292059272527695, 0.11387432366609573, -0.011018245480954647, 0.13631781935691833, 0.022560428828001022, -0.14685724675655365, 0.013785725459456444, -0.07067326456308365, -0.00033310637809336185, -0.08085041493177414, 0.17748917639255524, -0.1971791386604309, -0.0608518049120903, -0.06099892407655716, -0.08371808379888535, 0.03692348301410675, -0.1803247034549713], [0.1085706353187561, -0.13564430177211761, 0.11426309496164322, 0.013672917149960995, -0.07990047335624695, 0.09550739824771881, 0.026914961636066437, 0.18608438968658447, 0.03805647790431976, -0.058459457010030746, 0.08040542900562286, -0.01939588226377964, 0.10119444131851196, 0.08136516064405441, -0.0443185418844223, -0.11145477741956711, 0.0880793035030365, 0.015352729707956314, 0.13979491591453552, -0.16481906175613403, -0.20868514478206635, -0.10022637248039246, -0.14041206240653992, 0.15635332465171814, -0.008132580667734146, 0.03541804105043411, 0.1701115220785141, -0.01861158385872841, 0.14143382012844086, -0.12972143292427063], [0.05782502889633179, -0.1037285327911377, 0.12243014574050903, -0.05374714359641075, 0.1463828831911087, 0.015838369727134705, 0.20679202675819397, -0.014331248588860035, -0.02205663174390793, 0.002430208493024111, 0.2608073055744171, 0.1597817838191986, 0.25281068682670593, -0.1625555455684662, -0.292176753282547, -0.06442037969827652, -0.06893933564424515, 0.12782594561576843, 0.19605010747909546, 0.16990230977535248, -0.02787165343761444, -0.05638900026679039, 0.17645461857318878, -0.05056029558181763, 0.13797086477279663, 0.010762935504317284, 0.34161576628685, -0.0682692751288414, 0.00017287395894527435, 0.05566256865859032], [0.021558411419391632, -0.04954390600323677, 0.10979298502206802, 0.10437554121017456, -0.11821416765451431, -0.09496144205331802, 0.15808430314064026, -0.0710781067609787, -0.07537277787923813, -0.1846807301044464, -0.10386361181735992, 0.031412310898303986, -0.03330596536397934, -0.1325911581516266, 0.0049180095084011555, -0.13490177690982819, -0.15238593518733978, -0.09802766889333725, -0.15273980796337128, -0.11115284264087677, 0.17416872084140778, 0.02492707408964634, 0.05316755175590515, -0.17782078683376312, -0.13126035034656525, -0.0725751668214798, 0.018496189266443253, -0.1722293347120285, -0.08883477002382278, -0.10930142551660538], [-0.02329474315047264, -0.11633797734975815, 0.03860140219330788, -0.09803629666566849, -0.15423475205898285, -0.10077910125255585, -0.05551829934120178, -0.16827185451984406, 0.14350779354572296, -0.032990384846925735, 0.15144139528274536, 0.041288577020168304, -0.16005711257457733, 0.10735980421304703, -0.04333639144897461, -0.07070254534482956, -0.14581455290317535, -0.17577318847179413, 0.06957098841667175, -0.03004683181643486, 0.0702805146574974, -0.15053334832191467, 0.1086077094078064, -0.18167665600776672, 0.021817533299326897, 0.040402401238679886, 0.09369145333766937, 0.14939384162425995, 0.1662662774324417, -0.14476710557937622], [0.041866619139909744, -0.06160225719213486, 0.027325138449668884, -0.13959068059921265, 0.24003444612026215, -0.14828622341156006, 0.1324312388896942, 0.14268584549427032, 0.12514428794384003, -0.02003895863890648, 0.2576771080493927, 0.13450337946414948, 0.10382821410894394, -0.16485154628753662, -0.06202415004372597, 0.0067701637744903564, -0.09792724251747131, 0.14253564178943634, 0.08104458451271057, -0.1666310429573059, -0.05567515268921852, 0.025256464257836342, 0.12360229343175888, -0.02425389736890793, -0.08605413883924484, -0.03330481797456741, 0.07042890787124634, 0.1211385428905487, 0.19685637950897217, -0.17188270390033722], [0.16470783948898315, 0.12900599837303162, 0.028758812695741653, -0.07660374045372009, 0.16201259195804596, 0.18085290491580963, 0.02493818663060665, -0.10120204836130142, -0.08228506147861481, -0.010586710646748543, -0.06724651157855988, -0.058839526027441025, 0.10988540202379227, 0.2879396378993988, 0.217060849070549, 0.03816597908735275, 0.08757221698760986, 0.0740068107843399, 0.025274615734815598, 0.16937458515167236, -0.0826430544257164, 0.018458247184753418, 0.2263668179512024, 0.09629185497760773, 0.05139733478426933, -0.018232835456728935, -0.3097602128982544, -0.12162602692842484, -0.04556862637400627, 0.06165606528520584], [0.08658475428819656, 0.08172324299812317, -0.08285235613584518, -0.10998696088790894, -0.023028744384646416, 0.1950116902589798, 0.0705379992723465, 0.02193325012922287, 0.1291213035583496, 0.0020846265833824873, -0.030590735375881195, 0.20434695482254028, -0.019890617579221725, -0.09608369320631027, -0.3450692296028137, 0.1455785036087036, 0.15672318637371063, 0.08493704348802567, -0.042199913412332535, -0.19112437963485718, -0.13199648261070251, 0.15375904738903046, 0.09909933060407639, 0.14983481168746948, 0.13255329430103302, 0.055073875933885574, 0.19737157225608826, -0.10000051558017731, -0.10430178046226501, -0.17077051103115082], [0.09927618503570557, -0.07796767354011536, -0.07424097508192062, -0.09077563136816025, -0.044113293290138245, -0.1312870979309082, -0.12520743906497955, 0.08424176275730133, -0.039094146341085434, 0.12695573270320892, -0.06769988685846329, -0.12490178644657135, -0.024129193276166916, -0.09373364597558975, -0.05326765030622482, -0.16027499735355377, 0.09936369955539703, -0.12989398837089539, 0.08477845788002014, 0.09351755678653717, 0.13882990181446075, -0.1282624453306198, 0.15786303579807281, -0.10000953078269958, 0.034945789724588394, 0.18326905369758606, -0.02467682585120201, 0.007647971156984568, -0.03339396044611931, -0.15244662761688232], [0.08802422881126404, -0.1812446564435959, 0.11527745425701141, 0.13589850068092346, 0.17385601997375488, -0.03998641297221184, -0.1500106006860733, 0.040733061730861664, 0.10579244047403336, -0.18729273974895477, -0.04037199541926384, -0.1034020483493805, -0.01758933812379837, -0.09501887857913971, -0.0777992233633995, -0.06137402355670929, -0.17042170464992523, 0.15288276970386505, 0.15066280961036682, -0.025000642985105515, -0.01880987547338009, -0.07216814160346985, -0.16487595438957214, -0.17767104506492615, 0.07019925862550735, -0.0983831062912941, -0.11898771673440933, -0.012553079053759575, -0.05998114496469498, -0.059066541492938995], [-0.02503359131515026, 0.11906462162733078, -0.040065765380859375, -0.09308753162622452, -0.037122201174497604, 0.2035577893257141, -0.05102042481303215, 0.09533439576625824, 0.009305279701948166, 0.07823912054300308, 0.23744498193264008, 0.14251214265823364, -0.08754155039787292, 0.14833995699882507, 0.24632084369659424, 0.12061865627765656, 0.17287027835845947, 0.2304656207561493, 0.006008440628647804, 0.05985307693481445, -0.05763169750571251, 0.035547707229852676, 0.1192922368645668, 0.25441452860832214, -0.1053733304142952, -0.07693742960691452, -0.06430098414421082, -0.09966868907213211, -0.05896107852458954, -0.04515012353658676], [0.09958033263683319, 0.11950777471065521, -0.08464357256889343, -0.14627963304519653, 0.17431755363941193, -0.10621777176856995, 0.03232653811573982, 0.19573351740837097, 0.010762589052319527, 0.06549262255430222, 0.08508621901273727, 0.034880928695201874, -0.002655987162142992, -0.16301977634429932, -0.2328965663909912, -0.031046651303768158, 0.2059253752231598, -0.05859772488474846, -0.008482658304274082, 0.05409669876098633, 0.10869339108467102, 0.15823312103748322, 0.15280990302562714, 0.19717755913734436, -0.16665810346603394, 0.060540951788425446, 0.3160571753978729, 0.05757977440953255, -0.020451193675398827, 0.17405523359775543], [-0.1065727025270462, -0.06528563052415848, -0.11255976557731628, 0.007045810576528311, 0.11569013446569443, 0.06350862979888916, 0.07179868221282959, -0.062214579433202744, -0.08539383113384247, 0.07512381672859192, 0.2564326822757721, 0.18359194695949554, -0.022344613447785378, -0.07463296502828598, -0.27419978380203247, -0.05040261894464493, 0.05615744739770889, 0.12251202762126923, 0.23892498016357422, -0.19195371866226196, 0.14678709208965302, -0.10078791528940201, 0.06988677382469177, 0.1957266479730606, 0.014303618110716343, 0.18299278616905212, 0.06907214224338531, -0.013799269683659077, 0.16699491441249847, -0.03977704420685768], [-0.023975340649485588, -0.08765339106321335, 0.10298863053321838, 0.08040410280227661, 0.04545880854129791, -0.11122248321771622, -0.15591391921043396, 0.028143644332885742, 0.045668937265872955, -0.10784190148115158, -0.04923970624804497, 0.10274246335029602, -0.001905694603919983, -0.004230198450386524, -0.07079917192459106, -0.18390455842018127, -0.18028846383094788, -0.09589562565088272, -0.1075449287891388, 0.04619067907333374, -0.07117833197116852, -0.09074598550796509, 0.17259842157363892, 0.05307802930474281, 0.11204499751329422, -0.10635441541671753, -0.09287489950656891, 0.047562796622514725, -0.14032065868377686, -0.11934947967529297], [0.005308899562805891, 0.018630513921380043, -0.07139502465724945, 0.10694042593240738, 0.22496645152568817, 0.06392479687929153, 0.0026162839494645596, -0.1466321498155594, -0.026339136064052582, 0.09825408458709717, 0.12344100326299667, 0.0015216822503134608, -0.035685814917087555, 0.20710991322994232, 0.017687827348709106, 0.19264376163482666, -0.03652351722121239, 0.03710128739476204, -0.04327406734228134, 0.10706699639558792, 0.022150859236717224, 0.21140611171722412, 0.005575093440711498, 0.22481083869934082, 0.24289482831954956, -0.01146717369556427, -0.14988544583320618, 0.21557708084583282, 0.20984959602355957, -0.1394040286540985], [-0.0559295229613781, -0.19030186533927917, -0.15595628321170807, 0.02278449945151806, 0.03234377130866051, 0.002080792561173439, -0.06021363288164139, 0.14412248134613037, 0.006918431259691715, -0.1265081912279129, -0.033393118530511856, 0.021243445575237274, 0.03943973407149315, -0.13891714811325073, 0.035959262400865555, -0.12044654041528702, -0.18832984566688538, -0.13634486496448517, 0.15348456799983978, 0.10898789018392563, 0.1255875825881958, 0.06956510990858078, 0.10395354777574539, -0.03978157043457031, -0.11546016484498978, 0.06174968183040619, -0.10985704511404037, -0.14950083196163177, -0.07956116646528244, 0.038314882665872574], [0.20673510432243347, -0.08701392263174057, -0.06885156035423279, 0.02482595294713974, -0.027800656855106354, -0.06319515407085419, 0.08411362767219543, -0.06425583362579346, 0.150028258562088, 0.17640109360218048, 0.03238929063081741, 0.05099615454673767, 0.04829591140151024, 0.12140116840600967, 0.17297615110874176, 0.06785345822572708, 0.1238495409488678, 0.22542418539524078, -0.06183642894029617, 0.016923602670431137, 0.01995130069553852, -0.020288527011871338, 0.11275330930948257, 0.10674792528152466, 0.215901181101799, 0.164022758603096, -0.2942245900630951, -0.06235228851437569, -0.02208595722913742, -0.03365283086895943], [0.08384883403778076, -0.15408821403980255, 0.06346036493778229, -0.1368311047554016, -0.1410083770751953, -0.06343341618776321, 0.1522313952445984, -0.202493816614151, 0.12101505696773529, 0.022033922374248505, -0.014887142926454544, 0.10779471695423126, 0.03575967997312546, 0.16626587510108948, 0.2174558788537979, -0.135731503367424, 0.15860781073570251, 0.12282197177410126, 0.047463033348321915, 0.10691874474287033, 0.08900347352027893, -0.03775700181722641, 0.029520247131586075, 0.190973162651062, 0.13898929953575134, 0.039040081202983856, -0.24932430684566498, 0.034577131271362305, -0.117913156747818, 0.1484677791595459], [-0.13670508563518524, 0.11419164389371872, -0.06939448416233063, 0.04687991365790367, 0.14618636667728424, 0.07163189351558685, 0.08787937462329865, 0.1473957747220993, 0.16520796716213226, -0.042637791484594345, -0.009714928455650806, 0.11908584833145142, -0.0062746452167630196, 0.13473965227603912, -0.018594184890389442, -0.07752266526222229, 0.12859968841075897, 0.08227585256099701, 0.11592791974544525, 0.21860545873641968, 0.16064207255840302, 0.22097133100032806, -0.012031430378556252, -0.02945495769381523, -0.14868442714214325, -0.08133968710899353, -0.15387193858623505, -0.04899342358112335, -0.12482375651597977, -0.16844573616981506], [-0.03997945040464401, -0.12477761507034302, -0.0652325302362442, 0.07357927411794662, 0.23072637617588043, -0.010601646266877651, -0.03439708426594734, 0.0962400734424591, -0.07043804973363876, -0.05576358735561371, 0.11065877974033356, -0.14944851398468018, 0.03831372410058975, 0.2866791784763336, 0.2401120960712433, 0.12657871842384338, -0.06262212991714478, 0.041188523173332214, -0.02759861946105957, 0.14012511074543, 0.1494278609752655, 0.23946480453014374, -0.0931602194905281, 0.0502503477036953, -0.018096139654517174, -0.058255091309547424, -0.11294269561767578, -0.10054413974285126, 0.1712653934955597, 0.021144794300198555], [-0.056524112820625305, 0.201123908162117, -0.1906125396490097, -0.04996392875909805, -0.01766759157180786, -0.04502766206860542, -0.11165842413902283, -0.04805346950888634, 0.1367824673652649, 0.16218355298042297, 0.100832000374794, -0.08338215947151184, -0.07953298091888428, 0.2968318462371826, 0.267407089471817, 0.08865299820899963, 0.13482330739498138, -0.03661934658885002, -0.04498952999711037, 0.27278438210487366, 0.037372805178165436, 0.07948042452335358, -0.1446763426065445, 0.003683554008603096, 0.027415599673986435, -0.03375306352972984, -0.12884439527988434, 0.1365327686071396, -0.1392320692539215, 0.05422674119472504], [-0.16369639337062836, -0.09243573993444443, 0.04195001721382141, 0.11166323721408844, -0.06507325917482376, -0.09796518087387085, -0.1875585913658142, -0.10600940883159637, -0.17290307581424713, -0.06966481357812881, -0.001448340597562492, -0.19330672919750214, 0.12093756347894669, 0.07269638031721115, -0.20203718543052673, -0.125318244099617, 0.036541637033224106, -0.06051750108599663, -0.04412468895316124, -0.1100897490978241, 0.10723378509283066, -0.140614315867424, 0.11040737479925156, -0.0012512588873505592, 0.017366718500852585, 0.10311688482761383, -0.06810977309942245, -0.14173771440982819, -0.06831938773393631, 0.14807741343975067], [-0.06324232369661331, 0.09640763700008392, -0.14141209423542023, 0.09638804942369461, 0.14526714384555817, 0.06801585108041763, 0.08686802536249161, -0.009275251068174839, 0.11133506894111633, -0.12311754375696182, -0.030886104330420494, 0.08332562446594238, 0.19612035155296326, 0.22111248970031738, 0.07737300544977188, 0.21356894075870514, 0.019562480971217155, 0.021293992176651955, -0.17517410218715668, 0.07369524985551834, 0.2016090303659439, 0.10120075941085815, -0.0607566311955452, 0.10002124309539795, 0.00659918924793601, 0.24972978234291077, -0.27460598945617676, -0.0026663606986403465, -0.13673077523708344, -0.07190322130918503], [0.0029427744448184967, 0.18666045367717743, 0.08639033883810043, 0.16044002771377563, 0.07168169319629669, 0.10565897077322006, 0.18314136564731598, 0.21578890085220337, -0.040376462042331696, 0.23057085275650024, 0.19883300364017487, -0.009376692585647106, -0.030579153448343277, -0.21049216389656067, -0.11657002568244934, -0.12906251847743988, 0.07733965665102005, 0.05787241458892822, -0.0845501497387886, -0.001258822507224977, -0.007929550483822823, 0.09140422195196152, 0.08819175511598587, -0.1476622372865677, 0.16549937427043915, 0.15410834550857544, 0.2847903370857239, -0.12797501683235168, -0.010816199705004692, -0.05291161686182022], [0.05353609099984169, 0.16988977789878845, 0.02848174050450325, 0.15023943781852722, -0.02945970743894577, 0.17929627001285553, 0.036171164363622665, -0.18585693836212158, -0.18233101069927216, -0.13230718672275543, 0.08695749193429947, -0.1794852763414383, -0.1464901566505432, 0.22333554923534393, 0.2825082540512085, 0.21888616681098938, -0.01997937075793743, -0.015773028135299683, 0.1121174544095993, 0.31303757429122925, 0.1764177531003952, 0.10120158642530441, 0.12097913026809692, 0.2252599596977234, -0.10451534390449524, -0.01953631453216076, -0.03229141980409622, -0.09589173644781113, -0.08178816735744476, 0.1332775205373764], [0.026789702475070953, 0.15250900387763977, 0.015752939507365227, -0.019546989351511, 0.26554417610168457, -0.06596962362527847, 0.0812365785241127, 0.207508385181427, -0.024235159158706665, 0.27190086245536804, 0.024332405999302864, 0.0470794141292572, 0.0443875715136528, -0.11798056960105896, -0.2544462978839874, 0.18004640936851501, 0.09212031215429306, -0.12738409638404846, -0.004774110857397318, 0.2280484437942505, 0.13992716372013092, 0.14212262630462646, -0.0935315191745758, 0.019924182444810867, 0.020269282162189484, 0.01807589828968048, 0.08872281759977341, 0.0979674682021141, 0.1082230880856514, -0.023117726668715477], [-0.012824050150811672, -0.04013499990105629, 0.07423562556505203, 0.0860198438167572, -0.09550851583480835, -0.1723586767911911, 0.11765778809785843, 0.05749446153640747, -0.07749292999505997, 0.17999938130378723, -0.0770321860909462, 0.09508373588323593, 0.06300624459981918, -0.16507704555988312, 0.19524632394313812, -0.15684625506401062, -0.092470683157444, -0.021759819239377975, -0.12440859526395798, 0.22496742010116577, -0.020637918263673782, 0.08648186922073364, -0.22792412340641022, 0.14922963082790375, -0.02741123177111149, -0.12691611051559448, -0.014175568707287312, 0.09837394207715988, 0.16785216331481934, -0.11151496320962906], [-0.063975989818573, 0.051334962248802185, 0.14721067249774933, 0.05566442385315895, 0.17262499034404755, 0.0027512272354215384, 0.15503427386283875, 0.19611775875091553, -0.00453219935297966, 0.1895400583744049, 0.16588690876960754, 0.21953679621219635, -0.03636861965060234, -0.07284210622310638, -0.07435538619756699, 0.07310649007558823, 0.15373121201992035, -0.0600740909576416, 0.17772795259952545, 0.021083466708660126, 0.16877798736095428, 0.04875035583972931, -0.10476487129926682, -0.085434190928936, -0.05910588800907135, 0.14016005396842957, -0.00276342430151999, 0.03962728753685951, 0.10125377029180527, -0.10012271255254745], [-0.01704203151166439, -0.125094935297966, -0.11365856230258942, -0.2086910903453827, -0.09667809307575226, -0.003907313104718924, 0.028944699093699455, -0.018382800742983818, 0.09271124005317688, 0.16229410469532013, 0.09407183527946472, -0.017314912751317024, -0.13383488357067108, -0.025721758604049683, -0.20514711737632751, 0.09276966750621796, 0.18465201556682587, 0.1330268681049347, 0.28436341881752014, 0.20851945877075195, 0.03537660464644432, -0.13453331589698792, 0.11782536655664444, -0.05332512781023979, -0.07335983961820602, 0.11601842939853668, 0.2793942391872406, 0.05317535996437073, 0.02145051583647728, -0.15357518196105957], [0.03305919095873833, 0.2756299078464508, 0.0396437793970108, 0.005177895072847605, 0.035226114094257355, -0.035173092037439346, 0.09816550463438034, 0.006044846493750811, 0.13943389058113098, -0.015481041744351387, 0.09313218295574188, 0.0947815552353859, 0.06686736643314362, 0.24529334902763367, 0.31000134348869324, 0.24222619831562042, 0.1688641905784607, -0.018178066238760948, -0.19433680176734924, 0.11848323792219162, 0.07218451797962189, 0.027506444603204727, 0.006987117230892181, 0.10851063579320908, 0.14333398640155792, 0.1335930973291397, -0.15382681787014008, -0.016482001170516014, 0.004141402430832386, -0.07056546956300735], [0.2725180983543396, 0.07000527530908585, 0.2402639091014862, 0.013233750127255917, 0.13013969361782074, 0.1323438584804535, -0.15399520099163055, 0.011205022223293781, 0.00039094872772693634, -0.06848317384719849, -0.13405287265777588, 0.16476036608219147, 0.16047802567481995, 0.1990339308977127, 0.34411340951919556, 0.0021049492061138153, 0.03749844431877136, 0.13815966248512268, -0.038735099136829376, 0.07858242094516754, -0.07634934782981873, 0.1288175731897354, -0.024755461141467094, -0.03651845455169678, 0.2840088903903961, 0.03154599294066429, -0.15471874177455902, 0.1610550433397293, -0.02500826120376587, -0.015678999945521355], [0.1704765409231186, -0.07485061883926392, -0.1306154429912567, -0.10217650234699249, -0.050617896020412445, -0.08663122355937958, -0.09474354237318039, 0.0737498328089714, 0.031026242300868034, -0.05843497812747955, -0.14184395968914032, -0.05748528242111206, -0.07705345004796982, -0.05941309779882431, -0.164704367518425, 0.03933178633451462, -0.13414154946804047, -0.14218862354755402, -0.1491691619157791, 0.07620348036289215, -0.10991453379392624, -0.07535764575004578, 0.14310906827449799, 0.09694036841392517, 0.1046864315867424, -0.173355370759964, -0.13092391192913055, -0.06892376393079758, 0.15082409977912903, 0.01867741346359253], [-0.17385157942771912, 0.10756741464138031, -0.13747665286064148, -0.04373001307249069, 0.0038055710028856993, 0.19203542172908783, 0.0791189968585968, 0.04192047193646431, 0.09875164180994034, 0.0037875748239457607, 0.14866450428962708, 0.13220137357711792, 0.12155531346797943, -0.05468171834945679, 0.08668803423643112, 0.02534070983529091, -0.03709085285663605, 0.14833669364452362, 0.23017825186252594, 0.20078252255916595, 0.09148263931274414, -0.018755150958895683, 0.09180758893489838, 0.2668646574020386, -0.2034277766942978, 0.011492874473333359, 0.006554905325174332, 0.09156034886837006, 0.14380425214767456, -0.03771761804819107], [0.10564428567886353, 0.18133249878883362, 0.004507849458605051, -0.16544851660728455, 0.2645823061466217, 0.008800004608929157, -0.007430087774991989, 0.04652407392859459, 0.045843515545129776, -0.1202620193362236, 0.12404356896877289, -0.028446028009057045, -0.019638791680336, 0.20287954807281494, 0.12114028632640839, 0.03425935283303261, 0.03917384892702103, 0.03210313990712166, -0.037145666778087616, 0.08767414093017578, 0.16469016671180725, -0.02569546550512314, 0.005279663018882275, 0.09112671762704849, 0.07752414792776108, 0.22391001880168915, -0.18397094309329987, 0.1528463065624237, 0.19353196024894714, 0.10137617588043213], [-0.15380753576755524, -0.05887480080127716, -0.14693008363246918, -0.1067541316151619, 0.10190737247467041, -0.01022610068321228, 0.07167325168848038, -0.12490981817245483, 0.02131347544491291, -0.1050134226679802, 0.1105857789516449, -0.04979684203863144, -0.016679655760526657, -0.16953767836093903, 0.05333392322063446, 0.19353288412094116, 0.10565338283777237, -0.08037494868040085, 0.013248947449028492, -0.04813593998551369, -0.13363395631313324, 0.16338007152080536, 0.010748062282800674, 0.055390991270542145, -0.06419495493173599, -0.061595261096954346, 0.039402659982442856, 0.08640456199645996, 0.0669570341706276, -0.08799072355031967], [0.24216873943805695, 0.04372038692235947, -0.09827695041894913, -0.09709135442972183, 0.2678207457065582, 0.0682145431637764, -0.044104527682065964, -0.10883262008428574, -0.05323217809200287, -0.1545962542295456, -0.1662328839302063, 0.0982697531580925, 0.16953754425048828, 0.30495133996009827, 0.07189645618200302, 0.17208261787891388, -0.04480159282684326, 0.1771220713853836, 0.1345120221376419, 0.24279747903347015, 0.2029649168252945, 0.18860702216625214, 0.04163945093750954, 0.1458054631948471, -0.019459417089819908, 0.15779824554920197, -0.21616868674755096, 0.044553112238645554, -0.12744870781898499, -0.047738514840602875], [-0.023748070001602173, -0.018647698685526848, -0.13426195085048676, -0.12331518530845642, 0.05461665615439415, 0.15246038138866425, 0.12296967208385468, 0.036251652985811234, -0.12771417200565338, -0.19912542402744293, 0.027432257309556007, 0.07900385558605194, -0.1548168957233429, 0.18239113688468933, 0.36384522914886475, 0.05718611925840378, -0.0760197639465332, 0.18366187810897827, 0.02666119486093521, 0.20156025886535645, -0.07216816395521164, 0.16051249206066132, -0.09033843874931335, 0.21027250587940216, -0.04919742792844772, 0.17773206532001495, -0.14452607929706573, 0.07820969074964523, -0.02463078312575817, 0.0749896764755249], [-0.12408170104026794, -0.1926310956478119, -0.08692807704210281, 0.1408338099718094, -0.0726214349269867, 0.017553072422742844, -0.07106547057628632, 0.11549901962280273, 0.08509936183691025, 0.041901104152202606, -0.1111157089471817, -0.1703757494688034, -0.017623361200094223, -0.13749122619628906, 0.10067638009786606, -0.21887333691120148, 0.04175318777561188, 0.1421772539615631, 0.05571265146136284, 0.0022234965581446886, -0.21678951382637024, 0.13582754135131836, -0.06380303204059601, -0.1920582503080368, 0.14857633411884308, -0.10884326696395874, -0.017796142026782036, 0.13688869774341583, -0.15003228187561035, -0.12916940450668335], [-0.020969871431589127, -0.048588257282972336, 0.09321781247854233, -0.17707058787345886, -0.025522567331790924, -0.06294979900121689, -0.05587037280201912, -0.11360188573598862, 0.11678360402584076, 0.05581560730934143, -0.11008179187774658, 0.1656976044178009, 0.06452524662017822, -0.04523637145757675, -0.2544984817504883, 0.024146897718310356, 0.19416972994804382, 0.1434769630432129, -0.06288760155439377, 0.1440814882516861, -0.002839675871655345, 0.07394395023584366, 0.11920850723981857, 0.12379145622253418, -0.10900966823101044, 0.1296011507511139, 0.027953527867794037, 0.010344651527702808, -0.10849857330322266, -0.040026336908340454], [0.0987485721707344, 0.0675172507762909, -0.01348356157541275, 0.003965576644986868, 0.2815834879875183, 0.19113773107528687, 0.09747875481843948, 0.08978942036628723, 0.1782246083021164, 0.0238691046833992, 0.05976124480366707, 0.08918360620737076, -0.08219754695892334, 0.005550431087613106, 0.2069789618253708, 0.028137678280472755, 0.08170977979898453, 0.0431668683886528, 0.04554251953959465, 0.24255648255348206, 0.03699573874473572, 0.2491585910320282, 0.23397979140281677, -0.050370633602142334, -0.11316968500614166, -0.04731904715299606, -0.152547687292099, 0.007516683079302311, 0.05961202085018158, -0.044400617480278015], [-0.13013029098510742, -0.07253776490688324, -0.05286942049860954, 0.16472643613815308, -0.1059664711356163, -0.1235666573047638, 0.07621172815561295, 0.026864202693104744, 0.1458284854888916, 0.1312384307384491, 0.20827247202396393, -0.05795998126268387, 0.13826516270637512, 0.03801758959889412, -0.24938030540943146, 0.1489802598953247, 0.14402224123477936, 0.009156069718301296, 0.16004043817520142, -0.0743405669927597, -0.17186574637889862, 0.03223881870508194, 0.02454283833503723, -0.09349874407052994, 0.056858062744140625, -0.19257187843322754, 0.30905213952064514, 0.16765782237052917, 0.05399511754512787, -0.11455229669809341], [0.09565459936857224, -0.004178730305284262, 0.014004208147525787, 0.05569184198975563, 0.10641138255596161, -0.07454505562782288, -0.06879539042711258, 0.01965230330824852, -0.005457219667732716, 0.11836180090904236, -0.11526842415332794, -0.02164148911833763, 0.01691693626344204, -0.07263290137052536, 0.08926409482955933, -0.01177998911589384, -0.164808452129364, -0.015847422182559967, -0.08387183398008347, 0.020112529397010803, -0.04989645630121231, -0.21281512081623077, -0.02301161363720894, -0.053013235330581665, -0.09065563976764679, 0.13716894388198853, -0.07168381661176682, 0.08371274173259735, 0.01382073387503624, -0.1541169136762619], [0.024181628599762917, 0.10159566253423691, -0.03394807502627373, -0.11920742690563202, 0.21402689814567566, 0.14864769577980042, -0.061710208654403687, 0.16060204803943634, 0.02209385484457016, -0.10075527429580688, 0.08924464136362076, 0.1299312263727188, -0.004195244517177343, -0.014634179882705212, -0.33121979236602783, 0.13815462589263916, 0.15759827196598053, 0.10263074934482574, 0.10957126319408417, 0.014270829036831856, -0.12812413275241852, -0.0419449545443058, 0.007894118316471577, -0.14486771821975708, -0.10365564376115799, 0.1262887865304947, 0.33062872290611267, -0.1360972374677658, 0.10261955112218857, 0.07427157461643219], [0.11352837085723877, 0.15844526886940002, 0.14405067265033722, -0.074897900223732, 0.12152833491563797, 0.1581445187330246, -0.16413038969039917, -0.10366614162921906, 0.06416712701320648, 0.10632128268480301, -0.06426024436950684, 0.03390764817595482, 0.01729067973792553, -0.000513985869474709, -0.20608288049697876, 0.09736594557762146, 0.13105197250843048, -0.11704234033823013, 0.07739786803722382, -0.02397933229804039, 0.047436684370040894, 0.1568327695131302, 0.026659762486815453, 0.010471554473042488, 0.11846053600311279, -0.09665413200855255, 0.04807581752538681, 0.009978946298360825, -0.12470155209302902, 0.01986723765730858], [-0.11046800762414932, -0.0054358625784516335, 0.014249851927161217, 0.0013345135375857353, -0.16168494522571564, -0.1579843908548355, 0.05752241984009743, 0.11075489968061447, -0.17031346261501312, 0.03363438695669174, -0.13626320660114288, 0.009134466759860516, 0.1258862018585205, 0.1807010918855667, -0.1736578345298767, 0.09042364358901978, 0.11078337579965591, 0.015141664072871208, 0.12859275937080383, -0.06884873658418655, -0.05005062371492386, -0.09904266148805618, 0.03980207443237305, -0.005701776128262281, 0.03807363659143448, -0.11523787677288055, -0.12479469925165176, 0.04314526543021202, -0.1993139237165451, -0.02843310683965683], [-0.03769442066550255, -0.09479442983865738, 0.04456978663802147, 0.016346590593457222, 0.09452276676893234, -0.03554429113864899, -0.1315750777721405, 0.08695095777511597, -0.017693178728222847, -0.08429598808288574, -0.1514478325843811, 0.011035464704036713, -0.17973637580871582, 0.02763521298766136, 0.08580854535102844, -0.18616798520088196, -0.13885599374771118, -0.15058699250221252, 0.13462278246879578, 0.11911536008119583, -0.015139766037464142, 0.14241907000541687, -0.10196235030889511, -0.19760341942310333, 0.0441916324198246, 0.037449829280376434, 0.14902792870998383, -0.02719496749341488, 0.11226088553667068, 0.1119113638997078], [0.23128890991210938, -0.1637396663427353, 0.1518986076116562, -0.14249052107334137, 0.1606907993555069, 0.07473325729370117, -0.1771121323108673, 0.04742848873138428, -0.004314652178436518, -0.12141596525907516, -0.004975261632353067, 0.06179754063487053, 0.15915939211845398, -0.0415225476026535, 0.2213553786277771, 0.0866733267903328, 0.08845342695713043, 0.11723395437002182, -0.1027555838227272, -0.05489441007375717, 0.01595029979944229, -0.09464642405509949, 0.004966541659086943, 0.020449168980121613, -0.09348840266466141, -0.0013638497330248356, -0.07076414674520493, 0.03420266881585121, -0.06528373062610626, 0.008772872388362885], [0.02668622136116028, 0.009592038579285145, 0.08429504185914993, -0.09723318368196487, 0.008470694534480572, 0.022113557904958725, -0.08958043158054352, 0.06695243716239929, 0.031157024204730988, 0.12332931905984879, 0.12409766763448715, 0.20728261768817902, 0.06153031438589096, -0.1496090441942215, -0.00429263710975647, -0.08066824823617935, -0.0008773425943218172, -0.034900058060884476, 0.03603309392929077, -0.060094065964221954, 0.2014136165380478, 0.1414484828710556, 0.13050787150859833, 0.13367202877998352, -0.12280575931072235, 0.06515000015497208, 0.26130837202072144, 0.16085520386695862, -0.08924278616905212, 0.06497624516487122], [-0.12095624208450317, -0.01606857217848301, 0.07882940024137497, -0.15182355046272278, -0.10527071356773376, -0.08869799971580505, 0.1381017118692398, 0.138752281665802, -0.09721405804157257, 0.021487610414624214, 0.09519176930189133, -0.07381977140903473, 0.16418078541755676, 0.126860111951828, -0.08122234791517258, -0.08760902285575867, 0.07399101555347443, 0.09769409894943237, 0.23656615614891052, -0.08108516782522202, -0.12259215116500854, 0.12294913083314896, 0.026680603623390198, -0.06530647724866867, 0.008081192150712013, -0.05581803619861603, 0.33454012870788574, 0.026776330545544624, 0.19770057499408722, 0.1629747748374939], [0.10235738754272461, 0.07299000024795532, -0.017238304018974304, 0.16648152470588684, -0.12708614766597748, 0.1344868689775467, -0.05659891664981842, 0.025643184781074524, -0.029969364404678345, -0.08389389514923096, -0.029794491827487946, 0.09731163829565048, -0.08185270428657532, -0.014794726856052876, 0.17681483924388885, -0.03863303363323212, 0.13360252976417542, 0.18474715948104858, -0.01860012672841549, 0.232112854719162, -0.018217287957668304, -0.03748294338583946, -0.048604533076286316, -0.08781906217336655, -0.08454301208257675, -0.08652601391077042, -0.3637831211090088, 0.07964774966239929, 0.15108215808868408, 0.17140927910804749], [0.11074703931808472, 0.011811178177595139, 0.13010986149311066, -0.10679108649492264, 0.1301765739917755, -0.16096581518650055, 0.15908649563789368, 0.1179322898387909, 0.1224222406744957, 0.15304504334926605, -0.007864877581596375, 0.21071535348892212, 0.13709284365177155, 0.08922835439443588, -0.0760379359126091, 0.15381141006946564, 0.13696643710136414, 0.09684305638074875, 0.21568012237548828, -0.0496554970741272, 0.15581317245960236, 0.07609529048204422, 0.09970030188560486, 0.20200642943382263, 0.10420630127191544, -0.03649122267961502, 0.15131695568561554, 0.10633973032236099, 0.09284518659114838, -0.04987381026148796], [0.09253731369972229, 0.2343025505542755, -0.09816709905862808, -0.019973911345005035, 0.07331826537847519, -0.12207859754562378, 0.05327891558408737, -0.020106874406337738, -0.04770027473568916, -0.015780387446284294, -0.03689936548471451, 0.20151589810848236, 0.09413318336009979, 0.25247570872306824, 0.16308261454105377, 0.08590981364250183, 0.0674016922712326, 0.02368214540183544, -0.22236816585063934, -0.14514091610908508, 0.005147773306816816, 0.05288892611861229, 0.01808072440326214, 0.19932900369167328, 0.1552271991968155, 0.08928004652261734, -0.06503041088581085, -0.0816325694322586, -0.08560120314359665, -0.10905840247869492], [0.046701058745384216, 0.22004519402980804, 0.12511026859283447, -0.05103280767798424, -0.04101017117500305, 0.0072352709248661995, -0.019145797938108444, 0.01950903981924057, -0.026582777500152588, -0.006463965401053429, 0.008295389823615551, 0.06169003248214722, -0.036624617874622345, -0.028745608404278755, 0.15223965048789978, 0.0253582876175642, -0.02125810831785202, 0.13812772929668427, 0.018907912075519562, 0.058441411703825, -0.04340190440416336, 0.024698695167899132, -0.18880663812160492, 0.15964940190315247, -0.0036633419804275036, 0.13557933270931244, -0.0932610034942627, 0.03226860985159874, 0.06064414605498314, 0.13892754912376404], [-0.12126626819372177, 0.2027127891778946, 0.07871393114328384, -0.12860199809074402, 0.13322813808918, -0.10222094506025314, -0.0006089578382670879, 0.007222350686788559, -0.04555220901966095, 0.21381230652332306, -0.0716678723692894, 0.16013051569461823, -0.08603492379188538, -0.030464909970760345, -0.06740208715200424, 0.17540600895881653, -0.058797601610422134, 0.0598246268928051, 0.10148754715919495, 0.07588088512420654, 0.05397581681609154, 0.11033380031585693, -0.11676250398159027, -0.01965494081377983, 0.16064633429050446, -0.10168737173080444, 0.1302034705877304, 0.036992549896240234, 0.24234050512313843, -0.03945675864815712], [-0.11587736010551453, -0.017534509301185608, 0.15937469899654388, 0.030911404639482498, 0.2201012670993805, -0.03703350946307182, 0.15426799654960632, -0.04590175300836563, 0.13973653316497803, 0.1594305783510208, 0.18064378201961517, -0.0231512151658535, 0.01792484149336815, 0.022259153425693512, -0.1655353456735611, -0.07187766581773758, -0.1753017157316208, 0.010534367524087429, 0.17072932422161102, 0.08823058754205704, 0.07469158619642258, 0.12828689813613892, -0.07850237935781479, 0.05304780602455139, 0.006979212164878845, -0.03941034898161888, 0.32435283064842224, -0.07339814305305481, 0.09281566739082336, -0.16043022274971008], [-0.05517008528113365, 0.010395589284598827, 0.13396678864955902, -0.10700524598360062, 0.19162164628505707, -0.1665380299091339, 0.17642617225646973, -0.03841106966137886, 0.1743743121623993, 0.012637518346309662, 0.08618715405464172, 0.02844463288784027, 0.1751764565706253, 0.04852059483528137, -0.20445284247398376, 0.07819616049528122, -0.14433616399765015, 0.11810051649808884, 0.09677540510892868, -0.05767709016799927, -0.034196898341178894, 0.11974257230758667, -0.11828386038541794, 0.18507522344589233, 0.1328454613685608, 0.15115125477313995, 0.22292228043079376, -0.0925530195236206, 0.20169050991535187, -0.056638795882463455], [-0.024991685524582863, 0.015717893838882446, 0.12284448742866516, 0.12599965929985046, 0.11543609201908112, 0.0965193584561348, -0.18560944497585297, -0.05506095662713051, -0.19467024505138397, 0.041068121790885925, -0.1656929850578308, -0.0956198051571846, 0.10863243788480759, 0.2834201157093048, 0.041625600308179855, -0.06876002252101898, 0.032014794647693634, 0.0811745896935463, -0.1058589443564415, -0.03333331272006035, -0.08548588305711746, 0.1054166629910469, 0.20324787497520447, -0.0892963856458664, 0.11073585599660873, 0.13172383606433868, 0.021957486867904663, -0.0009064939222298563, -0.004329534713178873, 0.13413704931735992], [0.07911735028028488, 0.20458099246025085, 0.01991475187242031, 0.06087363883852959, 0.09456292539834976, -0.06521762907505035, 0.0773901641368866, 0.03518164902925491, 0.15542304515838623, -0.01000932790338993, 0.06728322803974152, 0.14744910597801208, -0.10471189767122269, -0.1882043331861496, -0.22860760986804962, 0.1495441049337387, 0.18113777041435242, -0.0659760981798172, 0.12508393824100494, -0.07951918244361877, -0.05477692931890488, 0.18888159096240997, 0.06329285353422165, 0.013308023102581501, 0.05047864094376564, 0.040516193956136703, 0.2592751979827881, -0.019591091200709343, -0.06143674999475479, 0.1208757609128952], [-0.03680822625756264, 0.1025165468454361, 0.009611658751964569, 0.088746577501297, 0.11219876259565353, 0.1374688595533371, 0.08395809680223465, 0.21244023740291595, 0.028393294662237167, 0.09075015038251877, 0.24350735545158386, 0.23077858984470367, -0.026327461004257202, 0.10811510682106018, -0.07492493093013763, 0.0057542771100997925, 0.1858460158109665, -0.06814704835414886, 0.20591996610164642, 0.20292527973651886, -0.10902727395296097, -0.08768884092569351, -0.20931579172611237, -0.005579087883234024, -0.11921003460884094, -0.06041448190808296, 0.22397752106189728, 0.16065607964992523, 0.14369319379329681, 0.10134343802928925], [0.16252753138542175, -0.08138590306043625, -0.1396898478269577, 0.010405907407402992, 0.2599411606788635, 0.07564841955900192, -0.02979336678981781, -0.1493827998638153, -0.07951576262712479, -0.1359080672264099, 0.16396275162696838, 0.006534278858453035, -0.09180097281932831, 0.12870684266090393, 0.1720968335866928, 0.04050350934267044, 0.1307235062122345, 0.16355344653129578, -0.17456753551959991, -0.09847116470336914, 0.0641823261976242, -0.09401126205921173, -0.09379009902477264, 0.18695682287216187, 0.0313367135822773, -0.005795697681605816, -0.10831285268068314, -0.08362894505262375, 0.19432631134986877, -0.03958917409181595], [-0.031204422935843468, -0.06263677030801773, 0.095036581158638, -0.039321377873420715, 0.06368774175643921, -0.03444821015000343, -0.08571735769510269, 0.037209026515483856, 0.16000224649906158, -0.09362112730741501, -0.00044560045353136957, -0.14210622012615204, -0.07534918189048767, 0.29471156001091003, 0.22093112766742706, 0.24680528044700623, -0.018851077184081078, -0.08637416362762451, -0.1766948103904724, 0.2131362110376358, -0.06863375008106232, 0.16655009984970093, 0.0958617776632309, 0.11389276385307312, 0.12598823010921478, 0.03615446016192436, -0.0034117037430405617, -0.08993107080459595, -0.023373913019895554, 0.13365185260772705], [0.03515377640724182, 0.007683013565838337, 0.06235254555940628, -0.146806538105011, 0.2018139809370041, 0.0005228824447840452, 0.06589265167713165, 0.15758627653121948, 0.2227475643157959, 0.022455714643001556, 0.052722785621881485, 0.20386436581611633, 0.18180187046527863, -0.10353211313486099, -0.2742546498775482, 0.0984966903924942, 0.10234329104423523, 0.04993797093629837, 0.22156625986099243, -0.18950121104717255, 0.1468980461359024, -0.05717288702726364, 0.12910763919353485, 0.17167331278324127, 0.11347224563360214, 0.19776581227779388, 0.10851114243268967, -0.08385913074016571, -0.08361266553401947, 0.11462581902742386], [0.06571304798126221, -0.20916840434074402, 0.21100857853889465, 0.16877394914627075, -0.10671292990446091, 0.0839662253856659, 0.08639439940452576, 0.07680708914995193, 0.2164050191640854, 0.23983989655971527, 0.14506462216377258, 0.19117026031017303, 0.11522461473941803, -0.005204036366194487, -0.2340318113565445, 0.06070448458194733, -0.1783682107925415, 0.007731506135314703, 0.051678501069545746, -0.06683346629142761, -0.09973351657390594, -0.08548147976398468, 0.1644112765789032, 0.021218974143266678, 0.18450294435024261, -0.01697961613535881, 0.12930339574813843, -0.00240333448164165, 0.1774328500032425, -0.0788150504231453], [0.18380481004714966, 0.1328076720237732, -0.1561017781496048, 0.0150447441264987, -0.06215191259980202, -0.008289048448204994, 0.06334641575813293, -0.05638410151004791, 0.14631852507591248, -0.10882357507944107, 0.0739239826798439, -0.1065627932548523, -0.05291157588362694, 0.09704071283340454, 0.28658974170684814, 0.15589217841625214, -0.057266924530267715, 0.11286480724811554, -0.09117726236581802, 0.02508721873164177, -0.10914823412895203, 0.004146314226090908, 0.19955217838287354, -0.19765502214431763, -0.13967308402061462, 0.10106974095106125, -0.014018137939274311, 0.01321370992809534, 0.20529961585998535, -0.10992589592933655], [-0.05790724605321884, -0.16737627983093262, 0.0817682296037674, -0.040198225528001785, 0.19889819622039795, 0.008512048050761223, 0.12411012500524521, 0.008488502353429794, 0.2141106128692627, 0.23559074103832245, -0.0493919774889946, 0.04943747818470001, -0.05920904874801636, 0.06628026068210602, -0.21474973857402802, -0.021140022203326225, 0.20118634402751923, -0.15558035671710968, 0.2151978611946106, -0.021209174767136574, 0.20151548087596893, -0.0329483300447464, 0.19963765144348145, -0.00751537038013339, 0.0994168072938919, 0.1891946643590927, 0.009599223732948303, -0.07516329735517502, 0.2597241997718811, -0.10963516682386398], [-0.026914041489362717, 0.04969901964068413, -0.07683529704809189, 0.01616065390408039, -0.12932629883289337, 0.13982830941677094, -0.20205157995224, -0.042760320007801056, 0.06895934045314789, 0.0043235886842012405, -0.023208916187286377, 0.004580910783261061, -0.04181469604372978, 0.09252949804067612, 0.15874914824962616, -0.049655381590127945, -0.022712916135787964, 0.25443729758262634, -0.034290216863155365, 0.1876261979341507, 0.19481980800628662, 0.0633976012468338, -0.0460449755191803, -0.06463290750980377, -0.037291206419467926, 0.14412298798561096, -0.40211331844329834, 0.008272889070212841, 0.07723288238048553, 0.1489540934562683], [0.07379582524299622, 0.033534180372953415, 0.19391889870166779, 0.08075881004333496, 0.13823305070400238, 0.01118574757128954, -0.07252218574285507, 0.04862532019615173, 0.052586786448955536, 0.10295797139406204, 0.09541574120521545, 0.1586109697818756, 0.19674669206142426, -0.10970510542392731, -0.2892377972602844, -0.03752719238400459, -0.019565198570489883, 0.1712828129529953, 0.03606431931257248, -0.01437315996736288, 0.01085444912314415, -0.06258178502321243, 0.1297593116760254, -0.06983126699924469, 0.009265817701816559, -0.09325650334358215, 0.2428114265203476, 0.09004620462656021, 0.07436244934797287, -0.0682184249162674], [0.03267394378781319, -0.05255578085780144, -0.11121731996536255, -0.15133324265480042, -0.05171135067939758, -0.17464660108089447, 0.13222986459732056, -0.09349553287029266, -0.08495230227708817, 0.0002679350145626813, 0.031048061326146126, -0.034116894006729126, 0.10304240882396698, -0.1155497208237648, 0.04458841308951378, -0.021699663251638412, -0.15069152414798737, -0.07288260012865067, 0.04529370367527008, 0.03813130035996437, 0.11081299185752869, 0.10075714439153671, -0.11085805296897888, -0.09371759742498398, -0.050177689641714096, -0.1532832384109497, -0.07069628685712814, -0.17144736647605896, 0.047964513301849365, 0.12918207049369812], [-0.0473448820412159, -0.110377736389637, -0.05917121842503548, -0.06131318211555481, 0.014474427327513695, 0.03972726687788963, 0.07184775173664093, 0.22027812898159027, 0.10903798788785934, 0.09518250077962875, 0.05239343270659447, 0.14706185460090637, 0.11766725778579712, -0.2425646185874939, -0.30390429496765137, 0.027378113940358162, 0.10455015301704407, 0.12409673631191254, -0.0008331582648679614, -0.15750908851623535, 0.001593844615854323, -0.0025589801371097565, 0.028922729194164276, -0.01956876926124096, 0.1712946742773056, -0.002976513933390379, 0.3365744352340698, -0.10114631056785583, 0.1065637618303299, 0.021754831075668335], [-0.10224639624357224, 0.11391977965831757, -0.09859882295131683, 0.1334983855485916, 0.11323224008083344, 0.04406838119029999, 0.14404231309890747, 0.11159221082925797, 0.15017615258693695, 0.1966884583234787, -0.035822805017232895, 0.20218965411186218, 0.04858095198869705, -0.07613340020179749, -0.09974581748247147, 0.1833006590604782, -0.0728096142411232, -0.0966019555926323, 0.20285846292972565, -0.0604168064892292, 0.09557069838047028, 0.00987063068896532, 0.07773949950933456, 0.16272646188735962, -0.04609601944684982, -0.0625639334321022, 0.2861264646053314, 0.06194683536887169, 0.040957529097795486, -0.16037100553512573], [0.14016093313694, 0.017396392300724983, 0.06435604393482208, -0.0740814134478569, 0.02329297736287117, 0.11883129924535751, 0.06427021324634552, 0.2340777963399887, 0.05247456580400467, 0.05327802896499634, 0.17544426023960114, 0.045302994549274445, 0.01850481517612934, 0.05675113946199417, 0.07666400820016861, 0.09574617445468903, 0.157223641872406, 0.1484089195728302, 0.1279650330543518, 0.0919785350561142, 0.10617629438638687, 0.06483215093612671, 0.16987714171409607, 0.19259856641292572, 0.13707736134529114, 0.03350203484296799, 0.3069100081920624, -0.08439164608716965, 0.19899430871009827, 0.09673246741294861], [0.047713954001665115, 0.020794231444597244, -0.20520009100437164, 0.11229986697435379, -0.1106894463300705, 0.010968812741339207, 0.07163432985544205, -0.1917058527469635, -0.009435638785362244, -0.1039651557803154, 0.09844331443309784, -0.1485675722360611, 0.07821285724639893, 0.06377211958169937, 0.05058560520410538, 0.13065539300441742, -0.009417652152478695, -0.20255045592784882, 0.10371813923120499, -0.03136838227510452, -0.03512819483876228, -0.2178318053483963, -0.10779969394207001, -0.03886809200048447, 0.10575267672538757, 0.08272167295217514, 0.09741342812776566, 0.08501696586608887, -0.1536785513162613, -0.0784100592136383], [0.028682764619588852, -0.15854591131210327, 0.274370938539505, 0.06205572932958603, 0.2531875967979431, 0.012240288779139519, -0.09852949529886246, 0.00875002145767212, 0.18492065370082855, 0.18681700527668, 0.13264113664627075, 0.019020430743694305, -0.11099009960889816, -0.050931256264448166, 0.1109234094619751, 0.0031015111599117517, 0.1081131175160408, 0.07063107937574387, -0.035612910985946655, 0.11598490178585052, 0.0135947959497571, 0.06931435316801071, 0.05746988207101822, -0.2654125988483429, 0.14514049887657166, 0.13880133628845215, 0.005455289036035538, 0.1845548301935196, -0.08436600118875504, -0.17599724233150482], [-0.07872379571199417, -0.06978258490562439, 0.08238977193832397, -0.039395179599523544, 0.14751417934894562, -0.1189054623246193, 0.08873479813337326, 0.09056087583303452, 0.11958298832178116, 0.25826162099838257, 0.188289612531662, -0.047291744500398636, -0.08301576972007751, -0.02769017405807972, -0.14554248750209808, 0.13476663827896118, 0.04300011321902275, 0.18817484378814697, 0.17525003850460052, 0.01742563396692276, 0.06870517879724503, 0.10582809895277023, 0.03880643844604492, 0.1401410698890686, -0.05973855406045914, 0.14583005011081696, 0.03956775367259979, -0.09551078826189041, 0.04258983954787254, 0.08896929770708084], [0.11262189596891403, 0.03252578154206276, -0.022337092086672783, -0.000715937465429306, -0.06488803774118423, -0.04093815013766289, -0.00907928217202425, 0.1685388833284378, 0.11349610984325409, -0.15078642964363098, 0.007027032319456339, -0.11271597445011139, -0.03492715209722519, -0.13154500722885132, 0.002143687102943659, -0.15073136985301971, 0.15568660199642181, 0.1133260577917099, -0.1466965228319168, -0.22239626944065094, -0.006367758382111788, -0.07216207683086395, 0.05192763730883598, -0.1420934945344925, 0.05400115251541138, -0.17164987325668335, -0.03730722516775131, -0.0982615128159523, 0.08754212409257889, -0.004780014976859093], [-0.18676957488059998, -0.12821096181869507, -0.09131906181573868, -0.16450916230678558, 0.017616182565689087, 0.04197370633482933, -0.04745560511946678, -0.07871533185243607, -0.00963664148002863, -0.15042734146118164, -0.11980532109737396, -0.025155263021588326, 0.14771768450737, -0.06584234535694122, 0.06905820220708847, -0.08191210776567459, -0.07168527692556381, -0.19688519835472107, 0.14262425899505615, 0.149396613240242, -0.019196752458810806, 0.09243343025445938, 0.1289585530757904, 0.08065716922283173, 0.08290158212184906, -0.1916836053133011, -0.1603633314371109, -0.15696510672569275, 0.04354387894272804, -0.1579224020242691], [-0.16923411190509796, -0.04698820039629936, -0.1339249610900879, 0.00351318228058517, 0.06177031621336937, -0.08513938635587692, 0.136379212141037, -0.05356273055076599, -0.03473454713821411, 0.16321948170661926, 0.19371825456619263, 0.006866409908980131, -0.12660513818264008, -0.07142853736877441, 0.014270308427512646, 0.1414257436990738, 0.11259669810533524, -0.058918390423059464, -0.17601634562015533, -0.11894775927066803, -0.032246917486190796, 0.03538490831851959, -0.1084880456328392, -0.1001494899392128, 0.05567169561982155, -0.12029934674501419, -0.10914202779531479, -0.118068166077137, -0.027147367596626282, 0.16126012802124023], [0.1682354211807251, -0.040751855820417404, 0.03704984113574028, 0.04544420540332794, -0.02574607916176319, -0.06750757992267609, -0.11835366487503052, -0.16693176329135895, -0.014058996923267841, -0.15941782295703888, -0.04371916130185127, -0.050235565751791, 0.16474679112434387, 0.22460535168647766, 0.15681129693984985, 0.04104271158576012, 0.020639505237340927, 0.12632125616073608, -0.1306294947862625, -0.01394459418952465, -0.0024790766183286905, -0.002476654015481472, -0.11011246591806412, 0.04747879132628441, 0.1929740607738495, -0.06740414351224899, 0.023232031613588333, -0.006607691757380962, 0.00612939428538084, 0.010642250068485737], [0.26107922196388245, 0.049242693930864334, -0.13080164790153503, -0.032235316932201385, 0.045802339911460876, 0.12980006635189056, -0.02553873509168625, -0.07012907415628433, -0.09144163131713867, -0.08329392969608307, -0.10143235325813293, 0.0433744341135025, 0.07287702709436417, 0.22621051967144012, 0.08202195167541504, 0.0745786651968956, 0.19082282483577728, 0.15224511921405792, 0.033508092164993286, 0.15103253722190857, 0.06308061629533768, -0.09099731594324112, 0.09784172475337982, -0.025441540405154228, 0.17707712948322296, 0.22005191445350647, -0.0987788513302803, 0.18839327991008759, -0.0773787572979927, 0.15868866443634033], [0.18102160096168518, 0.020083799958229065, -0.09853148460388184, -0.03377464786171913, -0.046956293284893036, 0.05117746815085411, -0.14725236594676971, 0.08054841309785843, -0.029263831675052643, -0.005472423508763313, -0.008733726106584072, 0.021018406376242638, -0.09726797044277191, -0.12617217004299164, -0.06962060183286667, 0.15862801671028137, 0.2140757441520691, -0.08994729071855545, 0.15845081210136414, 0.014660079032182693, -0.07804223895072937, 0.043746206909418106, -0.04727998003363609, -0.15764345228672028, -0.1356031447649002, -0.1052953377366066, 0.29815608263015747, 0.13892504572868347, -0.03711474686861038, -0.12220068275928497], [-0.10150831937789917, -0.12923090159893036, -0.11269322037696838, 0.109722800552845, 0.03719675540924072, -0.07237882167100906, 0.11437836289405823, -0.1164202019572258, -0.1743519902229309, 0.027444979175925255, -0.10658873617649078, 0.0429508350789547, 0.1405273824930191, -0.1022651270031929, -0.1570153385400772, 0.04993327334523201, -0.16691111028194427, 0.16086885333061218, -0.07854659110307693, 0.10816672444343567, -0.1602737307548523, -0.14183662831783295, 0.06133129075169563, 0.04755135625600815, 0.10319381952285767, 0.1356428861618042, -0.02969706989824772, -0.04441392794251442, 0.011170207522809505, -0.042410336434841156], [-0.013463947921991348, -0.0674668624997139, -0.07642943412065506, 0.1186191588640213, -0.027108261361718178, 0.19153884053230286, 0.07242099195718765, 0.11315698176622391, 0.22178995609283447, -0.03279838338494301, 0.04114942252635956, 0.08289356529712677, 0.12197188287973404, -0.1262766420841217, 0.10523566603660583, -0.037854455411434174, 0.07174570113420486, 0.17128482460975647, 0.05938856303691864, 0.07501035928726196, 0.05307580903172493, 0.21805652976036072, 0.10600294172763824, 0.13506612181663513, -0.05589156597852707, -0.042536769062280655, 0.2382204383611679, 0.19932369887828827, 0.17624785006046295, -0.1423562467098236], [0.21006609499454498, -0.04575560986995697, 0.27262377738952637, 0.1523495763540268, 0.11179611086845398, -0.026426272466778755, 0.2367192506790161, -0.010360646061599255, 0.18992486596107483, -0.0789213478565216, 0.03330144286155701, -0.08425361663103104, -0.005010558757930994, 0.11043579131364822, -0.14553667604923248, -0.07630641013383865, 0.18009352684020996, 0.14700835943222046, 0.0876823291182518, -0.07818838953971863, 0.02897557057440281, 0.019376780837774277, 0.20600628852844238, -0.08987720310688019, 0.060759805142879486, -0.04613505303859711, 0.05242980271577835, 0.18054166436195374, 0.2087000459432602, 0.02652570605278015], [-0.08091004192829132, 0.17662650346755981, 0.09534206986427307, -0.07699580490589142, -0.09916821867227554, 0.04491667449474335, 0.13313479721546173, 0.13809283077716827, 0.17574582993984222, 0.0629737600684166, 0.21251212060451508, 0.006961546838283539, -0.014913864433765411, -0.1463458240032196, -0.3204957842826843, -0.0864102691411972, -0.09473858028650284, 0.059678398072719574, 0.12469110637903214, -0.033780742436647415, -0.0984184592962265, 0.19267629086971283, -0.042968135327100754, 0.1042228415608406, 0.14315105974674225, -0.1185821145772934, 0.224752739071846, 0.14597538113594055, 0.21344734728336334, -0.023033758625388145], [0.20860008895397186, -0.07410401105880737, -0.11522006243467331, 0.14009742438793182, 0.050796493887901306, 0.20355279743671417, 0.011087563820183277, -0.07954860478639603, 0.1886742115020752, 0.17109721899032593, 0.013609571382403374, -0.10345888882875443, 0.0127256503328681, 0.04371481388807297, 0.33540189266204834, 0.07840555161237717, 0.06161986291408539, 0.13390852510929108, 0.007143352180719376, -0.03644615411758423, 0.22306431829929352, 0.18547281622886658, -0.06178246811032295, 0.20158350467681885, 0.08288119733333588, 0.04434952884912491, -0.24544814229011536, 0.024096157401800156, -0.14081913232803345, 0.10420621931552887], [0.08931322395801544, 0.01550157368183136, 0.17917683720588684, -0.07518474012613297, 0.0708710327744484, -0.11325333267450333, 0.03198136016726494, 0.15967781841754913, 0.1481229066848755, 0.051956940442323685, -0.012844182550907135, 0.19379475712776184, 0.17602697014808655, -0.01241244189441204, -0.23040401935577393, 0.06522800028324127, 0.014469701796770096, 0.18078188598155975, 0.11173360794782639, -0.0010367677314206958, 0.03132981061935425, 0.11533612012863159, -0.006027044262737036, 0.2227793186903, 0.07305537164211273, -0.1354455053806305, 0.18757431209087372, -0.11789170652627945, -0.09290241450071335, 0.03547291085124016], [0.0715937614440918, 0.032418008893728256, 0.10789330303668976, -0.08553414046764374, -0.08081486821174622, -0.020871369168162346, -0.029402974992990494, -0.0387120358645916, 0.14591099321842194, -0.09981799870729446, -0.11874940991401672, 0.008182860910892487, 0.10710138827562332, 0.10439702123403549, 0.2067839801311493, 0.036619558930397034, 0.1639728844165802, 0.11802545189857483, 0.05889340862631798, -0.02043340913951397, -0.142767071723938, -0.07384233176708221, 0.07075556367635727, 0.15032139420509338, -0.09539471566677094, 0.1711314171552658, -0.09476909786462784, 0.006213004235178232, -0.004474595654755831, -0.03225585073232651], [0.15792839229106903, 0.02884160913527012, 0.1426602602005005, -0.14561308920383453, -0.1040586605668068, 0.049252770841121674, 0.16323532164096832, 0.16151735186576843, 0.06674076616764069, -0.11058837920427322, 0.06751121580600739, -0.050686564296483994, -0.09057947993278503, -0.05632822960615158, -0.22721868753433228, 0.18506217002868652, -0.07051204890012741, 0.08756247907876968, 0.1982954740524292, -0.09704607725143433, 0.11211743205785751, -0.0004514067550189793, 0.11638015508651733, 0.17149153351783752, -0.04761633649468422, -0.08068893104791641, 0.3186104893684387, 0.04364583641290665, 0.024538205936551094, 0.1385132521390915], [-0.08831321448087692, -0.022608641535043716, 0.11549222469329834, 0.06495159864425659, -0.10765563696622849, 0.043084342032670975, -0.14332933723926544, -0.11739036440849304, 0.1090693399310112, -0.04957040399312973, -0.10319001972675323, -0.00377229624427855, 0.03178369998931885, -0.10189560800790787, -0.12329413741827011, -0.18020285665988922, 0.04280444607138634, -0.1221717819571495, 0.007188568357378244, -0.04574647918343544, -0.12327492982149124, -0.0700865387916565, -0.15101675689220428, -0.10627460479736328, -0.014294496737420559, -0.1668725609779358, -0.1676759421825409, 0.12541523575782776, 0.00933921243995428, -0.08074413239955902], [0.06853844225406647, 0.11736792325973511, -0.14039713144302368, -0.1036650687456131, -0.1518428921699524, 0.034443449229002, -0.0546511672437191, -0.20524239540100098, 0.06684450060129166, -0.17946307361125946, 0.12134913355112076, -0.12260493636131287, -0.01954597979784012, 0.14160139858722687, 0.08290335536003113, 0.1982029229402542, -0.07815602421760559, 0.03759698569774628, -0.17520004510879517, 0.08695009350776672, 0.18445755541324615, 0.20531333982944489, 0.06694479286670685, -0.13051122426986694, 0.21561740338802338, 0.0624273344874382, -0.006962834391742945, -0.08095996081829071, -0.08649663627147675, -0.1515609174966812], [0.1863609403371811, 0.008295194245874882, -0.009918736293911934, 0.01679069921374321, -0.0034627970308065414, 0.008259925991296768, 0.12716303765773773, -0.027087850496172905, 0.0824422761797905, -0.03887247294187546, 0.10815419256687164, -0.11455345153808594, 0.0816386491060257, 0.19531482458114624, 0.16637687385082245, 0.11896897107362747, 0.13348227739334106, 0.17664800584316254, 0.08693428337574005, 0.018608393147587776, 0.07736813277006149, 0.21510402858257294, 0.1987001895904541, -0.10701191425323486, 0.08692470192909241, -0.030428584665060043, 0.16483783721923828, -0.1140298917889595, 0.12868337333202362, -0.050107192248106], [0.04787016287446022, 0.04544268175959587, -0.013859906233847141, 0.08374238759279251, 0.15261784195899963, -0.1478206366300583, 0.22240731120109558, 0.22669652104377747, 0.17219489812850952, 0.05623602867126465, 0.1591656357049942, -0.028155017644166946, -0.00030926024192012846, 0.038198620080947876, -0.049488287419080734, 0.10331939160823822, -0.16675300896167755, 0.15867029130458832, 0.0036731341388076544, 0.12644800543785095, 0.16935384273529053, 0.08959794044494629, 0.2049650400876999, 0.09713636338710785, 0.13858939707279205, -0.04182285815477371, 0.3579261004924774, 0.09191635251045227, 0.16792665421962738, -0.041281454265117645], [0.13355891406536102, 0.15684713423252106, -0.13989770412445068, 0.15085063874721527, -0.12066138535737991, -0.1299852579832077, -0.15850593149662018, 0.04994192346930504, -0.13993318378925323, -0.06850442290306091, -0.0908711701631546, 0.04311517998576164, -0.18705172836780548, -0.08061043918132782, -0.0025593237951397896, 0.00841694325208664, -0.08674272894859314, 0.06112184002995491, -0.11799167096614838, -0.15279337763786316, -0.03525492548942566, -0.10668706148862839, 0.10760904848575592, -0.12789788842201233, -0.014766091480851173, 0.07210619002580643, -0.15860499441623688, 0.13663631677627563, -0.079537034034729, -0.0496814101934433], [-0.10520530492067337, -0.061908841133117676, 0.01523325964808464, -0.17037776112556458, 0.14451102912425995, 0.02809959091246128, 0.22911962866783142, 0.21077841520309448, 0.22787374258041382, 0.1419183313846588, 0.20714609324932098, 0.25553616881370544, 0.23178991675376892, -0.17610043287277222, -0.1817944198846817, -0.129004567861557, 0.03559141606092453, -0.035798922181129456, 0.26328346133232117, 0.04355518892407417, 0.039764154702425, -0.09292089939117432, -0.0954490453004837, 0.03667313605546951, -0.048055000603199005, -0.05481692776083946, 0.348158597946167, -0.04129188507795334, -0.008947813883423805, 0.14018183946609497], [0.025303686037659645, -0.1218043640255928, 0.17784923315048218, 0.09526193886995316, -0.06309271603822708, 0.020860040560364723, 0.1097588911652565, 0.06734217703342438, 0.2328793704509735, -0.027125034481287003, 0.17375893890857697, -0.03163924068212509, -0.0997907742857933, 0.06802064925432205, -0.1858619898557663, 0.04591885954141617, 0.08277011662721634, -0.16563303768634796, -0.08877468854188919, 0.006931602954864502, 0.18850472569465637, 0.01411193236708641, 0.12086629867553711, 0.04324385151267052, 0.1409282088279724, -0.08321880549192429, 0.36472153663635254, 0.136362686753273, 0.09238117188215256, 0.12913547456264496], [-0.23228825628757477, 0.06676005572080612, -0.06738124042749405, -0.0035325316712260246, 0.02349054254591465, 0.08846647292375565, 0.06989872455596924, -0.08452572673559189, -0.08384609967470169, 0.03517809137701988, 0.0227644145488739, -0.09292159229516983, 0.18296276032924652, -0.07321568578481674, -0.24891935288906097, 0.07612422108650208, 0.08693326264619827, -0.08195968717336655, 0.1607983112335205, -0.1379736214876175, 0.05775042623281479, 0.16929343342781067, 0.04484886676073074, 0.13889625668525696, -0.03644357994198799, 0.011236864142119884, 0.23157712817192078, 0.056452374905347824, -0.01403857208788395, 0.02547406405210495], [-0.08159910887479782, 0.006591081619262695, -0.10596998780965805, -0.12893518805503845, -0.05736902356147766, 0.23471872508525848, 0.06330141425132751, -0.14834855496883392, -0.05106500908732414, 0.08444346487522125, 0.0014381837099790573, -0.0036018884275108576, -0.012903524562716484, 0.0376843623816967, 0.12509743869304657, 0.08050210028886795, 0.1774984896183014, 0.17703500390052795, 0.17620034515857697, 0.06099465489387512, -0.009706425480544567, 0.07484757900238037, -0.12050966918468475, 0.176021009683609, 0.04491998255252838, 0.01428872998803854, -0.14664782583713531, 0.16172698140144348, 0.1676969826221466, 0.16654908657073975], [-0.09330551326274872, 0.09682131558656693, 0.0212418083101511, -0.12455391138792038, -0.021396756172180176, 0.0968213751912117, -0.08933558315038681, 0.16462397575378418, 0.06978071480989456, 0.0837075337767601, 0.14712484180927277, 0.11367007344961166, 0.10482225567102432, 0.08405549079179764, -0.12385056912899017, -0.07185708731412888, -0.030120020732283592, 0.10468726605176926, 0.16607333719730377, 0.20530040562152863, -0.035212643444538116, -0.0034967565443366766, -0.14525222778320312, 0.15458011627197266, -0.11612857133150101, -0.07432687282562256, 0.20285725593566895, 0.058368243277072906, -0.07691517472267151, -0.1229403018951416], [-0.16700629889965057, 0.27650192379951477, -0.2817479968070984, 0.1805080771446228, 0.10699285566806793, 0.05745800584554672, -0.023491527885198593, 0.1575976014137268, 0.0840492770075798, 0.1609622985124588, 0.1635751575231552, -0.09419015794992447, 0.14559510350227356, 0.08303447812795639, -0.13699063658714294, 0.11128278821706772, -0.048685915768146515, -0.06263082474470139, 0.08839116990566254, 0.05691278353333473, -0.031288281083106995, -0.10051149129867554, 0.062425389885902405, 0.3025696873664856, -0.14189934730529785, -0.13289935886859894, 0.018378697335720062, -0.14913123846054077, -0.13894963264465332, -0.06081952154636383], [0.20904037356376648, -0.27733471989631653, 0.02654358372092247, -0.03293775022029877, -0.1777724325656891, -0.042464807629585266, 0.007905114442110062, -0.024198725819587708, 0.12295444309711456, 0.10107392072677612, 0.12932150065898895, 0.10815883427858353, 0.06197967752814293, 0.1330895572900772, -0.08638860285282135, 0.12567178905010223, 0.0855972096323967, -0.07885109633207321, -0.06498850136995316, -0.06862558424472809, -0.12221702188253403, 0.03694889694452286, 0.12487547844648361, -0.16318415105342865, 0.11034196615219116, -0.09508685767650604, -0.09880205243825912, 0.15582944452762604, -0.15920890867710114, 0.028668055310845375], [0.12118315696716309, 0.1431916207075119, 0.11941345036029816, -0.17705097794532776, -0.007345664314925671, -0.03541134297847748, -0.0027596340514719486, 0.2094939798116684, 0.013271046802401543, -0.061639051884412766, -0.061589643359184265, 0.16647735238075256, 0.06486717611551285, 0.11944472789764404, -0.08724727481603622, -0.14118175208568573, 0.07396240532398224, 0.19585558772087097, 0.21193616092205048, 0.06235319748520851, -0.11812036484479904, -0.088018037378788, 0.12912069261074066, -0.10022420436143875, 0.06308560818433762, -0.01665537990629673, 0.23700009286403656, 0.04570817947387695, -0.08119422942399979, -0.07277552783489227], [0.2115449458360672, 0.10316410660743713, 0.07381754368543625, -0.10237950831651688, 0.14649416506290436, 0.025526700541377068, -0.06723940372467041, 0.03967274725437164, -0.05427674576640129, -0.08115054666996002, -0.04197514429688454, -0.015930935740470886, -0.08868972957134247, 0.1702640801668167, -0.04108332097530365, 0.17207390069961548, 0.233939990401268, 0.09414678066968918, -0.028053676709532738, -0.0817280039191246, 0.14876683056354523, 0.21450930833816528, 0.18659411370754242, 0.09204946458339691, 0.07832234352827072, 0.22932280600070953, -0.08782924711704254, -0.053051549941301346, -0.14896506071090698, 0.07982342690229416], [0.02087917923927307, 0.20699916779994965, 0.018415115773677826, 0.08132065832614899, 0.010703541338443756, -0.01955725997686386, 0.17493367195129395, -0.09978197515010834, 0.1888253539800644, 0.1641182154417038, -0.029673965647816658, 0.14603972434997559, 0.0067079439759254456, 0.008539734408259392, -0.09230416268110275, -0.12789520621299744, 0.006909958552569151, 0.11490026861429214, 0.07219953089952469, -0.0750262662768364, 0.053843364119529724, 0.07916618883609772, -0.06991268694400787, -0.09362401813268661, -0.01698642037808895, 0.010427375324070454, 0.21204149723052979, 0.22124597430229187, 0.06799861788749695, 0.06536924839019775], [0.1502971649169922, -0.016063421964645386, -0.05820911005139351, 0.1266210526227951, 0.21836593747138977, 0.0847369059920311, -0.13444244861602783, 0.14648482203483582, -0.0984080582857132, 0.12506318092346191, 0.09180919826030731, 0.1319713145494461, -0.0933147668838501, -0.024957241490483284, 0.06710217148065567, 0.19258201122283936, -0.010795043781399727, 0.20428383350372314, 0.016834497451782227, -0.08711612969636917, -0.03366226330399513, 0.06134001165628433, 0.03447661176323891, 0.15581436455249786, -0.11629967391490936, -0.004086277913302183, -0.10301249474287033, 0.2000330537557602, 0.027443036437034607, -0.14392542839050293], [0.0015488392673432827, -0.009646467864513397, 0.12103375047445297, -0.026047024875879288, 0.15277831256389618, -0.0415964238345623, 0.004272613674402237, 0.04655589535832405, 0.0882483646273613, 0.20392148196697235, 0.04793448746204376, 0.16878604888916016, 0.1746811419725418, -0.11871647834777832, -0.11669023334980011, -0.04502635821700096, 0.09734231233596802, -0.04279140755534172, 0.15433339774608612, 0.0550001822412014, -0.08214975893497467, -0.08854879438877106, -0.14496304094791412, -0.10840537399053574, 0.09380120784044266, 0.03269878774881363, 0.2853969931602478, -0.12427684664726257, 0.03737453743815422, -0.16370511054992676], [0.03171636909246445, 0.0332244448363781, -0.1126965656876564, 0.16369307041168213, -0.017697466537356377, 0.1752290278673172, -0.04508895054459572, 0.049155499786138535, 0.13383355736732483, -0.06947242468595505, -0.06599801033735275, 0.07324311882257462, -0.16492478549480438, 0.17865261435508728, 0.03188841789960861, 0.1910644918680191, -0.10619132965803146, -0.06166981905698776, 0.08234097063541412, -0.04052970930933952, 0.1769125610589981, 0.15096987783908844, 0.18133771419525146, -0.21932768821716309, 0.07268419861793518, -0.02011469379067421, -0.06772198528051376, -0.12356352061033249, 0.07860918343067169, -0.00864922720938921], [-0.18164445459842682, -0.06642278283834457, 0.060132939368486404, -0.06155571714043617, 0.10972081869840622, 0.05217637121677399, 0.06750678271055222, 0.010971661657094955, -0.005373252090066671, -0.05017334967851639, -0.1382865160703659, 0.10473430901765823, -0.10260330140590668, 0.04168505594134331, -0.15640312433242798, 0.10397375375032425, 0.17614544928073883, -0.09198784828186035, 0.24480566382408142, 0.008513487875461578, -0.14620602130889893, 0.0636136457324028, 0.018160060048103333, 0.2426183521747589, -0.20393919944763184, 0.13266369700431824, 0.22004391252994537, 0.1760963499546051, 0.09880760312080383, -0.08875169605016708], [0.11262498795986176, 0.12924246490001678, -0.00454502459615469, -0.03262756019830704, 0.2228010892868042, 0.10530164837837219, 0.15663915872573853, 0.21986393630504608, -0.02899804338812828, 0.03520955517888069, 0.007196028251200914, 0.14848041534423828, 0.08704774081707001, -0.19968342781066895, -0.16583466529846191, -0.1450306624174118, -0.21349111199378967, 0.12477225810289383, -0.06333103030920029, -0.0009220247156918049, -0.04321068897843361, -0.04085655137896538, 0.0187176875770092, 0.11416196078062057, -0.019252831116318703, 0.16017046570777893, 0.3084774911403656, 0.15651556849479675, -0.10659139603376389, -0.08537083864212036], [-0.15133324265480042, -0.05911199003458023, 0.0733904093503952, 0.03803522139787674, 0.22455456852912903, 0.12238551676273346, -0.058377500623464584, -0.03291362524032593, 0.19475342333316803, 0.11398208141326904, 0.14938312768936157, 0.010723373852670193, 0.050351839512586594, -0.010397398844361305, -0.276027649641037, 0.16536486148834229, 0.13141202926635742, -0.06604506075382233, 0.04208803549408913, -0.028830865398049355, 0.06544045358896255, -0.02236037142574787, 0.18429599702358246, -0.17846952378749847, -0.024664422497153282, -0.07653328031301498, 0.28137579560279846, 0.08388975262641907, 0.022875314578413963, 0.15581940114498138], [-0.06400828063488007, 0.11555226892232895, -0.12991993129253387, -0.010327514261007309, -0.0563863106071949, -0.07897653430700302, -0.17966005206108093, 0.02727678045630455, -0.09335434436798096, 0.05207522585988045, -0.1363469809293747, -0.06662355363368988, 0.014362793415784836, 0.2742479145526886, 0.16913503408432007, 0.1597377210855484, 0.10768336802721024, 0.16835880279541016, 0.08471404761075974, 0.1789715588092804, 0.011119975708425045, 0.014346900396049023, 0.1095457449555397, 0.14281192421913147, 0.023918207734823227, 0.16166356205940247, -0.3035699725151062, 0.1326589286327362, -0.020945236086845398, -0.12564241886138916], [-0.10635410994291306, -0.03799229860305786, 0.09684024751186371, -0.11818177253007889, 0.031327541917562485, 0.004536953754723072, -0.052613310515880585, 0.10225144028663635, 0.056962016969919205, 0.13618871569633484, 0.21497872471809387, -0.0433175228536129, 0.1732335388660431, 0.029105518013238907, -0.11189590394496918, -0.008345424197614193, 0.06244836375117302, 0.05399046093225479, 0.09480525553226471, -0.06890782713890076, 0.1601252406835556, 0.09530000388622284, -0.1586265116930008, 0.07760060578584671, -0.024870898574590683, -0.022065090015530586, 0.04736746475100517, -0.07271506637334824, 0.2610031068325043, -0.16676592826843262], [0.13095338642597198, -0.1335766464471817, 0.007780817337334156, -0.0835537388920784, -0.06792815774679184, 0.08176831901073456, 0.14465822279453278, -0.040489453822374344, -0.017614269629120827, 0.1575615555047989, 0.07560621201992035, 0.12594068050384521, 0.15148518979549408, -0.1420527547597885, -0.2789277136325836, 0.08611178398132324, -0.050001297146081924, -0.10467223823070526, -0.0015355187933892012, -0.11312591284513474, 0.18812404572963715, 0.04607219621539116, 0.08993960916996002, 0.018776528537273407, -0.1051015853881836, 0.127799391746521, 0.1915503442287445, -0.012557043693959713, 0.19367548823356628, -0.0930052250623703], [0.013152212835848331, -0.11264415830373764, 0.12163952738046646, 0.06133514642715454, -0.13598376512527466, 0.1328423172235489, 0.039435118436813354, -0.03738141059875488, 0.20268668234348297, 0.12861308455467224, 0.14239880442619324, 0.018039945513010025, -0.021960636600852013, -0.1317807286977768, -0.07877036184072495, 0.07775981724262238, -0.0783291608095169, 0.19707457721233368, 0.2010384052991867, -0.0699898973107338, 0.11563966423273087, -0.05163941904902458, 0.06700661033391953, 0.18468675017356873, -0.15476718544960022, -0.08288172632455826, 0.1779680997133255, 0.06576786935329437, -0.09472127258777618, -0.12011585384607315], [-0.01605464331805706, 0.005452143959701061, 0.018000682815909386, -0.0006325038848444819, 0.05448371544480324, 0.02307244949042797, -0.007614272180944681, -0.04688030481338501, 0.07501909136772156, 0.08648855239152908, -0.04467150196433067, -0.05617211014032364, 0.06954140961170197, -0.1879424899816513, 0.20918874442577362, 0.08924927562475204, 0.03737499937415123, -0.06829407811164856, 0.0064438567496836185, -0.16524378955364227, -0.1637769192457199, 0.17658528685569763, -0.14262507855892181, -0.12058015167713165, -0.11325651407241821, 0.022619375959038734, -0.01715100184082985, -0.09208008646965027, 0.014423731714487076, -0.040770597755908966], [0.09055797010660172, 0.2552228271961212, 0.09872610867023468, -0.008545494638383389, 0.19524340331554413, -0.1302112638950348, 0.1230970174074173, -0.009740370325744152, 0.21460261940956116, -0.09081081300973892, 0.13483849167823792, -0.09486135095357895, 0.16027551889419556, 0.01418268121778965, 0.06705028563737869, -0.09845948964357376, 0.13470236957073212, -0.10464707016944885, -0.012121383100748062, 0.06184285134077072, 0.0051571764051914215, -0.11121068149805069, -0.1870836317539215, 0.055941928178071976, 0.04476439580321312, 0.1798466593027115, 0.29554983973503113, 0.053642794489860535, -0.05056964233517647, -0.16277474164962769], [0.2388322353363037, -0.04488842189311981, -0.06095048040151596, -0.1500759869813919, -0.16477617621421814, 0.13576297461986542, -0.10176560282707214, -0.07146770507097244, -0.05550549924373627, -0.04617689177393913, -0.10379831492900848, -0.036478228867053986, 0.05838235095143318, 0.2510163486003876, 0.3536047637462616, -0.0973048135638237, -0.05399451032280922, 0.0730506181716919, -0.01584661565721035, 0.23821915686130524, 0.220539852976799, 0.10549476742744446, -0.04034877568483353, 0.009774770587682724, 0.12410902976989746, 0.12176906317472458, -0.34129512310028076, 0.023868387565016747, -0.18129782378673553, -0.07356995344161987], [0.0646004006266594, 0.008136674761772156, 0.1749122589826584, -0.14546453952789307, 0.21281187236309052, 0.1255926787853241, 0.16337843239307404, 0.14423957467079163, 0.08305315673351288, 0.017469799146056175, 0.012412655167281628, -0.05416705459356308, 0.20577841997146606, -0.09001803398132324, -0.11065743863582611, -0.11846110224723816, 0.08750472217798233, -0.02373303845524788, -0.01033797673881054, 0.056119389832019806, -0.10978452861309052, 0.03405396267771721, -0.1416575014591217, 0.1666356772184372, -0.10896515846252441, 0.057263512164354324, 0.310696005821228, -0.07652325928211212, 0.188456192612648, 0.14869089424610138], [-0.0324108824133873, 0.03604474291205406, 0.07416772842407227, 0.1656147837638855, 0.17782340943813324, -0.0997110903263092, -0.14585000276565552, -0.13851045072078705, -0.07307487726211548, -0.05058489739894867, -0.02556477300822735, 0.12509755790233612, -0.0798041969537735, -0.15021856129169464, -0.007211226504296064, -0.11328528076410294, 0.23225945234298706, 0.076490119099617, 0.006323398556560278, 0.037791524082422256, -0.08951649069786072, -0.006741052493453026, 0.12221381068229675, 0.154705211520195, 0.1688442826271057, 0.05432282015681267, -0.23701335489749908, -0.09261078387498856, 0.19944991171360016, -0.16479142010211945], [0.0038589281029999256, 0.10038433969020844, 0.1086263433098793, 0.10196375846862793, -0.007256670389324427, -0.15787038207054138, 0.03423303738236427, -0.10044237971305847, 0.004193410277366638, 0.04883711785078049, 0.07997804880142212, -0.06022929400205612, -0.0968046486377716, -0.12755295634269714, -0.11739962548017502, 0.019294818863272667, -0.11749958992004395, 0.00024363221018575132, -0.08730831742286682, -0.0782531350851059, 0.13952071964740753, 0.11722791939973831, 0.08748572319746017, 0.2917550802230835, -0.2314032018184662, -0.09624297171831131, -0.17050844430923462, 0.13101743161678314, 0.10888836532831192, 0.1480018049478531], [-0.0299471914768219, -0.010646763257682323, 0.12405408173799515, -0.12842440605163574, -0.11871248483657837, 0.15324893593788147, -0.18455778062343597, -0.09535841643810272, 0.05941946804523468, 0.12217852473258972, -0.037425726652145386, -0.12134091556072235, 0.11560976505279541, 0.3174739480018616, -0.028951287269592285, 0.033427655696868896, -0.04603618010878563, -0.007192130200564861, 0.042366087436676025, 0.181304469704628, 0.1337282955646515, -0.11362587660551071, 0.02103785052895546, 0.13098867237567902, -0.024946467950940132, -0.005077766254544258, -0.22989718616008759, 0.20204505324363708, -0.14588505029678345, -0.14381693303585052], [0.21298348903656006, -0.030126793310046196, 0.09891706705093384, -0.1279665231704712, 0.06313738971948624, -0.007441326975822449, 0.10907113552093506, 0.058573558926582336, -0.027611704543232918, -0.032686468213796616, -0.11263961344957352, -0.10769523680210114, -0.06233702972531319, 0.19050456583499908, 0.19929607212543488, 0.1894156038761139, 0.10705902427434921, 0.08278755098581314, -0.11749810725450516, 0.20095910131931305, -0.08985890448093414, 0.12118081003427505, 0.1164790466427803, 0.08536428958177567, 0.16874942183494568, 0.11646701395511627, -0.23469841480255127, -0.0944104790687561, -0.15582463145256042, 0.09214197844266891], [0.23206497728824615, -0.21041499078273773, 0.10235584527254105, -0.07068151980638504, 0.22672909498214722, -0.0007098775240592659, 0.16268715262413025, 0.1545810103416443, 0.1236509382724762, 0.15248751640319824, 0.0899108499288559, 0.09968961030244827, -0.10697266459465027, 0.019351337105035782, 0.01757008023560047, 0.1514742523431778, -0.008527545258402824, 0.14587664604187012, 0.17094263434410095, 0.17224948108196259, 0.15172915160655975, 0.03772612288594246, 0.22670894861221313, -0.1389516144990921, 0.21458551287651062, 0.05663137882947922, -0.011994218453764915, -0.12467827647924423, 0.21261131763458252, -0.025544386357069016], [0.16931818425655365, -0.11845595389604568, -0.12858131527900696, -0.02898871712386608, -0.09005971997976303, 0.0505048967897892, 0.022045336663722992, -0.01159904059022665, 0.1466209441423416, 0.14412268996238708, -0.10622859746217728, -0.07678114622831345, 0.16103097796440125, -0.10303079336881638, -0.04826695844531059, -0.01779821515083313, 0.04807024076581001, -0.08532849699258804, 0.07396990060806274, -0.03418664634227753, -0.04754883795976639, -0.05444127693772316, 0.11173099279403687, 0.10121803730726242, 0.001732871518470347, 0.02162598818540573, 0.26460814476013184, 0.17743581533432007, 0.015450983308255672, -0.14950072765350342], [-0.013933875598013401, 0.19283047318458557, -0.09273532778024673, -0.1601816564798355, 0.12321017682552338, 0.21991261839866638, -0.1101478636264801, -0.014156759716570377, 0.014322107657790184, -0.07556178420782089, -0.009533613920211792, 0.21805834770202637, 0.2163320779800415, -0.12590719759464264, -0.05842265486717224, -0.0848763957619667, 0.1174609437584877, -0.0830703154206276, 0.0025071080308407545, -0.03472793102264404, 0.08369185775518417, 0.18068140745162964, -0.10238556563854218, 0.1790180802345276, 0.1596798598766327, 0.03333166614174843, 0.18523342907428741, 0.08829140663146973, 0.0760817602276802, 0.10961207002401352], [0.1439860314130783, -0.1065317839384079, 0.21098412573337555, 0.11787119507789612, 0.0195245910435915, 0.21317602694034576, 0.033858202397823334, 0.16762976348400116, -0.09074049443006516, 0.20844392478466034, 0.2294197678565979, -0.046751078218221664, -0.06913162022829056, -0.07441607862710953, -0.2165004312992096, 0.10244712978601456, 0.13548986613750458, 0.030957072973251343, 0.23290900886058807, 0.0076176864095032215, -0.009079952724277973, -0.10977432131767273, 0.13489216566085815, -0.1801280677318573, 0.008783301338553429, 0.06075236201286316, 0.08294972777366638, 0.10288293659687042, 0.096631720662117, 0.12218274921178818], [0.12386611104011536, -0.009595231153070927, -0.17724356055259705, -0.07511471956968307, -0.058097660541534424, 0.11776155233383179, -0.1260950118303299, -0.12557774782180786, 0.08192246407270432, 0.12358658760786057, -0.02354235202074051, -0.14613460004329681, 0.0781129002571106, 0.17277151346206665, 0.2241709679365158, 0.07257141172885895, 0.18726633489131927, -0.1027286946773529, 0.20597721636295319, -0.04583727940917015, -0.0718054249882698, 0.1868472844362259, -0.03025824949145317, 0.24979355931282043, -0.15457238256931305, 0.1803574413061142, 0.15643468499183655, 0.09928958863019943, 0.19148409366607666, -0.1303810179233551], [0.09668154269456863, 0.11836282163858414, 0.07560513913631439, -0.0644756481051445, 0.07175970822572708, 0.042040690779685974, -0.13953062891960144, -0.01812448538839817, -0.1774589866399765, -0.14617671072483063, 0.01897856406867504, 0.06096699461340904, 0.07059453427791595, 0.10512341558933258, 0.059918299317359924, -0.07345002144575119, 0.2768341898918152, -0.056149594485759735, 0.02753644436597824, 0.2861974537372589, 0.21439382433891296, -0.024946531280875206, 0.015306561253964901, -0.10272792726755142, 0.16143687069416046, -0.08572801202535629, -0.4173259735107422, -0.0905512273311615, 0.15893672406673431, 0.11834226548671722], [0.23316776752471924, 0.15002301335334778, -0.09117192775011063, -0.10871022939682007, -0.08726594597101212, 0.13941152393817902, 0.031524837017059326, 0.009717860259115696, -0.1604074090719223, -0.01846575178205967, -0.1393037736415863, -0.05843232572078705, -0.031196264550089836, 0.1341015249490738, 0.03222815692424774, 0.21172332763671875, 0.001480539096519351, 0.1362154334783554, 0.1239650547504425, 0.20619919896125793, 0.18528570234775543, 0.1649276614189148, 0.22398905456066132, 0.03603014722466469, 0.1429537832736969, -0.01759715937077999, -0.2702137529850006, 0.10521301627159119, 0.055593185126781464, -0.0068464926443994045]], "b1": [-0.13292524218559265, 0.02997160702943802, 0.18633779883384705, -0.03063563071191311, 0.04124361276626587, 0.11525369435548782, -0.09447138011455536, -0.012425603345036507, -0.055946849286556244, -0.09097300469875336, 0.18476267158985138, 0.23921896517276764, 0.057111844420433044, 0.09431229531764984, -0.05679745972156525, -0.0054433830082416534, 0.04430487006902695, -0.06253136694431305, 0.085329569876194, 0.13893885910511017, 0.07982076704502106, 0.03897339478135109, 0.16339677572250366, 0.1736035943031311, 0.0831846073269844, 0.07537004351615906, 0.011352228000760078, 0.08261442929506302, -0.11988729983568192, 0.05265346169471741, -0.07462365925312042, -0.12806284427642822, -0.11203126609325409, 0.2574436366558075, -0.0847003161907196, 0.05965949967503548, 0.07378263026475906, 0.12146323174238205, 0.06899157911539078, -0.02707487717270851, 0.16465869545936584, -0.20464535057544708, 0.02741333469748497, 0.15356849133968353, 0.15157057344913483, -0.07129920274019241, -0.046356748789548874, 0.11710093915462494, 0.18347474932670593, -0.03235991671681404, 0.005139588378369808, -0.06088846176862717, 0.11844188719987869, 0.08083079755306244, 0.15517418086528778, -0.006092486437410116, -0.14876064658164978, -0.045461319386959076, -0.12274109572172165, 0.03127649053931236, 0.13708755373954773, -0.0955597460269928, 0.016672540456056595, -0.12091898173093796, -0.06967469304800034, -0.05016734451055527, -0.013935524970293045, -0.11388999968767166, 0.04641497880220413, 0.14837706089019775, 0.1835603415966034, 0.013611835427582264, 0.07417193800210953, 0.029568759724497795, 0.10277221351861954, -0.12813439965248108, 0.16506046056747437, -0.13536474108695984, -0.07065460830926895, 0.10021644085645676, -0.09345485270023346, 0.09976432472467422, 0.2375677525997162, 0.11041572690010071, 0.252006858587265, -0.059128038585186005, -0.07442034780979156, 0.0008128496701829135, -0.04859764501452446, -0.04434870928525925, 0.04213046282529831, 0.18686768412590027, -0.10805807262659073, 0.14167489111423492, 0.1182451993227005, 0.10159680247306824, 0.12347966432571411, -0.04777653515338898, 0.09457281976938248, -0.0488412007689476, -0.09060743451118469, 0.23558107018470764, 0.19718171656131744, -0.08196793496608734, 0.1824914664030075, 0.06321410834789276, 0.03588351979851723, 0.17209140956401825, 0.03502491116523743, 0.007522006519138813, 0.18282729387283325, -0.0362025685608387, -0.01807556115090847, -0.06896956264972687, 0.2126437872648239, 0.14572666585445404, 0.022444918751716614, 0.05156060680747032, 0.026683934032917023, -0.04989181458950043, 0.13036152720451355, -0.07964018732309341, 0.026807021349668503, 0.024422340095043182, -0.02848271280527115, 0.22467942535877228, 0.14129914343357086, 0.14978286623954773], "w2": [[-0.08971749246120453, 0.056423380970954895, 0.22075539827346802, 0.05399365723133087, 0.013022196479141712, 0.08184949308633804, -0.2636556923389435, 0.14012153446674347, 0.043185655027627945, 0.05220125988125801, 0.026942981407046318, 0.1706862896680832, 0.1829952448606491, 0.019866500049829483, 0.0417163260281086, 0.013513948768377304, -0.07654189318418503, -0.15068361163139343, 0.007247317116707563, -0.12438225001096725, -0.14237350225448608, -0.05872884765267372, -0.09074964374303818, 0.15627652406692505, -0.026144346222281456, 0.07053282856941223, 0.008982788771390915, 0.04824722185730934, 0.14785347878932953, -0.036549001932144165, -0.09853523969650269, -0.03718813508749008, 0.11240436881780624, -0.011448805220425129, -0.07888312637805939, -0.026227286085486412, -0.18453772366046906, -0.01511633675545454, 0.10229708254337311, -0.008601871319115162, 0.15400245785713196, -0.08310660719871521, 0.09735488146543503, 0.0867459625005722, -0.1236683651804924, -0.02199132740497589, -0.029024038463830948, 0.10012170672416687, 0.1084933653473854, -0.26581525802612305, 0.09891382604837418, -0.08736878633499146, 0.024216031655669212, 0.12669570744037628, 0.1292462795972824, 0.1521945595741272, -0.10948155075311661, 0.26607686281204224, 0.09822617471218109, -0.09420736879110336, -0.09242857247591019, 0.157491534948349, 0.08105935156345367, -0.10505107045173645, 0.13747626543045044, -0.23592963814735413, 0.16670618951320648, 0.024040957912802696, 0.2190028429031372, 0.08752074837684631, 0.10873827338218689, -0.03641865402460098, 0.03038988634943962, 0.11608824878931046, -0.028130000457167625, 0.04252323880791664, 0.07763161510229111, -0.044641897082328796, -0.06453034281730652, 0.1968032717704773, -0.06566867232322693, 0.08175639808177948, 0.04450440779328346, 0.26335635781288147, -0.107464998960495, 0.11427915841341019, -0.1014573946595192, 0.1913171410560608, 0.03330378234386444, -0.11917737126350403, -0.009859215468168259, 0.07902634143829346, 0.03606189042329788, 0.28223687410354614, 0.13801385462284088, 0.13904960453510284, 0.03942294418811798, 0.014507077634334564, 0.12599816918373108, -0.00794707890599966, 0.08165593445301056, 0.023771116510033607, 0.06567356735467911, 0.03847647085785866, 0.11007383465766907, 0.02752697840332985, 0.10715866833925247, 0.11221479624509811, 0.1801612675189972, -0.2048080563545227, 0.019726207479834557, 0.17719070613384247, 0.13351763784885406, -0.1391739696264267, 0.06144792586565018, -0.23693853616714478, 0.20865289866924286, -0.13804467022418976, 0.0018405995797365904, -0.15078501403331757, -0.22134605050086975, 0.03314633294939995, 0.007189312484115362, 0.11822191625833511, 0.061846259981393814, 0.04256724566221237, -0.21951347589492798, -0.030194370076060295], [-0.04157949239015579, 0.07243220508098602, 0.09985469281673431, 0.06958728283643723, -0.045608989894390106, 0.06011945754289627, -0.09033769369125366, 0.07099643349647522, 0.00195835973136127, -0.073245108127594, -0.0642775297164917, -0.05265038460493088, 0.033002819865942, -0.03769690915942192, -0.036808114498853683, 0.08259625732898712, -0.02645096927881241, 0.036361560225486755, 0.0066563524305820465, 0.04198862612247467, 0.0026564104482531548, 0.05712747201323509, 0.03727946802973747, -0.008916017599403858, 0.06499633193016052, 0.012252249754965305, -0.04399077594280243, 0.04265157878398895, -0.020355025306344032, -0.06014910340309143, 0.012177660129964352, -0.020536957308650017, -0.026292819529771805, -0.03928536921739578, -0.052061378955841064, -0.027287719771265984, 0.008912686258554459, 0.07993032038211823, -0.026307297870516777, -0.03243481367826462, -0.056106165051460266, -0.004856417886912823, 0.030392704531550407, -0.04720652475953102, 0.0500723160803318, -0.07656893134117126, 0.07420474290847778, 0.033626217395067215, -0.003042846219614148, -0.04063313081860542, 0.05083023011684418, 0.07511358708143234, -0.052389271557331085, -0.012731746770441532, 0.06387930363416672, -0.004206828773021698, -0.07176782190799713, 0.005347219295799732, 0.01971346139907837, -0.05574028939008713, -0.06677118688821793, -0.024994678795337677, 0.0350164920091629, -0.000421165837906301, 0.07736771553754807, -0.02438323199748993, 0.04802174121141434, -0.070120669901371, 0.07086894661188126, 0.10336367040872574, 0.05248745530843735, -0.03222768381237984, 0.06961574405431747, -0.08193173259496689, -0.012541400268673897, -0.018022768199443817, -0.08321364223957062, -0.07534891366958618, -0.06016426160931587, 0.017113322392106056, -0.0005868732114322484, 0.04916522279381752, -0.015867851674556732, 0.08718951791524887, 0.00844211969524622, 0.09972447901964188, 0.0544842854142189, -0.0811968594789505, -0.059912778437137604, 0.03218220919370651, 0.08348552137613297, -0.06707566976547241, 0.0012936447747051716, -0.0023540472611784935, 0.09322283416986465, 0.09066599607467651, 0.06659583002328873, 0.06687335669994354, 0.02988417074084282, 0.08036203682422638, -0.020733894780278206, 0.01425342820584774, -0.006152347661554813, -0.06483519822359085, -0.02635890431702137, 0.01966266520321369, 0.004628140013664961, -0.019284674897789955, 0.002880884101614356, 0.004450880456715822, -0.06124458089470863, 0.06781519204378128, -0.06751053780317307, -0.02737843059003353, -0.0628189817070961, -0.0972626730799675, -0.012688237242400646, 0.10900573432445526, 0.10013502836227417, 0.013621648773550987, 0.062203582376241684, -0.04673251137137413, 0.03851397708058357, 0.07236945629119873, -0.08901716768741608, -0.07084886729717255, 0.021713217720389366, 0.014239522628486156], [-0.007413975894451141, -0.07945388555526733, -0.11081403493881226, 0.0015176439192146063, -0.030587786808609962, -0.15822143852710724, 0.3058328628540039, -0.10470769554376602, 0.05815678462386131, -0.020565787330269814, 0.07440348714590073, -0.03897219896316528, -0.08322422951459885, -0.0143283037468791, 0.11474335938692093, -0.036621078848838806, 0.11488059908151627, 0.15616409480571747, 0.04329891502857208, 0.16446185111999512, 0.15746371448040009, -0.06655292212963104, 0.16968035697937012, -0.10315187275409698, 0.21468143165111542, -0.06590580940246582, 0.11396884173154831, -0.003485311521217227, -0.12017697095870972, 0.10421928018331528, 0.09336212277412415, -0.04383917897939682, 0.07436567544937134, 0.12492789328098297, 0.02777208387851715, 0.17678441107273102, 0.1408231556415558, -0.0018831327324733138, -0.03793961927294731, 0.11654357612133026, -0.15144772827625275, 0.05752693861722946, -0.16383996605873108, 0.016750801354646683, 0.028512753546237946, 0.014269502833485603, 0.1568661630153656, -0.007472331169992685, -0.06028019264340401, 0.11524076014757156, -0.04091763496398926, 0.049348775297403336, 0.11418177932500839, -0.06149540841579437, -0.16871657967567444, -0.02361270785331726, 0.09411787986755371, -0.271714448928833, -0.04900596663355827, 0.10392913222312927, 0.1464274525642395, -0.08473151922225952, -0.10815002024173737, 0.21243377029895782, -0.0017678925069049, 0.252867192029953, -0.21086709201335907, 0.05423128977417946, -0.1830993890762329, -0.07374009490013123, 0.027971016243100166, -0.02625662460923195, 0.03279297798871994, 0.010788524523377419, -0.05227988585829735, -0.015611303970217705, 0.046746812760829926, 0.09935740381479263, 0.09174896776676178, -0.10184433311223984, -0.015810007229447365, 0.05386628210544586, 0.008755476213991642, -0.2180325984954834, 0.13366827368736267, -0.13033638894557953, 0.07242230325937271, -0.12403327971696854, -0.029856963083148003, 0.13955646753311157, -0.021076228469610214, -0.043042946606874466, -0.038372430950403214, -0.10575113445520401, -0.04039846360683441, -0.1541229784488678, 0.10097846388816833, -0.07298155874013901, 0.03205855190753937, 0.07308546453714371, -0.05255415290594101, 0.13306781649589539, -0.05333030968904495, 0.04943741858005524, -0.11859198659658432, 0.12037275731563568, -0.018789680674672127, -0.2089577615261078, -0.14792515337467194, 0.25541552901268005, -0.05100947618484497, -0.1443292796611786, -0.1224939376115799, 0.023928256705403328, -0.05289604887366295, 0.2864060699939728, -0.07572555541992188, 0.14793771505355835, 0.05646052956581116, 0.1361522674560547, 0.2623865306377411, 0.03965400159358978, -0.15015573799610138, 0.034319616854190826, -0.11770684272050858, 0.09858661144971848, 0.1583642065525055, 0.1103832796216011], [-0.025284988805651665, 0.0028568722773343325, -0.0879734680056572, -0.06137971580028534, 0.024165548384189606, -0.00596280861645937, -0.15406742691993713, -0.11567437648773193, -0.06490334868431091, -0.040587786585092545, -0.07818692177534103, -0.08830314874649048, -0.06981752812862396, -0.02620049938559532, -0.024470580741763115, -0.009283140301704407, -0.10862670093774796, -0.06159050390124321, -0.13482655584812164, -0.11775267124176025, -0.14209209382534027, -0.0031012410763651133, -0.1468779295682907, -0.012078500352799892, -0.024183223024010658, -0.16999861598014832, -0.05998426675796509, -0.13874655961990356, -0.006362361833453178, -0.044786520302295685, -0.11561227589845657, 0.05339370295405388, -0.03795979544520378, -0.20495398342609406, -0.010788553394377232, -0.10797660797834396, -0.06720111519098282, 0.023303775116801262, -0.06120409443974495, -0.16601094603538513, 0.026991665363311768, -0.08254615217447281, -0.08943972736597061, -0.015605743043124676, 0.052543722093105316, 0.07674457132816315, -0.01662629097700119, -0.030401097610592842, -0.14776544272899628, -0.11227954924106598, -0.08155979216098785, -0.034537866711616516, -0.12156645953655243, -0.04677427560091019, -0.0027359763626009226, -0.006761280354112387, -0.05861249566078186, 0.03781222179532051, -0.13673414289951324, -0.08318982273340225, -0.041212454438209534, -0.06883786618709564, -0.005715629085898399, -0.06651126593351364, -0.025383831933140755, -0.19715936481952667, -0.17246617376804352, -0.007830735296010971, -0.13617447018623352, -0.14486712217330933, -0.13260900974273682, 0.048556845635175705, -0.06022009998559952, -0.10624382644891739, -0.025096988305449486, -0.10949980467557907, -0.10202913731336594, -0.07887545973062515, -0.1510864794254303, 0.052247755229473114, -0.040555939078330994, -0.08799247443675995, -0.1734178513288498, -0.051887452602386475, -0.06665892899036407, -0.12747396528720856, 0.02245054394006729, 0.03835996612906456, -0.06689608097076416, 0.00836718175560236, -0.07454223185777664, -0.05401502922177315, 0.02929212898015976, -0.08437643945217133, 0.019428526982665062, 0.012112853117287159, -0.13386401534080505, -0.10407427698373795, -0.1295005828142166, -0.0018944120965898037, -0.1283799707889557, -0.13599245250225067, -0.11838028579950333, -0.15983565151691437, -0.1325591653585434, 0.03478014096617699, 0.007962367497384548, 0.0393155962228775, -0.12384543567895889, -0.10536939650774002, -0.11808235943317413, -0.059611935168504715, -0.1206279993057251, 0.009271270595490932, -0.11791438609361649, -0.05531751364469528, 0.03460251912474632, -0.047180578112602234, 0.02654581144452095, -0.12587416172027588, -0.10182323306798935, -0.11810766905546188, -0.030482403934001923, -0.11856453865766525, -0.11030784249305725, -0.1402498483657837, -0.1599709689617157, -0.05630287155508995], [0.009043974801898003, -0.029557423666119576, 0.10541529208421707, 0.07997320592403412, -0.019476385787129402, 0.07888918370008469, 0.11974173039197922, -0.04483714699745178, -0.07459013164043427, 0.051494050770998, 0.07877115905284882, 0.10923471301794052, 0.009839033707976341, 0.019089216366410255, 0.1343284696340561, -0.008150841109454632, 0.03836018964648247, -0.028309013694524765, 0.060770150274038315, 0.1468421369791031, -0.01169945765286684, 0.0035890312865376472, 0.13506051898002625, 0.03489535301923752, 0.027655931189656258, 0.05079551786184311, 0.006457631476223469, 0.07746106386184692, -0.051153410226106644, 0.10468988865613937, 0.053074464201927185, -0.011253471486270428, 0.06371956318616867, 0.15390552580356598, -0.026113934814929962, -0.011709398590028286, -0.006873018108308315, -0.04223179072141647, -0.00327099347487092, 0.1609792709350586, -0.019121011719107628, -0.025865010917186737, -0.015031051822006702, 0.00822936836630106, 0.012030644342303276, -0.02019806019961834, 0.03604816272854805, 0.09378416836261749, 0.07493560761213303, 0.08610156923532486, 0.0839693695306778, 0.15437401831150055, 0.04970097169280052, 0.14461320638656616, 0.1433018147945404, 0.11561799794435501, 0.11610458791255951, -0.031337130814790726, 0.000405875442083925, 0.07224321365356445, 0.1265077292919159, 0.15261594951152802, 0.051648277789354324, 0.04527643322944641, 0.1453067809343338, 0.0027158798184245825, 0.11972779035568237, -0.03527556359767914, 0.016262147575616837, 0.06873895972967148, 0.11565111577510834, -0.05108649656176567, 0.06727960705757141, 0.1458573341369629, 0.025491788983345032, 0.06972572207450867, 0.002655397867783904, -0.02907981164753437, -0.004992060363292694, -0.07711562514305115, -0.05479114502668381, 0.1208760067820549, 0.12141329050064087, -0.0050300005823373795, 0.15327231585979462, 0.09511715918779373, 0.07613707333803177, 0.011760556139051914, 0.04803072661161423, -0.02539162151515484, 0.1456763595342636, 0.01669415459036827, 0.037541713565588, 0.031494785100221634, 0.13601067662239075, -0.035237859934568405, 0.045230720192193985, 0.0331229530274868, -0.000659732089843601, -0.006748567800968885, 0.0206011813133955, 0.08305689692497253, 0.12905491888523102, 0.06049996241927147, 0.14580117166042328, 0.016468564048409462, 0.002023846609517932, 0.05533450096845627, 0.06281761825084686, 0.1035657450556755, 0.1713889092206955, 0.08749943226575851, -0.010192358866333961, 0.01811327040195465, 0.05865941941738129, -0.03782999515533447, 0.10021510720252991, 0.05853542685508728, 0.08811163157224655, 0.06979716569185257, 0.09933431446552277, 0.026207171380519867, 0.0495835617184639, 0.13124465942382812, 0.009280615486204624, 0.08448980748653412, -0.04252113774418831, 0.05180581659078598], [0.0038042678497731686, -0.08253549784421921, 0.056221187114715576, -0.0884384736418724, -0.04152702912688255, 0.05148879438638687, 0.05385202169418335, -0.011469258926808834, -0.05953173339366913, -0.07440382242202759, -0.02766684629023075, -0.0744033232331276, 0.09287995845079422, -0.05236881598830223, 0.036887433379888535, 0.014369742013514042, -0.05194275081157684, 0.0504821240901947, 0.006057445891201496, -0.030861472710967064, -0.09822995215654373, -0.026338931173086166, 0.01151882391422987, 